{"learner":{"attributes":{},"feature_names":[],"feature_types":[],"gradient_booster":{"model":{"cats":{"enc":[],"feature_segments":[],"sorted_idx":[]},"gbtree_model_param":{"num_parallel_tree":"1","num_trees":"100"},"iteration_indptr":[0,1,2,3,4,5,6,7,8,9,10,11,12,13,14,15,16,17,18,19,20,21,22,23,24,25,26,27,28,29,30,31,32,33,34,35,36,37,38,39,40,41,42,43,44,45,46,47,48,49,50,51,52,53,54,55,56,57,58,59,60,61,62,63,64,65,66,67,68,69,70,71,72,73,74,75,76,77,78,79,80,81,82,83,84,85,86,87,88,89,90,91,92,93,94,95,96,97,98,99,100],"tree_info":[0,0,0,0,0,0,0,0,0,0,0,0,0,0,0,0,0,0,0,0,0,0,0,0,0,0,0,0,0,0,0,0,0,0,0,0,0,0,0,0,0,0,0,0,0,0,0,0,0,0,0,0,0,0,0,0,0,0,0,0,0,0,0,0,0,0,0,0,0,0,0,0,0,0,0,0,0,0,0,0,0,0,0,0,0,0,0,0,0,0,0,0,0,0,0,0,0,0,0,0],"trees":[{"base_weights":[-6.328157E-8,-1.3192822E-1,3.9025936E-1,2.2728473E-2,-6.2246686E-1,-1.9097945E-1,7.4192595E-1,-3.021467E-1,3.3259916E-1,5.083479E-1,-8.082805E-1,-9.286098E-1,5.441588E-1,3.5188267E-1,1.6377798E0,-4.0959775E-1,1.1949071E0,1.3954129E0,1.748117E-1,1.8661904E0,-4.340867E-1,-9.713773E-1,6.759416E-1,-1.1360063E-1,6.671243E-2,1.6995188E0,-3.164181E-1,8.556809E-1,-3.9686912E-1,2.1604653E-1,2.6142557E0,-4.9877548E-1,1.1053472E0,1.9008831E0,-6.796927E-2,2.4551985E0,5.755961E-2,5.066308E-1,-4.031061E-1,-1.5657756E-2,2.9118192E-1,8.077241E-2,-9.412913E-2,-1.0421876E0,6.671243E-2,-7.745238E-2,1.6996087E0,-3.5216127E-2,2.4470253E0,-8.9893353E-1,9.575165E-1,-8.077719E-2,1.6424085E0,-9.846751E-1,6.444073E-1,-7.2299284E-1,1.515957E-1,-2.3075368E-2,3.1986847E0,1.0359625E-1,-5.849552E-2,2.644685E-1,-4.8761915E-2,2.5177452E-1,2.1818532E-2,-1.5657756E-2,3.0877194E-1,1.4578043E-1,-9.183945E-2,7.697945E-2,-5.1386934E-2,1.7720257E-1,-5.6294024E-2,3.2557324E-2,-1.09102E-1,-1.5657756E-2,2.7363274E-1,3.1757364E-1,2.1818532E-2,-1.0132899E-1,-1.5657756E-2,-2.3075368E-2,1.7720257E-1,1.4869158E-1,-9.136308E-2,2.7632928E-1,9.390752E-3,-1.0773853E-1,-1.5657756E-2,2.224677E-1,-4.3871533E-2,-1.5657756E-2,-8.598316E-2,3.2557324E-2,3.719867E-1],"categories":[],"categories_nodes":[],"categories_segments":[],"categories_sizes":[],"default_left":[0,0,0,0,0,0,0,0,0,0,0,0,0,0,0,0,0,0,0,0,0,0,0,0,0,0,0,0,0,0,0,0,0,0,0,0,0,0,0,0,0,0,0,0,0,0,0,0,0,0,0,0,0,0,0,0,0,0,0,0,0,0,0,0,0,0,0,0,0,0,0,0,0,0,0,0,0,0,0,0,0,0,0,0,0,0,0,0,0,0,0,0,0,0,0],"id":0,"left_children":[1,3,5,7,9,11,13,15,17,19,21,23,25,27,29,31,33,35,37,39,41,43,45,-1,-1,47,49,51,53,55,57,59,61,63,-1,65,67,69,71,-1,-1,-1,-1,73,-1,-1,75,-1,77,79,81,83,85,87,89,91,-1,-1,93,-1,-1,-1,-1,-1,-1,-1,-1,-1,-1,-1,-1,-1,-1,-1,-1,-1,-1,-1,-1,-1,-1,-1,-1,-1,-1,-1,-1,-1,-1,-1,-1,-1,-1,-1,-1],"loss_changes":[1.4211922E1,1.566474E1,1.4396414E1,1.5987095E1,1.08087635E1,1.5191794E1,1.4677605E1,1.2966328E1,1.3380931E1,1.0532662E1,1.1038464E1,5.3542423E0,1.4651852E1,1.22925005E1,1.7438343E1,1.0428988E1,8.504131E0,1.4546755E1,1.3989504E1,7.43884E0,4.096101E0,5.2261505E0,8.496636E0,0E0,0E0,1.0396055E1,7.523628E0,1.4321257E1,8.853495E0,8.871919E0,1.3370811E1,9.829842E0,1.2018951E1,3.8331928E0,0E0,9.99316E0,8.995795E0,1.2778722E1,1.0306829E1,0E0,0E0,0E0,0E0,2.8815346E0,0E0,0E0,6.48643E0,0E0,6.9121933E0,4.0817976E-1,3.6042943E0,1.4083118E1,1.7987692E1,5.206194E-1,1.0303666E1,2.0450807E-1,0E0,0E0,8.327728E0,0E0,0E0,0E0,0E0,0E0,0E0,0E0,0E0,0E0,0E0,0E0,0E0,0E0,0E0,0E0,0E0,0E0,0E0,0E0,0E0,0E0,0E0,0E0,0E0,0E0,0E0,0E0,0E0,0E0,0E0,0E0,0E0,0E0,0E0,0E0,0E0],"parents":[2147483647,0,0,1,1,2,2,3,3,4,4,5,5,6,6,7,7,8,8,9,9,10,10,11,11,12,12,13,13,14,14,15,15,16,16,17,17,18,18,19,19,20,20,21,21,22,22,25,25,26,26,27,27,28,28,29,29,30,30,31,31,32,32,33,33,35,35,36,36,37,37,38,38,43,43,46,46,48,48,49,49,50,50,51,51,52,52,53,53,54,54,55,55,58,58],"right_children":[2,4,6,8,10,12,14,16,18,20,22,24,26,28,30,32,34,36,38,40,42,44,46,-1,-1,48,50,52,54,56,58,60,62,64,-1,66,68,70,72,-1,-1,-1,-1,74,-1,-1,76,-1,78,80,82,84,86,88,90,92,-1,-1,94,-1,-1,-1,-1,-1,-1,-1,-1,-1,-1,-1,-1,-1,-1,-1,-1,-1,-1,-1,-1,-1,-1,-1,-1,-1,-1,-1,-1,-1,-1,-1,-1,-1,-1,-1,-1],"split_conditions":[1.4E-1,1.4E-1,4E-2,6E-2,5.9375E-1,6E-2,1.2E-1,2.6666668E-1,6E-1,4E-2,1E0,2.2E-1,1.6666667E-1,5.25E-1,1.6666667E-1,3.3333334E-1,1.2E-1,6E-2,1E-1,6E-2,1.3333334E-1,2.6E-1,3.3333334E-1,-1.1360063E-1,6.671243E-2,4E-2,1.2E-1,6E-2,5.5E-1,2.3333333E-1,5E-1,2.8E-1,2.3333333E-1,1.8E-1,-6.796927E-2,4E-2,1.6666667E-1,4E-1,3.15E-1,-1.5657756E-2,2.9118192E-1,8.077241E-2,-9.412913E-2,3.05E-1,6.671243E-2,-7.745238E-2,4E-2,-3.5216127E-2,1E-1,1.2E-1,8E-2,1.3333334E-1,1E-1,1.8E-1,5E-1,6E-2,1.515957E-1,-2.3075368E-2,2E-2,1.0359625E-1,-5.849552E-2,2.644685E-1,-4.8761915E-2,2.5177452E-1,2.1818532E-2,-1.5657756E-2,3.0877194E-1,1.4578043E-1,-9.183945E-2,7.697945E-2,-5.1386934E-2,1.7720257E-1,-5.6294024E-2,3.2557324E-2,-1.09102E-1,-1.5657756E-2,2.7363274E-1,3.1757364E-1,2.1818532E-2,-1.0132899E-1,-1.5657756E-2,-2.3075368E-2,1.7720257E-1,1.4869158E-1,-9.136308E-2,2.7632928E-1,9.390752E-3,-1.0773853E-1,-1.5657756E-2,2.224677E-1,-4.3871533E-2,-1.5657756E-2,-8.598316E-2,3.2557324E-2,3.719867E-1],"split_indices":[1332,1685,481,1326,226,1685,983,1728,338,978,1171,1686,759,1051,405,755,1092,1093,1096,244,35,858,936,0,0,370,125,977,1765,1488,1053,1661,1006,125,0,243,1364,1274,1527,0,0,0,0,1289,0,0,267,0,367,21,5,48,496,17,1053,0,0,0,1216,0,0,0,0,0,0,0,0,0,0,0,0,0,0,0,0,0,0,0,0,0,0,0,0,0,0,0,0,0,0,0,0,0,0,0,0],"split_type":[0,0,0,0,0,0,0,0,0,0,0,0,0,0,0,0,0,0,0,0,0,0,0,0,0,0,0,0,0,0,0,0,0,0,0,0,0,0,0,0,0,0,0,0,0,0,0,0,0,0,0,0,0,0,0,0,0,0,0,0,0,0,0,0,0,0,0,0,0,0,0,0,0,0,0,0,0,0,0,0,0,0,0,0,0,0,0,0,0,0,0,0,0,0,0],"sum_hessian":[2.740336E2,2.0529504E2,6.873855E1,1.5680981E2,4.8485226E1,2.6083824E1,4.2654724E1,7.65637E1,8.024612E1,6.5976734E0,4.1887554E1,1.2888478E1,1.3195347E1,3.0686852E1,1.1967873E1,7.2114105E1,4.4495935E0,9.35949E0,7.088663E1,2.301514E0,4.2961593E0,3.8051697E1,3.8358564E0,1.1661004E1,1.2274741E0,5.216765E0,7.9785814E0,1.8258677E1,1.2428175E1,5.370199E0,6.5976734E0,6.873855E1,3.3755538E0,3.2221196E0,1.2274741E0,4.756462E0,4.603028E0,4.5109673E1,2.5776957E1,1.0740398E0,1.2274741E0,1.0740398E0,3.2221196E0,3.6824223E1,1.2274741E0,1.6877769E0,2.1480796E0,1.5343426E0,3.6824222E0,5.6770678E0,2.301514E0,8.745753E0,9.512924E0,7.9785814E0,4.4495935E0,3.3755538E0,1.9946454E0,1.2274741E0,5.370199E0,3.0686853E0,6.566986E1,1.3809084E0,1.9946454E0,1.9946454E0,1.2274741E0,1.0740398E0,3.6824222E0,1.6877769E0,2.915251E0,3.6057053E1,9.052622E0,1.0740398E0,2.4702915E1,1.0740398E0,3.5750183E1,1.0740398E0,1.0740398E0,2.4549482E0,1.2274741E0,4.603028E0,1.0740398E0,1.2274741E0,1.0740398E0,2.7618167E0,5.9839363E0,5.0633307E0,4.4495935E0,6.904542E0,1.0740398E0,1.3809084E0,3.0686853E0,1.0740398E0,2.301514E0,1.0740398E0,4.2961593E0],"tree_param":{"num_deleted":"0","num_feature":"1785","num_nodes":"95","size_leaf_vector":"1"}},{"base_weights":[4.9705254E-3,-1.504851E-1,2.806269E-1,1.0692681E0,-2.2676489E-1,9.890901E-2,8.8845557E-1,2.279393E0,1.0630776E-1,1.12498455E-1,-4.2336616E-1,1.6432302E-2,1.6480689E0,4.282086E-1,2.2480676E0,3.0249366E-1,-1.35841835E-2,1.7426935E-1,-7.899512E-1,-1.3951711E-1,1.0479558E0,-6.550132E-1,-5.336055E-2,7.484208E-1,-1.7581208E-1,2.583166E-1,-2.2549856E-2,9.3387705E-1,-8.4050953E-1,9.08653E-3,2.9792076E-1,-9.2581294E-2,-1.2401334E-2,-6.4392835E-1,2.689222E-1,2.5313396E0,2.988805E-1,-7.0535225E-1,1.0020987E-1,3.7267622E-1,-6.160142E-1,-6.513688E-3,1.5621186E0,6.8192166E-1,-3.9730048E-1,1.4730464E0,-3.4906787E-1,-9.6532576E-2,-1.5189663E-2,-8.637965E-2,7.3451556E-2,-1.6613003E-2,1.05772935E-1,3.090469E-2,3.1873953E-1,1.8228845E-1,-4.125393E-2,-7.5795E-2,1.0118878E-1,-3.0671904E-2,1.0873782E-1,-8.455672E-2,8.337592E-2,-9.501179E-2,7.309897E-2,2.5317106E-1,-1.0100964E-2,2.3861824E-1,1.1796896E-2,5.4027893E-2,-5.8539994E-2,2.335615E-1,2.1260884E-2,-8.9648224E-2,7.891788E-2],"categories":[],"categories_nodes":[],"categories_segments":[],"categories_sizes":[],"default_left":[0,0,0,0,0,0,0,0,0,0,0,0,0,0,0,0,0,0,0,0,0,0,0,0,0,0,0,0,0,0,0,0,0,0,0,0,0,0,0,0,0,0,0,0,0,0,0,0,0,0,0,0,0,0,0,0,0,0,0,0,0,0,0,0,0,0,0,0,0,0,0,0,0,0,0],"id":1,"left_children":[1,3,5,7,9,11,13,15,17,19,21,23,25,27,29,-1,-1,-1,31,33,35,37,39,41,43,-1,-1,45,47,-1,-1,-1,-1,49,51,53,55,57,-1,59,61,63,65,67,69,71,73,-1,-1,-1,-1,-1,-1,-1,-1,-1,-1,-1,-1,-1,-1,-1,-1,-1,-1,-1,-1,-1,-1,-1,-1,-1,-1,-1,-1],"loss_changes":[1.1764863E1,1.6577627E1,1.0846146E1,1.2002886E1,1.1123655E1,9.853848E0,1.3215927E1,8.707602E0,1.1497242E1,1.4695406E1,8.994141E0,1.0606114E1,7.413494E0,1.2437563E1,8.396154E0,0E0,0E0,0E0,3.5083628E-1,1.0371121E1,1.3927584E1,6.103592E0,1.0213048E1,9.637924E0,1.1624382E1,0E0,0E0,9.825303E0,3.4350157E-1,0E0,0E0,0E0,0E0,7.4361897E0,9.804174E0,5.2845364E0,1.15017E1,6.4912167E0,0E0,1.214464E1,6.803046E0,7.0453563E0,1.2425827E1,1.1860417E1,8.804196E0,1.0015942E1,3.6930304E0,0E0,0E0,0E0,0E0,0E0,0E0,0E0,0E0,0E0,0E0,0E0,0E0,0E0,0E0,0E0,0E0,0E0,0E0,0E0,0E0,0E0,0E0,0E0,0E0,0E0,0E0,0E0,0E0],"parents":[2147483647,0,0,1,1,2,2,3,3,4,4,5,5,6,6,7,7,8,8,9,9,10,10,11,11,12,12,13,13,14,14,18,18,19,19,20,20,21,21,22,22,23,23,24,24,27,27,28,28,33,33,34,34,35,35,36,36,37,37,39,39,40,40,41,41,42,42,43,43,44,44,45,45,46,46],"right_children":[2,4,6,8,10,12,14,16,18,20,22,24,26,28,30,-1,-1,-1,32,34,36,38,40,42,44,-1,-1,46,48,-1,-1,-1,-1,50,52,54,56,58,-1,60,62,64,66,68,70,72,74,-1,-1,-1,-1,-1,-1,-1,-1,-1,-1,-1,-1,-1,-1,-1,-1,-1,-1,-1,-1,-1,-1,-1,-1,-1,-1,-1,-1],"split_conditions":[2E-1,5E-1,1.6E-1,6E-2,4E-2,6E-1,2.3333333E-1,8E-2,5E-1,4E-1,1.2E-1,2E-2,6E-2,4.32E0,4E-2,3.0249366E-1,-1.35841835E-2,1.7426935E-1,4E-1,6E-2,4E-2,6E-1,8E-2,8E-2,2E-2,2.583166E-1,-2.2549856E-2,1.2E-1,1.6E-1,9.08653E-3,2.9792076E-1,-9.2581294E-2,-1.2401334E-2,2E-1,1.2E-1,4E-2,2E-2,3E-1,1.0020987E-1,8E-2,5.88E0,7.1875E-1,1E-1,2E-2,2E-2,1E-1,4E-1,-9.6532576E-2,-1.5189663E-2,-8.637965E-2,7.3451556E-2,-1.6613003E-2,1.05772935E-1,3.090469E-2,3.1873953E-1,1.8228845E-1,-4.125393E-2,-7.5795E-2,1.0118878E-1,-3.0671904E-2,1.0873782E-1,-8.455672E-2,8.337592E-2,-9.501179E-2,7.309897E-2,2.5317106E-1,-1.0100964E-2,2.3861824E-1,1.1796896E-2,5.4027893E-2,-5.8539994E-2,2.335615E-1,2.1260884E-2,-8.9648224E-2,7.891788E-2],"split_indices":[62,219,966,4,595,1048,1365,1330,1172,1386,148,1555,605,352,1323,0,0,0,668,729,239,1152,491,263,1548,0,0,849,238,0,0,0,0,1686,1309,1,1442,387,0,1332,1068,345,1578,380,146,741,1762,0,0,0,0,0,0,0,0,0,0,0,0,0,0,0,0,0,0,0,0,0,0,0,0,0,0,0,0],"split_type":[0,0,0,0,0,0,0,0,0,0,0,0,0,0,0,0,0,0,0,0,0,0,0,0,0,0,0,0,0,0,0,0,0,0,0,0,0,0,0,0,0,0,0,0,0,0,0,0,0,0,0,0,0,0,0,0,0,0,0,0,0,0,0,0,0,0,0,0,0,0,0,0,0,0,0],"sum_hessian":[2.7255878E2,1.7456656E2,9.7992226E1,9.508178E0,1.6505838E2,7.633397E1,2.1658258E1,3.6075742E0,5.9006033E0,6.0714573E1,1.0434381E2,7.343492E1,2.899042E0,1.7163225E1,4.4950337E0,2.563747E0,1.0438272E0,1.7539114E0,4.146692E0,4.8499493E1,1.2215081E1,6.3695866E1,4.0647945E1,1.4673008E1,5.8761917E1,1.6812088E0,1.2178329E0,1.246072E1,4.702504E0,1.4224436E0,3.07259E0,3.119937E0,1.0267551E0,2.1442295E1,2.70572E1,3.3002846E0,8.914796E0,6.23754E1,1.3204644E0,2.332448E1,1.7323463E1,8.125918E0,6.5470886E0,1.1633055E1,4.712886E1,8.669224E0,3.7914965E0,3.6407502E0,1.0617542E0,1.8814629E1,2.6276653E0,1.7947805E1,9.109394E0,1.087524E0,2.2127607E0,2.3399134E0,6.574883E0,6.106369E1,1.3117125E0,1.2250247E1,1.1074234E1,1.53152485E1,2.008215E0,3.4383748E0,4.687544E0,3.8059742E0,2.7411144E0,2.0889847E0,9.54407E0,7.5623107E0,3.956655E1,4.6405134E0,4.02871E0,2.7036414E0,1.0878552E0],"tree_param":{"num_deleted":"0","num_feature":"1785","num_nodes":"75","size_leaf_vector":"1"}},{"base_weights":[9.713059E-3,-1.0980719E-1,3.5203934E-1,2.6695944E-2,-6.1794055E-1,5.031605E-1,-7.5024796E-1,-1.3334616E-1,5.728568E-1,-7.450669E-1,7.970287E-1,1.2032145E-1,1.0113045E0,1.3895233E-1,-1.0350267E-1,2.1897696E-1,-4.1739875E-1,9.394558E-1,-2.7804968E-1,9.985676E-2,-8.519782E-1,-7.2074115E-2,1.938361E-1,-6.260838E-1,5.3871214E-1,2.032625E0,3.823573E-1,8.476355E-2,-6.244711E-2,6.38142E-1,-2.9916793E-1,-5.20085E-1,1.6459618E0,9.560778E-2,1.4420968E0,1.2751232E-1,-6.998874E-1,-9.4494194E-1,8.1883036E-2,-1.0236665E0,8.4334785E-1,1.0089947E0,-4.8455477E-1,1.5551591E-1,2.7116868E0,1.3022416E0,-3.0768982E-1,-7.746686E-3,1.3531332E-1,-4.789336E-2,1.4456542E-1,-6.218524E-2,5.6898165E-2,1.0852508E-2,2.598143E-1,1.3474289E-1,-4.619354E-2,2.0246499E-3,1.911512E-1,-9.688992E-2,8.327382E-2,-1.066425E-1,2.0402616E-2,-1.1027918E-1,-1.0732347E-2,-6.4678304E-2,1.8578066E-1,1.3763951E-1,-6.317223E-2,-1.0206161E-1,5.9775192E-2,-7.845061E-2,1.3443795E-1,3.0918694E-1,2.9891396E-2,-7.053855E-2,1.827541E-1,-8.201123E-2,7.703143E-2],"categories":[],"categories_nodes":[],"categories_segments":[],"categories_sizes":[],"default_left":[0,0,0,0,0,0,0,0,0,0,0,0,0,0,0,0,0,0,0,0,0,0,0,0,0,0,0,0,0,0,0,0,0,0,0,0,0,0,0,0,0,0,0,0,0,0,0,0,0,0,0,0,0,0,0,0,0,0,0,0,0,0,0,0,0,0,0,0,0,0,0,0,0,0,0,0,0,0,0],"id":2,"left_children":[1,3,5,7,9,11,13,15,17,19,21,23,25,27,-1,29,31,33,35,-1,37,-1,-1,39,41,43,45,-1,-1,47,49,51,53,55,57,-1,59,61,-1,63,65,67,69,71,73,75,77,-1,-1,-1,-1,-1,-1,-1,-1,-1,-1,-1,-1,-1,-1,-1,-1,-1,-1,-1,-1,-1,-1,-1,-1,-1,-1,-1,-1,-1,-1,-1,-1],"loss_changes":[1.1166164E1,1.4051683E1,1.2141213E1,1.410187E1,8.308693E0,1.207651E1,2.4015489E0,1.2591789E1,1.1663449E1,8.283115E0,8.3587475E0,1.1859514E1,1.6442814E1,2.1764312E0,0E0,1.2442274E1,1.5581E1,1.07945175E1,8.609116E0,0E0,6.6925964E0,0E0,0E0,8.876144E0,1.2125227E1,1.2306091E1,1.171369E1,0E0,0E0,1.6222973E1,8.818312E0,7.775362E0,4.8926544E0,8.085281E0,1.0695065E1,0E0,4.8917904E0,5.3209114E0,0E0,6.970787E-1,6.445612E0,1.1051495E1,5.4194775E0,5.204673E0,5.7460823E0,9.546823E0,6.7037954E0,0E0,0E0,0E0,0E0,0E0,0E0,0E0,0E0,0E0,0E0,0E0,0E0,0E0,0E0,0E0,0E0,0E0,0E0,0E0,0E0,0E0,0E0,0E0,0E0,0E0,0E0,0E0,0E0,0E0,0E0,0E0,0E0],"parents":[2147483647,0,0,1,1,2,2,3,3,4,4,5,5,6,6,7,7,8,8,9,9,10,10,11,11,12,12,13,13,15,15,16,16,17,17,18,18,20,20,23,23,24,24,25,25,26,26,29,29,30,30,31,31,32,32,33,33,34,34,36,36,37,37,39,39,40,40,41,41,42,42,43,43,44,44,45,45,46,46],"right_children":[2,4,6,8,10,12,14,16,18,20,22,24,26,28,-1,30,32,34,36,-1,38,-1,-1,40,42,44,46,-1,-1,48,50,52,54,56,58,-1,60,62,-1,64,66,68,70,72,74,76,78,-1,-1,-1,-1,-1,-1,-1,-1,-1,-1,-1,-1,-1,-1,-1,-1,-1,-1,-1,-1,-1,-1,-1,-1,-1,-1,-1,-1,-1,-1,-1,-1],"split_conditions":[1.4E-1,9E-1,2E-1,4E-1,2.4E-1,2E-1,3.3333334E-1,6E-2,1.2E-1,3.15E-1,6.666667E-1,4E-2,4E-2,8E-2,-1.0350267E-1,2E-1,6E-1,4.6E-1,2E-2,9.985676E-2,3.2E-1,-7.2074115E-2,1.938361E-1,1.8E-1,5E-1,5E-1,6E-2,8.476355E-2,-6.244711E-2,8E-1,6E-1,9.6875E-1,1E-1,2E-2,6.5625E-1,1.2751232E-1,5.02E0,1E0,8.1883036E-2,1.4E-1,2E-2,6.05E-1,5.6E-1,4E-2,2E-1,1.3333334E-1,1E-1,-7.746686E-3,1.3531332E-1,-4.789336E-2,1.4456542E-1,-6.218524E-2,5.6898165E-2,1.0852508E-2,2.598143E-1,1.3474289E-1,-4.619354E-2,2.0246499E-3,1.911512E-1,-9.688992E-2,8.327382E-2,-1.066425E-1,2.0402616E-2,-1.1027918E-1,-1.0732347E-2,-6.4678304E-2,1.8578066E-1,1.3763951E-1,-6.317223E-2,-1.0206161E-1,5.9775192E-2,-7.845061E-2,1.3443795E-1,3.0918694E-1,2.9891396E-2,-7.053855E-2,1.827541E-1,-8.201123E-2,7.703143E-2],"split_indices":[1332,219,132,1027,1557,393,936,1431,31,813,101,861,1453,1091,0,1608,1030,694,983,0,604,0,0,620,1175,697,857,0,0,933,1048,464,502,486,1654,0,1189,1766,0,1565,1557,1289,1646,715,964,1255,483,0,0,0,0,0,0,0,0,0,0,0,0,0,0,0,0,0,0,0,0,0,0,0,0,0,0,0,0,0,0,0,0],"split_type":[0,0,0,0,0,0,0,0,0,0,0,0,0,0,0,0,0,0,0,0,0,0,0,0,0,0,0,0,0,0,0,0,0,0,0,0,0,0,0,0,0,0,0,0,0,0,0,0,0,0,0,0,0,0,0,0,0,0,0,0,0,0,0,0,0,0,0,0,0,0,0,0,0,0,0,0,0,0,0],"sum_hessian":[2.7096698E2,2.0134749E2,6.96195E1,1.5945857E2,4.188892E1,6.1703606E1,7.9158955E0,1.2390608E2,3.5552483E1,3.8870117E1,3.0188031E0,3.5896065E1,2.580754E1,2.0444186E0,5.8714767E0,5.5408962E1,6.8497116E1,2.4774664E1,1.077782E1,1.7638037E0,3.7106316E1,1.4538925E0,1.5649108E0,1.2715433E1,2.318063E1,8.985149E0,1.6822392E1,1.003015E0,1.0414035E0,3.050205E1,2.4906914E1,6.596235E1,2.5347724E0,9.692623E0,1.5082042E1,1.8699675E0,8.907852E0,3.556208E1,1.5442327E0,1.0246427E1,2.4690063E0,1.5891167E1,7.289463E0,2.7134533E0,6.2716966E0,6.830135E0,9.992256E0,1.5690074E1,1.48119755E1,2.3238234E1,1.6686792E0,6.0717617E1,5.2447314E0,1.3955027E0,1.1392697E0,2.5501611E0,7.1424623E0,4.0022945E0,1.1079747E1,7.8906713E0,1.0171809E0,3.222654E1,3.3355439E0,9.244686E0,1.0017406E0,1.1468469E0,1.3221595E0,1.3115383E1,2.775783E0,4.9130516E0,2.3764114E0,1.7052505E0,1.0082028E0,5.1748347E0,1.0968618E0,1.3453921E0,5.4847426E0,6.9349856E0,3.057271E0],"tree_param":{"num_deleted":"0","num_feature":"1785","num_nodes":"79","size_leaf_vector":"1"}},{"base_weights":[1.123895E-2,6.4738464E-1,-4.9837586E-2,-6.768E-1,1.0257051E0,1.0752454E0,-8.3924964E-2,-9.761793E-2,3.919449E-2,-2.688117E-1,1.4336557E0,1.758352E0,-7.7397995E-2,4.6313215E-2,-4.1132534E-1,-8.9500256E-2,7.958999E-2,1.8194442E0,-5.188372E-1,-1.9255955E-2,2.29709E0,-5.202329E-1,1.7627354E-1,1.368389E-1,-4.6754113E-1,-3.1350967E-2,2.1212611E0,-6.588029E-2,-1.0741218E-2,2.761816E-1,3.61527E-2,8.082181E-2,-9.073603E-1,5.762246E-1,-1.5243667E-2,7.83372E-1,-5.485575E-1,3.6103115E-3,2.4562255E-1,-3.360275E-2,1.4266433E-1,-1.03730954E-1,2.4395442E-2,1.4932895E-2,1.1814058E-1,-3.7285138E-2,2.931931E-2,1.4676437E-1,-6.499295E-2,3.565122E-2,-6.9311194E-2],"categories":[],"categories_nodes":[],"categories_segments":[],"categories_sizes":[],"default_left":[0,0,0,0,0,0,0,0,0,0,0,0,0,0,0,0,0,0,0,0,0,0,0,0,0,0,0,0,0,0,0,0,0,0,0,0,0,0,0,0,0,0,0,0,0,0,0,0,0,0,0],"id":3,"left_children":[1,3,5,7,9,11,13,-1,-1,15,17,19,-1,21,23,-1,-1,25,27,-1,29,31,33,-1,35,-1,37,-1,-1,-1,-1,39,41,43,45,47,49,-1,-1,-1,-1,-1,-1,-1,-1,-1,-1,-1,-1,-1,-1],"loss_changes":[1.0539689E1,1.2597982E1,9.588848E0,2.2648191E0,1.0355377E1,1.0652781E1,1.0308902E1,0E0,0E0,4.289883E0,1.1875956E1,6.4091396E0,0E0,1.2869309E1,7.5208416E0,0E0,0E0,8.60936E0,1.1193162E-1,0E0,3.0726757E0,7.6667624E0,1.0878548E1,0E0,7.262061E0,0E0,7.5520477E0,0E0,0E0,0E0,0E0,8.166732E0,3.2350101E0,1.1701283E1,1.0800873E1,5.379655E0,8.607828E0,0E0,0E0,0E0,0E0,0E0,0E0,0E0,0E0,0E0,0E0,0E0,0E0,0E0,0E0],"parents":[2147483647,0,0,1,1,2,2,3,3,4,4,5,5,6,6,9,9,10,10,11,11,13,13,14,14,17,17,18,18,20,20,21,21,22,22,24,24,26,26,31,31,32,32,33,33,34,34,35,35,36,36],"right_children":[2,4,6,8,10,12,14,-1,-1,16,18,20,-1,22,24,-1,-1,26,28,-1,30,32,34,-1,36,-1,38,-1,-1,-1,-1,40,42,44,46,48,50,-1,-1,-1,-1,-1,-1,-1,-1,-1,-1,-1,-1,-1,-1],"split_conditions":[1E-1,2E-2,3E-1,2.6666668E-1,2E-2,4E-1,1.2E-1,-9.761793E-2,3.919449E-2,1E-1,1.6E-1,6.875E-1,-7.7397995E-2,2E-2,6.666667E-2,-8.9500256E-2,7.958999E-2,2E-2,8.4375E-1,-1.9255955E-2,2.3333333E-1,7.5E-1,4E-2,1.368389E-1,6.666667E-2,-3.1350967E-2,2E-2,-6.588029E-2,-1.0741218E-2,2.761816E-1,3.61527E-2,2.6666668E-1,2.6666668E-1,1.2E-1,6E-2,4E-1,5.9375E-1,3.6103115E-3,2.4562255E-1,-3.360275E-2,1.4266433E-1,-1.03730954E-1,2.4395442E-2,1.4932895E-2,1.1814058E-1,-3.7285138E-2,2.931931E-2,1.4676437E-1,-6.499295E-2,3.565122E-2,-6.9311194E-2],"split_indices":[415,727,337,652,851,1498,31,0,0,151,961,464,0,1675,531,0,0,1440,1297,0,867,821,369,0,1719,0,1079,0,0,0,0,1476,402,30,1668,1401,226,0,0,0,0,0,0,0,0,0,0,0,0,0,0],"split_type":[0,0,0,0,0,0,0,0,0,0,0,0,0,0,0,0,0,0,0,0,0,0,0,0,0,0,0,0,0,0,0,0,0,0,0,0,0,0,0,0,0,0,0,0,0,0,0,0,0,0,0],"sum_hessian":[2.6943646E2,2.2761663E1,2.466748E2,4.882642E0,1.7879023E1,6.3556995E0,2.403191E2,3.8818579E0,1.0007837E0,4.365956E0,1.3513066E1,4.6771097E0,1.67859E0,1.7254152E2,6.777759E1,2.8494804E0,1.5164757E0,1.1340471E1,2.1725943E0,1.151132E0,3.5259776E0,3.163399E1,1.4090753E2,1.3606168E0,6.641697E1,1.4009756E0,9.939496E0,1.1724569E0,1.0001373E0,2.4990735E0,1.0269041E0,1.2702809E1,1.8931181E1,4.4975372E1,9.593215E1,3.5125785E0,6.290439E1,1.529031E0,8.410465E0,1.0271633E1,2.4311762E0,1.7100107E1,1.831072E0,2.7103367E1,1.7872005E1,4.4328255E1,5.16039E1,2.3613079E0,1.1512707E0,8.461265E0,5.4443123E1],"tree_param":{"num_deleted":"0","num_feature":"1785","num_nodes":"51","size_leaf_vector":"1"}},{"base_weights":[1.0596877E-2,-3.5462815E-2,6.9967484E-1,2.5919572E-1,-1.687241E-1,1.3382918E0,-2.7419117E-1,4.240435E-1,-5.625261E-1,1.181597E0,-2.2274868E-1,-1.092933E-1,2.1277812E0,1.0150448E-1,-8.385855E-1,6.5978366E-1,-3.2362732E-1,-8.5151976E-1,6.1394984E-1,-3.0915505E-1,2.008429E0,-2.4327839E-2,-5.37804E-1,9.812095E-2,-8.484549E-2,2.585444E0,1.4828324E-2,-9.651069E-2,-1.1952467E-2,-3.4652004E-1,8.933282E-1,-6.0057276E-1,1.15117885E-1,-1.08578205E-1,4.2415526E-2,-2.6525347E-2,1.2789224E-1,3.042062E-2,-7.154018E-2,2.5082764E-1,2.5759527E-2,-1.0465464E-1,1.2433431E0,-6.46527E-1,7.217079E-1,3.0727157E-1,5.768326E-2,-8.35591E-2,1.046557E-1,1.589E-1,5.1152505E-2,-1.0043233E-1,3.4148842E-2,-3.1792935E-2,2.8189361E-2,1.720158E-1,-6.182791E-2,1.2804614E-1,-7.01714E-2,1.9949888E-1,-3.900258E-2],"categories":[],"categories_nodes":[],"categories_segments":[],"categories_sizes":[],"default_left":[0,0,0,0,0,0,0,0,0,0,0,0,0,0,0,0,0,0,0,0,0,0,0,0,0,0,0,0,0,0,0,0,0,0,0,0,0,0,0,0,0,0,0,0,0,0,0,0,0,0,0,0,0,0,0,0,0,0,0,0,0],"id":4,"left_children":[1,3,5,7,9,11,13,15,17,19,21,23,25,-1,27,29,31,33,35,37,39,41,43,-1,-1,45,-1,-1,-1,47,49,51,-1,-1,-1,-1,-1,-1,-1,-1,-1,53,55,57,59,-1,-1,-1,-1,-1,-1,-1,-1,-1,-1,-1,-1,-1,-1,-1,-1],"loss_changes":[8.584309E0,1.0007273E1,1.0905696E1,1.09958E1,1.3053436E1,1.2123056E1,6.3383684E0,1.1972317E1,5.180422E0,9.130045E0,1.0578222E1,4.55885E0,5.760105E0,0E0,4.116335E-1,1.2307348E1,7.4973984E0,3.872304E0,2.2583733E0,1.0472587E0,3.3567276E0,1.0822214E1,9.42544E0,0E0,0E0,3.558792E0,0E0,0E0,0E0,7.917042E0,1.02668495E1,5.9289637E0,0E0,0E0,0E0,0E0,0E0,0E0,0E0,0E0,0E0,8.306258E0,6.6864834E0,7.3591175E0,8.805897E0,0E0,0E0,0E0,0E0,0E0,0E0,0E0,0E0,0E0,0E0,0E0,0E0,0E0,0E0,0E0,0E0],"parents":[2147483647,0,0,1,1,2,2,3,3,4,4,5,5,6,6,7,7,8,8,9,9,10,10,11,11,12,12,14,14,15,15,16,16,17,17,18,18,19,19,20,20,21,21,22,22,25,25,29,29,30,30,31,31,41,41,42,42,43,43,44,44],"right_children":[2,4,6,8,10,12,14,16,18,20,22,24,26,-1,28,30,32,34,36,38,40,42,44,-1,-1,46,-1,-1,-1,48,50,52,-1,-1,-1,-1,-1,-1,-1,-1,-1,54,56,58,60,-1,-1,-1,-1,-1,-1,-1,-1,-1,-1,-1,-1,-1,-1,-1,-1],"split_conditions":[6E-1,1.6666667E-1,8.4375E-1,4E-1,6.666667E-2,6E-2,5E-1,4E-1,2.2E-1,7.5E-1,2E-1,4E-2,9E-1,1.0150448E-1,1.6E-1,6.25E-1,1.6E-1,1.6E-1,4.85E-1,2E-1,1E-1,3E-1,3E-1,9.812095E-2,-8.484549E-2,2E-1,1.4828324E-2,-9.651069E-2,-1.1952467E-2,2E-1,4E-2,1.6E-1,1.15117885E-1,-1.08578205E-1,4.2415526E-2,-2.6525347E-2,1.2789224E-1,3.042062E-2,-7.154018E-2,2.5082764E-1,2.5759527E-2,1E-1,1.2E-1,1.6666667E-1,4E-2,3.0727157E-1,5.768326E-2,-8.35591E-2,1.046557E-1,1.589E-1,5.1152505E-2,-1.0043233E-1,3.4148842E-2,-3.1792935E-2,2.8189361E-2,1.720158E-1,-6.182791E-2,1.2804614E-1,-7.01714E-2,1.9949888E-1,-3.900258E-2],"split_indices":[1034,277,107,1516,182,984,1053,543,260,583,1608,1670,1290,0,268,1297,1690,1195,99,415,725,992,408,0,0,770,0,0,0,529,1075,1311,0,0,0,0,0,0,0,0,0,1314,260,1649,257,0,0,0,0,0,0,0,0,0,0,0,0,0,0,0,0],"split_type":[0,0,0,0,0,0,0,0,0,0,0,0,0,0,0,0,0,0,0,0,0,0,0,0,0,0,0,0,0,0,0,0,0,0,0,0,0,0,0,0,0,0,0,0,0,0,0,0,0,0,0,0,0,0,0,0,0,0,0,0,0],"sum_hessian":[2.6868628E2,2.5274098E2,1.5945302E1,7.8413414E1,1.7432756E2,9.40423E0,6.5410714E0,6.5714264E1,1.2699155E1,5.9033904E0,1.6842416E2,3.622917E0,5.7813134E0,1.7485112E0,4.7925606E0,5.0050816E1,1.5663445E1,1.0416597E1,2.282558E0,2.3294902E0,3.5739002E0,1.0400154E2,6.442263E1,1.3313224E0,2.2915945E0,4.44704E0,1.3342735E0,3.7844887E0,1.0080718E0,9.336721E0,4.0714096E1,1.3686174E1,1.9772705E0,8.926255E0,1.4903419E0,1.2417998E0,1.040758E0,1.0282269E0,1.3012633E0,2.4436436E0,1.1302567E0,9.866689E1,5.3346486E0,5.9751476E1,4.671154E0,3.1525002E0,1.29454E0,7.2067966E0,2.1299248E0,1.3306642E1,2.7407454E1,9.533988E0,4.1521873E0,6.3699017E1,3.4967873E1,4.3073916E0,1.0272568E0,1.0454333E0,5.8706043E1,1.8070431E0,2.864111E0],"tree_param":{"num_deleted":"0","num_feature":"1785","num_nodes":"61","size_leaf_vector":"1"}},{"base_weights":[1.2337103E-2,2.4620144E-1,-1.1328783E-1,1.4755026E-1,1.6452368E0,1.2474816E-1,-3.5386172E-1,3.1323367E-1,-4.5425943E-1,2.3974966E-1,2.69304E-1,9.2821664E-1,-6.1062925E-2,2.2549406E-1,-4.8572487E-1,-5.2446616E-1,5.1997817E-1,-8.289565E-1,3.423824E-1,-6.901475E-2,1.19977675E-1,1.5565759E0,3.3913333E-2,-1.5615769E-1,1.4244726E0,-4.8040769E-1,1.0055207E0,-7.1341E-1,2.705619E-2,-8.0829436E-1,9.258138E-2,3.6799002E-1,1.9053088E0,-1.0243474E0,6.555166E-2,-5.080835E-1,1.3092049E0,2.0441282E0,-1.8834539E-2,-5.432339E-1,1.2426195E-1,-6.0277194E-1,1.9544561E-1,-2.9949024E-3,2.3235884E-1,6.89151E-2,-8.088765E-1,1.6204807E0,-5.168707E-1,-7.92305E-1,6.977036E-1,-2.7879113E-1,1.1988953E0,-1.0107118E-1,4.756414E-2,5.8888376E-2,-4.0584385E-2,2.6409122E-1,-6.183463E-2,-1.0952666E-1,-1.0682182E-2,-8.448451E-2,3.166255E-2,2.2092445E-1,-2.3729993E-2,-1.5538369E-2,2.4090536E-1,-9.599103E-2,7.2171696E-2,-7.388788E-2,1.3366209E-1,6.291736E-2,-4.695656E-2,-1.02670394E-1,3.3910275E-2,-3.2170098E-3,2.2031823E-1,-6.547161E-2,-1.0962856E-2,-8.621357E-2,7.439999E-2,1.2737016E-1,-1.948645E-2,8.565392E-2,-6.1555374E-2,2.340124E-1,-2.1294614E-2],"categories":[],"categories_nodes":[],"categories_segments":[],"categories_sizes":[],"default_left":[0,0,0,0,0,0,0,0,0,0,0,0,0,0,0,0,0,0,0,0,0,0,0,0,0,0,0,0,0,0,0,0,0,0,0,0,0,0,0,0,0,0,0,0,0,0,0,0,0,0,0,0,0,0,0,0,0,0,0,0,0,0,0,0,0,0,0,0,0,0,0,0,0,0,0,0,0,0,0,0,0,0,0,0,0,0,0],"id":5,"left_children":[1,3,5,7,9,11,13,15,17,-1,19,21,23,25,27,29,31,33,35,-1,-1,37,39,41,43,45,47,49,51,53,-1,55,57,59,-1,61,63,65,-1,67,-1,69,71,-1,-1,-1,73,75,77,79,81,83,85,-1,-1,-1,-1,-1,-1,-1,-1,-1,-1,-1,-1,-1,-1,-1,-1,-1,-1,-1,-1,-1,-1,-1,-1,-1,-1,-1,-1,-1,-1,-1,-1,-1,-1],"loss_changes":[7.9086456E0,1.2738195E1,1.0076391E1,9.012173E0,5.664789E0,1.3313687E1,6.7858057E0,1.2455767E1,6.1379285E0,0E0,3.7576175E0,9.354293E0,1.0543121E1,9.780634E0,8.367712E0,6.6850452E0,1.1284149E1,4.625046E0,6.4055367E0,0E0,0E0,8.730555E0,6.207358E0,1.1041514E1,5.9465704E0,4.2226076E0,8.650183E0,6.069704E0,8.55979E0,3.7542582E0,0E0,9.218954E0,1.1635939E1,6.9217014E-1,0E0,1.4991087E0,5.460993E0,6.5963364E0,0E0,3.8886256E0,0E0,9.140616E0,1.1739691E1,0E0,0E0,0E0,2.3258271E0,6.027767E0,1.055696E-1,5.726448E0,1.8705641E0,7.796083E0,8.456036E0,0E0,0E0,0E0,0E0,0E0,0E0,0E0,0E0,0E0,0E0,0E0,0E0,0E0,0E0,0E0,0E0,0E0,0E0,0E0,0E0,0E0,0E0,0E0,0E0,0E0,0E0,0E0,0E0,0E0,0E0,0E0,0E0,0E0,0E0],"parents":[2147483647,0,0,1,1,2,2,3,3,4,4,5,5,6,6,7,7,8,8,10,10,11,11,12,12,13,13,14,14,15,15,16,16,17,17,18,18,21,21,22,22,23,23,24,24,25,25,26,26,27,27,28,28,29,29,31,31,32,32,33,33,35,35,36,36,37,37,39,39,41,41,42,42,46,46,47,47,48,48,49,49,50,50,51,51,52,52],"right_children":[2,4,6,8,10,12,14,16,18,-1,20,22,24,26,28,30,32,34,36,-1,-1,38,40,42,44,46,48,50,52,54,-1,56,58,60,-1,62,64,66,-1,68,-1,70,72,-1,-1,-1,74,76,78,80,82,84,86,-1,-1,-1,-1,-1,-1,-1,-1,-1,-1,-1,-1,-1,-1,-1,-1,-1,-1,-1,-1,-1,-1,-1,-1,-1,-1,-1,-1,-1,-1,-1,-1,-1,-1],"split_conditions":[4E-2,5.48E0,8E-1,2.6666668E-1,5.62E0,1.3333334E-1,2E-2,2E-2,5.65E-1,2.3974966E-1,6.4E0,6E-2,3.3333334E-1,8E-2,1.2E-1,3E-1,6.666667E-1,6E-1,1.2E-1,-6.901475E-2,1.19977675E-1,2E-1,2.6666668E-1,6E-2,8E-2,2E-2,1E-1,3E-1,2.6666668E-1,1.2E-1,9.258138E-2,5.7E-1,4E-1,6.55E-1,6.555166E-2,4E-1,6E-2,2E-2,-1.8834539E-2,5.9E-1,1.2426195E-1,6E-1,1E-1,-2.9949024E-3,2.3235884E-1,6.89151E-2,2.4E-1,4E-2,1.6666667E-1,6E-1,8E-2,1.3333334E-1,2E-1,-1.0107118E-1,4.756414E-2,5.8888376E-2,-4.0584385E-2,2.6409122E-1,-6.183463E-2,-1.0952666E-1,-1.0682182E-2,-8.448451E-2,3.166255E-2,2.2092445E-1,-2.3729993E-2,-1.5538369E-2,2.4090536E-1,-9.599103E-2,7.2171696E-2,-7.388788E-2,1.3366209E-1,6.291736E-2,-4.695656E-2,-1.02670394E-1,3.3910275E-2,-3.2170098E-3,2.2031823E-1,-6.547161E-2,-1.0962856E-2,-8.621357E-2,7.439999E-2,1.2737016E-1,-1.948645E-2,8.565392E-2,-6.1555374E-2,2.340124E-1,-2.1294614E-2],"split_indices":[961,110,1052,411,1065,1010,266,135,575,0,1775,246,283,10,138,403,106,792,722,0,0,1572,403,715,1682,1453,1196,1116,158,6,0,932,90,218,0,1018,25,1314,0,813,0,1152,1310,0,0,0,146,974,758,1514,1,1717,524,0,0,0,0,0,0,0,0,0,0,0,0,0,0,0,0,0,0,0,0,0,0,0,0,0,0,0,0,0,0,0,0,0,0],"split_type":[0,0,0,0,0,0,0,0,0,0,0,0,0,0,0,0,0,0,0,0,0,0,0,0,0,0,0,0,0,0,0,0,0,0,0,0,0,0,0,0,0,0,0,0,0,0,0,0,0,0,0,0,0,0,0,0,0,0,0,0,0,0,0,0,0,0,0,0,0,0,0,0,0,0,0,0,0,0,0,0,0,0,0,0,0,0,0],"sum_hessian":[2.672427E2,9.3053604E1,1.7418912E2,8.79569E1,5.096702E0,8.7798386E1,8.6390724E1,6.934511E1,1.8611795E1,2.8151386E0,2.2815638E0,1.5740252E1,7.2058136E1,1.5885577E1,7.050514E1,1.3422443E1,5.592266E1,1.2630521E1,5.981275E0,1.2504513E0,1.0311124E0,8.809756E0,6.9304957E0,6.856398E1,3.4941592E0,8.540649E0,7.3449283E0,4.8554646E1,2.19505E1,1.1595751E1,1.8266925E0,5.1534336E1,4.388328E0,1.1435327E1,1.1951945E0,3.4345512E0,2.5467236E0,6.7517595E0,2.0579963E0,5.0633526E0,1.8671432E0,2.988678E1,3.86772E1,1.7041668E0,1.7899926E0,1.6319158E0,6.9087334E0,5.1857486E0,2.15918E0,4.6399014E1,2.1556313E0,1.8011604E1,3.9388964E0,1.02004175E1,1.3953336E0,4.0276318E1,1.12580185E1,3.361921E0,1.0264071E0,1.0435044E1,1.0002823E0,2.421387E0,1.0131644E0,1.338942E0,1.2077816E0,1.0425018E0,5.7092576E0,3.9901426E0,1.07321E0,2.8505291E1,1.3814893E0,2.3441967E1,1.5235231E1,5.895679E0,1.0130544E0,1.5980815E0,3.5876672E0,1.1591439E0,1.000036E0,4.480145E1,1.5975637E0,1.0506263E0,1.1050049E0,3.7673295E0,1.4244275E1,1.8146054E0,2.124291E0],"tree_param":{"num_deleted":"0","num_feature":"1785","num_nodes":"87","size_leaf_vector":"1"}},{"base_weights":[1.5094063E-2,-1.5872878E-1,1.7719463E-1,-5.8218426E-1,3.571837E-2,7.9616606E-2,1.1758114E0,-7.044002E-1,6.2698483E-1,-5.31464E-2,1.2891762E0,3.243757E-1,-1.7032874E-1,1.5601887E0,-4.862251E-1,-8.2465166E-1,3.6304393E-1,1.5020953E-1,-6.979933E-2,-2.1953791E-1,5.6684995E-1,2.0111153E0,-6.860828E-2,5.5191386E-1,-2.8534827E-1,8.4169775E-2,-6.615636E-1,1.8983991E0,-6.323974E-2,-1.12652695E-2,-6.1302166E-2,-9.4234276E-1,3.7104112E-1,1.4493988E-1,-5.3265446E-1,-5.185303E-1,2.1105812E-1,1.1308229E0,-4.113984E-1,2.705191E-1,1.6007697E-2,6.9422495E-1,-5.4744875E-1,1.3697581E-1,-5.40235E-1,-1.5459566E-1,9.3242157E-1,1.1026265E-1,-8.169208E-1,2.3797317E0,3.3083013E-1,-1.0225066E-1,3.391926E-2,1.3342153E-1,-7.115865E-2,-1.1895182E-2,-6.682678E-2,-6.7037426E-2,1.0439056E-1,-9.085402E-3,1.3072495E-1,1.7136042E-1,-1.1741642E-3,9.685963E-2,-8.580249E-2,-1.978436E-2,9.281809E-2,-9.5069125E-2,7.2207816E-2,9.59606E-2,-8.387892E-2,-9.313675E-2,2.2023289E-2,-4.605996E-2,1.6869825E-1,-1.0225896E-1,2.2089755E-2,2.8826573E-1,1.4521027E-2,1.22100785E-1,-6.5471254E-2],"categories":[],"categories_nodes":[],"categories_segments":[],"categories_sizes":[],"default_left":[0,0,0,0,0,0,0,0,0,0,0,0,0,0,0,0,0,0,0,0,0,0,0,0,0,0,0,0,0,0,0,0,0,0,0,0,0,0,0,0,0,0,0,0,0,0,0,0,0,0,0,0,0,0,0,0,0,0,0,0,0,0,0,0,0,0,0,0,0,0,0,0,0,0,0,0,0,0,0,0,0],"id":6,"left_children":[1,3,5,7,9,11,13,15,17,19,21,23,25,27,29,31,33,-1,-1,35,37,39,-1,41,43,45,47,49,-1,-1,-1,51,53,-1,55,57,59,61,63,-1,-1,65,67,-1,69,71,73,-1,75,77,79,-1,-1,-1,-1,-1,-1,-1,-1,-1,-1,-1,-1,-1,-1,-1,-1,-1,-1,-1,-1,-1,-1,-1,-1,-1,-1,-1,-1,-1,-1],"loss_changes":[7.5226426E0,1.0632547E1,1.3363695E1,6.4436016E0,1.0011418E1,7.81753E0,8.565819E0,5.0945797E0,5.984796E0,8.822504E0,9.86322E0,9.0991535E0,7.9859076E0,8.736925E0,7.578349E-2,5.117359E0,5.1279974E0,0E0,0E0,8.760486E0,1.0461703E1,5.491081E0,0E0,7.7765226E0,8.40727E0,8.786599E0,6.8649035E0,6.044651E0,0E0,0E0,0E0,3.544571E0,4.863374E0,0E0,9.9191844E-2,1.017715E1,9.467531E0,7.85069E0,5.3668914E0,0E0,0E0,9.011612E0,3.7465525E0,0E0,8.178334E0,1.015003E1,1.077859E1,0E0,4.6173124E0,7.185093E0,3.6845322E0,0E0,0E0,0E0,0E0,0E0,0E0,0E0,0E0,0E0,0E0,0E0,0E0,0E0,0E0,0E0,0E0,0E0,0E0,0E0,0E0,0E0,0E0,0E0,0E0,0E0,0E0,0E0,0E0,0E0,0E0],"parents":[2147483647,0,0,1,1,2,2,3,3,4,4,5,5,6,6,7,7,8,8,9,9,10,10,11,11,12,12,13,13,14,14,15,15,16,16,19,19,20,20,21,21,23,23,24,24,25,25,26,26,27,27,31,31,32,32,34,34,35,35,36,36,37,37,38,38,41,41,42,42,44,44,45,45,46,46,48,48,49,49,50,50],"right_children":[2,4,6,8,10,12,14,16,18,20,22,24,26,28,30,32,34,-1,-1,36,38,40,-1,42,44,46,48,50,-1,-1,-1,52,54,-1,56,58,60,62,64,-1,-1,66,68,-1,70,72,74,-1,76,78,80,-1,-1,-1,-1,-1,-1,-1,-1,-1,-1,-1,-1,-1,-1,-1,-1,-1,-1,-1,-1,-1,-1,-1,-1,-1,-1,-1,-1,-1,-1],"split_conditions":[8E-1,1.6666667E-1,6.7E-1,3E-1,6.65E-1,8E-2,4E-1,2.4E-1,6E-2,2.3333333E-1,8E-2,1.4E-1,1E-1,2.6666668E-1,6E-2,2.4E-1,8E-2,1.5020953E-1,-6.979933E-2,1E-1,2.3333333E-1,7.5E-1,-6.860828E-2,4.96E0,3.35E-1,1.6E-1,5.3125E-1,1.2E-1,-6.323974E-2,-1.12652695E-2,-6.1302166E-2,2.6E-1,6.875E-1,1.4493988E-1,4E-1,3E-1,2.6666668E-1,8E-2,2E-2,2.705191E-1,1.6007697E-2,2E-2,3E-1,1.3697581E-1,1.6666667E-1,7.1875E-1,4E-2,1.1026265E-1,2.2E-1,2E-1,2E-1,-1.0225066E-1,3.391926E-2,1.3342153E-1,-7.115865E-2,-1.1895182E-2,-6.682678E-2,-6.7037426E-2,1.0439056E-1,-9.085402E-3,1.3072495E-1,1.7136042E-1,-1.1741642E-3,9.685963E-2,-8.580249E-2,-1.978436E-2,9.281809E-2,-9.5069125E-2,7.2207816E-2,9.59606E-2,-8.387892E-2,-9.313675E-2,2.2023289E-2,-4.605996E-2,1.6869825E-1,-1.0225896E-1,2.2089755E-2,2.8826573E-1,1.4521027E-2,1.22100785E-1,-6.5471254E-2],"split_indices":[695,778,1170,636,1765,32,917,1694,1090,657,958,145,368,518,1677,123,1073,0,0,1094,1011,107,0,1070,99,1086,1178,26,0,0,0,852,226,0,189,413,41,1202,135,0,0,476,1472,0,341,1297,1429,0,1204,1128,765,0,0,0,0,0,0,0,0,0,0,0,0,0,0,0,0,0,0,0,0,0,0,0,0,0,0,0,0,0,0],"split_type":[0,0,0,0,0,0,0,0,0,0,0,0,0,0,0,0,0,0,0,0,0,0,0,0,0,0,0,0,0,0,0,0,0,0,0,0,0,0,0,0,0,0,0,0,0,0,0,0,0,0,0,0,0,0,0,0,0,0,0,0,0,0,0,0,0,0,0,0,0,0,0,0,0,0,0,0,0,0,0,0,0],"sum_hessian":[2.6498203E2,1.27877686E2,1.3710434E2,3.9614193E1,8.826349E1,1.2588358E2,1.12207575E1,3.6356895E1,3.257296E0,8.331445E1,4.9490366E0,6.3451187E1,6.2432392E1,9.162935E0,2.057822E0,3.2880264E1,3.4766304E0,1.8811648E0,1.3761313E0,6.619522E1,1.7119236E1,3.6110704E0,1.3379662E0,4.627645E1,1.7174736E1,4.1671772E1,2.076062E1,8.054662E0,1.1082735E0,1.0000103E0,1.0578119E0,3.0126795E1,2.7534707E0,1.2917471E0,2.1848834E0,3.894725E1,2.7247967E1,1.0759993E1,6.359244E0,2.2906942E0,1.3203762E0,4.1298885E1,4.977567E0,1.7082474E0,1.546649E1,3.3156616E1,8.515158E0,1.1867608E0,1.9573858E1,5.7660537E0,2.2886083E0,2.854344E1,1.5833539E0,1.3341448E0,1.4193258E0,1.0028193E0,1.182064E0,3.6017834E1,2.929419E0,2.2083002E1,5.1649647E0,6.794549E0,3.9654438E0,1.2691392E0,5.0901046E0,8.612808E0,3.2686077E1,3.9682643E0,1.0093027E0,2.2000356E0,1.3266454E1,1.0308703E1,2.2847912E1,3.1287127E0,5.386445E0,1.6348652E1,3.2252061E0,4.4699435E0,1.2961103E0,1.0769495E0,1.2116588E0],"tree_param":{"num_deleted":"0","num_feature":"1785","num_nodes":"81","size_leaf_vector":"1"}},{"base_weights":[1.5746476E-2,5.724812E-2,-6.3946146E-1,-4.8524927E-2,3.4933928E-1,-8.422213E-1,6.9169626E-2,1.5946646E-1,-3.1160587E-1,4.6787074E-1,-6.570626E-1,-1.08103625E-1,-1.6481003E-2,5.5688944E-2,1.2336779E0,-9.358585E-1,-1.6326314E-1,6.7376304E-1,-2.5480515E-1,1.2679464E-2,-9.724155E-2,1.11946285E-1,-7.977527E-2,2.3014131E-1,-5.825149E-1,1.8220854E0,3.2742612E-2,2.0901402E-2,-1.106531E-1,-6.453244E-1,6.769178E-2,8.90722E-1,-1.8756035E-1,-5.3377175E-1,1.5023041E-1,3.979356E-2,-4.419506E-2,9.337312E-2,-7.7644736E-2,2.2892967E-1,-1.8965213E-2,1.2350605E-1,-8.0154605E-2,-8.224147E-2,4.4555467E-2,2.7115634E-2,-7.573654E-2,1.0890056E-1,-4.647553E-2,7.616511E-2,-8.702037E-2,-8.499386E-2,1.0896828E-1],"categories":[],"categories_nodes":[],"categories_segments":[],"categories_sizes":[],"default_left":[0,0,0,0,0,0,0,0,0,0,0,0,0,0,0,0,0,0,0,0,0,0,0,0,0,0,0,0,0,0,0,0,0,0,0,0,0,0,0,0,0,0,0,0,0,0,0,0,0,0,0,0,0],"id":7,"left_children":[1,3,5,7,9,11,-1,13,15,17,19,-1,21,23,25,27,29,31,33,-1,-1,-1,-1,35,37,39,41,-1,-1,43,45,47,49,51,-1,-1,-1,-1,-1,-1,-1,-1,-1,-1,-1,-1,-1,-1,-1,-1,-1,-1,-1],"loss_changes":[7.21081E0,7.7109747E0,4.8465776E0,1.0101843E1,8.219756E0,2.7746925E0,0E0,1.1442224E1,7.389746E0,9.087921E0,1.9536948E0,0E0,4.613577E0,1.0734058E1,6.3349543E0,3.2457972E0,7.505585E0,8.933428E0,7.670472E0,0E0,0E0,0E0,0E0,8.68865E0,6.818065E0,6.125536E0,4.9963408E0,0E0,0E0,4.578682E0,7.9639883E0,1.0624243E1,7.314196E0,7.5118237E0,0E0,0E0,0E0,0E0,0E0,0E0,0E0,0E0,0E0,0E0,0E0,0E0,0E0,0E0,0E0,0E0,0E0,0E0,0E0],"parents":[2147483647,0,0,1,1,2,2,3,3,4,4,5,5,7,7,8,8,9,9,10,10,12,12,13,13,14,14,15,15,16,16,17,17,18,18,23,23,24,24,25,25,26,26,29,29,30,30,31,31,32,32,33,33],"right_children":[2,4,6,8,10,12,-1,14,16,18,20,-1,22,24,26,28,30,32,34,-1,-1,-1,-1,36,38,40,42,-1,-1,44,46,48,50,52,-1,-1,-1,-1,-1,-1,-1,-1,-1,-1,-1,-1,-1,-1,-1,-1,-1,-1,-1],"split_conditions":[6E-1,1.4E-1,6.666667E-1,8E-2,2E-1,4E-1,6.9169626E-2,3E-1,2E-2,5E-1,1.6666667E-1,-1.08103625E-1,6E-2,2.3333333E-1,8E-1,1.3333334E-1,4E-2,1.4E-1,2.4E-1,1.2679464E-2,-9.724155E-2,1.11946285E-1,-7.977527E-2,1.4E-1,1.3333334E-1,4E-1,2.42E0,2.0901402E-2,-1.106531E-1,2.6666668E-1,9E-1,1.4E-1,4E-2,5.6E0,1.5023041E-1,3.979356E-2,-4.419506E-2,9.337312E-2,-7.7644736E-2,2.2892967E-1,-1.8965213E-2,1.2350605E-1,-8.0154605E-2,-8.224147E-2,4.4555467E-2,2.7115634E-2,-7.573654E-2,1.0890056E-1,-4.647553E-2,7.616511E-2,-8.702037E-2,-8.499386E-2,1.0896828E-1],"split_indices":[428,1332,341,368,132,1506,0,1127,973,1296,1730,0,975,1251,100,391,1207,503,146,0,0,0,0,124,158,1161,234,0,0,1104,219,126,842,468,0,0,0,0,0,0,0,0,0,0,0,0,0,0,0,0,0,0,0],"split_type":[0,0,0,0,0,0,0,0,0,0,0,0,0,0,0,0,0,0,0,0,0,0,0,0,0,0,0,0,0,0,0,0,0,0,0,0,0,0,0,0,0,0,0,0,0,0,0,0,0,0,0,0,0],"sum_hessian":[2.6283304E2,2.4803484E2,1.4798194E1,1.8270642E2,6.532841E1,1.3160854E1,1.6373395E0,1.0225647E2,8.044996E1,5.8923634E1,6.4047713E0,9.968625E0,3.1922293E0,9.420714E1,8.049331E0,1.442754E1,6.6022415E1,4.5911114E1,1.3012519E1,2.0090075E0,4.395764E0,1.1244467E0,2.0677824E0,7.4485886E1,1.972125E1,5.0552497E0,2.9940808E0,1.8426156E0,1.2584924E1,2.0804342E1,4.5218075E1,3.664617E1,9.264943E0,1.183048E1,1.182039E0,5.993136E1,1.4554529E1,1.8037843E0,1.7917467E1,3.9905126E0,1.064737E0,1.0297306E0,1.9643502E0,1.8110443E1,2.6938996E0,3.681147E1,8.406605E0,3.2141064E1,4.5051107E0,3.827328E0,5.437615E0,1.0300857E1,1.529623E0],"tree_param":{"num_deleted":"0","num_feature":"1785","num_nodes":"53","size_leaf_vector":"1"}},{"base_weights":[1.3378263E-2,7.03441E-2,-4.298132E-1,4.8397604E-1,-6.956529E-3,4.0486E-1,-6.630996E-1,1.8352468E-1,1.3364323E0,7.685261E-2,-6.53526E-1,-8.357971E-2,1.2095222E0,-8.330682E-1,9.717949E-2,-4.9484673E-1,6.537904E-1,-8.020964E-2,1.8820041E0,2.0270588E-2,9.813944E-1,-8.2138634E-1,9.873414E-2,-3.1057546E-2,1.8558936E-1,-1.0572141E0,1.337133E-1,-9.4517857E-1,3.5086712E-1,1.3677342E0,-1.4922564E-1,-7.217359E-2,7.709556E-2,2.329938E0,-2.1359552E-2,1.22384E-1,-4.3210524E-1,-5.0767595E-1,1.419923E0,-9.3627673E-1,5.6285866E-2,-1.10753775E-1,-1.029839E-2,-7.928809E-2,9.5349216E-1,-1.0381471E-1,-1.380924E-2,1.2735157E-1,-7.754482E-2,1.9893949E-1,2.7477841E-3,-8.680823E-2,1.1244972E-1,2.709943E-1,3.2347225E-2,1.956678E-2,-6.4038344E-2,1.4031425E-2,-7.564186E-2,-6.25041E-2,-1.3135937E-2,-2.3665888E-2,1.7197186E-1,-1.0651775E-1,2.6017422E-2,-1.4626979E-2,1.5628277E-1],"categories":[],"categories_nodes":[],"categories_segments":[],"categories_sizes":[],"default_left":[0,0,0,0,0,0,0,0,0,0,0,0,0,0,0,0,0,0,0,0,0,0,0,0,0,0,0,0,0,0,0,0,0,0,0,0,0,0,0,0,0,0,0,0,0,0,0,0,0,0,0,0,0,0,0,0,0,0,0,0,0,0,0,0,0,0,0],"id":8,"left_children":[1,3,5,7,9,11,13,15,17,19,21,-1,23,25,-1,27,29,31,33,35,37,39,-1,-1,-1,41,43,45,47,49,51,-1,-1,53,-1,55,57,59,61,63,-1,-1,-1,-1,65,-1,-1,-1,-1,-1,-1,-1,-1,-1,-1,-1,-1,-1,-1,-1,-1,-1,-1,-1,-1,-1,-1],"loss_changes":[6.6578026E0,7.468399E0,6.1177125E0,9.173832E0,1.0763061E1,8.181568E0,7.438921E0,9.367966E0,7.435137E0,8.983099E0,7.0882864E0,0E0,5.2588263E0,4.9409666E0,0E0,4.9690704E0,1.0050481E1,2.5110283E0,6.923149E0,7.747405E0,7.469349E0,3.901927E0,0E0,0E0,0E0,7.5473595E-1,4.596812E0,4.7313833E-1,6.1421456E0,7.6022434E0,9.202795E0,0E0,0E0,3.4875126E0,0E0,7.7652287E0,5.841779E0,5.426973E-2,4.502672E0,3.3570118E0,0E0,0E0,0E0,0E0,2.3306508E0,0E0,0E0,0E0,0E0,0E0,0E0,0E0,0E0,0E0,0E0,0E0,0E0,0E0,0E0,0E0,0E0,0E0,0E0,0E0,0E0,0E0,0E0],"parents":[2147483647,0,0,1,1,2,2,3,3,4,4,5,5,6,6,7,7,8,8,9,9,10,10,12,12,13,13,15,15,16,16,17,17,18,18,19,19,20,20,21,21,25,25,26,26,27,27,28,28,29,29,30,30,33,33,35,35,36,36,37,37,38,38,39,39,44,44],"right_children":[2,4,6,8,10,12,14,16,18,20,22,-1,24,26,-1,28,30,32,34,36,38,40,-1,-1,-1,42,44,46,48,50,52,-1,-1,54,-1,56,58,60,62,64,-1,-1,-1,-1,66,-1,-1,-1,-1,-1,-1,-1,-1,-1,-1,-1,-1,-1,-1,-1,-1,-1,-1,-1,-1,-1,-1],"split_conditions":[3E-1,5.9375E-1,2E-2,2.6666668E-1,2E-1,4E-2,6E-1,6E-2,6E-2,3E-1,3.6666667E-1,-8.357971E-2,6E-2,2.6666668E-1,9.717949E-2,1.2E-1,6E-2,6.666667E-1,1.4E-1,4E-1,6.875E-1,6E-1,9.873414E-2,-3.1057546E-2,1.8558936E-1,1E0,5.45E-1,6.666667E-1,6E-2,5E-1,5.65E-1,-7.217359E-2,7.709556E-2,1.4E-1,-2.1359552E-2,2.6666668E-1,4E-2,1.92E0,2E-2,1.8E-1,5.6285866E-2,-1.10753775E-1,-1.029839E-2,-7.928809E-2,2.6666668E-1,-1.0381471E-1,-1.380924E-2,1.2735157E-1,-7.754482E-2,1.9893949E-1,2.7477841E-3,-8.680823E-2,1.1244972E-1,2.709943E-1,3.2347225E-2,1.956678E-2,-6.4038344E-2,1.4031425E-2,-7.564186E-2,-6.25041E-2,-1.3135937E-2,-2.3665888E-2,1.7197186E-1,-1.0651775E-1,2.6017422E-2,-1.4626979E-2,1.5628277E-1],"split_indices":[1006,226,1206,1477,1685,1565,328,1216,622,1710,409,0,624,1492,0,1688,1330,1529,1309,1518,1297,1761,0,0,0,814,218,581,476,1176,99,0,0,491,0,877,379,117,613,17,0,0,0,0,46,0,0,0,0,0,0,0,0,0,0,0,0,0,0,0,0,0,0,0,0,0,0],"split_type":[0,0,0,0,0,0,0,0,0,0,0,0,0,0,0,0,0,0,0,0,0,0,0,0,0,0,0,0,0,0,0,0,0,0,0,0,0,0,0,0,0,0,0,0,0,0,0,0,0,0,0,0,0,0,0,0,0,0,0,0,0,0,0,0,0,0,0],"sum_hessian":[2.6151147E2,2.3247188E2,2.903961E1,3.5775883E1,1.9669598E2,6.182792E0,2.2856817E1,2.7351156E1,8.4247265E0,1.7490564E2,2.179035E1,2.4171896E0,3.7656026E0,2.114859E1,1.7082264E0,1.1176489E1,1.6174667E1,2.5795639E0,5.845163E0,1.6557104E2,9.334597E0,2.022115E1,1.5691998E0,1.2784734E0,2.487129E0,1.7092253E1,4.0563374E0,7.2162943E0,3.9601948E0,8.189933E0,7.9847345E0,1.5576324E0,1.0219315E0,4.7236586E0,1.1215045E0,1.35675E2,2.989604E1,2.0877476E0,7.2468486E0,1.8970264E1,1.2508861E0,1.6083395E1,1.0088576E0,1.9195198E0,2.1368177E0,6.214189E0,1.0021052E0,2.1050777E0,1.8551172E0,5.26397E0,2.9259634E0,5.3076825E0,2.6770518E0,3.6767185E0,1.04694E0,1.2446076E2,1.121424E1,1.1017423E1,1.8878616E1,1.0876029E0,1.0001446E0,1.1427805E0,6.1040683E0,1.7224308E1,1.7459568E0,1.03277E0,1.1040477E0],"tree_param":{"num_deleted":"0","num_feature":"1785","num_nodes":"67","size_leaf_vector":"1"}},{"base_weights":[1.2784016E-2,3.3335653E-1,-6.022885E-2,5.7406384E-1,-5.783945E-1,9.9416983E-1,-9.277433E-2,-2.4802774E-1,8.599246E-1,-1.03569984E-1,6.0271513E-1,-6.2670134E-2,1.4556104E0,-1.4398013E-1,5.9060603E-1,-6.2735057E-1,9.2195547E-1,-4.361061E-1,1.0882639E0,-3.7506208E-2,1.443798E-1,-1.8836042E-2,1.9308543E0,-9.564842E-2,-9.130121E-1,-3.2606047E-1,1.4095576E0,-1.01654194E-1,5.8672994E-2,1.14018396E-1,2.5050223E-2,-9.088663E-2,7.104599E-2,1.5413622E0,2.1738985E-1,2.227952E-1,6.0019772E-2,-1.6145192E-1,8.005583E-1,2.8259596E-2,-1.0664493E-1,-8.4101075E-1,8.516016E-2,-3.415647E-2,1.8649344E0,1.7822337E-1,-3.8005434E-2,-6.429129E-2,1.0323178E-1,-6.653324E-3,-6.634025E-2,-1.8584229E-2,1.4125536E-1,-9.6232824E-2,-1.305491E-2,2.1934684E-1,4.261249E-2],"categories":[],"categories_nodes":[],"categories_segments":[],"categories_sizes":[],"default_left":[0,0,0,0,0,0,0,0,0,0,0,0,0,0,0,0,0,0,0,0,0,0,0,0,0,0,0,0,0,0,0,0,0,0,0,0,0,0,0,0,0,0,0,0,0,0,0,0,0,0,0,0,0,0,0,0,0],"id":9,"left_children":[1,3,5,7,9,11,13,15,17,-1,19,-1,21,23,25,27,29,31,33,-1,-1,-1,35,37,39,41,43,-1,-1,-1,-1,-1,-1,45,47,-1,-1,49,51,-1,-1,53,-1,-1,55,-1,-1,-1,-1,-1,-1,-1,-1,-1,-1,-1,-1],"loss_changes":[6.123818E0,1.0982487E1,7.4100494E0,9.353755E0,6.3680162E0,5.751737E0,7.3558207E0,5.376489E0,9.081451E0,0E0,3.502348E0,0E0,4.533883E0,7.1270456E0,1.1479647E1,4.735363E0,1.6157866E-1,3.3941393E0,9.534933E0,0E0,0E0,0E0,3.3485222E-1,1.0964944E1,2.3854218E0,5.4092426E0,6.969221E0,0E0,0E0,0E0,0E0,0E0,0E0,8.216053E0,7.481304E0,0E0,0E0,8.150824E0,7.9508266E0,0E0,0E0,3.818164E-1,0E0,0E0,2.117445E0,0E0,0E0,0E0,0E0,0E0,0E0,0E0,0E0,0E0,0E0,0E0,0E0],"parents":[2147483647,0,0,1,1,2,2,3,3,4,4,5,5,6,6,7,7,8,8,10,10,12,12,13,13,14,14,15,15,16,16,17,17,18,18,22,22,23,23,24,24,25,25,26,26,33,33,34,34,37,37,38,38,41,41,44,44],"right_children":[2,4,6,8,10,12,14,16,18,-1,20,-1,22,24,26,28,30,32,34,-1,-1,-1,36,38,40,42,44,-1,-1,-1,-1,-1,-1,46,48,-1,-1,50,52,-1,-1,54,-1,-1,56,-1,-1,-1,-1,-1,-1,-1,-1,-1,-1,-1,-1],"split_conditions":[1.3333334E-1,9E-1,3E-1,4E-2,4E-1,2E-2,2.6E-1,1.8E-1,2E-2,-1.03569984E-1,4.95E-1,-6.2670134E-2,7.1875E-1,5.34E0,4.08E0,4E-1,4E-2,1.8E-1,5E-1,-3.7506208E-2,1.443798E-1,-1.8836042E-2,8E-2,5.6E0,4.64E0,5.85E-1,2E-2,-1.01654194E-1,5.8672994E-2,1.14018396E-1,2.5050223E-2,-9.088663E-2,7.104599E-2,5E-1,6E-2,2.227952E-1,6.0019772E-2,6.15E-1,1E-1,2.8259596E-2,-1.0664493E-1,1.4E-1,8.516016E-2,-3.415647E-2,6E-2,1.7822337E-1,-3.8005434E-2,-6.429129E-2,1.0323178E-1,-6.653324E-3,-6.634025E-2,-1.8584229E-2,1.4125536E-1,-9.6232824E-2,-1.305491E-2,2.1934684E-1,4.261249E-2],"split_indices":[772,1052,337,1218,801,724,244,728,1562,0,99,0,464,1189,830,442,365,964,1650,0,0,0,1443,349,1300,337,16,0,0,0,0,0,0,1655,973,0,0,1289,1081,0,0,848,0,0,1314,0,0,0,0,0,0,0,0,0,0,0,0],"split_type":[0,0,0,0,0,0,0,0,0,0,0,0,0,0,0,0,0,0,0,0,0,0,0,0,0,0,0,0,0,0,0,0,0,0,0,0,0,0,0,0,0,0,0,0,0,0,0,0,0,0,0,0,0,0,0,0,0],"sum_hessian":[2.5977765E2,4.7529125E1,2.1224854E2,3.7895004E1,9.63412E0,5.4704795E0,2.0677806E2,9.811367E0,2.8083637E1,7.033848E0,2.6002722E0,1.1328949E0,4.3375845E0,1.9309846E2,1.3679586E1,7.759453E0,2.0519142E0,4.0704217E0,2.4013216E1,1.4586416E0,1.1416305E0,1.1080964E0,3.229488E0,1.827382E2,1.0360257E1,6.7387E0,6.9408865E0,5.999069E0,1.7603838E0,1.0217515E0,1.0301626E0,3.0288565E0,1.0415652E0,1.52888365E1,8.724379E0,2.0887945E0,1.1406935E0,1.710023E2,1.1735902E1,1.0826102E0,9.277647E0,4.8874526E0,1.8512473E0,1.4840393E0,5.456847E0,1.3650081E1,1.6387562E0,4.346718E0,4.377661E0,1.4476067E2,2.624164E1,4.7600656E0,6.9758363E0,3.8717983E0,1.0156542E0,4.015465E0,1.4413823E0],"tree_param":{"num_deleted":"0","num_feature":"1785","num_nodes":"57","size_leaf_vector":"1"}},{"base_weights":[1.2734919E-2,-2.7276885E-2,5.7960534E-1,5.978967E-2,-3.951075E-1,1.0594002E0,-2.4643078E-1,-3.0853927E-1,1.5019757E-1,4.260303E-1,-6.009758E-1,-9.7979166E-2,1.59743E0,1.08178735E-1,-6.9079745E-1,-5.380605E-1,6.230946E-1,2.1006003E-1,-6.652013E-1,1.2185826E0,-4.592174E-1,-7.626458E-1,4.0875444E-1,7.5430565E-2,-7.802447E-2,2.0041642E0,1.8343596E-2,2.8007666E-2,-9.449192E-2,-6.614588E-1,1.1731205E-1,1.0320537E0,-7.032334E-2,1.1406455E-1,8.4243226E-1,-8.7645066E-1,6.4989574E-2,-1.6277475E-2,1.9673318E-1,7.0604585E-2,-9.0639584E-2,-8.603814E-1,9.606333E-2,-8.097344E-2,1.2376261E0,4.9955606E-2,2.2954844E-1,4.128804E-2,-8.015493E-2,1.6153306E-1,-2.707401E-3,2.5225583E-2,-2.9309288E-2,-2.9372025E-2,1.085722E-1,-1.0363708E-1,2.5756925E-2,-9.3839355E-2,6.493916E-2,2.5362954E-3,1.883539E-1],"categories":[],"categories_nodes":[],"categories_segments":[],"categories_sizes":[],"default_left":[0,0,0,0,0,0,0,0,0,0,0,0,0,0,0,0,0,0,0,0,0,0,0,0,0,0,0,0,0,0,0,0,0,0,0,0,0,0,0,0,0,0,0,0,0,0,0,0,0,0,0,0,0,0,0,0,0,0,0,0,0],"id":10,"left_children":[1,3,5,7,9,11,13,15,17,19,21,23,25,-1,27,29,31,33,35,37,39,41,43,-1,-1,45,-1,-1,-1,47,-1,49,-1,51,53,55,-1,-1,-1,-1,-1,57,-1,-1,59,-1,-1,-1,-1,-1,-1,-1,-1,-1,-1,-1,-1,-1,-1,-1,-1],"loss_changes":[5.889559E0,7.801005E0,7.0456567E0,6.6142607E0,8.1356325E0,7.0171843E0,4.9384737E0,8.7171E0,7.9026146E0,7.5256844E0,6.463277E0,3.1695025E0,3.9911766E0,0E0,1.7280016E0,7.530246E0,5.179881E0,8.944072E0,3.658094E0,6.0216227E0,3.4623473E0,6.356167E0,6.9123874E0,0E0,0E0,1.3890343E0,0E0,0E0,0E0,4.9175673E0,0E0,4.1714115E0,0E0,7.413757E0,5.70078E0,2.0812426E0,0E0,0E0,0E0,0E0,0E0,4.330881E0,0E0,0E0,2.9889698E0,0E0,0E0,0E0,0E0,0E0,0E0,0E0,0E0,0E0,0E0,0E0,0E0,0E0,0E0,0E0,0E0],"parents":[2147483647,0,0,1,1,2,2,3,3,4,4,5,5,6,6,7,7,8,8,9,9,10,10,11,11,12,12,14,14,15,15,16,16,17,17,18,18,19,19,20,20,21,21,22,22,25,25,29,29,31,31,33,33,34,34,35,35,41,41,44,44],"right_children":[2,4,6,8,10,12,14,16,18,20,22,24,26,-1,28,30,32,34,36,38,40,42,44,-1,-1,46,-1,-1,-1,48,-1,50,-1,52,54,56,-1,-1,-1,-1,-1,58,-1,-1,60,-1,-1,-1,-1,-1,-1,-1,-1,-1,-1,-1,-1,-1,-1,-1,-1],"split_conditions":[6E-1,4E-1,8.4375E-1,2E-2,2E-2,6E-2,2E-2,2.4E-1,2.2E-1,4E-2,3.2E-1,4E-2,4E-1,1.08178735E-1,2E-2,3.3333334E-1,9.0625E-1,2.4E-1,2.6E-1,1E-1,2E-2,8.333333E-1,4E-2,7.5430565E-2,-7.802447E-2,4E-2,1.8343596E-2,2.8007666E-2,-9.449192E-2,3.3333334E-1,1.1731205E-1,1.6666667E-1,-7.032334E-2,1.2E-1,2E-2,2.6666668E-1,6.4989574E-2,-1.6277475E-2,1.9673318E-1,7.0604585E-2,-9.0639584E-2,1E0,9.606333E-2,-8.097344E-2,3.3333334E-1,4.9955606E-2,2.2954844E-1,4.128804E-2,-8.015493E-2,1.6153306E-1,-2.707401E-3,2.5225583E-2,-2.9309288E-2,-2.9372025E-2,1.085722E-1,-1.0363708E-1,2.5756925E-2,-9.3839355E-2,6.493916E-2,2.5362954E-3,1.883539E-1],"split_indices":[1034,1259,107,251,1082,984,743,1669,841,494,265,1670,436,0,620,39,1416,1443,506,504,1680,937,502,0,0,736,0,0,0,1529,0,872,0,494,606,293,0,0,0,0,0,821,0,0,1655,0,0,0,0,0,0,0,0,0,0,0,0,0,0,0,0],"split_type":[0,0,0,0,0,0,0,0,0,0,0,0,0,0,0,0,0,0,0,0,0,0,0,0,0,0,0,0,0,0,0,0,0,0,0,0,0,0,0,0,0,0,0,0,0,0,0,0,0,0,0,0,0,0,0,0,0,0,0,0,0],"sum_hessian":[2.5796643E2,2.418478E2,1.6118626E1,1.962357E2,4.5612095E1,1.0017532E1,6.1010942E0,3.8198647E1,1.5803705E2,8.928791E0,3.6683308E1,3.4385688E0,6.5789633E0,1.1698747E0,4.9312196E0,3.0987011E1,7.2116356E0,1.479199E2,1.0117147E1,4.512371E0,4.4164195E0,3.1831415E1,4.851891E0,1.4818523E0,1.9567167E0,4.7851424E0,1.793821E0,1.0017794E0,3.92944E0,2.9474936E1,1.512075E0,5.6816354E0,1.5300001E0,1.2944955E2,1.8470348E1,9.004298E0,1.11285E0,1.8612254E0,2.6511457E0,1.0642617E0,3.3521578E0,3.0596848E1,1.2345678E0,1.97363E0,2.878261E0,1.2165761E0,3.5685663E0,3.1754568E0,2.6299479E1,3.325231E0,2.3564045E0,9.693111E1,3.251845E1,3.221023E0,1.5249325E1,7.966909E0,1.037389E0,2.9453402E1,1.1434447E0,1.3617557E0,1.5165052E0],"tree_param":{"num_deleted":"0","num_feature":"1785","num_nodes":"61","size_leaf_vector":"1"}},{"base_weights":[1.3688825E-2,-8.4047824E-2,2.3915717E-1,3.9019533E-3,-7.639366E-1,4.2457736E-1,-4.1511336E-1,8.9337006E-2,-8.481472E-1,-8.8219213E-1,7.1437836E-2,1.0591491E0,2.4003874E-1,-9.164181E-1,2.9878134E-1,5.7430345E-1,-2.532561E-2,-1.0770626E-1,-2.5043147E-2,-1.24599494E-1,-1.09506786E-1,-1.4414097E-1,1.5108289E0,4.9738312E-1,-3.5384557E-1,-1.0630832E-1,2.3510827E-2,-8.072402E-2,8.495804E-1,1.3085281E0,8.97577E-2,-9.620339E-2,9.2141765E-1,1.2089151E-1,-7.93142E-2,6.3843393E-1,-8.156884E-2,-8.0644935E-2,7.692485E-2,1.9315912E0,-4.2334836E-2,1.0994852E-1,1.2070528E0,-6.244532E-1,9.765166E-2,1.3717198E0,-3.6943864E-2,-6.7715E-2,1.6618432E-1,1.3072582E-1,-2.5330875E-2,-4.1150812E-2,1.1585502E-2,1.4589576E-1,-5.13539E-2,1.2085175E-1,-2.1739528E-2,3.4638777E-2,2.231526E-1,-9.369933E-2,3.679427E-2,1.8444705E-1,6.637811E-3,2.398275E-2,-9.632782E-2,2.2873161E-2,1.6966008E-1],"categories":[],"categories_nodes":[],"categories_segments":[],"categories_sizes":[],"default_left":[0,0,0,0,0,0,0,0,0,0,0,0,0,0,0,0,0,0,0,0,0,0,0,0,0,0,0,0,0,0,0,0,0,0,0,0,0,0,0,0,0,0,0,0,0,0,0,0,0,0,0,0,0,0,0,0,0,0,0,0,0,0,0,0,0,0,0],"id":11,"left_children":[1,3,5,7,9,11,13,15,17,19,-1,21,23,25,27,29,31,-1,33,35,-1,37,39,41,43,-1,-1,-1,45,47,49,51,53,-1,-1,55,-1,-1,-1,57,-1,59,61,63,-1,65,-1,-1,-1,-1,-1,-1,-1,-1,-1,-1,-1,-1,-1,-1,-1,-1,-1,-1,-1,-1,-1],"loss_changes":[5.68248E0,1.0765777E1,9.634277E0,1.1749886E1,4.235283E0,6.917303E0,6.6158886E0,8.169935E0,2.7447367E0,3.01511E0,0E0,7.557271E0,7.6246386E0,2.0497246E0,5.5987825E0,9.874902E0,8.112353E0,0E0,4.963004E0,3.3761904E0,0E0,3.4021926E0,8.879206E0,9.330703E0,6.124578E0,0E0,0E0,0E0,4.2435513E0,8.907728E0,7.846964E0,7.5463696E0,7.2461643E0,0E0,0E0,1.7920123E0,0E0,0E0,0E0,3.1807003E0,0E0,6.6555266E0,8.642208E0,4.137297E0,0E0,1.217021E0,0E0,0E0,0E0,0E0,0E0,0E0,0E0,0E0,0E0,0E0,0E0,0E0,0E0,0E0,0E0,0E0,0E0,0E0,0E0,0E0,0E0],"parents":[2147483647,0,0,1,1,2,2,3,3,4,4,5,5,6,6,7,7,8,8,9,9,11,11,12,12,13,13,14,14,15,15,16,16,18,18,19,19,21,21,22,22,23,23,24,24,28,28,29,29,30,30,31,31,32,32,35,35,39,39,41,41,42,42,43,43,45,45],"right_children":[2,4,6,8,10,12,14,16,18,20,-1,22,24,26,28,30,32,-1,34,36,-1,38,40,42,44,-1,-1,-1,46,48,50,52,54,-1,-1,56,-1,-1,-1,58,-1,60,62,64,-1,66,-1,-1,-1,-1,-1,-1,-1,-1,-1,-1,-1,-1,-1,-1,-1,-1,-1,-1,-1,-1,-1],"split_conditions":[5E-1,2E-1,6.666667E-1,1.8E-1,3.2E-1,2E-2,8E-2,2E-2,1.4E-1,6.5625E-1,7.1437836E-2,4E-2,1.2E-1,2.4E-1,3.3333334E-1,2E-1,2.6E-1,-1.0770626E-1,2E-1,6E-2,-1.09506786E-1,1E-1,1.6E-1,2.3333333E-1,9.375E-1,-1.0630832E-1,2.3510827E-2,-8.072402E-2,8E-2,2E-2,2E-2,6E-2,4E-1,1.2089151E-1,-7.93142E-2,4E-2,-8.156884E-2,-8.0644935E-2,7.692485E-2,2E-2,-4.2334836E-2,2E-2,8E-2,1.3333334E-1,9.765166E-2,4E-2,-3.6943864E-2,-6.7715E-2,1.6618432E-1,1.3072582E-1,-2.5330875E-2,-4.1150812E-2,1.1585502E-2,1.4589576E-1,-5.13539E-2,1.2085175E-1,-2.1739528E-2,3.4638777E-2,2.231526E-1,-9.369933E-2,3.679427E-2,1.8444705E-1,6.637811E-3,2.398275E-2,-9.632782E-2,2.2873161E-2,1.6966008E-1],"split_indices":[817,745,817,1428,22,842,1309,863,1072,583,0,143,486,495,1772,67,18,0,514,125,0,23,483,766,1178,0,0,0,15,741,30,10,1399,0,0,1441,0,0,0,1101,0,481,1555,1728,0,1318,0,0,0,0,0,0,0,0,0,0,0,0,0,0,0,0,0,0,0,0,0],"split_type":[0,0,0,0,0,0,0,0,0,0,0,0,0,0,0,0,0,0,0,0,0,0,0,0,0,0,0,0,0,0,0,0,0,0,0,0,0,0,0,0,0,0,0,0,0,0,0,0,0,0,0,0,0,0,0,0,0,0,0,0,0,0,0,0,0,0,0],"sum_hessian":[2.5595433E2,1.7899173E2,7.69626E1,1.5937003E2,1.9621698E1,6.0241295E1,1.6721308E1,1.4565985E2,1.3710176E1,1.8541725E1,1.0799723E0,1.2504094E1,4.77372E1,9.656629E0,7.0646787E0,2.708691E1,1.1857294E2,1.0485494E1,3.2246828E0,4.41494E0,1.4126785E1,3.598485E0,8.905609E0,3.3418606E1,1.4318596E1,8.633784E0,1.0228444E0,2.1938267E0,4.870852E0,1.0092848E1,1.6994062E1,1.1115009E2,7.422848E0,1.0169835E0,2.2076993E0,2.1344633E0,2.2804768E0,2.153813E0,1.4446721E0,7.315522E0,1.590087E0,2.2364136E1,1.1054469E1,1.2339288E1,1.9793081E0,3.3224778E0,1.5483743E0,1.3861182E0,8.70673E0,3.1180341E0,1.3876028E1,4.431645E1,6.683364E1,5.387824E0,2.0350242E0,1.0337574E0,1.100706E0,1.5067866E0,5.808736E0,3.9012008E0,1.8462936E1,6.695803E0,4.3586655E0,3.5573404E0,8.781947E0,1.1125119E0,2.209966E0],"tree_param":{"num_deleted":"0","num_feature":"1785","num_nodes":"67","size_leaf_vector":"1"}},{"base_weights":[1.290622E-2,-3.0598375E-1,7.888839E-2,-4.407356E-1,1.2210268E0,-1.3353448E-1,2.2506629E-1,-5.519915E-1,8.649281E-1,1.6654633E-1,1.4406392E-2,-4.4142908E-1,1.4594398E-1,2.892068E-1,-6.474136E-1,-6.63294E-1,1.0011665E-1,-2.6858589E-2,1.5737528E-1,-5.889491E-1,3.9690948E-1,-9.194144E-1,3.441286E-1,4.1820088E-1,-1.18888594E-1,-1.0039216E-1,4.3515563E-2,-8.4248424E-1,6.62353E-2,-6.7216057E-1,9.603128E-2,-4.777215E-1,1.3363822E-1,-1.0171552E-1,-1.43976165E-2,1.0064446E0,2.2560744E-2,6.043798E-1,-6.2785886E-2,4.566474E-1,-5.691927E-1,-1.0215031E-1,-3.5051864E-3,9.076064E-2,-6.0519505E-2,6.36464E-2,-7.816405E-2,-8.088662E-2,2.9588465E-2,-7.158039E-2,1.2981555E-1,7.308897E-2,-4.051041E-2,-9.534254E-3,7.782206E-2,-7.1642324E-2,5.2697975E-2,1.0011121E-1,-6.0927864E-2,-7.486581E-2,7.54139E-2],"categories":[],"categories_nodes":[],"categories_segments":[],"categories_sizes":[],"default_left":[0,0,0,0,0,0,0,0,0,0,0,0,0,0,0,0,0,0,0,0,0,0,0,0,0,0,0,0,0,0,0,0,0,0,0,0,0,0,0,0,0,0,0,0,0,0,0,0,0,0,0,0,0,0,0,0,0,0,0,0,0],"id":12,"left_children":[1,3,5,7,9,11,13,15,17,-1,-1,19,21,23,25,27,-1,-1,-1,29,31,33,35,37,39,-1,-1,41,43,45,-1,47,-1,-1,-1,49,51,53,55,57,59,-1,-1,-1,-1,-1,-1,-1,-1,-1,-1,-1,-1,-1,-1,-1,-1,-1,-1,-1,-1],"loss_changes":[5.3840046E0,9.566471E0,6.6085515E0,6.4409356E0,1.5899816E0,7.5497284E0,7.2310576E0,7.309227E0,3.3256385E0,0E0,0E0,5.383238E0,1.0102558E1,6.258363E0,3.8827384E0,4.823471E0,0E0,0E0,0E0,5.2620153E0,6.2489195E0,4.251938E-1,8.455467E0,8.082745E0,7.802912E0,0E0,0E0,4.2069397E0,5.135796E0,5.450721E0,0E0,1.3338877E0,0E0,0E0,0E0,7.4541454E0,8.7234955E0,7.963871E0,1.0390927E1,8.3465805E0,4.548307E0,0E0,0E0,0E0,0E0,0E0,0E0,0E0,0E0,0E0,0E0,0E0,0E0,0E0,0E0,0E0,0E0,0E0,0E0,0E0,0E0],"parents":[2147483647,0,0,1,1,2,2,3,3,4,4,5,5,6,6,7,7,8,8,11,11,12,12,13,13,14,14,15,15,19,19,20,20,21,21,22,22,23,23,24,24,27,27,28,28,29,29,31,31,35,35,36,36,37,37,38,38,39,39,40,40],"right_children":[2,4,6,8,10,12,14,16,18,-1,-1,20,22,24,26,28,-1,-1,-1,30,32,34,36,38,40,-1,-1,42,44,46,-1,48,-1,-1,-1,50,52,54,56,58,60,-1,-1,-1,-1,-1,-1,-1,-1,-1,-1,-1,-1,-1,-1,-1,-1,-1,-1,-1,-1],"split_conditions":[2E-2,3.3333334E-1,6E-2,6E-1,6E-2,8E-1,6.666667E-1,3.3333334E-1,3.3333334E-1,1.6654633E-1,1.4406392E-2,2.2E-1,2E-2,4E-1,1.8E-1,4E-1,1.0011665E-1,-2.6858589E-2,1.5737528E-1,6E-1,1E-1,2.2E-1,4E-2,3.76E0,6E-2,-1.0039216E-1,4.3515563E-2,4E-1,4E-2,1E-1,9.603128E-2,4E-1,1.3363822E-1,-1.0171552E-1,-1.43976165E-2,2E-2,4E-2,1.6666667E-1,5.64E0,1.2E-1,6.666667E-1,-1.0215031E-1,-3.5051864E-3,9.076064E-2,-6.0519505E-2,6.36464E-2,-7.816405E-2,-8.088662E-2,2.9588465E-2,-7.158039E-2,1.2981555E-1,7.308897E-2,-4.051041E-2,-9.534254E-3,7.782206E-2,-7.1642324E-2,5.2697975E-2,1.0011121E-1,-6.0927864E-2,-7.486581E-2,7.54139E-2],"split_indices":[1571,517,1337,1025,1444,695,817,158,223,0,0,1216,855,322,18,1640,0,0,0,1401,1094,1667,1695,1308,1080,0,0,1641,720,873,0,194,0,0,0,739,1560,1231,592,19,463,0,0,0,0,0,0,0,0,0,0,0,0,0,0,0,0,0,0,0,0],"split_type":[0,0,0,0,0,0,0,0,0,0,0,0,0,0,0,0,0,0,0,0,0,0,0,0,0,0,0,0,0,0,0,0,0,0,0,0,0,0,0,0,0,0,0,0,0,0,0,0,0,0,0,0,0,0,0,0,0,0,0,0,0],"sum_hessian":[2.5373378E2,4.2876328E1,2.1085745E2,4.0053185E1,2.8231409E0,8.5987946E1,1.2486951E2,3.7440136E1,2.6130505E0,1.6116197E0,1.211521E0,4.0638275E1,4.534967E1,1.16941086E2,7.9284205E0,3.5471138E1,1.9689953E0,1.2443061E0,1.3687444E0,3.4810287E1,5.8279862E0,6.5422215E0,3.880745E1,8.883624E1,2.8104841E1,6.0189342E0,1.9094862E0,2.8352291E1,7.118849E0,3.35732E1,1.2370883E0,3.2726824E0,2.555304E0,5.5330825E0,1.0091387E0,1.1987545E1,2.6819904E1,6.38607E1,2.4975544E1,1.2330754E1,1.5774087E1,2.2989973E1,5.3623176E0,3.0034578E0,4.115391E0,2.2202926E0,3.1352907E1,2.259792E0,1.0128902E0,1.5257523E0,1.0461793E1,9.829901E0,1.6990004E1,1.2798267E1,5.106243E1,1.17444315E1,1.3231113E1,8.202038E0,4.1287165E0,1.4272734E1,1.5013528E0],"tree_param":{"num_deleted":"0","num_feature":"1785","num_nodes":"61","size_leaf_vector":"1"}},{"base_weights":[1.2017875E-2,4.631973E-2,-5.7430905E-1,3.4617344E-1,-3.0334326E-2,-9.430111E-1,1.6234927E-1,6.286123E-1,-2.1633688E-1,-4.712228E-1,6.5366164E-2,-1.0203129E-1,-1.4358972E-2,1.0097313E0,-7.959499E-2,8.7524843E-1,-4.5247573E-1,8.730509E-1,-5.94357E-1,-6.8916184E-1,2.0493661E-1,-9.270324E-1,1.13706954E-1,1.6260764E-2,1.408346E-1,-4.143216E-1,1.0999653E0,-7.9735947E-1,7.504743E-2,-2.908051E-2,1.3931559E-1,-8.316704E-1,6.0254224E-2,-8.244766E-1,4.378688E-1,7.805066E-1,-6.567159E-1,-1.9944822E-2,-1.01198316E-1,-8.8925295E-2,3.6901253E-1,6.322073E-2,-8.664743E-2,1.2754127E-1,-5.1098138E-2,-9.151189E-2,-1.306435E-2,-1.0547177E-1,1.8146599E-2,5.367379E-3,-1.02137364E-1,-6.468918E-2,1.2696002E-1,1.3697731E-1,-4.185189E-2,-8.07076E-2,-8.846696E-3,-2.4733195E-2,4.6612706E-2,4.997679E-2,-4.917893E-2],"categories":[],"categories_nodes":[],"categories_segments":[],"categories_sizes":[],"default_left":[0,0,0,0,0,0,0,0,0,0,0,0,0,0,0,0,0,0,0,0,0,0,0,0,0,0,0,0,0,0,0,0,0,0,0,0,0,0,0,0,0,0,0,0,0,0,0,0,0,0,0,0,0,0,0,0,0,0,0,0,0],"id":13,"left_children":[1,3,5,7,9,11,13,15,17,19,21,-1,-1,23,-1,25,27,29,31,33,35,37,39,-1,-1,41,43,45,-1,-1,-1,47,-1,49,51,53,55,-1,-1,57,59,-1,-1,-1,-1,-1,-1,-1,-1,-1,-1,-1,-1,-1,-1,-1,-1,-1,-1,-1,-1],"loss_changes":[5.1032753E0,5.512953E0,3.962582E0,7.8921223E0,8.113929E0,4.4020176E-1,5.295536E0,9.130082E0,7.5454655E0,5.1941123E0,7.6988683E0,0E0,0E0,9.111378E-1,0E0,8.283649E0,3.3963423E0,3.3110416E0,4.2680745E0,4.3505383E0,5.039934E0,2.5933886E-1,7.8871284E0,0E0,0E0,2.7883458E0,7.230791E0,3.3002067E-1,0E0,0E0,0E0,2.7873678E0,0E0,4.153164E0,3.9405901E0,4.763025E0,2.8736448E-1,0E0,0E0,7.6283245E0,7.829068E0,0E0,0E0,0E0,0E0,0E0,0E0,0E0,0E0,0E0,0E0,0E0,0E0,0E0,0E0,0E0,0E0,0E0,0E0,0E0,0E0],"parents":[2147483647,0,0,1,1,2,2,3,3,4,4,5,5,6,6,7,7,8,8,9,9,10,10,13,13,15,15,16,16,17,17,18,18,19,19,20,20,21,21,22,22,25,25,26,26,27,27,31,31,33,33,34,34,35,35,36,36,39,39,40,40],"right_children":[2,4,6,8,10,12,14,16,18,20,22,-1,-1,24,-1,26,28,30,32,34,36,38,40,-1,-1,42,44,46,-1,-1,-1,48,-1,50,52,54,56,-1,-1,58,60,-1,-1,-1,-1,-1,-1,-1,-1,-1,-1,-1,-1,-1,-1,-1,-1,-1,-1,-1,-1],"split_conditions":[6E-1,2E-2,8.75E-1,1E-1,2E-2,4.72E0,6E-2,4E-1,2E-2,9.0625E-1,1E-1,-1.0203129E-1,-1.4358972E-2,2.3333333E-1,-7.959499E-2,4E-1,2.4E-1,8E-2,2E-1,3E-1,1.2E-1,4.2E-1,8E-2,1.6260764E-2,1.408346E-1,2E-2,2.4E-1,1.6E-1,7.504743E-2,-2.908051E-2,1.3931559E-1,3E-1,6.0254224E-2,2E-2,4E-1,6E-2,2.3333333E-1,-1.9944822E-2,-1.01198316E-1,1.6E-1,1.8E-1,6.322073E-2,-8.664743E-2,1.2754127E-1,-5.1098138E-2,-9.151189E-2,-1.306435E-2,-1.0547177E-1,1.8146599E-2,5.367379E-3,-1.02137364E-1,-6.468918E-2,1.2696002E-1,1.3697731E-1,-4.185189E-2,-8.07076E-2,-8.846696E-3,-2.4733195E-2,4.6612706E-2,4.997679E-2,-4.917893E-2],"split_indices":[428,25,464,1082,1675,594,1440,1032,139,1535,278,0,0,629,0,1289,617,360,978,1448,1218,813,1445,0,0,496,250,367,0,0,0,1606,0,377,82,377,989,0,0,1451,1447,0,0,0,0,0,0,0,0,0,0,0,0,0,0,0,0,0,0,0,0],"split_type":[0,0,0,0,0,0,0,0,0,0,0,0,0,0,0,0,0,0,0,0,0,0,0,0,0,0,0,0,0,0,0,0,0,0,0,0,0,0,0,0,0,0,0,0,0,0,0,0,0,0,0,0,0,0,0,0,0,0,0,0,0],"sum_hessian":[2.5141884E2,2.3839313E2,1.30257015E1,4.781915E1,1.9057397E2,8.494188E0,4.531513E0,3.1756542E1,1.6062609E1,3.3288986E1,1.57285E2,7.4932933E0,1.0008945E0,2.3764513E0,2.1550622E0,2.6012524E1,5.7440186E0,3.8005512E0,1.2262057E1,2.5160158E1,8.128827E0,6.461357E0,1.5082364E2,1.2109369E0,1.1655143E0,3.7349916E0,2.2277533E1,4.7261906E0,1.0178276E0,1.3099979E0,2.4905534E0,1.0487759E1,1.7742985E0,2.2702837E1,2.45732E0,4.929905E0,3.1989224E0,1.0255504E0,5.4358068E0,8.444923E1,6.637441E1,1.0067061E0,2.7282853E0,2.0277412E1,2.0001192E0,3.7000828E0,1.026108E0,8.561793E0,1.9259657E0,4.291294E0,1.8411543E1,1.1628904E0,1.2944295E0,3.2099533E0,1.7199516E0,2.1972413E0,1.0016812E0,6.6130585E1,1.8318642E1,5.7985813E1,8.3885975E0],"tree_param":{"num_deleted":"0","num_feature":"1785","num_nodes":"61","size_leaf_vector":"1"}},{"base_weights":[9.341376E-3,-2.8472427E-1,7.664336E-2,-4.8205796E-1,5.221769E-1,2.0128174E-1,-1.8387441E-1,-6.4741504E-1,1.6253367E-1,-7.9599306E-2,9.967639E-1,5.095118E-2,5.521044E-1,9.063316E-1,-2.6418382E-1,2.9820508E-1,-7.768778E-1,1.1909132E0,-5.156896E-1,-4.1563675E-2,1.4837041E0,6.338003E-1,-7.398441E-2,-7.917301E-1,7.4763465E-1,1.5107305E-1,-6.0105372E-2,-3.4965622E-1,9.281456E-1,-5.180418E-1,1.2972791E-1,-8.6166775E-1,5.7853747E-2,1.5875513E-2,1.5450276E-1,6.485513E-2,-9.184184E-2,1.8105324E-1,7.5517385E-3,-6.53571E-1,9.139066E-1,-2.0916766E-1,5.805517E-1,-9.153132E-2,-1.0793923E-2,1.5075679E0,4.9536192E-1,2.5299427E-1,-5.035475E-1,1.5574962E-1,-5.8980513E-2,-6.3507915E-2,-1.3460522E-2,-9.459845E-2,6.091486E-3,-7.487578E-2,-1.98226E-2,1.2475798E-1,-4.2246744E-2,-5.1798552E-2,6.714509E-3,-2.4128636E-2,1.1357007E-1,1.8204491E-1,-2.4299122E-2,-6.976565E-2,6.787363E-2,-2.9470906E-2,1.393937E-1,-8.782156E-2,-1.6472857E-2],"categories":[],"categories_nodes":[],"categories_segments":[],"categories_sizes":[],"default_left":[0,0,0,0,0,0,0,0,0,0,0,0,0,0,0,0,0,0,0,0,0,0,0,0,0,0,0,0,0,0,0,0,0,0,0,0,0,0,0,0,0,0,0,0,0,0,0,0,0,0,0,0,0,0,0,0,0,0,0,0,0,0,0,0,0,0,0,0,0,0,0],"id":14,"left_children":[1,3,5,7,9,11,13,15,17,-1,19,21,23,25,27,29,31,33,35,-1,37,39,41,43,45,-1,-1,47,49,51,-1,53,-1,-1,-1,-1,-1,-1,-1,55,57,59,61,-1,-1,63,65,67,69,-1,-1,-1,-1,-1,-1,-1,-1,-1,-1,-1,-1,-1,-1,-1,-1,-1,-1,-1,-1,-1,-1],"loss_changes":[4.983503E0,7.7200785E0,6.686908E0,4.177596E0,6.8594766E0,7.3027363E0,6.0876994E0,3.9786844E0,6.6120534E0,0E0,5.825513E0,7.2127657E0,1.1521334E1,5.288969E0,6.74368E0,4.267038E0,3.6243477E0,1.1142836E0,3.3525212E0,0E0,2.5560274E0,6.898804E0,7.3709826E0,3.8871288E-1,6.313055E0,0E0,0E0,5.645649E0,5.205052E0,5.5463195E-2,0E0,2.08008E0,0E0,0E0,0E0,0E0,0E0,0E0,0E0,1.2196779E-2,7.112832E0,5.892046E0,6.793699E0,0E0,0E0,5.2012863E0,6.847776E0,8.390052E0,5.9146347E0,0E0,0E0,0E0,0E0,0E0,0E0,0E0,0E0,0E0,0E0,0E0,0E0,0E0,0E0,0E0,0E0,0E0,0E0,0E0,0E0,0E0,0E0],"parents":[2147483647,0,0,1,1,2,2,3,3,4,4,5,5,6,6,7,7,8,8,10,10,11,11,12,12,13,13,14,14,15,15,16,16,17,17,18,18,20,20,21,21,22,22,23,23,24,24,27,27,28,28,29,29,31,31,39,39,40,40,41,41,42,42,45,45,46,46,47,47,48,48],"right_children":[2,4,6,8,10,12,14,16,18,-1,20,22,24,26,28,30,32,34,36,-1,38,40,42,44,46,-1,-1,48,50,52,-1,54,-1,-1,-1,-1,-1,-1,-1,56,58,60,62,-1,-1,64,66,68,70,-1,-1,-1,-1,-1,-1,-1,-1,-1,-1,-1,-1,-1,-1,-1,-1,-1,-1,-1,-1,-1,-1],"split_conditions":[2E-2,2E-1,1E-1,5.38E0,4E-2,2.3333333E-1,3.05E-1,1E-1,4E-2,-7.9599306E-2,4E-2,1.3333334E-1,8E-1,2E-1,3.3333334E-1,6E-1,4.4E-1,2E-1,2E-2,-4.1563675E-2,1E-1,4E-2,2E-1,1.2E-1,2E-2,1.5107305E-1,-6.0105372E-2,2E-2,6E-2,6E-2,1.2972791E-1,2.4E-1,5.7853747E-2,1.5875513E-2,1.5450276E-1,6.485513E-2,-9.184184E-2,1.8105324E-1,7.5517385E-3,8E-2,4E-1,8E-2,6E-2,-9.153132E-2,-1.0793923E-2,4.02E0,2E-2,4E-1,1.6666667E-1,1.5574962E-1,-5.8980513E-2,-6.3507915E-2,-1.3460522E-2,-9.459845E-2,6.091486E-3,-7.487578E-2,-1.98226E-2,1.2475798E-1,-4.2246744E-2,-5.1798552E-2,6.714509E-3,-2.4128636E-2,1.1357007E-1,1.8204491E-1,-2.4299122E-2,-6.976565E-2,6.787363E-2,-2.9470906E-2,1.393937E-1,-8.782156E-2,-1.6472857E-2],"split_indices":[851,505,1318,354,835,155,99,274,622,0,1561,39,948,1609,1004,99,1218,1117,1671,0,12,479,387,837,10,0,0,145,477,1328,0,138,0,0,0,0,0,0,0,147,543,741,0,0,0,944,622,1268,300,0,0,0,0,0,0,0,0,0,0,0,0,0,0,0,0,0,0,0,0,0,0],"split_type":[0,0,0,0,0,0,0,0,0,0,0,0,0,0,0,0,0,0,0,0,0,0,0,0,0,0,0,0,0,0,0,0,0,0,0,0,0,0,0,0,0,0,0,0,0,0,0,0,0,0,0,0,0,0,0,0,0,0,0,0,0,0,0,0,0,0,0,0,0,0,0],"sum_hessian":[2.4970134E2,4.590332E1,2.0379802E2,3.720672E1,8.6966E0,1.380018E2,6.579622E1,2.9607204E1,7.599515E0,2.1229239E0,6.5736756E0,9.7407196E1,4.05946E1,3.808606E0,6.1987614E1,3.4083786E0,2.6198826E1,2.7197177E0,4.879797E0,1.722856E0,4.8508196E0,1.647501E1,8.093219E1,4.769027E0,3.5825577E1,2.7169876E0,1.0916183E0,5.850072E1,3.486893E0,2.1408086E0,1.2675699E0,2.499924E1,1.1995851E0,1.0646975E0,1.6550202E0,1.097285E0,3.782512E0,3.7051637E0,1.1456561E0,2.7058048E0,1.3769206E1,6.7642265E1,1.3289922E1,3.7522824E0,1.0167446E0,7.688671E0,2.8136904E1,1.1768877E1,4.6731846E1,2.4465063E0,1.0403867E0,1.1373656E0,1.0034431E0,2.288259E1,2.116652E0,1.7050096E0,1.0007954E0,1.1071305E1,2.6979008E0,3.1529282E1,3.6112988E1,5.585927E0,7.7039943E0,6.4889607E0,1.1997104E0,3.3749843E0,2.4761919E1,8.452836E0,3.316041E0,2.1435902E1,2.5295944E1],"tree_param":{"num_deleted":"0","num_feature":"1785","num_nodes":"71","size_leaf_vector":"1"}},{"base_weights":[9.170215E-3,3.1010028E-2,-8.4767133E-1,-6.347126E-2,2.4904998E-1,-2.0162385E-2,-9.382918E-2,9.178832E-3,-7.4720806E-1,4.5903996E-1,-2.367454E-1,8.904945E-2,-7.473612E-1,2.7108186E-1,-9.931571E-1,5.707938E-1,-7.282467E-1,7.765886E-2,-9.850029E-2,1.593523E-1,-5.1789695E-1,4.299282E-2,-9.8623616E-1,1.01654604E-1,-6.6778764E-2,-1.0557226E-1,-1.17271E-2,9.0488255E-1,1.527731E-1,-8.559698E-2,-1.1614475E-2,5.0527155E-1,-6.2137985E-1,4.433312E-2,2.0794585E-4,5.730048E-2,-7.5530164E-2,9.2552416E-2,-7.54465E-2,-1.9779727E-2,-1.04313724E-1,2.5495762E-2,1.2519453E-1,4.7433104E-2,-8.421927E-2,-5.126489E-2,1.0027696E-1,-9.720939E-2,7.0108585E-2],"categories":[],"categories_nodes":[],"categories_segments":[],"categories_sizes":[],"default_left":[0,0,0,0,0,0,0,0,0,0,0,0,0,0,0,0,0,0,0,0,0,0,0,0,0,0,0,0,0,0,0,0,0,0,0,0,0,0,0,0,0,0,0,0,0,0,0,0,0],"id":15,"left_children":[1,3,5,7,9,-1,-1,11,13,15,17,19,21,23,25,27,29,31,-1,33,35,37,39,-1,-1,-1,-1,41,43,-1,-1,45,47,-1,-1,-1,-1,-1,-1,-1,-1,-1,-1,-1,-1,-1,-1,-1,-1],"loss_changes":[4.665365E0,5.015726E0,1.7362118E-1,8.457736E0,7.614522E0,0E0,0E0,9.418916E0,4.3647346E0,7.27705E0,5.455791E0,6.094282E0,2.8528738E0,3.455242E0,6.097441E-1,6.540683E0,2.8273273E-1,5.403795E0,0E0,5.6724577E0,4.2814417E0,3.8042111E0,3.083887E-1,0E0,0E0,0E0,0E0,5.6306133E0,7.5810556E0,0E0,0E0,6.143548E0,3.8869617E0,0E0,0E0,0E0,0E0,0E0,0E0,0E0,0E0,0E0,0E0,0E0,0E0,0E0,0E0,0E0,0E0],"parents":[2147483647,0,0,1,1,2,2,3,3,4,4,7,7,8,8,9,9,10,10,11,11,12,12,13,13,14,14,15,15,16,16,17,17,19,19,20,20,21,21,22,22,27,27,28,28,31,31,32,32],"right_children":[2,4,6,8,10,-1,-1,12,14,16,18,20,22,24,26,28,30,32,-1,34,36,38,40,-1,-1,-1,-1,42,44,-1,-1,46,48,-1,-1,-1,-1,-1,-1,-1,-1,-1,-1,-1,-1,-1,-1,-1,-1],"split_conditions":[3E-1,5E-1,2E-2,1.8E-1,5E-1,-2.0162385E-2,-9.382918E-2,2E-1,2E-2,5E-1,6.666667E-1,2E-1,2E-2,4E-2,2.6E-1,8E-1,2.3333333E-1,8.4375E-1,-9.850029E-2,4E-2,5.9375E-1,6E-2,1.3333334E-1,1.01654604E-1,-6.6778764E-2,-1.0557226E-1,-1.17271E-2,1.6666667E-1,1E-1,-8.559698E-2,-1.1614475E-2,2E-1,2.4E-1,4.433312E-2,2.0794585E-4,5.730048E-2,-7.5530164E-2,9.2552416E-2,-7.54465E-2,-1.9779727E-2,-1.04313724E-1,2.5495762E-2,1.2519453E-1,4.7433104E-2,-8.421927E-2,-5.126489E-2,1.0027696E-1,-9.720939E-2,7.0108585E-2],"split_indices":[1211,817,485,1428,581,0,0,745,498,703,1648,1685,1080,740,840,100,275,1059,0,965,226,134,534,0,0,0,0,393,1447,0,0,1588,1212,0,0,0,0,0,0,0,0,0,0,0,0,0,0,0,0],"split_type":[0,0,0,0,0,0,0,0,0,0,0,0,0,0,0,0,0,0,0,0,0,0,0,0,0,0,0,0,0,0,0,0,0,0,0,0,0,0,0,0,0,0,0,0,0,0,0,0,0],"sum_hessian":[2.4690329E2,2.4170631E2,5.1969814E0,1.6912834E2,7.2577965E1,1.0360124E0,4.160969E0,1.5377557E2,1.5352768E1,5.0712185E1,2.186578E1,1.3988927E2,1.38863125E1,2.9668965E0,1.2385872E1,4.6824093E1,3.8880928E0,1.602752E1,5.83826E0,1.26028755E2,1.3860511E1,3.4132102E0,1.0473103E1,1.6076697E0,1.3592267E0,1.1368488E1,1.0173833E0,2.5377394E1,2.1446697E1,2.8872247E0,1.0008681E0,1.0116371E1,5.9111476E0,4.4271423E1,8.175733E1,2.224599E0,1.1635912E1,1.5439533E0,1.869257E0,1.0062566E0,9.4668455E0,9.437998E0,1.5939397E1,1.6603851E1,4.842846E0,3.3111143E0,6.8052564E0,4.881521E0,1.0296267E0],"tree_param":{"num_deleted":"0","num_feature":"1785","num_nodes":"49","size_leaf_vector":"1"}},{"base_weights":[5.84217E-3,3.6881678E-2,-5.486881E-1,-2.6936522E-1,9.980952E-2,5.34053E-2,-9.887593E-2,-6.0854006E-1,1.7879558E-1,1.7790432E-1,-3.1169334E-1,-6.966384E-1,1.0194315E0,-7.867446E-1,5.985461E-1,-2.5088125E-1,1.148274E0,5.491518E-1,7.63817E-2,2.232468E-1,-6.0844696E-1,-1.9734934E-2,-7.899473E-2,1.6833428E-2,1.3502167E-1,-9.649444E-1,3.1511435E-1,-3.5775162E-2,1.3624609E-1,-7.83998E-1,8.63962E-1,-7.2108605E-3,1.6332253E0,7.7118313E-1,-3.7307027E-1,1.9551156E-1,-3.598438E-1,7.218349E-1,-5.0951797E-1,-8.675561E-1,1.837937E-1,-1.04289785E-1,1.4109728E-2,9.394982E-2,-5.9813052E-2,-1.0283941E-1,6.4422205E-2,-1.0325474E-2,1.4277183E-1,1.881205E-1,5.017788E-2,1.3186799E-1,2.9169893E-2,-7.4037775E-2,7.404939E-2,4.023119E-2,-8.321914E-3,-5.5196036E-2,6.5925844E-2,-6.493055E-2,1.0853237E-1,5.5859335E-2,-8.955034E-2,-9.59483E-2,1.7420748E-2,1.209294E-1,-5.1779754E-2],"categories":[],"categories_nodes":[],"categories_segments":[],"categories_sizes":[],"default_left":[0,0,0,0,0,0,0,0,0,0,0,0,0,0,0,0,0,0,0,0,0,0,0,0,0,0,0,0,0,0,0,0,0,0,0,0,0,0,0,0,0,0,0,0,0,0,0,0,0,0,0,0,0,0,0,0,0,0,0,0,0,0,0,0,0,0,0],"id":16,"left_children":[1,3,5,7,9,11,-1,13,15,17,19,21,23,25,27,29,31,33,35,37,39,-1,-1,-1,-1,41,43,-1,-1,45,47,-1,49,51,53,55,57,59,61,63,65,-1,-1,-1,-1,-1,-1,-1,-1,-1,-1,-1,-1,-1,-1,-1,-1,-1,-1,-1,-1,-1,-1,-1,-1,-1,-1],"loss_changes":[4.2608232E0,4.5411563E0,3.5297549E0,6.21924E0,6.3235474E0,5.4124966E0,0E0,5.441798E0,7.8237534E0,6.160796E0,5.132353E0,4.198289E-2,6.8557096E-1,4.3426495E0,3.073979E0,8.615014E0,3.5117416E0,7.490982E0,6.8465915E0,4.738104E0,4.3702874E0,0E0,0E0,0E0,0E0,1.6948795E0,2.6245062E0,0E0,0E0,3.9991574E0,2.762677E0,0E0,2.1938038E-1,7.143955E0,3.6159225E0,5.9746485E0,5.909136E0,4.4587545E0,2.7387886E0,1.6641941E0,4.857214E0,0E0,0E0,0E0,0E0,0E0,0E0,0E0,0E0,0E0,0E0,0E0,0E0,0E0,0E0,0E0,0E0,0E0,0E0,0E0,0E0,0E0,0E0,0E0,0E0,0E0,0E0],"parents":[2147483647,0,0,1,1,2,2,3,3,4,4,5,5,7,7,8,8,9,9,10,10,11,11,12,12,13,13,14,14,15,15,16,16,17,17,18,18,19,19,20,20,25,25,26,26,29,29,30,30,32,32,33,33,34,34,35,35,36,36,37,37,38,38,39,39,40,40],"right_children":[2,4,6,8,10,12,-1,14,16,18,20,22,24,26,28,30,32,34,36,38,40,-1,-1,-1,-1,42,44,-1,-1,46,48,-1,50,52,54,56,58,60,62,64,66,-1,-1,-1,-1,-1,-1,-1,-1,-1,-1,-1,-1,-1,-1,-1,-1,-1,-1,-1,-1,-1,-1,-1,-1,-1,-1],"split_conditions":[6E-1,2E-2,6E-2,1E-1,1.6E-1,6.666667E-1,-9.887593E-2,2.4E-1,2.3333333E-1,2E-2,4E-2,1.3333334E-1,6E-2,2.6666668E-1,5E-1,2.6666668E-1,6E-2,1.6E-1,1.6E-1,8E-2,2.3333333E-1,-1.9734934E-2,-7.899473E-2,1.6833428E-2,1.3502167E-1,2.8E-1,8E-2,-3.5775162E-2,1.3624609E-1,3E-1,8E-2,-7.2108605E-3,2.3333333E-1,3.3333334E-1,2.6666668E-1,8E-2,4E-1,2E-2,1.3333334E-1,3.3333334E-1,6E-2,-1.04289785E-1,1.4109728E-2,9.394982E-2,-5.9813052E-2,-1.0283941E-1,6.4422205E-2,-1.0325474E-2,1.4277183E-1,1.881205E-1,5.017788E-2,1.3186799E-1,2.9169893E-2,-7.4037775E-2,7.404939E-2,4.023119E-2,-8.321914E-3,-5.5196036E-2,6.5925844E-2,-6.493055E-2,1.0853237E-1,5.5859335E-2,-8.955034E-2,-9.59483E-2,1.7420748E-2,1.209294E-1,-5.1779754E-2],"split_indices":[428,966,1440,148,1447,815,0,974,1714,25,857,1237,861,275,225,1593,961,369,486,1445,767,0,0,0,0,1332,15,0,0,631,1075,0,644,1060,518,255,1050,1217,659,296,389,0,0,0,0,0,0,0,0,0,0,0,0,0,0,0,0,0,0,0,0,0,0,0,0,0,0],"split_type":[0,0,0,0,0,0,0,0,0,0,0,0,0,0,0,0,0,0,0,0,0,0,0,0,0,0,0,0,0,0,0,0,0,0,0,0,0,0,0,0,0,0,0,0,0,0,0,0,0,0,0,0,0,0,0,0,0,0,0,0,0,0,0,0,0,0,0],"sum_hessian":[2.4536888E2,2.3324654E2,1.2122348E1,3.9198956E1,1.9404759E2,5.4898834E0,6.6324644E0,2.2108812E1,1.7090143E1,1.6357254E2,3.0475042E1,3.2473962E0,2.2424874E0,1.9568155E1,2.540657E0,1.2355399E1,4.734744E0,3.4178738E1,1.293938E2,1.096207E1,1.9512972E1,1.0018077E0,2.2455885E0,1.0499364E0,1.1925509E0,1.6950987E1,2.617167E0,1.3643713E0,1.1762856E0,8.5591755E0,3.7962239E0,1.5885236E0,3.1462202E0,2.767868E1,6.5000567E0,1.0207085E2,2.732296E1,6.5322857E0,4.429785E0,1.4632289E1,4.880682E0,1.5888278E1,1.0627096E0,1.5373421E0,1.079825E0,7.5475845E0,1.0115907E0,1.6986886E0,2.0975354E0,2.0370946E0,1.1091259E0,1.2105674E1,1.5573007E1,5.139822E0,1.3602349E0,5.834168E1,4.3729164E1,2.3374828E1,3.9481316E0,1.2040591E0,5.3282266E0,1.057168E0,3.3726165E0,1.3518387E1,1.1139028E0,1.6887009E0,3.191981E0],"tree_param":{"num_deleted":"0","num_feature":"1785","num_nodes":"67","size_leaf_vector":"1"}},{"base_weights":[6.2258695E-3,4.5035996E-2,-4.276827E-1,-6.5252936E-1,7.77257E-2,-7.595448E-1,3.0771673E-1,-1.0007687E-1,2.6879358E-1,-2.765704E-1,1.5017535E-1,-1.0037199E0,1.1904633E-1,-5.999573E-1,9.587039E-1,1.039326E-1,-6.543585E-2,-4.5385864E-1,5.311997E-1,-2.4666306E-1,2.23867E-1,-1.05599776E-1,-1.874058E-2,-1.4216887E-2,-7.257473E-2,1.3957259E-1,-1.8158205E-2,9.247033E-1,-5.958563E-1,8.926789E-1,-6.315414E-2,4.1535208E-1,-5.53983E-1,4.616828E-1,6.783558E-2,1.3608967E-1,2.7127706E-3,-7.1552865E-2,5.743845E-2,-1.7454436E-2,1.4146164E-1,-4.8611723E-2,1.1604973E-1,-7.2585024E-2,4.6222743E-2,5.7584345E-2,-3.673342E-2,-9.361154E-3,5.2955206E-2],"categories":[],"categories_nodes":[],"categories_segments":[],"categories_sizes":[],"default_left":[0,0,0,0,0,0,0,0,0,0,0,0,0,0,0,0,0,0,0,0,0,0,0,0,0,0,0,0,0,0,0,0,0,0,0,0,0,0,0,0,0,0,0,0,0,0,0,0,0],"id":17,"left_children":[1,3,5,7,9,11,13,-1,15,17,19,21,-1,23,25,-1,-1,27,29,31,33,-1,-1,-1,-1,-1,-1,35,37,39,-1,41,43,45,47,-1,-1,-1,-1,-1,-1,-1,-1,-1,-1,-1,-1,-1,-1],"loss_changes":[4.127379E0,5.1774697E0,5.144882E0,3.5321817E0,5.5771065E0,7.9344463E0,4.693062E0,0E0,3.2252555E0,5.5346646E0,5.310045E0,3.620758E-1,0E0,9.9852085E-2,2.4676538E0,0E0,0E0,6.5901E0,3.5536013E0,6.0524263E0,5.6116157E0,0E0,0E0,0E0,0E0,0E0,0E0,1.2444634E0,4.413189E0,3.5003743E0,0E0,7.042655E0,3.823915E0,5.8970833E0,6.981913E0,0E0,0E0,0E0,0E0,0E0,0E0,0E0,0E0,0E0,0E0,0E0,0E0,0E0,0E0],"parents":[2147483647,0,0,1,1,2,2,3,3,4,4,5,5,6,6,8,8,9,9,10,10,11,11,13,13,14,14,17,17,18,18,19,19,20,20,27,27,28,28,29,29,31,31,32,32,33,33,34,34],"right_children":[2,4,6,8,10,12,14,-1,16,18,20,22,-1,24,26,-1,-1,28,30,32,34,-1,-1,-1,-1,-1,-1,36,38,40,-1,42,44,46,48,-1,-1,-1,-1,-1,-1,-1,-1,-1,-1,-1,-1,-1,-1],"split_conditions":[6.5E-1,1E-1,1.6E-1,4E-1,2E-2,3.6666667E-1,1.6666667E-1,-1.0007687E-1,4.75E-1,2.6666668E-1,2E-2,2E-1,1.1904633E-1,1E-1,4E-1,1.039326E-1,-6.543585E-2,6.666667E-2,8E-2,4E-2,4E-2,-1.05599776E-1,-1.874058E-2,-1.4216887E-2,-7.257473E-2,1.3957259E-1,-1.8158205E-2,6E-2,2.8E-1,1.6666667E-1,-6.315414E-2,1.2E-1,6.666667E-1,1.8E-1,1.6E-1,1.3608967E-1,2.7127706E-3,-7.1552865E-2,5.743845E-2,-1.7454436E-2,1.4146164E-1,-4.8611723E-2,1.1604973E-1,-7.2585024E-2,4.6222743E-2,5.7584345E-2,-3.673342E-2,-9.361154E-3,5.2955206E-2],"split_indices":[1289,278,241,1386,1571,415,536,0,1170,756,1074,1090,0,627,308,0,0,182,4,142,961,0,0,0,0,0,0,1098,1203,660,0,742,1415,481,1668,0,0,0,0,0,0,0,0,0,0,0,0,0,0],"split_type":[0,0,0,0,0,0,0,0,0,0,0,0,0,0,0,0,0,0,0,0,0,0,0,0,0,0,0,0,0,0,0,0,0,0,0,0,0,0,0,0,0,0,0,0,0,0,0,0,0],"sum_hessian":[2.4294936E2,2.238259E2,1.9123472E1,9.170717E0,2.1465517E2,1.3154456E1,5.9690156E0,6.592624E0,2.578093E0,3.5964203E1,1.7869096E2,1.21218605E1,1.0325956E0,2.525746E0,3.4432695E0,1.3366114E0,1.2414817E0,2.9850739E1,6.113465E0,2.761792E1,1.5107304E2,1.111634E1,1.0055209E0,1.0035883E0,1.5221579E0,2.327302E0,1.1159676E0,2.2728662E0,2.7577873E1,4.840795E0,1.2726693E0,8.64459E0,1.897333E1,5.9074917E1,9.199813E1,1.1821748E0,1.0906913E0,2.5371836E1,2.2060366E0,1.8084924E0,3.0323029E0,4.06926E0,4.5753303E0,1.6473043E1,2.5002863E0,5.2193012E1,6.8819027E0,6.875427E1,2.3243862E1],"tree_param":{"num_deleted":"0","num_feature":"1785","num_nodes":"49","size_leaf_vector":"1"}},{"base_weights":[5.7827756E-3,3.615292E-2,-5.327832E-1,-2.872547E-3,5.5776256E-1,-7.869227E-1,4.8057273E-1,-3.2282513E-1,6.169301E-2,8.655394E-1,-6.109314E-1,2.9685041E-2,-9.319781E-1,1.0296094E-1,-2.607376E-2,-6.1214304E-1,1.3793036E-1,1.407888E-1,-4.1539815E-1,1.2100185E0,1.9721296E-2,-7.517371E-2,-9.985911E-3,-1.00148E-1,-1.6287645E-2,-8.292012E-1,6.151751E-1,-5.566846E-1,6.9696647E-1,-1.360869E-1,2.7173245E-1,-5.7756525E-1,1.08248465E-1,7.946005E-7,1.4207904E0,-6.2063005E-2,7.781269E-2,1.8524615E-2,-9.466065E-2,1.19608E-1,-2.856046E-2,-9.396993E-2,4.308673E-2,1.07361615E-1,-4.4997994E-2,7.99721E-2,-2.6521748E-2,-2.8848877E-2,3.6688376E-2,-7.272828E-2,8.4652476E-2,1.3954352E-2,1.6313887E-1],"categories":[],"categories_nodes":[],"categories_segments":[],"categories_sizes":[],"default_left":[0,0,0,0,0,0,0,0,0,0,0,0,0,0,0,0,0,0,0,0,0,0,0,0,0,0,0,0,0,0,0,0,0,0,0,0,0,0,0,0,0,0,0,0,0,0,0,0,0,0,0,0,0],"id":18,"left_children":[1,3,5,7,9,11,13,15,17,19,21,-1,23,-1,-1,25,27,29,31,33,35,-1,-1,-1,-1,37,39,41,43,45,47,49,-1,-1,51,-1,-1,-1,-1,-1,-1,-1,-1,-1,-1,-1,-1,-1,-1,-1,-1,-1,-1],"loss_changes":[3.9782946E0,4.684814E0,3.7220592E0,4.4622965E0,6.2910533E0,1.9682074E0,1.5807528E0,4.919301E0,6.8424797E0,3.7913437E0,2.0742714E-1,0E0,3.570671E-1,0E0,0E0,6.494337E0,6.1373296E0,5.654945E0,6.8968725E0,2.368783E0,2.8169923E0,0E0,0E0,0E0,0E0,2.4994478E0,2.4084306E0,3.1124825E0,4.2188396E0,6.3049407E0,5.7315407E0,5.721866E0,0E0,0E0,1.9067421E0,0E0,0E0,0E0,0E0,0E0,0E0,0E0,0E0,0E0,0E0,0E0,0E0,0E0,0E0,0E0,0E0,0E0,0E0],"parents":[2147483647,0,0,1,1,2,2,3,3,4,4,5,5,6,6,7,7,8,8,9,9,10,10,12,12,15,15,16,16,17,17,18,18,19,19,20,20,25,25,26,26,27,27,28,28,29,29,30,30,31,31,34,34],"right_children":[2,4,6,8,10,12,14,16,18,20,22,-1,24,-1,-1,26,28,30,32,34,36,-1,-1,-1,-1,38,40,42,44,46,48,50,-1,-1,52,-1,-1,-1,-1,-1,-1,-1,-1,-1,-1,-1,-1,-1,-1,-1,-1,-1,-1],"split_conditions":[3.3333334E-1,3E-1,3.2E-1,2E-2,2.6666668E-1,5E-1,4E-1,1.2E-1,1.8E-1,8.75E-1,8E-2,2.9685041E-2,6.02E0,1.0296094E-1,-2.607376E-2,2.4E-1,1.6666667E-1,4E-2,6.9E-1,2E-2,1E-1,-7.517371E-2,-9.985911E-3,-1.00148E-1,-1.6287645E-2,3.3333334E-1,4E-2,1.4E-1,5E-1,3.3333334E-1,4.05E-1,3.6666667E-1,1.08248465E-1,7.946005E-7,4.25E-1,-6.2063005E-2,7.781269E-2,1.8524615E-2,-9.466065E-2,1.19608E-1,-2.856046E-2,-9.396993E-2,4.308673E-2,1.07361615E-1,-4.4997994E-2,7.99721E-2,-2.6521748E-2,-2.8848877E-2,3.6688376E-2,-7.272828E-2,8.4652476E-2,1.3954352E-2,1.6313887E-1],"split_indices":[1363,1710,1669,966,511,1297,1640,148,1075,702,860,0,711,0,0,974,1362,983,1170,1080,1337,0,0,0,0,339,376,1696,1296,101,337,1492,0,0,218,0,0,0,0,0,0,0,0,0,0,0,0,0,0,0,0,0,0],"split_type":[0,0,0,0,0,0,0,0,0,0,0,0,0,0,0,0,0,0,0,0,0,0,0,0,0,0,0,0,0,0,0,0,0,0,0,0,0,0,0,0,0,0,0,0,0,0,0,0,0,0,0,0,0],"sum_hessian":[2.41049E2,2.2906473E2,1.1984262E1,2.1404494E2,1.501979E1,9.760002E0,2.224261E0,3.526926E1,1.7877568E2,1.20941725E1,2.9256172E0,1.028578E0,8.731423E0,1.0544208E0,1.1698402E0,2.146339E1,1.3805871E1,1.5395651E2,2.4819174E1,8.288072E0,3.8061004E0,1.9244964E0,1.0011207E0,7.7306776E0,1.000746E0,1.8513546E1,2.9498453E0,6.158278E0,7.647593E0,4.9420128E1,1.0453638E2,2.2949026E1,1.8701468E0,1.3778833E0,6.9101887E0,2.162165E0,1.6439353E0,1.8604424E0,1.6653103E1,1.5940375E0,1.3558079E0,4.472217E0,1.6860607E0,5.8051543E0,1.842439E0,5.3628078E0,4.405732E1,1.4882278E1,8.96541E1,2.120862E1,1.7404069E0,1.2101895E0,5.6999993E0],"tree_param":{"num_deleted":"0","num_feature":"1785","num_nodes":"53","size_leaf_vector":"1"}},{"base_weights":[5.64377E-3,2.5345897E-2,-8.040509E-1,6.961667E-2,-3.5321525E-1,-1.7655805E-2,-9.004913E-2,1.4081359E-1,-2.2763573E-1,3.044653E-1,-5.663003E-1,1.8412912E-1,-6.0280615E-1,-3.734741E-1,6.9195855E-1,-7.308292E-2,8.4350604E-1,-7.374501E-1,6.921814E-2,-2.0979044E-1,2.6249218E-1,3.3243474E-2,-8.87721E-1,-5.325577E-1,2.7103406E-1,-5.8674175E-2,1.0740072E0,-2.9311275E-2,1.2523006E-1,-9.7495574E-1,9.543573E-2,2.2832664E-2,-7.097366E-2,1.24485595E-2,5.7689346E-2,-1.725897E-2,-9.6924506E-2,8.105109E-3,-7.135941E-2,-5.930149E-2,7.339383E-2,8.653979E-4,1.4873415E-1,-1.0303731E-1,-1.451383E-2,-7.091721E-2,7.2001845E-2],"categories":[],"categories_nodes":[],"categories_segments":[],"categories_sizes":[],"default_left":[0,0,0,0,0,0,0,0,0,0,0,0,0,0,0,0,0,0,0,0,0,0,0,0,0,0,0,0,0,0,0,0,0,0,0,0,0,0,0,0,0,0,0,0,0,0,0],"id":19,"left_children":[1,3,5,7,9,-1,-1,11,13,15,17,19,21,23,25,-1,27,29,-1,31,33,-1,35,37,39,-1,41,-1,-1,43,45,-1,-1,-1,-1,-1,-1,-1,-1,-1,-1,-1,-1,-1,-1,-1,-1],"loss_changes":[3.8493488E0,3.9678242E0,1.8789697E-1,4.507879E0,3.6478574E0,0E0,0E0,5.626666E0,5.790409E0,4.3661118E0,4.620159E0,5.073706E0,2.8690379E0,3.861299E0,3.5597386E0,0E0,2.635774E0,3.5113602E0,0E0,6.1924605E0,5.8312407E0,0E0,2.8025818E-1,3.3251696E0,3.5707784E0,0E0,2.1758885E0,0E0,0E0,4.7288704E-1,2.8952494E0,0E0,0E0,0E0,0E0,0E0,0E0,0E0,0E0,0E0,0E0,0E0,0E0,0E0,0E0,0E0,0E0],"parents":[2147483647,0,0,1,1,2,2,3,3,4,4,7,7,8,8,9,9,10,10,11,11,12,12,13,13,14,14,16,16,17,17,19,19,20,20,22,22,23,23,24,24,26,26,29,29,30,30],"right_children":[2,4,6,8,10,-1,-1,12,14,16,18,20,22,24,26,-1,28,30,-1,32,34,-1,36,38,40,-1,42,-1,-1,44,46,-1,-1,-1,-1,-1,-1,-1,-1,-1,-1,-1,-1,-1,-1,-1,-1],"split_conditions":[3E-1,3E-1,1.6666667E-1,1.6E-1,2E-2,-1.7655805E-2,-9.004913E-2,2.6E-1,2E-1,4E-2,6E-1,2E-2,2E-2,2.6666668E-1,3.3333334E-1,-7.308292E-2,6E-2,2.6666668E-1,6.921814E-2,7.8125E-1,5E-1,3.3243474E-2,2E-2,2E-2,5E-1,-5.8674175E-2,5E-1,-2.9311275E-2,1.2523006E-1,2E-1,5.45E-1,2.2832664E-2,-7.097366E-2,1.24485595E-2,5.7689346E-2,-1.725897E-2,-9.6924506E-2,8.105109E-3,-7.135941E-2,-5.930149E-2,7.339383E-2,8.653979E-4,1.4873415E-1,-1.0303731E-1,-1.451383E-2,-7.091721E-2,7.2001845E-2],"split_indices":[1211,1006,509,383,1206,0,0,1447,1670,1565,328,1675,978,158,341,0,624,1492,0,821,817,0,133,5,220,0,815,0,0,600,218,0,0,0,0,0,0,0,0,0,0,0,0,0,0,0,0],"split_type":[0,0,0,0,0,0,0,0,0,0,0,0,0,0,0,0,0,0,0,0,0,0,0,0,0,0,0,0,0,0,0,0,0,0,0,0,0,0,0,0,0,0,0,0,0,0,0],"sum_hessian":[2.3902E2,2.3428783E2,4.732178E0,2.104884E2,2.3799429E1,1.007512E0,3.7246664E0,1.7023949E2,4.024892E1,5.719015E0,1.8080414E1,1.6157991E2,8.659572E0,3.5252155E1,4.996765E0,1.8363266E0,3.8826885E0,1.628035E1,1.8000648E0,2.6531721E1,1.3504819E2,1.9831244E0,6.676447E0,2.8412748E1,6.8394055E0,1.0262322E0,3.970533E0,1.101908E0,2.7807806E0,1.253523E1,3.7451198E0,1.4429785E1,1.2101935E1,9.4821976E1,4.0226208E1,1.0021962E0,5.674251E0,6.5988264E0,2.1813921E1,2.2878568E0,4.5515485E0,1.3952547E0,2.575278E0,1.1523945E1,1.0112851E0,1.5774997E0,2.16762E0],"tree_param":{"num_deleted":"0","num_feature":"1785","num_nodes":"47","size_leaf_vector":"1"}},{"base_weights":[3.7098718E-3,2.6455352E-1,-5.57385E-2,4.3816862E-1,-5.3719467E-1,1.8445969E-1,-1.694777E-1,6.3455665E-1,-4.339081E-1,4.835151E-2,-8.75137E-1,5.246672E-1,-4.2014714E-2,-3.1843367E-1,1.9688764E-1,3.6350447E-1,1.310384E0,-9.6099466E-2,8.9033805E-2,-2.019049E-2,-9.600709E-2,-7.5953287E-1,7.771339E-1,-3.9247862E-1,3.670485E-1,-6.782073E-1,-1.6616301E-1,-4.3490446E-1,4.5679986E-1,-2.0619236E-1,8.112853E-1,1.30514745E-2,1.6081891E0,-8.448534E-2,-2.2539986E-2,9.8542064E-1,-1.1129264E-1,-5.7403046E-1,5.1265377E-1,6.0229176E-1,-5.3958505E-1,-7.8683734E-1,6.8126254E-2,-2.4582794E-1,1.0276186E0,2.6839083E-1,-9.862548E-2,7.125917E-1,-2.9091522E-1,6.8659835E-2,-7.82493E-2,-1.2680379E-2,1.245561E-1,3.0276164E-2,1.843862E-1,1.244084E-1,1.313442E-2,-8.43832E-2,8.7508224E-2,-7.513198E-2,6.086263E-2,1.1381414E-1,-3.824813E-2,8.510206E-2,-5.649169E-2,-8.249863E-2,1.988764E-2,-1.561877E-2,-1.04163684E-1,-2.6693041E-3,-5.7802863E-2,1.4223269E-1,5.6173047E-3,-7.837831E-2,9.512597E-2,9.490075E-2,-2.3766067E-2,9.1975294E-2,-8.204257E-2],"categories":[],"categories_nodes":[],"categories_segments":[],"categories_sizes":[],"default_left":[0,0,0,0,0,0,0,0,0,0,0,0,0,0,0,0,0,0,0,0,0,0,0,0,0,0,0,0,0,0,0,0,0,0,0,0,0,0,0,0,0,0,0,0,0,0,0,0,0,0,0,0,0,0,0,0,0,0,0,0,0,0,0,0,0,0,0,0,0,0,0,0,0,0,0,0,0,0,0],"id":20,"left_children":[1,3,5,7,9,11,13,15,17,-1,19,21,23,25,27,29,31,-1,-1,-1,-1,33,35,37,39,41,43,45,47,49,51,-1,53,-1,-1,55,57,59,61,63,65,67,-1,69,71,73,-1,75,77,-1,-1,-1,-1,-1,-1,-1,-1,-1,-1,-1,-1,-1,-1,-1,-1,-1,-1,-1,-1,-1,-1,-1,-1,-1,-1,-1,-1,-1,-1],"loss_changes":[3.711791E0,6.4192247E0,5.3583775E0,6.623901E0,3.3058164E0,4.8868456E0,7.312644E0,5.1403475E0,6.025809E0,0E0,1.8550253E-1,8.7955265E0,5.7110515E0,5.082452E0,6.6059813E0,6.102972E0,2.7392206E0,0E0,0E0,0E0,0E0,2.210641E-2,4.114876E0,3.8104334E0,4.2567163E0,4.652791E0,6.7153244E0,4.8734236E0,5.588098E0,6.216182E0,5.548006E0,0E0,1.4763584E0,0E0,0E0,3.7325E0,4.35784E0,4.293035E0,2.7325962E0,4.8672843E0,1.0756527E0,4.059841E0,0E0,4.6807566E0,1.6241817E0,5.0631027E0,0E0,4.9999514E0,5.8069663E0,0E0,0E0,0E0,0E0,0E0,0E0,0E0,0E0,0E0,0E0,0E0,0E0,0E0,0E0,0E0,0E0,0E0,0E0,0E0,0E0,0E0,0E0,0E0,0E0,0E0,0E0,0E0,0E0,0E0,0E0],"parents":[2147483647,0,0,1,1,2,2,3,3,4,4,5,5,6,6,7,7,8,8,10,10,11,11,12,12,13,13,14,14,15,15,16,16,21,21,22,22,23,23,24,24,25,25,26,26,27,27,28,28,29,29,30,30,32,32,35,35,36,36,37,37,38,38,39,39,40,40,41,41,43,43,44,44,45,45,47,47,48,48],"right_children":[2,4,6,8,10,12,14,16,18,-1,20,22,24,26,28,30,32,-1,-1,-1,-1,34,36,38,40,42,44,46,48,50,52,-1,54,-1,-1,56,58,60,62,64,66,68,-1,70,72,74,-1,76,78,-1,-1,-1,-1,-1,-1,-1,-1,-1,-1,-1,-1,-1,-1,-1,-1,-1,-1,-1,-1,-1,-1,-1,-1,-1,-1,-1,-1,-1,-1],"split_conditions":[2E-2,1.6E-1,1.6666667E-1,4E-1,2E-2,3.3333334E-1,1.2E-1,4E-1,5E-1,4.835151E-2,1.6666667E-1,1.3333334E-1,1E-1,4E-2,3.3333334E-1,2E-1,1.6666667E-1,-9.6099466E-2,8.9033805E-2,-2.019049E-2,-9.600709E-2,6E-2,4E-1,1.4E-1,4E-1,3E-1,3E-1,4E-2,1.4E-1,4E-2,4E-2,1.30514745E-2,1.3333334E-1,-8.448534E-2,-2.2539986E-2,2.6666668E-1,1.2E-1,2.8E-1,3.3333334E-1,4E-1,1.6666667E-1,7E-1,6.8126254E-2,8E-2,2.6666668E-1,4E-2,-9.862548E-2,4E-1,2E-2,6.8659835E-2,-7.82493E-2,-1.2680379E-2,1.245561E-1,3.0276164E-2,1.843862E-1,1.244084E-1,1.313442E-2,-8.43832E-2,8.7508224E-2,-7.513198E-2,6.086263E-2,1.1381414E-1,-3.824813E-2,8.510206E-2,-5.649169E-2,-8.249863E-2,1.988764E-2,-1.561877E-2,-1.04163684E-1,-2.6693041E-3,-5.7802863E-2,1.4223269E-1,5.6173047E-3,-7.837831E-2,9.512597E-2,9.490075E-2,-2.3766067E-2,9.1975294E-2,-8.204257E-2],"split_indices":[486,852,277,95,1075,822,1207,212,105,0,1233,184,1216,264,1774,986,406,0,0,0,0,595,208,965,1045,1591,56,840,1443,364,1456,0,1594,0,0,1700,1208,1567,105,920,1467,1647,0,978,1725,1079,0,1142,1447,0,0,0,0,0,0,0,0,0,0,0,0,0,0,0,0,0,0,0,0,0,0,0,0,0,0,0,0,0,0],"split_type":[0,0,0,0,0,0,0,0,0,0,0,0,0,0,0,0,0,0,0,0,0,0,0,0,0,0,0,0,0,0,0,0,0,0,0,0,0,0,0,0,0,0,0,0,0,0,0,0,0,0,0,0,0,0,0,0,0,0,0,0,0,0,0,0,0,0,0,0,0,0,0,0,0,0,0,0,0,0,0],"sum_hessian":[2.3741553E2,4.3425568E1,1.9398996E2,3.606856E1,7.357007E0,6.213964E1,1.3185033E2,2.9661318E1,6.4072423E0,1.7227889E0,5.6342177E0,2.4307894E1,3.7831745E1,9.38314E1,3.8018925E1,2.2268158E1,7.39316E0,4.779269E0,1.6279732E0,1.0095081E0,4.6247096E0,3.6636875E0,2.0644207E1,2.0397112E1,1.7434633E1,2.6876257E1,6.695514E1,1.0885437E1,2.7133488E1,1.0037413E1,1.2230745E1,1.7798506E0,5.613309E0,2.6574652E0,1.0062222E0,1.6635038E1,4.0091696E0,1.7294065E1,3.1030462E0,1.4109372E1,3.325261E0,2.5277634E1,1.5986222E0,6.351093E1,3.4442148E0,5.009103E0,5.876334E0,2.0252218E1,6.8812695E0,3.8624346E0,6.174978E0,4.0943832E0,8.136362E0,1.2077988E0,4.4055104E0,1.2417626E1,4.217411E0,2.383532E0,1.6256374E0,1.5356697E1,1.9373689E0,1.6668428E0,1.4362032E0,1.1854175E1,2.2551975E0,2.313838E0,1.0114231E0,7.7381234E0,1.753951E1,3.8918705E1,2.4592224E1,2.1190777E0,1.325137E0,1.9132936E0,3.0958092E0,1.6218489E1,4.03373E0,1.8696135E0,5.011656E0],"tree_param":{"num_deleted":"0","num_feature":"1785","num_nodes":"79","size_leaf_vector":"1"}},{"base_weights":[3.4934191E-3,2.0344736E-2,-8.84082E-2,-1.2211927E-2,5.198797E-1,3.6939103E-2,-4.6311015E-1,-7.5555265E-2,7.5612783E-1,6.575879E-2,-8.6907744E-1,8.1277944E-2,-6.207778E-1,1.048528E0,-3.721643E-1,2.0288049E-1,-1.0666278E-1,-9.4561204E-2,-2.439427E-2,-7.419465E-1,6.699117E-2,1.3787277E0,4.4702936E-2,1.6339159E-2,-6.758282E-2,5.1503967E-2,-1.1478572E-2,3.9861407E-2,-2.3310496E-2,3.5468403E-2,-8.841441E-2,4.664923E-2,1.628576E-1,-6.5989755E-2,7.310363E-2],"categories":[],"categories_nodes":[],"categories_segments":[],"categories_sizes":[],"default_left":[0,0,0,0,0,0,0,0,0,0,0,0,0,0,0,0,0,0,0,0,0,0,0,0,0,0,0,0,0,0,0,0,0,0,0],"id":21,"left_children":[1,3,-1,5,7,9,11,-1,13,15,17,-1,19,21,23,25,27,-1,-1,29,-1,31,33,-1,-1,-1,-1,-1,-1,-1,-1,-1,-1,-1,-1],"loss_changes":[3.5314429E0,3.771398E0,0E0,4.855526E0,4.846405E0,5.221572E0,4.8362737E0,0E0,4.5043993E0,4.5756702E0,6.44207E-2,0E0,3.5829039E0,3.3079615E0,6.478577E-1,1.0732651E1,5.586146E0,0E0,0E0,3.2004395E0,0E0,9.7613907E-1,2.1990457E0,0E0,0E0,0E0,0E0,0E0,0E0,0E0,0E0,0E0,0E0,0E0,0E0],"parents":[2147483647,0,0,1,1,3,3,4,4,5,5,6,6,8,8,9,9,10,10,12,12,13,13,14,14,15,15,16,16,19,19,21,21,22,22],"right_children":[2,4,-1,6,8,10,12,-1,14,16,18,-1,20,22,24,26,28,-1,-1,30,-1,32,34,-1,-1,-1,-1,-1,-1,-1,-1,-1,-1,-1,-1],"split_conditions":[3.2E-1,3E-1,-8.84082E-2,5E-1,2E-2,6E-1,1E-1,-7.5555265E-2,4E-1,8E-2,2.2E-1,8.1277944E-2,3E-1,1E-1,5.2E-1,6E-2,1.3333334E-1,-9.4561204E-2,-2.439427E-2,1E-1,6.699117E-2,2E-2,2.3333333E-1,1.6339159E-2,-6.758282E-2,5.1503967E-2,-1.1478572E-2,3.9861407E-2,-2.3310496E-2,3.5468403E-2,-8.841441E-2,4.664923E-2,1.628576E-1,-6.5989755E-2,7.310363E-2],"split_indices":[1555,992,0,1060,125,1166,1129,0,307,716,367,0,283,1552,1646,476,997,0,0,417,0,1568,1104,0,0,0,0,0,0,0,0,0,0,0,0],"split_type":[0,0,0,0,0,0,0,0,0,0,0,0,0,0,0,0,0,0,0,0,0,0,0,0,0,0,0,0,0,0,0,0,0,0,0],"sum_hessian":[2.3390671E2,2.3050742E2,3.3992863E0,2.1731941E2,1.318801E1,1.967864E2,2.0533005E1,1.7175179E0,1.1470492E1,1.9161859E2,5.1678185E0,1.8013079E0,1.8731697E1,9.165834E0,2.3046577E0,1.0663685E2,8.4981735E1,4.1474032E0,1.020415E0,1.751277E1,1.2189279E0,6.616063E0,2.5497713E0,1.0010651E0,1.3035926E0,5.3471245E1,5.3165604E1,1.6578737E1,6.8403E1,1.8386621E0,1.5674108E1,2.038884E0,4.5771794E0,1.2771484E0,1.2726231E0],"tree_param":{"num_deleted":"0","num_feature":"1785","num_nodes":"35","size_leaf_vector":"1"}},{"base_weights":[2.778556E-3,3.0531634E-2,-5.234575E-1,5.654307E-2,-6.4370126E-1,-8.8436127E-1,1.5177184E-1,1.7218579E-2,6.3875157E-1,-9.815679E-2,3.8703755E-2,-9.567702E-2,-1.9633219E-2,-5.6163765E-2,9.5713206E-2,6.209424E-2,-5.1996875E-1,1.0578746E0,-8.2192905E-2,-6.1409646E-1,9.621539E-2,-7.079839E-1,9.508562E-2,-9.239836E-2,1.3455619E0,-9.6603565E-2,2.2309598E-2,-2.6626756E-2,1.6614806E-2,-8.889165E-2,4.9697142E-2,5.053085E-2,-6.1111815E-2,1.5504222E-1,1.8172143E-2],"categories":[],"categories_nodes":[],"categories_segments":[],"categories_sizes":[],"default_left":[0,0,0,0,0,0,0,0,0,0,0,0,0,0,0,0,0,0,0,0,0,0,0,0,0,0,0,0,0,0,0,0,0,0,0],"id":22,"left_children":[1,3,5,7,9,11,13,15,17,-1,-1,-1,-1,-1,-1,19,21,23,-1,25,27,29,-1,31,33,-1,-1,-1,-1,-1,-1,-1,-1,-1,-1],"loss_changes":[3.4268758E0,3.943689E0,2.9988606E0,4.921429E0,3.2901316E0,2.010994E-1,3.3804665E0,4.9219174E0,9.197314E0,0E0,0E0,0E0,0E0,0E0,0E0,4.3987446E0,5.027175E0,3.7668495E0,0E0,2.917565E0,4.605055E0,3.610261E0,0E0,1.2816948E0,1.8329296E0,0E0,0E0,0E0,0E0,0E0,0E0,0E0,0E0,0E0,0E0],"parents":[2147483647,0,0,1,1,2,2,3,3,4,4,5,5,6,6,7,7,8,8,15,15,16,16,17,17,19,19,20,20,21,21,23,23,24,24],"right_children":[2,4,6,8,10,12,14,16,18,-1,-1,-1,-1,-1,-1,20,22,24,-1,26,28,30,-1,32,34,-1,-1,-1,-1,-1,-1,-1,-1,-1,-1],"split_conditions":[6E-1,5.56E0,8.75E-1,6.02E0,1.6E-1,4.76E0,1.6E-1,6.5E-1,1.4E-1,-9.815679E-2,3.8703755E-2,-9.567702E-2,-1.9633219E-2,-5.6163765E-2,9.5713206E-2,1E-1,3.6666667E-1,4.5E-1,-8.2192905E-2,4E-1,2E-2,2.8E-1,9.508562E-2,2.3333333E-1,6.3E0,-9.6603565E-2,2.2309598E-2,-2.6626756E-2,1.6614806E-2,-8.889165E-2,4.9697142E-2,5.053085E-2,-6.1111815E-2,1.5504222E-1,1.8172143E-2],"split_indices":[428,352,464,1299,837,352,1567,1289,838,0,0,0,0,0,0,278,415,1170,0,1386,1571,953,0,1720,1662,0,0,0,0,0,0,0,0,0,0],"split_type":[0,0,0,0,0,0,0,0,0,0,0,0,0,0,0,0,0,0,0,0,0,0,0,0,0,0,0,0,0,0,0,0,0,0,0],"sum_hessian":[2.3254816E2,2.2179303E2,1.0755124E1,2.1443637E2,7.35667E0,6.807083E0,3.9480412E0,2.0183337E2,1.2602989E1,5.576462E0,1.780208E0,5.8055096E0,1.0015737E0,2.2540073E0,1.694034E0,1.8708873E2,1.4744647E1,1.0007295E1,2.595695E0,8.170647E0,1.7891808E2,1.3533333E1,1.2113141E0,2.1379309E0,7.869364E0,5.6440854E0,2.5265608E0,2.8481586E1,1.504365E2,1.1994549E1,1.5387839E0,1.0053489E0,1.132582E0,6.409073E0,1.460291E0],"tree_param":{"num_deleted":"0","num_feature":"1785","num_nodes":"35","size_leaf_vector":"1"}},{"base_weights":[1.5790765E-3,-3.1311776E-2,4.3999824E-1,3.813182E-2,-3.445506E-1,8.212684E-1,-2.6077777E-1,1.7058764E-1,-1.4793783E-1,4.5607764E-1,-5.138671E-1,1.0460237E0,-6.1518382E-2,-7.465915E-2,5.384176E-1,-3.9886177E-1,2.5766852E-1,1.0950604E-1,-4.3482167E-1,-5.5148846E-1,1.050556E0,1.62321E-1,-6.977833E-1,-3.3909068E-2,1.3200189E0,1.02694325E-1,-2.1569878E-2,-7.1457875E-1,6.98346E-1,1.4266735E-1,6.783226E-1,4.7945964E-1,-3.0865192E-1,-5.9066164E-1,2.504444E-1,-1.1116869E-2,-6.8821214E-2,1.4682764E-1,-2.5858525E-2,6.910949E-1,-8.158096E-2,-1.9612703E-1,-9.480661E-1,2.1690173E-2,1.5642005E-1,6.063319E-2,-9.594966E-2,-2.361257E-2,1.1545328E-1,-2.0634353E-2,3.6070295E-2,8.546524E-2,-7.1761996E-2,1.16168E-1,1.7386919E-2,-6.0651578E-2,6.545138E-2,-7.0529774E-2,7.282486E-2,7.806452E-2,-7.809536E-2,-5.8219355E-2,1.0903809E-1,-9.064358E-2,3.2631632E-2,-1.0650089E-1,5.930982E-3],"categories":[],"categories_nodes":[],"categories_segments":[],"categories_sizes":[],"default_left":[0,0,0,0,0,0,0,0,0,0,0,0,0,0,0,0,0,0,0,0,0,0,0,0,0,0,0,0,0,0,0,0,0,0,0,0,0,0,0,0,0,0,0,0,0,0,0,0,0,0,0,0,0,0,0,0,0,0,0,0,0,0,0,0,0,0,0],"id":23,"left_children":[1,3,5,7,9,11,13,15,17,19,21,23,-1,-1,25,27,29,31,33,35,37,39,41,-1,43,-1,-1,45,47,49,51,53,55,57,59,-1,-1,-1,-1,61,-1,63,65,-1,-1,-1,-1,-1,-1,-1,-1,-1,-1,-1,-1,-1,-1,-1,-1,-1,-1,-1,-1,-1,-1,-1,-1],"loss_changes":[3.363037E0,4.7331963E0,4.562685E0,4.4248967E0,5.5856833E0,4.1243196E0,2.923248E0,5.296893E0,5.569789E0,5.0242534E0,4.2240486E0,4.126299E0,0E0,0E0,1.3400073E0,5.4476776E0,4.3276424E0,6.3677E0,3.9458427E0,1.2874746E-1,3.1201673E0,4.639121E0,3.1005554E0,0E0,1.8955431E0,0E0,0E0,4.330593E0,1.8489906E0,5.6363554E0,5.3810015E0,4.327002E0,5.9860425E0,4.9394407E0,4.596982E0,0E0,0E0,0E0,0E0,3.5103142E0,0E0,3.9968593E0,2.089676E0,0E0,0E0,0E0,0E0,0E0,0E0,0E0,0E0,0E0,0E0,0E0,0E0,0E0,0E0,0E0,0E0,0E0,0E0,0E0,0E0,0E0,0E0,0E0,0E0],"parents":[2147483647,0,0,1,1,2,2,3,3,4,4,5,5,6,6,7,7,8,8,9,9,10,10,11,11,14,14,15,15,16,16,17,17,18,18,19,19,20,20,21,21,22,22,24,24,27,27,28,28,29,29,30,30,31,31,32,32,33,33,34,34,39,39,41,41,42,42],"right_children":[2,4,6,8,10,12,14,16,18,20,22,24,-1,-1,26,28,30,32,34,36,38,40,42,-1,44,-1,-1,46,48,50,52,54,56,58,60,-1,-1,-1,-1,62,-1,64,66,-1,-1,-1,-1,-1,-1,-1,-1,-1,-1,-1,-1,-1,-1,-1,-1,-1,-1,-1,-1,-1,-1,-1,-1],"split_conditions":[6E-1,4E-1,8.4375E-1,2E-1,2E-2,9.375E-1,4E-1,4E-1,6E-2,7.5E-1,1E-1,2E-2,-6.1518382E-2,-7.465915E-2,6E-2,2.3333333E-1,2.3333333E-1,6E-2,2.6666668E-1,1E-1,1.4E-1,6.666667E-1,4E-2,-3.3909068E-2,4E-2,1.02694325E-1,-2.1569878E-2,5.625E-1,1E-1,1.3333334E-1,2.2E-1,2E-2,4E-1,3.4E-1,1E-1,-1.1116869E-2,-6.8821214E-2,1.4682764E-1,-2.5858525E-2,4E-2,-8.158096E-2,2.4E0,2E-1,2.1690173E-2,1.5642005E-1,6.063319E-2,-9.594966E-2,-2.361257E-2,1.1545328E-1,-2.0634353E-2,3.6070295E-2,8.546524E-2,-7.1761996E-2,1.16168E-1,1.7386919E-2,-6.0651578E-2,6.545138E-2,-7.0529774E-2,7.282486E-2,7.806452E-2,-7.809536E-2,-5.8219355E-2,1.0903809E-1,-9.064358E-2,3.2631632E-2,-1.0650089E-1,5.930982E-3],"split_indices":[1034,1259,107,400,1574,1773,686,1289,745,1535,1488,746,0,0,384,412,1612,1553,1581,1668,1459,1410,1211,0,148,0,0,226,246,400,24,32,808,1548,977,0,0,0,0,1436,0,1780,1552,0,0,0,0,0,0,0,0,0,0,0,0,0,0,0,0,0,0,0,0,0,0,0,0],"split_type":[0,0,0,0,0,0,0,0,0,0,0,0,0,0,0,0,0,0,0,0,0,0,0,0,0,0,0,0,0,0,0,0,0,0,0,0,0,0,0,0,0,0,0,0,0,0,0,0,0,0,0,0,0,0,0,0,0,0,0,0,0,0,0,0,0,0,0],"sum_hessian":[2.3126521E2,2.1598991E2,1.5275302E1,1.7751411E2,3.8475792E1,9.781535E0,5.4937663E0,1.0374515E2,7.3768974E1,6.4208026E0,3.205499E1,8.693156E0,1.0883794E0,3.457716E0,2.0360503E0,1.328566E1,9.045949E1,3.920525E1,3.4563725E1,2.4094324E0,4.01137E0,6.87943E0,2.5175558E1,1.3964036E0,7.2967525E0,1.0160545E0,1.0199958E0,1.0587795E1,2.6978643E0,7.2090164E1,1.8369326E1,2.0723824E1,1.8481424E1,2.827224E1,6.2914844E0,1.0004773E0,1.4089552E0,2.948884E0,1.0624859E0,4.6559134E0,2.2235165E0,8.97336E0,1.6202198E1,1.6646767E0,5.632076E0,1.4252684E0,9.162527E0,1.0432403E0,1.654624E0,2.7740078E1,4.4350082E1,1.6653486E1,1.7158403E0,5.5444965E0,1.5179328E1,1.439881E1,4.082615E0,2.6439438E1,1.8328024E0,4.3159466E0,1.9755379E0,1.002128E0,3.6537855E0,3.4914398E0,5.4819202E0,1.44657135E1,1.7364845E0],"tree_param":{"num_deleted":"0","num_feature":"1785","num_nodes":"67","size_leaf_vector":"1"}},{"base_weights":[1.1026253E-3,-9.236524E-2,1.5136468E-1,5.815681E-1,-1.4596164E-1,4.239665E-1,-4.728455E-2,1.1981981E0,-6.47235E-2,2.0637852E-1,-2.4931735E-1,-1.4750382E-1,7.12546E-1,1.706438E-1,-5.111742E-1,7.032191E-3,1.4795952E-1,7.0018476E-1,-6.8194136E-2,8.3851326E-1,-1.8607564E-1,-4.5732757E-1,3.0292267E-2,-7.5472724E-1,4.9311912E-1,1.0262432E0,-1.3455077E-2,-7.4493843E-1,3.473982E-1,-7.4405897E-1,3.5327303E-1,9.91667E-4,1.00977E-1,1.1910634E0,-7.507572E-2,-4.5513466E-1,5.2675456E-1,-7.073063E-1,-7.845411E-2,-3.8891795E-1,2.6106748E-1,-9.5732845E-2,2.5445608E-2,-7.057921E-2,9.46151E-1,1.2386174E0,-4.7261853E-2,1.1061943E0,-5.9946674E-1,1.6890697E-2,-9.5638685E-2,-5.2179277E-1,5.0706124E-1,-9.229574E-1,1.8334858E-1,-6.513204E-2,1.0118393E-1,1.534877E-1,-4.615069E-3,-6.623954E-2,7.695032E-2,-4.7120024E-2,1.0412414E-1,-8.050944E-2,2.953142E-2,-5.0894033E-2,3.611598E-2,7.510232E-2,-6.645294E-2,-1.0713591E-2,6.4929545E-2,1.289231E-1,-2.6661167E-2,1.4032988E-1,-1.4326818E-2,3.6743443E-2,1.3098042E-1,-9.274035E-2,4.0742956E-2,5.0096627E-2,-8.789193E-2,6.2283237E-2,-7.211299E-2,-1.0390929E-1,1.2628472E-2,-2.8908407E-2,5.7091314E-2],"categories":[],"categories_nodes":[],"categories_segments":[],"categories_sizes":[],"default_left":[0,0,0,0,0,0,0,0,0,0,0,0,0,0,0,0,0,0,0,0,0,0,0,0,0,0,0,0,0,0,0,0,0,0,0,0,0,0,0,0,0,0,0,0,0,0,0,0,0,0,0,0,0,0,0,0,0,0,0,0,0,0,0,0,0,0,0,0,0,0,0,0,0,0,0,0,0,0,0,0,0,0,0,0,0,0,0],"id":24,"left_children":[1,3,5,7,9,11,13,15,17,19,21,23,25,27,29,-1,-1,31,-1,33,35,37,39,41,43,45,47,49,51,53,55,-1,-1,57,-1,59,61,63,65,67,69,-1,-1,-1,71,73,-1,75,77,-1,-1,79,81,83,85,-1,-1,-1,-1,-1,-1,-1,-1,-1,-1,-1,-1,-1,-1,-1,-1,-1,-1,-1,-1,-1,-1,-1,-1,-1,-1,-1,-1,-1,-1,-1,-1],"loss_changes":[3.2343857E0,5.2134485E0,4.802333E0,4.3260174E0,4.8702364E0,6.260876E0,5.342638E0,1.6436763E0,3.3827999E0,7.737341E0,5.990847E0,5.5665574E0,5.70148E0,6.104018E0,3.6582942E0,0E0,0E0,6.826898E-1,0E0,7.5544453E0,4.012799E0,5.5314198E0,4.4332867E0,1.726037E0,4.5255756E0,6.140621E0,6.254758E0,1.3523335E0,4.560627E0,2.4270535E0,3.4757802E0,0E0,0E0,4.3736515E0,0E0,4.2708793E0,3.496393E0,3.7100372E0,4.834383E0,5.6199517E0,4.2831507E0,0E0,0E0,0E0,2.6662884E0,3.7425175E0,0E0,1.2017727E-2,2.4392018E0,0E0,0E0,2.374991E0,4.239832E0,1.5415297E0,7.207249E-1,0E0,0E0,0E0,0E0,0E0,0E0,0E0,0E0,0E0,0E0,0E0,0E0,0E0,0E0,0E0,0E0,0E0,0E0,0E0,0E0,0E0,0E0,0E0,0E0,0E0,0E0,0E0,0E0,0E0,0E0,0E0,0E0],"parents":[2147483647,0,0,1,1,2,2,3,3,4,4,5,5,6,6,7,7,8,8,9,9,10,10,11,11,12,12,13,13,14,14,17,17,19,19,20,20,21,21,22,22,23,23,24,24,25,25,26,26,27,27,28,28,29,29,30,30,33,33,35,35,36,36,37,37,38,38,39,39,40,40,44,44,45,45,47,47,48,48,51,51,52,52,53,53,54,54],"right_children":[2,4,6,8,