{"learner":{"attributes":{},"feature_names":[],"feature_types":[],"gradient_booster":{"model":{"cats":{"enc":[],"feature_segments":[],"sorted_idx":[]},"gbtree_model_param":{"num_parallel_tree":"1","num_trees":"100"},"iteration_indptr":[0,1,2,3,4,5,6,7,8,9,10,11,12,13,14,15,16,17,18,19,20,21,22,23,24,25,26,27,28,29,30,31,32,33,34,35,36,37,38,39,40,41,42,43,44,45,46,47,48,49,50,51,52,53,54,55,56,57,58,59,60,61,62,63,64,65,66,67,68,69,70,71,72,73,74,75,76,77,78,79,80,81,82,83,84,85,86,87,88,89,90,91,92,93,94,95,96,97,98,99,100],"tree_info":[0,0,0,0,0,0,0,0,0,0,0,0,0,0,0,0,0,0,0,0,0,0,0,0,0,0,0,0,0,0,0,0,0,0,0,0,0,0,0,0,0,0,0,0,0,0,0,0,0,0,0,0,0,0,0,0,0,0,0,0,0,0,0,0,0,0,0,0,0,0,0,0,0,0,0,0,0,0,0,0,0,0,0,0,0,0,0,0,0,0,0,0,0,0,0,0,0,0,0,0],"trees":[{"base_weights":[-6.517573E-9,-1.06999904E-1,4.1857952E-1,-1.831699E-1,8.9635897E-1,1.7705622E-1,1.4791589E0,8.3833283E-1,-2.4111328E-1,2.130833E0,1.4788033E-1,1.437675E-2,1.7182537E0,-8.130669E-2,2.0169065E0,1.809888E0,-2.884431E-1,-2.8698206E-1,1.0142258E0,2.8313196E0,-2.8568206E-2,1.2809333E0,-7.9109925E-1,-3.2439557E-1,7.348434E-1,2.6633033E-1,-6.7568034E-2,1.8616308E-1,2.719586E0,-6.7568034E-2,2.4600396E0,1.00931324E-1,-8.1987363E-1,-3.491749E-1,6.080016E-1,-6.665323E-1,2.1362042E0,3.5464355E-1,2.536728E-2,-2.7486554E-1,2.4490486E-1,-1.04354315E-1,2.536728E-2,1.1751542E0,-5.549301E-1,1.46034E0,-6.970856E-1,1.183026E-1,-7.5348645E-2,3.4374008E-1,3.4875844E-2,3.1629142E-1,1.4598304E-2,-9.436468E-2,-2.1100376E-2,-3.8668495E-2,1.3620943E-1,1.3703166E-1,-4.4393945E-2,-7.8512974E-2,-2.1100376E-2,3.1378528E-1,-2.8568206E-2,2.536728E-2,-6.7568034E-2,2.3250738E-1,-7.5348645E-2,-7.4588016E-2,8.229708E-2,2.2203754E-1,-2.2942085E-2,2.536728E-2,-9.8902956E-2],"categories":[],"categories_nodes":[],"categories_segments":[],"categories_sizes":[],"default_left":[0,0,0,0,0,0,0,0,0,0,0,0,0,0,0,0,0,0,0,0,0,0,0,0,0,0,0,0,0,0,0,0,0,0,0,0,0,0,0,0,0,0,0,0,0,0,0,0,0,0,0,0,0,0,0,0,0,0,0,0,0,0,0,0,0,0,0,0,0,0,0,0,0],"id":0,"left_children":[1,3,5,7,9,11,13,15,17,19,21,23,25,-1,27,29,31,33,35,37,-1,39,41,43,45,-1,-1,47,49,-1,51,-1,53,55,57,59,61,-1,-1,63,-1,-1,-1,65,67,69,71,-1,-1,-1,-1,-1,-1,-1,-1,-1,-1,-1,-1,-1,-1,-1,-1,-1,-1,-1,-1,-1,-1,-1,-1,-1,-1],"loss_changes":[1.3254253E1,1.8176678E1,1.5170776E1,1.3217068E1,1.5207093E1,1.2563589E1,1.5247173E1,1.3687886E1,1.2317399E1,1.1416294E1,1.32833395E1,1.1569053E1,1.262564E1,0E0,1.1365906E1,1.2320658E1,5.2627735E0,1.1471352E1,1.5723778E1,8.224472E0,0E0,1.0865122E1,2.091095E0,1.18076315E1,1.6760414E1,0E0,0E0,4.2946386E0,1.0025665E1,0E0,8.392178E0,0E0,1.8631816E-1,1.2707941E1,1.1440383E1,3.950894E-2,1.2504879E1,0E0,0E0,8.713554E-1,0E0,0E0,0E0,1.1999573E1,8.151636E0,1.3841293E1,1.8532116E0,0E0,0E0,0E0,0E0,0E0,0E0,0E0,0E0,0E0,0E0,0E0,0E0,0E0,0E0,0E0,0E0,0E0,0E0,0E0,0E0,0E0,0E0,0E0,0E0,0E0,0E0],"parents":[2147483647,0,0,1,1,2,2,3,3,4,4,5,5,6,6,7,7,8,8,9,9,10,10,11,11,12,12,14,14,15,15,16,16,17,17,18,18,19,19,21,21,22,22,23,23,24,24,27,27,28,28,30,30,32,32,33,33,34,34,35,35,36,36,39,39,43,43,44,44,45,45,46,46],"right_children":[2,4,6,8,10,12,14,16,18,20,22,24,26,-1,28,30,32,34,36,38,-1,40,42,44,46,-1,-1,48,50,-1,52,-1,54,56,58,60,62,-1,-1,64,-1,-1,-1,66,68,70,72,-1,-1,-1,-1,-1,-1,-1,-1,-1,-1,-1,-1,-1,-1,-1,-1,-1,-1,-1,-1,-1,-1,-1,-1,-1,-1],"split_conditions":[1.6E-1,2.6E-1,2E-1,1E-1,5E-1,6.666667E-1,2E-2,1.2E-1,6E-1,1.2E-1,4E-2,1.2E-1,3.72E0,-8.130669E-2,3.3333334E-1,2E-2,4.65E-1,2.4E-1,2E-1,2.6666668E-1,-2.8568206E-2,3.3E0,1.4E-1,3.8E-1,1E-1,2.6633033E-1,-6.7568034E-2,4E-2,5E-1,-6.7568034E-2,2E-1,1.00931324E-1,1.6E-1,3.8E-1,6E-2,6E-2,1.4E-1,3.5464355E-1,2.536728E-2,4E-2,2.4490486E-1,-1.04354315E-1,2.536728E-2,8E-2,2.6666668E-1,1.2E-1,1.6666667E-1,1.183026E-1,-7.5348645E-2,3.4374008E-1,3.4875844E-2,3.1629142E-1,1.4598304E-2,-9.436468E-2,-2.1100376E-2,-3.8668495E-2,1.3620943E-1,1.3703166E-1,-4.4393945E-2,-7.8512974E-2,-2.1100376E-2,3.1378528E-1,-2.8568206E-2,2.536728E-2,-6.7568034E-2,2.3250738E-1,-7.5348645E-2,-7.4588016E-2,8.229708E-2,2.2203754E-1,-2.2942085E-2,2.536728E-2,-9.8902956E-2],"split_indices":[956,974,1091,754,697,1294,733,1335,1628,385,497,1213,590,0,1415,1204,337,1560,391,285,0,832,30,456,126,0,0,5,581,0,369,0,2,1201,1675,5,1574,0,0,1,0,0,0,32,418,486,58,0,0,0,0,0,0,0,0,0,0,0,0,0,0,0,0,0,0,0,0,0,0,0,0,0,0],"split_type":[0,0,0,0,0,0,0,0,0,0,0,0,0,0,0,0,0,0,0,0,0,0,0,0,0,0,0,0,0,0,0,0,0,0,0,0,0,0,0,0,0,0,0,0,0,0,0,0,0,0,0,0,0,0,0,0,0,0,0,0,0,0,0,0,0,0,0,0,0,0,0,0,0],"sum_hessian":[2.9393335E2,2.3468588E2,5.9247486E1,2.1888655E2,1.579933E1,4.920833E1,1.0039158E1,1.1026615E1,2.0785994E2,5.2664433E0,1.05328865E1,4.5423073E1,3.7852561E0,1.8103399E0,8.228818E0,5.595596E0,5.43102E0,2.0127687E2,6.583054E0,3.9498324E0,1.3166108E0,4.608138E0,5.9247484E0,3.1269506E1,1.4153566E1,2.6332216E0,1.1520345E0,2.6332216E0,5.595596E0,1.1520345E0,4.4435616E0,1.3166108E0,4.114409E0,1.8876907E2,1.2507803E1,2.797798E0,3.7852561E0,2.797798E0,1.1520345E0,2.304069E0,2.304069E0,4.772714E0,1.1520345E0,3.6206799E0,2.7648827E1,9.380852E0,4.772714E0,1.1520345E0,1.4811871E0,3.9498324E0,1.6457635E0,3.1269507E0,1.3166108E0,2.9623742E0,1.1520345E0,1.8547755E2,3.291527E0,7.076783E0,5.43102E0,1.6457635E0,1.1520345E0,2.4686453E0,1.3166108E0,1.1520345E0,1.1520345E0,2.1394925E0,1.4811871E0,2.4686453E1,2.9623742E0,6.2539015E0,3.1269507E0,1.1520345E0,3.6206799E0],"tree_param":{"num_deleted":"0","num_feature":"1785","num_nodes":"73","size_leaf_vector":"1"}},{"base_weights":[3.624512E-3,-4.953356E-2,7.049739E-1,-1.6552003E-1,3.8676742E-1,1.0547446E0,-7.658887E-1,-1.9662909E-1,1.537906E0,-2.3435764E-1,7.124841E-1,-2.5862026E-1,1.5047139E0,-9.0309665E-2,-1.3855318E-2,-2.2691E-1,1.2943445E0,-2.6415039E-2,2.4817999E-1,2.0126589E-1,-4.7745138E-1,8.8008153E-1,-9.354287E-2,-9.513817E-2,1.2831E-1,-2.3801729E-1,1.8761663E0,-2.8196543E-1,5.902968E-1,-6.632341E-2,2.1670418E0,-8.161593E-1,3.7488478E-1,9.906322E-3,1.3089063E0,-6.8267316E-2,3.616824E-2,2.629386E-1,2.4795508E0,-3.919775E-2,1.4379486E-2,1.413943E-1,-8.551052E-2,2.6293164E-1,7.0862405E-2,3.8222585E-2,-1.1431231E-1,-5.3395566E-2,1.7081809E-1,-5.3205956E-2,1.4045648E-1,-3.3730734E-3,1.7365418E-1,1.614213E-1,-8.206824E-2,2.858225E-1,2.1388909E-2],"categories":[],"categories_nodes":[],"categories_segments":[],"categories_sizes":[],"default_left":[0,0,0,0,0,0,0,0,0,0,0,0,0,0,0,0,0,0,0,0,0,0,0,0,0,0,0,0,0,0,0,0,0,0,0,0,0,0,0,0,0,0,0,0,0,0,0,0,0,0,0,0,0,0,0,0,0],"id":1,"left_children":[1,3,5,7,9,11,13,15,17,19,21,23,25,-1,-1,27,29,-1,-1,-1,31,33,-1,-1,-1,35,37,39,41,-1,43,45,47,49,51,-1,-1,53,55,-1,-1,-1,-1,-1,-1,-1,-1,-1,-1,-1,-1,-1,-1,-1,-1,-1,-1],"loss_changes":[1.098694E1,1.3929614E1,1.1489197E1,1.1809847E1,1.1869037E1,1.0550402E1,2.6806903E-1,9.961987E0,7.4730587E0,1.224089E1,1.1371258E1,6.8182697E0,8.831669E0,0E0,0E0,9.647751E0,8.974239E0,0E0,0E0,0E0,5.918915E0,1.3115026E1,0E0,0E0,0E0,1.090417E0,9.850899E0,9.335606E0,1.7428923E1,0E0,3.5204124E-1,6.0119877E0,8.442317E0,1.0287471E1,1.358556E1,0E0,0E0,7.263463E0,6.0241737E0,0E0,0E0,0E0,0E0,0E0,0E0,0E0,0E0,0E0,0E0,0E0,0E0,0E0,0E0,0E0,0E0,0E0,0E0],"parents":[2147483647,0,0,1,1,2,2,3,3,4,4,5,5,6,6,7,7,8,8,9,9,10,10,11,11,12,12,15,15,16,16,20,20,21,21,25,25,26,26,27,27,28,28,30,30,31,31,32,32,33,33,34,34,37,37,38,38],"right_children":[2,4,6,8,10,12,14,16,18,20,22,24,26,-1,-1,28,30,-1,-1,-1,32,34,-1,-1,-1,36,38,40,42,-1,44,46,48,50,52,-1,-1,54,56,-1,-1,-1,-1,-1,-1,-1,-1,-1,-1,-1,-1,-1,-1,-1,-1,-1,-1],"split_conditions":[2.6E-1,1.6E-1,5.08E0,7.35E-1,4E-2,1.3333334E-1,1E-1,3.3333334E-1,4E-2,1E-1,2.2E-1,9E-1,2E-2,-9.0309665E-2,-1.3855318E-2,3.3333334E-1,2E-2,-2.6415039E-2,2.4817999E-1,2.0126589E-1,4E-1,4E-2,-9.354287E-2,-9.513817E-2,1.2831E-1,6E-2,2E-2,1.4E-1,1.4E-1,-6.632341E-2,2.8E-1,2E-2,5E-1,4E-1,4.4E-1,-6.8267316E-2,3.616824E-2,4.75E-1,1.6E-1,-3.919775E-2,1.4379486E-2,1.413943E-1,-8.551052E-2,2.6293164E-1,7.0862405E-2,3.8222585E-2,-1.1431231E-1,-5.3395566E-2,1.7081809E-1,-5.3205956E-2,1.4045648E-1,-3.3730734E-3,1.7365418E-1,1.614213E-1,-8.206824E-2,2.858225E-1,2.1388909E-2],"split_indices":[974,956,1419,1765,1447,176,607,770,734,177,723,100,738,0,0,1347,489,0,0,0,1264,13,0,0,0,723,504,965,1191,0,16,1555,1412,1380,1408,0,0,694,1192,0,0,0,0,0,0,0,0,0,0,0,0,0,0,0,0,0,0],"split_type":[0,0,0,0,0,0,0,0,0,0,0,0,0,0,0,0,0,0,0,0,0,0,0,0,0,0,0,0,0,0,0,0,0,0,0,0,0,0,0,0,0,0,0,0,0,0,0,0,0,0,0,0,0,0,0,0,0],"sum_hessian":[2.9275864E2,2.729965E2,1.9762123E1,2.1615451E2,5.6841995E1,1.6194082E1,3.5680408E0,2.1314645E2,3.0080492E0,1.9650322E1,3.7191673E1,4.240937E0,1.1953145E1,2.5670192E0,1.0010216E0,2.0973466E2,3.4117904E0,1.2815317E0,1.7265174E0,1.2076997E0,1.8442623E1,3.418128E1,3.0103927E0,3.1903043E0,1.0506326E0,2.1632273E0,9.789918E0,1.9711026E2,1.2624407E1,1.1260116E0,2.285779E0,1.3228303E1,5.2143207E0,1.162164E1,2.2559639E1,1.1627393E0,1.0004879E0,3.0557475E0,6.73417E0,1.5669995E2,4.0410305E1,8.055714E0,4.568693E0,1.1260116E0,1.1597674E0,2.7993033E0,1.0428999E1,3.4572265E0,1.7570941E0,8.814729E0,2.8069115E0,5.672125E0,1.6887514E1,1.1420122E0,1.9137354E0,5.5457354E0,1.1884346E0],"tree_param":{"num_deleted":"0","num_feature":"1785","num_nodes":"57","size_leaf_vector":"1"}},{"base_weights":[5.4535517E-3,-6.0521986E-2,5.3148776E-1,6.1147038E-2,-3.7513202E-1,8.02422E-1,-6.267176E-1,1.419193E-1,-8.075147E-1,1.6988518E0,-4.613995E-1,2.2577696E-1,1.5224473E0,5.318312E-2,-1.0143141E-1,6.9472885E-1,4.6474725E-2,-1.0841806E0,4.356273E-1,2.809218E-2,2.3514925E-1,3.4723577E-1,-6.355529E-1,-7.9712987E-1,9.117464E-1,-1.803171E-1,2.105492E0,-6.920416E-1,1.041198E0,1.3043675E-1,-8.4975815E-1,-1.14816025E-1,-1.4021309E-2,-7.1219556E-2,1.366431E-1,1.2457935E0,-6.43759E-1,-7.4153453E-1,8.618831E-1,3.5463348E-2,-1.0499535E-1,1.9708722E0,-2.0399389E-1,-8.192879E-2,8.2706764E-2,2.913916E0,1.6192599E-1,-9.88593E-2,3.5021868E-2,-7.411418E-2,1.4296232E-1,6.2973583E-3,1.8188229E-1,-1.1325667E-1,4.1526657E-2,1.9352928E-1,-7.61017E-2,8.0713086E-2,-1.0361854E-1,-8.285289E-2,6.714853E-2,-7.278607E-2,1.8784685E-1,2.5037774E-1,-1.4645963E-2,-7.976901E-2,1.284946E-1,6.815618E-2,3.3035958E-1,-7.728588E-2,1.2649998E-1],"categories":[],"categories_nodes":[],"categories_segments":[],"categories_sizes":[],"default_left":[0,0,0,0,0,0,0,0,0,0,0,0,0,0,0,0,0,0,0,0,0,0,0,0,0,0,0,0,0,0,0,0,0,0,0,0,0,0,0,0,0,0,0,0,0,0,0,0,0,0,0,0,0,0,0,0,0,0,0,0,0,0,0,0,0,0,0,0,0,0,0],"id":2,"left_children":[1,3,5,7,9,11,13,15,17,19,21,23,25,-1,-1,27,29,31,33,-1,-1,35,37,39,41,43,45,47,49,51,53,-1,-1,-1,-1,55,57,59,61,-1,-1,63,65,-1,-1,67,69,-1,-1,-1,-1,-1,-1,-1,-1,-1,-1,-1,-1,-1,-1,-1,-1,-1,-1,-1,-1,-1,-1,-1,-1],"loss_changes":[1.0189481E1,1.0011809E1,1.0769917E1,1.3378305E1,1.3829547E1,1.084771E1,3.5769136E0,9.138254E0,6.054989E0,2.2316198E0,1.0189705E1,1.2053046E1,1.2107292E1,0E0,0E0,1.2981527E1,1.1344752E1,6.5818214E-1,4.89227E0,0E0,0E0,1.2547937E1,9.938744E0,2.4144893E0,1.2371061E1,3.2100294E0,1.3478439E1,2.1085577E0,1.5471096E1,1.5532197E1,5.092906E0,0E0,0E0,0E0,0E0,1.1516662E1,4.783222E0,7.3495255E0,8.374197E0,0E0,0E0,6.3355026E0,6.1862307E0,0E0,0E0,3.1518745E0,4.7588596E0,0E0,0E0,0E0,0E0,0E0,0E0,0E0,0E0,0E0,0E0,0E0,0E0,0E0,0E0,0E0,0E0,0E0,0E0,0E0,0E0,0E0,0E0,0E0,0E0],"parents":[2147483647,0,0,1,1,2,2,3,3,4,4,5,5,6,6,7,7,8,8,9,9,10,10,11,11,12,12,15,15,16,16,17,17,18,18,21,21,22,22,23,23,24,24,25,25,26,26,27,27,28,28,29,29,30,30,35,35,36,36,37,37,38,38,41,41,42,42,45,45,46,46],"right_children":[2,4,6,8,10,12,14,16,18,20,22,24,26,-1,-1,28,30,32,34,-1,-1,36,38,40,42,44,46,48,50,52,54,-1,-1,-1,-1,56,58,60,62,-1,-1,64,66,-1,-1,68,70,-1,-1,-1,-1,-1,-1,-1,-1,-1,-1,-1,-1,-1,-1,-1,-1,-1,-1,-1,-1,-1,-1,-1,-1],"split_conditions":[3E-1,4E-1,1.8E-1,2.4E-1,3.4E-1,8.125E-1,2E-2,1E-1,2E-1,8.125E-1,2E-2,2E-1,2E-1,5.318312E-2,-1.0143141E-1,4.25E-1,6E0,2.4E-1,4E-2,2.809218E-2,2.3514925E-1,8E-2,3.6666667E-1,1.6666667E-1,8E-2,6E-2,1E-1,1.6E-1,2E-2,5.24E0,2.8E-1,-1.14816025E-1,-1.4021309E-2,-7.1219556E-2,1.366431E-1,1E-1,2E-2,3.3333334E-1,5.2E-1,3.5463348E-2,-1.0499535E-1,4E-1,4E-1,-8.192879E-2,8.2706764E-2,2E-2,7.5E-1,-9.88593E-2,3.5021868E-2,-7.411418E-2,1.4296232E-1,6.2973583E-3,1.8188229E-1,-1.1325667E-1,4.1526657E-2,1.9352928E-1,-7.61017E-2,8.0713086E-2,-1.0361854E-1,-8.285289E-2,6.714853E-2,-7.278607E-2,1.8784685E-1,2.5037774E-1,-1.4645963E-2,-7.976901E-2,1.284946E-1,6.815618E-2,3.3035958E-1,-7.728588E-2,1.2649998E-1],"split_indices":[289,674,600,1089,708,1654,1082,750,1099,583,266,645,1361,0,0,813,1782,1216,1193,0,0,498,403,344,26,259,1076,145,1083,236,744,0,0,0,0,1093,601,766,1289,0,0,569,557,0,0,384,1535,0,0,0,0,0,0,0,0,0,0,0,0,0,0,0,0,0,0,0,0,0,0,0,0],"split_type":[0,0,0,0,0,0,0,0,0,0,0,0,0,0,0,0,0,0,0,0,0,0,0,0,0,0,0,0,0,0,0,0,0,0,0,0,0,0,0,0,0,0,0,0,0,0,0,0,0,0,0,0,0,0,0,0,0,0,0,0,0,0,0,0,0,0,0,0,0,0,0],"sum_hessian":[2.9167252E2,2.599539E2,3.171863E1,1.8803918E2,7.191468E1,2.5954407E1,5.7642226E0,1.7280737E2,1.5231821E1,2.1253605E0,6.978932E1,1.5141576E1,1.0812831E1,1.3517212E0,4.4125013E0,2.4518538E1,1.4828883E2,1.2563614E1,2.6682076E0,1.1207823E0,1.0045781E0,1.2190786E1,5.7598537E1,6.0130143E0,9.128561E0,2.9342306E0,7.8786006E0,4.7018003E0,1.9816738E1,1.363679E2,1.1920929E1,1.1563553E1,1.0000603E0,1.2999861E0,1.3682216E0,6.2587347E0,5.932052E0,5.426286E1,3.3356776E0,1.00985E0,5.0031643E0,4.289906E0,4.838655E0,1.90967E0,1.0245606E0,5.211585E0,2.6670153E0,3.7004209E0,1.0013796E0,3.3834171E0,1.6433321E1,1.3212582E2,4.2420783E0,9.828402E0,2.092527E0,4.6847777E0,1.5739567E0,1.0379062E0,4.894146E0,5.15055E1,2.7573564E0,1.4118423E0,1.9238354E0,3.2814834E0,1.0084229E0,3.7912126E0,1.0474424E0,1.1830856E0,4.0284996E0,1.6056707E0,1.0613446E0],"tree_param":{"num_deleted":"0","num_feature":"1785","num_nodes":"71","size_leaf_vector":"1"}},{"base_weights":[6.4770826E-3,-1.1727457E-1,2.4908815E-1,-1.831555E-1,8.5077643E-1,-4.906279E-1,4.4463348E-1,-2.5960895E-1,6.958075E-1,2.279896E-1,1.201005E-1,-6.891424E-1,1.4064E-1,1.9488291E-1,1.1632977E0,-1.1312545E-1,-7.100921E-1,1.1652647E0,-7.1992767E-1,-8.2038033E-1,1.0622318E0,-8.943406E-1,5.829238E-1,1.2493737E-2,1.7305881E0,1.7816197E0,8.0317706E-2,-2.8510302E-1,3.8395965E-1,-1.0222672E0,-6.2352605E-2,-7.72558E-2,1.5537932E0,-8.5722655E-2,-1.4617102E-2,-9.4803706E-2,-1.4024339E-2,-6.824144E-2,1.7430229E0,-1.0946155E0,2.4867843E-1,1.4853655E-1,-6.558663E-2,4.541301E-1,-4.011602E-1,-3.693087E-2,2.4970677E0,2.1314354E0,-3.9583992E-2,-8.0671674E-1,1.1152239E0,-4.0768534E-2,6.2461305E-2,8.0779955E-2,-4.6773843E-2,-1.12341285E-1,5.564892E-2,1.8767832E-1,-5.1067412E-2,-3.776388E-2,1.9467464E-1,2.2080068E-1,2.6786938E-2,-1.4999482E-2,-1.1516657E-1,-7.219908E-2,1.20564334E-1,-6.897856E-2,1.0036085E-1,3.0968664E-2,-7.64147E-2,2.8182927E-1,7.345792E-2,2.694854E-1,1.9841325E-2,-9.351646E-2,-1.41815515E-2,-2.766434E-2,1.8145801E-1],"categories":[],"categories_nodes":[],"categories_segments":[],"categories_sizes":[],"default_left":[0,0,0,0,0,0,0,0,0,0,0,0,0,0,0,0,0,0,0,0,0,0,0,0,0,0,0,0,0,0,0,0,0,0,0,0,0,0,0,0,0,0,0,0,0,0,0,0,0,0,0,0,0,0,0,0,0,0,0,0,0,0,0,0,0,0,0,0,0,0,0,0,0,0,0,0,0,0,0],"id":3,"left_children":[1,3,5,7,9,11,13,15,17,-1,19,21,-1,23,25,27,29,31,33,35,37,39,41,43,45,47,49,51,53,55,57,-1,59,-1,-1,-1,-1,-1,61,63,65,-1,-1,67,69,-1,71,73,-1,75,77,-1,-1,-1,-1,-1,-1,-1,-1,-1,-1,-1,-1,-1,-1,-1,-1,-1,-1,-1,-1,-1,-1,-1,-1,-1,-1,-1,-1],"loss_changes":[8.784531E0,1.2515131E1,1.4512737E1,1.2428919E1,1.2805448E1,8.929317E0,1.3896352E1,1.1032759E1,1.0713209E1,0E0,9.150331E0,5.691263E0,0E0,1.667049E1,1.3310799E1,1.1075375E1,8.254065E0,9.888154E0,2.1484041E-1,3.2201028E-1,7.2510185E0,4.2667475E0,4.7266297E0,1.009741E1,1.1092997E1,1.0549595E1,8.564292E0,1.0946348E1,1.2434057E1,5.047203E0,1.3514083E1,0E0,8.282288E0,0E0,0E0,0E0,0E0,0E0,2.1195307E0,6.374054E-1,4.0440226E0,0E0,0E0,1.7486528E1,7.6049933E0,0E0,6.236248E-1,1.1592598E1,0E0,3.0090308E-1,4.6615634E0,0E0,0E0,0E0,0E0,0E0,0E0,0E0,0E0,0E0,0E0,0E0,0E0,0E0,0E0,0E0,0E0,0E0,0E0,0E0,0E0,0E0,0E0,0E0,0E0,0E0,0E0,0E0,0E0],"parents":[2147483647,0,0,1,1,2,2,3,3,4,4,5,5,6,6,7,7,8,8,10,10,11,11,13,13,14,14,15,15,16,16,17,17,18,18,19,19,20,20,21,21,22,22,23,23,24,24,25,25,26,26,27,27,28,28,29,29,30,30,32,32,38,38,39,39,40,40,43,43,44,44,46,46,47,47,49,49,50,50],"right_children":[2,4,6,8,10,12,14,16,18,-1,20,22,-1,24,26,28,30,32,34,36,38,40,42,44,46,48,50,52,54,56,58,-1,60,-1,-1,-1,-1,-1,62,64,66,-1,-1,68,70,-1,72,74,-1,76,78,-1,-1,-1,-1,-1,-1,-1,-1,-1,-1,-1,-1,-1,-1,-1,-1,-1,-1,-1,-1,-1,-1,-1,-1,-1,-1,-1,-1],"split_conditions":[2.3333333E-1,2.8E-1,2E-2,2.6E-1,7.1875E-1,3.3333334E-1,1E-1,2.6666668E-1,5.2E0,2.279896E-1,1E-1,2.6E-1,1.4064E-1,2.6666668E-1,2E-1,1.4E-1,4.56E0,2E-2,1E-1,2.6666668E-1,3.3333334E-1,5.95E-1,6E-2,6E-2,4E-2,4.92E0,1E-1,2E-1,6.666667E-1,3.3333334E-1,3.74E0,-7.72558E-2,6.25E-1,-8.5722655E-2,-1.4617102E-2,-9.4803706E-2,-1.4024339E-2,-6.824144E-2,1E-1,1E-1,8E-2,1.4853655E-1,-6.558663E-2,4E-2,3.3333334E-1,-3.693087E-2,8.4375E-1,1.2E-1,-3.9583992E-2,8E-2,3.3333334E-1,-4.0768534E-2,6.2461305E-2,8.0779955E-2,-4.6773843E-2,-1.12341285E-1,5.564892E-2,1.8767832E-1,-5.1067412E-2,-3.776388E-2,1.9467464E-1,2.2080068E-1,2.6786938E-2,-1.4999482E-2,-1.1516657E-1,-7.219908E-2,1.20564334E-1,-6.897856E-2,1.0036085E-1,3.0968664E-2,-7.64147E-2,2.8182927E-1,7.345792E-2,2.694854E-1,1.9841325E-2,-9.351646E-2,-1.41815515E-2,-2.766434E-2,1.8145801E-1],"split_indices":[518,1670,1441,974,345,1253,9,891,588,0,1554,385,0,163,1235,130,1299,622,1321,1347,818,1170,1,362,270,114,627,733,1053,410,705,0,345,0,0,0,0,0,369,892,611,0,0,1194,1179,0,464,477,0,1334,581,0,0,0,0,0,0,0,0,0,0,0,0,0,0,0,0,0,0,0,0,0,0,0,0,0,0,0,0],"split_type":[0,0,0,0,0,0,0,0,0,0,0,0,0,0,0,0,0,0,0,0,0,0,0,0,0,0,0,0,0,0,0,0,0,0,0,0,0,0,0,0,0,0,0,0,0,0,0,0,0,0,0,0,0,0,0,0,0,0,0,0,0,0,0,0,0,0,0,0,0,0,0,0,0,0,0,0,0,0,0],"sum_hessian":[2.9061536E2,1.9279208E2,9.782325E1,1.8126674E2,1.1525352E1,2.0137468E1,7.768578E1,1.6740984E2,1.3856904E1,3.1818185E0,8.3435335E0,1.8806217E1,1.3312515E0,5.859425E1,1.909153E1,1.2727498E2,4.0134857E1,1.0539071E1,3.3178332E0,4.240095E0,4.103438E0,1.6449648E1,2.356569E0,5.3275127E1,5.319125E0,1.1742246E1,7.3492846E0,9.487673E1,3.239825E1,2.6692379E1,1.3442477E1,1.5950727E0,8.943998E0,2.2785263E0,1.0393068E0,3.2383828E0,1.0017123E0,1.1511166E0,2.9523215E0,1.4033164E1,2.4164836E0,1.2482156E0,1.1083535E0,2.571874E1,2.7556385E1,1.5609155E0,3.7582095E0,1.013514E1,1.6071053E0,4.076093E0,3.2731912E0,8.4096725E1,1.078E1,2.1667273E1,1.0730979E1,2.5356306E1,1.3360734E0,1.9259362E0,1.1516541E1,1.5186323E0,7.425366E0,1.8670193E0,1.0853022E0,1.0059592E0,1.3027205E1,1.3215495E0,1.0949341E0,8.26245E0,1.745629E1,9.3644905E0,1.8191896E1,2.672151E0,1.0860586E0,7.5425854E0,2.5925548E0,3.0754888E0,1.0006045E0,1.2967715E0,1.9764196E0],"tree_param":{"num_deleted":"0","num_feature":"1785","num_nodes":"79","size_leaf_vector":"1"}},{"base_weights":[7.3112547E-3,-6.90454E-2,3.6562705E-1,-3.365255E-1,8.18467E-2,-3.7684217E-1,7.172549E-1,-4.5063278E-1,6.1214757E-1,-2.4113573E-1,3.745464E-1,5.101421E-1,-8.718575E-1,9.278253E-1,-7.831988E-1,-5.2736336E-1,8.0140626E-1,1.7601095E0,-2.5834426E-1,-3.5938433E-1,8.020188E-1,-3.1201543E-2,7.5345564E-1,-3.4589595E-1,1.5734046E0,-1.1029325E-1,1.0762413E-1,1.1240737E0,-5.1139694E-1,-9.177345E-2,-1.525711E-2,1.21385336E-1,-6.5580654E-1,-5.0264634E-2,1.8981312E-1,2.4265766E-1,-1.49468435E-2,1.0374162E-1,-9.610186E-2,-4.271061E-1,1.5292968E-1,1.6679654E0,-6.221281E-1,-4.1784528E-1,5.0558066E-1,-4.8325205E-1,1.0158939E0,6.914253E-2,-8.772261E-2,2.5752217E-2,2.1154523E-1,8.293796E-2,-6.4106636E-2,1.2747605E0,-7.697477E-2,-8.8138536E-2,3.500923E-2,9.316324E-2,-7.75226E-2,-1.5821371E-2,-8.7300144E-2,-5.1473893E-2,1.1051346E-1,2.3289637E-1,-2.3573913E-2,-7.750761E-2,-1.0617509E-2,1.3096687E-1,-6.1646502E-2,-7.9176354E-4,1.5662225E-1,-9.119108E-2,9.2273585E-2,-1.4809308E-2,1.3278954E-1,1.7707841E-1,5.3637188E-2],"categories":[],"categories_nodes":[],"categories_segments":[],"categories_sizes":[],"default_left":[0,0,0,0,0,0,0,0,0,0,0,0,0,0,0,0,0,0,0,0,0,0,0,0,0,0,0,0,0,0,0,0,0,0,0,0,0,0,0,0,0,0,0,0,0,0,0,0,0,0,0,0,0,0,0,0,0,0,0,0,0,0,0,0,0,0,0,0,0,0,0,0,0,0,0,0,0],"id":4,"left_children":[1,3,5,7,9,11,13,15,17,19,21,23,25,27,29,31,33,35,37,39,41,43,45,47,49,-1,51,53,55,-1,-1,57,59,-1,-1,-1,-1,-1,-1,61,-1,63,65,67,69,71,73,-1,-1,-1,-1,-1,-1,75,-1,-1,-1,-1,-1,-1,-1,-1,-1,-1,-1,-1,-1,-1,-1,-1,-1,-1,-1,-1,-1,-1,-1],"loss_changes":[7.9568753E0,9.706697E0,1.3606998E1,9.659989E0,1.4661057E1,7.9411783E0,1.1788408E1,7.9119883E0,1.0179357E1,9.401661E0,1.2514388E1,6.684698E0,2.6823864E0,9.375818E0,2.7154398E-1,6.250742E0,7.95998E0,5.866843E0,6.830224E0,9.229188E0,1.0696053E1,8.553197E0,1.4139374E1,3.1182504E0,1.72998E0,0E0,2.192374E0,8.895691E0,1.7194252E0,0E0,0E0,1.0226879E1,6.5598774E0,0E0,0E0,0E0,0E0,0E0,0E0,9.365279E0,0E0,7.0194445E0,2.088772E-1,9.011969E0,9.424738E0,5.686618E0,1.2912151E1,0E0,0E0,0E0,0E0,0E0,0E0,8.597103E0,0E0,0E0,0E0,0E0,0E0,0E0,0E0,0E0,0E0,0E0,0E0,0E0,0E0,0E0,0E0,0E0,0E0,0E0,0E0,0E0,0E0,0E0,0E0],"parents":[2147483647,0,0,1,1,2,2,3,3,4,4,5,5,6,6,7,7,8,8,9,9,10,10,11,11,12,12,13,13,14,14,15,15,16,16,17,17,18,18,19,19,20,20,21,21,22,22,23,23,24,24,26,26,27,27,28,28,31,31,32,32,39,39,41,41,42,42,43,43,44,44,45,45,46,46,53,53],"right_children":[2,4,6,8,10,12,14,16,18,20,22,24,26,28,30,32,34,36,38,40,42,44,46,48,50,-1,52,54,56,-1,-1,58,60,-1,-1,-1,-1,-1,-1,62,-1,64,66,68,70,72,74,-1,-1,-1,-1,-1,-1,76,-1,-1,-1,-1,-1,-1,-1,-1,-1,-1,-1,-1,-1,-1,-1,-1,-1,-1,-1,-1,-1,-1,-1],"split_conditions":[2E-1,4E-2,7.1875E-1,3E-1,6E-2,2E-1,5E-1,6E-1,6E-2,2.4E-1,2E-1,8.125E-1,2E-1,3E-1,3.46E0,2E-2,4E-2,8E-2,1.6666667E-1,3.8E-1,1E-1,8E-2,2E-2,4E-2,1.3333334E-1,-1.1029325E-1,1.6E-1,6E-1,1.2E-1,-9.177345E-2,-1.525711E-2,6E-2,4E-2,-5.0264634E-2,1.8981312E-1,2.4265766E-1,-1.49468435E-2,1.0374162E-1,-9.610186E-2,3.2E-1,1.5292968E-1,5E-1,2E-1,5E-1,1.2E-1,4E-1,2E-2,6.914253E-2,-8.772261E-2,2.5752217E-2,2.1154523E-1,8.293796E-2,-6.4106636E-2,2E-1,-7.697477E-2,-8.8138536E-2,3.500923E-2,9.316324E-2,-7.75226E-2,-1.5821371E-2,-8.7300144E-2,-5.1473893E-2,1.1051346E-1,2.3289637E-1,-2.3573913E-2,-7.750761E-2,-1.0617509E-2,1.3096687E-1,-6.1646502E-2,-7.9176354E-4,1.5662225E-1,-9.119108E-2,9.2273585E-2,-1.4809308E-2,1.3278954E-1,1.7707841E-1,5.3637188E-2],"split_indices":[1091,119,583,1720,608,177,822,1032,1191,24,33,226,1095,398,1070,15,850,1220,896,1201,362,1452,1563,120,1600,0,268,1283,1207,0,0,1215,1564,0,0,0,0,0,0,1221,0,820,838,695,1573,1158,616,0,0,0,0,0,0,1123,0,0,0,0,0,0,0,0,0,0,0,0,0,0,0,0,0,0,0,0,0,0,0],"split_type":[0,0,0,0,0,0,0,0,0,0,0,0,0,0,0,0,0,0,0,0,0,0,0,0,0,0,0,0,0,0,0,0,0,0,0,0,0,0,0,0,0,0,0,0,0,0,0,0,0,0,0,0,0,0,0,0,0,0,0,0,0,0,0,0,0,0,0,0,0,0,0,0,0,0,0,0,0],"sum_hessian":[2.8890094E2,2.388167E2,5.008424E1,8.568906E1,1.5312764E2,1.6073345E1,3.40109E1,7.695752E1,8.731538E0,7.288173E1,8.024591E1,5.7463303E0,1.0327015E1,3.015995E1,3.8509457E0,7.305894E1,3.8985837E0,3.3248787E0,5.4066586E0,6.6049995E1,6.83173E0,3.9193707E1,4.10522E1,3.5571415E0,2.1891885E0,8.253782E0,2.0732317E0,2.6733603E1,3.4263492E0,2.798626E0,1.05232E0,1.2083221E1,6.0975716E1,2.0284064E0,1.8701774E0,2.2639809E0,1.060898E0,1.7335457E0,3.673113E0,6.451072E1,1.5392777E0,4.1420007E0,2.6897292E0,2.2911877E1,1.6281832E1,7.0392447E0,3.4012955E1,1.102808E0,2.4543335E0,1.0690471E0,1.1201415E0,1.0007303E0,1.0725015E0,2.5066042E1,1.6675601E0,2.3807716E0,1.0455775E0,6.326789E0,5.7564325E0,1.905324E1,4.1922478E1,6.164892E1,2.8617992E0,2.9086745E0,1.2333262E0,1.6873214E0,1.0024078E0,1.7858064E0,2.112607E1,1.1639317E1,4.6425147E0,5.6638536E0,1.3753912E0,7.300867E0,2.6712088E1,1.4157414E1,1.09086275E1],"tree_param":{"num_deleted":"0","num_feature":"1785","num_nodes":"77","size_leaf_vector":"1"}},{"base_weights":[8.017106E-3,-4.983422E-2,4.544682E-1,-3.2302988E-1,6.448338E-2,1.1417664E0,9.661422E-2,-4.011035E-1,1.5654688E0,-5.6139484E-2,5.982726E-1,1.5353104E0,-3.203678E-1,1.1993978E0,-2.4454941E-1,-5.757014E-1,1.6163921E-1,2.0616956E-1,2.8550303E-2,2.1346655E-1,-3.0458745E-1,7.8621167E-1,-9.309929E-2,-1.1594081E-2,1.9586284E0,2.3770934E-2,-6.798709E-2,1.8895848E0,-3.9619263E-2,-6.8343765E-1,5.950574E-1,-6.655209E-1,8.2958025E-1,1.3992839E0,-2.7112588E-1,5.524953E-1,-2.5469217E-1,-3.7053117E-1,1.5303661E-1,1.1342647E0,-6.211217E-2,2.3353922E0,-1.4396581E-2,3.0940836E-2,2.3295994E-1,7.646913E-2,-1.0154896E0,-2.818251E-1,2.0589721E-1,-7.545026E-2,9.0937555E-2,-3.3846043E-2,1.6736796E-1,2.1945958E-1,-4.982727E-3,-8.263254E-2,8.89857E-2,-3.186936E-2,9.177824E-2,-3.817877E-2,1.757182E-1,9.238378E-2,-4.548961E-2,1.4873804E-1,1.0619699E-3,-8.490543E-2,8.0605984E-2,2.7229595E-1,4.9087785E-2,-1.0984739E-1,-1.1339693E-2,-9.039835E-2,7.89706E-2],"categories":[],"categories_nodes":[],"categories_segments":[],"categories_sizes":[],"default_left":[0,0,0,0,0,0,0,0,0,0,0,0,0,0,0,0,0,0,0,0,0,0,0,0,0,0,0,0,0,0,0,0,0,0,0,0,0,0,0,0,0,0,0,0,0,0,0,0,0,0,0,0,0,0,0,0,0,0,0,0,0,0,0,0,0,0,0,0,0,0,0,0,0],"id":5,"left_children":[1,3,5,7,9,11,13,15,17,19,21,23,25,27,29,31,33,-1,-1,35,37,39,-1,-1,41,-1,-1,43,-1,45,47,49,51,53,55,57,59,61,-1,63,65,67,-1,-1,-1,-1,69,71,-1,-1,-1,-1,-1,-1,-1,-1,-1,-1,-1,-1,-1,-1,-1,-1,-1,-1,-1,-1,-1,-1,-1,-1,-1],"loss_changes":[7.468714E0,8.019913E0,8.04816E0,1.17928505E1,1.1713517E1,6.973957E0,8.911169E0,7.316085E0,1.450376E0,1.0037414E1,1.0366519E1,6.5521526E0,8.069211E-1,6.8951445E0,7.159138E0,7.6616096E0,1.01213E1,0E0,0E0,1.1566501E1,9.992258E0,9.045076E0,0E0,0E0,6.086008E0,0E0,0E0,2.1086626E0,0E0,6.78692E0,9.341503E0,8.182976E0,4.34159E0,5.7272243E0,9.961753E0,1.3679744E1,8.577137E0,8.718841E0,0E0,8.55644E0,7.3734856E0,3.105072E0,0E0,0E0,0E0,0E0,6.687584E-1,4.145826E0,0E0,0E0,0E0,0E0,0E0,0E0,0E0,0E0,0E0,0E0,0E0,0E0,0E0,0E0,0E0,0E0,0E0,0E0,0E0,0E0,0E0,0E0,0E0,0E0,0E0],"parents":[2147483647,0,0,1,1,2,2,3,3,4,4,5,5,6,6,7,7,8,8,9,9,10,10,11,11,12,12,13,13,14,14,15,15,16,16,19,19,20,20,21,21,24,24,27,27,29,29,30,30,31,31,32,32,33,33,34,34,35,35,36,36,37,37,39,39,40,40,41,41,46,46,47,47],"right_children":[2,4,6,8,10,12,14,16,18,20,22,24,26,28,30,32,34,-1,-1,36,38,40,-1,-1,42,-1,-1,44,-1,46,48,50,52,54,56,58,60,62,-1,64,66,68,-1,-1,-1,-1,70,72,-1,-1,-1,-1,-1,-1,-1,-1,-1,-1,-1,-1,-1,-1,-1,-1,-1,-1,-1,-1,-1,-1,-1,-1,-1],"split_conditions":[3E-1,4.5E-1,3.3333334E-1,3.3333334E-1,1.8E-1,9.375E-1,1.6666667E-1,2.3333333E-1,1.4E-1,6E-2,2.2E-1,4.65E-1,3.3333334E-1,8E-2,2.3333333E-1,6E-1,2E-2,2.0616956E-1,2.8550303E-2,8E-2,3.3333334E-1,1E-1,-9.309929E-2,-1.1594081E-2,2E-1,2.3770934E-2,-6.798709E-2,4E-2,-3.9619263E-2,2E-2,1E-1,6E-1,1E-1,1E-1,1E-1,1.6666667E-1,6.38E0,1E-1,1.5303661E-1,4E-1,8E-2,2.3333333E-1,-1.4396581E-2,3.0940836E-2,2.3295994E-1,7.646913E-2,4.72E0,6E-2,2.0589721E-1,-7.545026E-2,9.0937555E-2,-3.3846043E-2,1.6736796E-1,2.1945958E-1,-4.982727E-3,-8.263254E-2,8.89857E-2,-3.186936E-2,9.177824E-2,-3.817877E-2,1.757182E-1,9.238378E-2,-4.548961E-2,1.4873804E-1,1.0619699E-3,-8.490543E-2,8.0605984E-2,2.7229595E-1,4.9087785E-2,-1.0984739E-1,-1.1339693E-2,-9.039835E-2,7.89706E-2],"split_indices":[289,1408,1652,1729,956,583,651,656,2,604,375,218,1293,977,1132,559,362,0,0,1087,632,120,0,0,368,0,0,380,0,148,1443,1389,377,507,1316,758,711,754,0,1288,856,894,0,0,0,0,1189,256,0,0,0,0,0,0,0,0,0,0,0,0,0,0,0,0,0,0,0,0,0,0,0,0,0],"split_type":[0,0,0,0,0,0,0,0,0,0,0,0,0,0,0,0,0,0,0,0,0,0,0,0,0,0,0,0,0,0,0,0,0,0,0,0,0,0,0,0,0,0,0,0,0,0,0,0,0,0,0,0,0,0,0,0,0,0,0,0,0,0,0,0,0,0,0,0,0,0,0,0,0],"sum_hessian":[2.8729672E2,2.5512578E2,3.2170933E1,7.47243E1,1.8040149E2,1.0265092E1,2.190584E1,7.251405E1,2.2102425E0,1.4787932E2,3.252216E1,8.048683E0,2.2164085E0,4.58136E0,1.732448E1,5.5325577E1,1.7188475E1,1.1526366E0,1.0576057E0,7.098738E1,7.689194E1,2.9395489E1,3.1266694E0,1.7905067E0,6.258177E0,1.0011108E0,1.2152977E0,3.0694063E0,1.5119534E0,1.1499395E1,5.825084E0,5.2496635E1,2.8289416E0,3.8745303E0,1.3313944E1,4.106732E1,2.9920063E1,7.499488E1,1.897061E0,2.0604673E1,8.790815E0,5.2132883E0,1.0448885E0,1.0395087E0,2.0298975E0,1.9019173E0,9.597478E0,4.1479526E0,1.6771317E0,5.018226E1,2.314378E0,1.4380444E0,1.3908973E0,2.1694396E0,1.7050908E0,9.201772E0,4.112173E0,1.2170035E1,2.8897287E1,2.8904331E1,1.0157319E0,3.9800754E0,7.10148E1,1.54314785E1,5.1731944E0,4.622677E0,4.1681385E0,3.9145253E0,1.2987632E0,8.589617E0,1.0078617E0,2.7231722E0,1.4247805E0],"tree_param":{"num_deleted":"0","num_feature":"1785","num_nodes":"73","size_leaf_vector":"1"}},{"base_weights":[1.1236273E-2,-1.1070721E-2,1.1018803E0,-2.0372199E-1,1.3164708E-1,-6.2032916E-2,1.6101338E0,-3.3516133E-1,4.419102E-1,4.1818377E-1,-1.1177727E-1,2.0288377E-1,1.9025346E-2,-5.3523624E-1,2.8637556E-2,-5.517342E-2,1.4253787E0,1.2117649E0,2.3804519E-1,-3.3889866E-1,3.5587117E-1,-7.354346E-1,1.9621007E-2,-2.6044732E-1,9.1753405E-1,1.1979722E0,-5.423247E-1,-6.4722665E-2,1.9161085E0,-1.705109E-1,1.7442757E0,-8.682937E-3,8.4605795E-1,1.2131033E-1,-6.327882E-1,8.762892E-1,-5.4485524E-1,-8.388092E-2,9.033566E-2,1.9229229E-1,-2.3606202E-2,-4.2223733E-2,1.6178302E-1,1.6432683E-1,-1.1907492E-3,-9.529058E-3,2.0902185E-1,-8.2406215E-2,8.1083454E-2,2.4497867E-1,-1.9765738E-2,1.0515862E-1,-8.78716E-2,-3.572301E-2,2.1213663E-1,6.016284E-2,-2.8166268E-2,1.2281376E-2,1.8080041E-1,7.194902E-2,-5.631379E-2,-8.450626E-2,3.325689E-2,1.523804E-1,-7.840394E-3,7.3678516E-2,-1.0787119E-1],"categories":[],"categories_nodes":[],"categories_segments":[],"categories_sizes":[],"default_left":[0,0,0,0,0,0,0,0,0,0,0,0,0,0,0,0,0,0,0,0,0,0,0,0,0,0,0,0,0,0,0,0,0,0,0,0,0,0,0,0,0,0,0,0,0,0,0,0,0,0,0,0,0,0,0,0,0,0,0,0,0,0,0,0,0,0,0],"id":6,"left_children":[1,3,5,7,9,-1,11,13,15,17,19,-1,-1,21,23,25,27,29,31,33,35,37,39,41,43,45,47,-1,49,51,53,55,57,59,61,63,65,-1,-1,-1,-1,-1,-1,-1,-1,-1,-1,-1,-1,-1,-1,-1,-1,-1,-1,-1,-1,-1,-1,-1,-1,-1,-1,-1,-1,-1,-1],"loss_changes":[6.9684396E0,7.757885E0,6.0238E0,1.0335842E1,1.1355445E1,0E0,2.4145784E0,7.31686E0,1.021657E1,1.0387699E1,9.515113E0,0E0,0E0,7.2092857E0,9.629226E0,9.646742E0,8.359538E0,1.0287273E1,9.324764E0,8.1982355E0,1.4259833E1,8.8255825E0,9.285328E0,9.29944E0,6.217757E0,5.3192058E0,4.9764295E0,0E0,7.1536064E0,4.979167E0,8.592407E0,7.6951537E0,1.2258397E1,1.0330022E1,7.8234587E0,1.187634E1,8.583559E0,0E0,0E0,0E0,0E0,0E0,0E0,0E0,0E0,0E0,0E0,0E0,0E0,0E0,0E0,0E0,0E0,0E0,0E0,0E0,0E0,0E0,0E0,0E0,0E0,0E0,0E0,0E0,0E0,0E0,0E0],"parents":[2147483647,0,0,1,1,2,2,3,3,4,4,6,6,7,7,8,8,9,9,10,10,13,13,14,14,15,15,16,16,17,17,18,18,19,19,20,20,21,21,22,22,23,23,24,24,25,25,26,26,28,28,29,29,30,30,31,31,32,32,33,33,34,34,35,35,36,36],"right_children":[2,4,6,8,10,-1,12,14,16,18,20,-1,-1,22,24,26,28,30,32,34,36,38,40,42,44,46,48,-1,50,52,54,56,58,60,62,64,66,-1,-1,-1,-1,-1,-1,-1,-1,-1,-1,-1,-1,-1,-1,-1,-1,-1,-1,-1,-1,-1,-1,-1,-1,-1,-1,-1,-1,-1,-1],"split_conditions":[7.35E-1,6E-2,6.25E-1,3E-1,6E-2,-6.2032916E-2,4E-1,1E-1,8.4375E-1,2E-2,1.2E-1,2.0288377E-1,1.9025346E-2,4E-1,1.2E-1,5E-1,2E-2,3.3333334E-1,1.4E-1,4E-2,1.2E-1,3E-1,3.15E-1,6E-1,8E-1,6E-2,6E-1,-6.4722665E-2,1.6E-1,2E-2,1.3333334E-1,7E-1,2E-1,8E-2,1.4E-1,2E-1,2E-2,-8.388092E-2,9.033566E-2,1.9229229E-1,-2.3606202E-2,-4.2223733E-2,1.6178302E-1,1.6432683E-1,-1.1907492E-3,-9.529058E-3,2.0902185E-1,-8.2406215E-2,8.1083454E-2,2.4497867E-1,-1.9765738E-2,1.0515862E-1,-8.78716E-2,-3.572301E-2,2.1213663E-1,6.016284E-2,-2.8166268E-2,1.2281376E-2,1.8080041E-1,7.194902E-2,-5.631379E-2,-8.450626E-2,3.325689E-2,1.523804E-1,-7.840394E-3,7.3678516E-2,-1.0787119E-1],"split_indices":[1765,956,821,514,485,0,1614,366,464,1100,978,0,0,806,1547,934,1569,1415,31,357,133,267,1527,1029,457,370,198,0,616,137,57,1171,55,258,846,888,477,0,0,0,0,0,0,0,0,0,0,0,0,0,0,0,0,0,0,0,0,0,0,0,0,0,0,0,0,0,0],"split_type":[0,0,0,0,0,0,0,0,0,0,0,0,0,0,0,0,0,0,0,0,0,0,0,0,0,0,0,0,0,0,0,0,0,0,0,0,0,0,0,0,0,0,0,0,0,0,0,0,0,0,0,0,0,0,0,0,0,0,0,0,0,0,0,0,0,0,0],"sum_hessian":[2.8492395E2,2.801832E2,4.7407503E0,1.1905131E2,1.6113188E2,1.0300226E0,3.710728E0,9.931367E1,1.9737637E1,7.368214E1,8.744974E1,2.5344677E0,1.1762602E0,6.3770947E1,3.554272E1,1.3737874E1,5.999762E0,1.257176E1,6.111038E1,5.9047592E1,2.8402151E1,4.6623314E1,1.7147633E1,2.7353785E1,8.188936E0,3.437116E0,1.0300758E1,1.0875537E0,4.912208E0,3.685318E0,8.886442E0,4.417154E1,1.6938839E1,2.3241058E1,3.5806534E1,1.801858E1,1.0383571E1,4.431602E1,2.307293E0,1.2585168E0,1.5889116E1,2.5898182E1,1.4556032E0,4.1671166E0,4.021819E0,1.7678764E0,1.6692395E0,8.849283E0,1.4514751E0,3.7950704E0,1.1171377E0,1.1742101E0,2.511108E0,1.359985E0,7.5264573E0,1.3279074E1,3.0892466E1,1.0312788E1,6.626052E0,1.2374795E1,1.0866264E1,2.9454363E1,6.352169E0,1.0381364E1,7.637216E0,2.941569E0,7.442002E0],"tree_param":{"num_deleted":"0","num_feature":"1785","num_nodes":"67","size_leaf_vector":"1"}},{"base_weights":[1.3292177E-2,-3.0296254E-1,8.8053904E-2,5.2508825E-1,-5.4826134E-1,2.2884448E-1,-1.8477139E-1,-3.5657117E-1,1.2792954E0,1.8488716E-1,-7.561553E-1,-8.0642855E-1,2.9918596E-1,5.153908E-1,-3.346692E-1,-8.3069015E-1,9.2556916E-2,1.8862147E0,-2.035482E-2,-6.468512E-1,9.3782514E-1,-8.4965634E-1,5.4969687E-2,-1.08039714E-1,7.724492E-2,4.303746E-1,-2.5576758E-1,1.1161308E0,-5.296173E-1,-1.3028736E-2,-7.542945E-1,-1.4097099E-2,-9.572759E-2,2.3561202E-1,1.4485592E-2,-9.433785E-2,3.3289332E-2,-6.3617505E-2,1.4527901E0,-1.8033426E-1,-1.0563494E0,8.188404E-3,6.2797076E-1,9.3090093E-1,-4.9397147E-1,-2.4457717E-1,1.8472302E0,-9.633585E-2,7.5820304E-2,3.1769657E-1,-7.3797184E-1,-8.608254E-1,7.310162E-2,-1.5664337E-2,1.9384916E-1,-9.867319E-2,8.876196E-2,-1.12759344E-1,1.4068372E-2,7.85451E-2,-2.824674E-2,3.577177E-2,1.09608375E-1,1.6644925E-1,-6.818337E-2,1.02695925E-2,-1.0460129E-1,-8.315256E-2,8.01221E-2,-2.477458E-2,2.4217461E-1,-2.3140505E-2,9.9235445E-2,-1.08324006E-1,2.336123E-2,-1.0395785E-1,5.3833122E-3],"categories":[],"categories_nodes":[],"categories_segments":[],"categories_sizes":[],"default_left":[0,0,0,0,0,0,0,0,0,0,0,0,0,0,0,0,0,0,0,0,0,0,0,0,0,0,0,0,0,0,0,0,0,0,0,0,0,0,0,0,0,0,0,0,0,0,0,0,0,0,0,0,0,0,0,0,0,0,0,0,0,0,0,0,0,0,0,0,0,0,0,0,0,0,0,0,0],"id":7,"left_children":[1,3,5,7,9,11,13,15,17,19,21,23,25,27,29,31,-1,33,-1,35,37,39,-1,-1,-1,41,43,45,47,49,51,-1,-1,-1,-1,-1,-1,-1,53,55,57,59,61,63,65,67,69,-1,-1,71,73,75,-1,-1,-1,-1,-1,-1,-1,-1,-1,-1,-1,-1,-1,-1,-1,-1,-1,-1,-1,-1,-1,-1,-1,-1,-1],"loss_changes":[6.7324767E0,1.1348286E1,8.883234E0,9.070741E0,6.617137E0,1.1329718E1,8.45319E0,4.8750978E0,6.8638964E0,6.989351E0,4.533596E0,5.142061E0,1.0543438E1,9.572522E0,8.843117E0,3.4161592E-1,0E0,3.9190464E0,0E0,1.892853E0,5.5910807E0,4.1635914E0,0E0,0E0,0E0,9.695286E0,8.382322E0,9.809162E0,4.0263157E0,9.380973E0,5.1299458E0,0E0,0E0,0E0,0E0,0E0,0E0,0E0,3.9329443E0,8.309491E0,2.1918354E0,8.825951E0,9.62686E0,7.0884194E0,8.011097E0,3.226267E0,8.105093E0,0E0,0E0,1.01936455E1,4.363247E0,4.4702854E0,0E0,0E0,0E0,0E0,0E0,0E0,0E0,0E0,0E0,0E0,0E0,0E0,0E0,0E0,0E0,0E0,0E0,0E0,0E0,0E0,0E0,0E0,0E0,0E0,0E0],"parents":[2147483647,0,0,1,1,2,2,3,3,4,4,5,5,6,6,7,7,8,8,9,9,10,10,11,11,12,12,13,13,14,14,15,15,17,17,19,19,20,20,21,21,25,25,26,26,27,27,28,28,29,29,30,30,38,38,39,39,40,40,41,41,42,42,43,43,44,44,45,45,46,46,49,49,50,50,51,51],"right_children":[2,4,6,8,10,12,14,16,18,20,22,24,26,28,30,32,-1,34,-1,36,38,40,-1,-1,-1,42,44,46,48,50,52,-1,-1,-1,-1,-1,-1,-1,54,56,58,60,62,64,66,68,70,-1,-1,72,74,76,-1,-1,-1,-1,-1,-1,-1,-1,-1,-1,-1,-1,-1,-1,-1,-1,-1,-1,-1,-1,-1,-1,-1,-1,-1],"split_conditions":[2E-2,1.3333334E-1,1E-1,5.2E-1,2E-2,3.3333334E-1,2E-2,1.4E-1,1E-1,8E-2,3E-1,2.6E-1,2.6666668E-1,1.2E-1,8.125E-1,4E-1,9.2556916E-2,1.2E-1,-2.035482E-2,1.6E-1,4E-2,4E-2,5.4969687E-2,-1.08039714E-1,7.724492E-2,7.1875E-1,2E-2,2E-1,1.6E-1,4E-1,6E-1,-1.4097099E-2,-9.572759E-2,2.3561202E-1,1.4485592E-2,-9.433785E-2,3.3289332E-2,-6.3617505E-2,2E-2,2.3333333E-1,2.6E-1,4E-2,2E-1,5E-1,6E-2,2.3333333E-1,4E-2,-9.633585E-2,7.5820304E-2,1E-1,3E-1,2E-1,7.310162E-2,-1.5664337E-2,1.9384916E-1,-9.867319E-2,8.876196E-2,-1.12759344E-1,1.4068372E-2,7.85451E-2,-2.824674E-2,3.577177E-2,1.09608375E-1,1.6644925E-1,-6.818337E-2,1.02695925E-2,-1.0460129E-1,-8.315256E-2,8.01221E-2,-2.477458E-2,2.4217461E-1,-2.3140505E-2,9.9235445E-2,-1.08324006E-1,2.336123E-2,-1.0395785E-1,5.3833122E-3],"split_indices":[1563,55,604,932,257,101,10,627,143,11,6,130,654,32,226,932,0,1075,0,1093,1683,615,0,0,0,583,623,271,20,436,1279,0,0,0,0,0,0,0,485,1474,1316,734,1225,1293,1550,1229,486,0,0,260,990,1578,0,0,0,0,0,0,0,0,0,0,0,0,0,0,0,0,0,0,0,0,0,0,0,0,0],"split_type":[0,0,0,0,0,0,0,0,0,0,0,0,0,0,0,0,0,0,0,0,0,0,0,0,0,0,0,0,0,0,0,0,0,0,0,0,0,0,0,0,0,0,0,0,0,0,0,0,0,0,0,0,0,0,0,0,0,0,0,0,0,0,0,0,0,0,0,0,0,0,0,0,0,0,0,0,0],"sum_hessian":[2.8261832E2,5.3452568E1,2.2916576E2,1.1955156E1,4.149741E1,1.5126643E2,7.789933E1,5.7549324E0,6.2002244E0,9.192005E0,3.2305405E1,8.958113E0,1.4230832E2,1.3306644E1,6.459268E1,4.4583855E0,1.2965469E0,4.206502E0,1.9937224E0,4.4344053E0,4.7576003E0,3.0472849E1,1.8325565E0,7.9025683E0,1.0555439E0,1.1528089E2,2.702742E1,8.406164E0,4.9004807E0,3.7149128E1,2.7443554E1,1.0191349E0,3.4392505E0,3.0345845E0,1.1719176E0,3.4326153E0,1.0017899E0,1.1148045E0,3.642796E0,7.6317797E0,2.284107E1,3.7085354E1,7.819554E1,4.032178E0,2.2995243E1,3.17059E0,5.2355742E0,3.854292E0,1.0461887E0,2.5896626E1,1.12525015E1,2.599925E1,1.4443035E0,1.0015438E0,2.6412523E0,4.3917117E0,3.2400682E0,2.1612751E1,1.2283188E0,9.63021E0,2.7455143E1,5.0693256E1,2.7502287E1,2.7494366E0,1.2827413E0,1.1442127E1,1.1553116E1,2.1620438E0,1.0085462E0,1.2491852E0,3.986389E0,1.4639E1,1.1257627E1,8.217396E0,3.0351064E0,2.1634596E1,4.3646555E0],"tree_param":{"num_deleted":"0","num_feature":"1785","num_nodes":"77","size_leaf_vector":"1"}},{"base_weights":[1.1890376E-2,6.895498E-2,-4.0181652E-1,1.7658213E-2,9.668676E-1,-5.7898754E-1,8.435167E-1,-7.576584E-2,3.325722E-1,2.6579954E-2,1.7198766E0,-7.671602E-1,7.057393E-1,1.5763836E-1,-6.793142E-2,3.0687368E-1,-1.7849275E-1,-9.313077E-2,7.110952E-1,-9.1620676E-2,1.0561824E0,2.1165876E0,-2.159444E-2,-8.827695E-1,5.4783463E-2,1.4213337E-1,-6.560916E-2,5.644118E-2,1.2710395E0,-2.9186058E-1,2.2308744E-1,-3.3060908E-1,1.5198524E0,-2.2163387E-1,1.1797789E0,-8.775766E-3,1.9103253E-1,2.4066949E-1,5.246293E-2,3.5602948E-1,-1.0127442E0,1.084887E-1,-3.4507576E-2,1.8567267E-1,-2.5467454E-2,2.9920653E-2,-4.4036962E-2,-6.1939865E-2,6.435086E-2,-6.460125E-2,5.2174922E-2,2.236012E-2,2.0443764E-1,-7.919081E-2,6.700339E-2,1.6645853E-1,-3.9237514E-3,-6.337377E-2,1.20413415E-1,-1.0862952E-1,3.0578569E-2],"categories":[],"categories_nodes":[],"categories_segments":[],"categories_sizes":[],"default_left":[0,0,0,0,0,0,0,0,0,0,0,0,0,0,0,0,0,0,0,0,0,0,0,0,0,0,0,0,0,0,0,0,0,0,0,0,0,0,0,0,0,0,0,0,0,0,0,0,0,0,0,0,0,0,0,0,0,0,0,0,0],"id":8,"left_children":[1,3,5,7,9,11,13,15,17,19,21,23,25,-1,-1,27,29,31,33,-1,35,37,-1,39,-1,-1,-1,41,43,45,47,49,51,53,55,-1,-1,-1,-1,57,59,-1,-1,-1,-1,-1,-1,-1,-1,-1,-1,-1,-1,-1,-1,-1,-1,-1,-1,-1,-1],"loss_changes":[6.6790423E0,1.1426205E1,8.055716E0,6.96948E0,9.447496E0,7.943553E0,6.2924933E0,7.242007E0,8.798034E0,7.741266E0,6.1626854E0,4.616625E0,5.2521944E0,0E0,0E0,9.361307E0,6.6564007E0,1.0610687E1,1.2851284E1,0E0,3.8805614E0,1.6278114E0,0E0,4.44582E0,0E0,0E0,0E0,1.3612509E1,7.6292486E0,1.0080548E1,1.188903E1,6.7417107E0,1.9669523E0,5.856292E0,1.1486715E1,0E0,0E0,0E0,0E0,3.4065974E0,2.5843334E0,0E0,0E0,0E0,0E0,0E0,0E0,0E0,0E0,0E0,0E0,0E0,0E0,0E0,0E0,0E0,0E0,0E0,0E0,0E0,0E0],"parents":[2147483647,0,0,1,1,2,2,3,3,4,4,5,5,6,6,7,7,8,8,9,9,10,10,11,11,12,12,15,15,16,16,17,17,18,18,20,20,21,21,23,23,27,27,28,28,29,29,30,30,31,31,32,32,33,33,34,34,39,39,40,40],"right_children":[2,4,6,8,10,12,14,16,18,20,22,24,26,-1,-1,28,30,32,34,-1,36,38,-1,40,-1,-1,-1,42,44,46,48,50,52,54,56,-1,-1,-1,-1,58,60,-1,-1,-1,-1,-1,-1,-1,-1,-1,-1,-1,-1,-1,-1,-1,-1,-1,-1,-1,-1],"split_conditions":[5.02E0,4.8E0,2.4E-1,4E-1,2.3333333E-1,4.6E-1,5.64E0,2E-2,5.05E-1,5E-1,2.6666668E-1,6E-1,5.96E0,1.5763836E-1,-6.793142E-2,1.6E-1,4E-1,6E-1,5E-1,-9.1620676E-2,2.3333333E-1,5.96E0,-2.159444E-2,3.3333334E-1,5.4783463E-2,1.4213337E-1,-6.560916E-2,2E-2,1E-1,2E-2,3.3333334E-1,4E-1,2E-2,1.4E-1,5E-1,-8.775766E-3,1.9103253E-1,2.4066949E-1,5.246293E-2,2.6666668E-1,5.98E0,1.084887E-1,-3.4507576E-2,1.8567267E-1,-2.5467454E-2,2.9920653E-2,-4.4036962E-2,-6.1939865E-2,6.435086E-2,-6.460125E-2,5.2174922E-2,2.236012E-2,2.0443764E-1,-7.919081E-2,6.700339E-2,1.6645853E-1,-3.9237514E-3,-6.337377E-2,1.20413415E-1,-1.0862952E-1,3.0578569E-2],"split_indices":[1062,1062,506,94,772,479,590,1079,218,1531,1368,1258,1305,0,0,619,1524,665,696,0,1231,466,0,1648,0,0,0,970,1685,254,341,552,255,1579,1294,0,0,0,0,1120,1189,0,0,0,0,0,0,0,0,0,0,0,0,0,0,0,0,0,0,0,0],"split_type":[0,0,0,0,0,0,0,0,0,0,0,0,0,0,0,0,0,0,0,0,0,0,0,0,0,0,0,0,0,0,0,0,0,0,0,0,0,0,0,0,0,0,0,0,0,0,0,0,0,0,0,0,0,0,0,0,0,0,0,0,0],"sum_hessian":[2.8074045E2,2.474428E2,3.329766E1,2.3503516E2,1.2407636E1,2.9618914E1,3.6787481E0,1.818469E2,5.318826E1,5.9780726E0,6.429563E0,2.6186295E1,3.432619E0,2.4597971E0,1.218951E0,3.806696E1,1.4377994E2,2.5388851E1,2.779941E1,3.1780918E0,2.7999806E0,5.258541E0,1.1710217E0,2.4372269E1,1.8140274E0,2.2215693E0,1.2110499E0,3.1058392E1,7.0085697E0,1.12339294E2,3.1440645E1,2.2823584E1,2.5652668E0,9.473427E0,1.8325983E1,1.5804993E0,1.2194815E0,4.0150795E0,1.243462E0,2.1491659E0,2.2223103E1,8.242942E0,2.2815449E1,4.90767E0,2.1009E0,2.2354292E1,8.9985E1,1.0309019E1,2.1131628E1,1.6835812E1,5.9877715E0,1.1498778E0,1.4153891E0,5.8462706E0,3.6271558E0,1.2849991E1,5.4759927E0,1.1083931E0,1.0407727E0,2.1215763E1,1.0073388E0],"tree_param":{"num_deleted":"0","num_feature":"1785","num_nodes":"61","size_leaf_vector":"1"}},{"base_weights":[1.3339794E-2,-9.1155075E-2,2.1095295E-1,-2.605397E-1,1.7095995E-1,-4.4169188E-1,3.6858556E-1,2.661704E-1,-3.987496E-1,-5.9264004E-1,3.4286475E-1,9.4558716E-1,-6.65086E-1,1.7257036E-1,8.8816375E-1,-6.703295E-1,6.417817E-1,-5.0046235E-1,4.890056E-1,8.027792E-2,-8.6773914E-1,6.143329E-1,-3.149092E-1,-2.1554751E-2,1.6211703E-1,6.368984E-1,-8.853538E-1,1.5764542E-2,1.3636719E0,1.3099802E0,5.2645046E-2,3.9984316E-2,-1.007821E-1,-8.7568104E-2,9.700356E-1,-5.482454E-1,1.413937E-1,1.16704E0,-6.855376E-1,-1.0790863E-1,1.681002E-2,1.0489744E0,4.57738E-2,-5.905367E-1,1.0458333E0,1.19701706E-1,-2.2225734E-2,-1.0966694E-1,-1.2423467E-1,-2.6605225E-1,5.347463E-1,-2.7049026E-2,1.8238568E0,1.5527796E0,-4.111868E-2,-7.38706E-1,8.3545136E-1,1.2976898E-1,-2.7155478E-2,-6.0945153E-2,8.260626E-2,1.7666948E-1,-3.943151E-2,-1.2292785E-2,-8.247784E-2,1.9052902E-1,4.1976612E-2,-3.6851738E-2,1.2559451E-1,-9.637935E-2,7.334002E-2,1.8397576E-1,-2.5971575E-2,-7.958866E-2,7.235324E-2,1.0829623E-1,-4.608273E-2,1.247278E-1,-4.3669265E-2,2.0197177E-1,5.861507E-2,1.8156646E-1,2.497285E-2,-1.3380018E-2,-8.70273E-2,-2.921906E-2,1.3560976E-1],"categories":[],"categories_nodes":[],"categories_segments":[],"categories_sizes":[],"default_left":[0,0,0,0,0,0,0,0,0,0,0,0,0,0,0,0,0,0,0,0,0,0,0,0,0,0,0,0,0,0,0,0,0,0,0,0,0,0,0,0,0,0,0,0,0,0,0,0,0,0,0,0,0,0,0,0,0,0,0,0,0,0,0,0,0,0,0,0,0,0,0,0,0,0,0,0,0,0,0,0,0,0,0,0,0,0,0],"id":9,"left_children":[1,3,5,7,9,11,13,15,17,19,21,23,25,27,29,31,33,35,37,-1,39,41,43,-1,-1,45,47,49,51,53,55,-1,-1,-1,57,59,-1,61,63,-1,-1,65,67,69,71,-1,-1,-1,73,75,77,-1,79,81,-1,83,85,-1,-1,-1,-1,-1,-1,-1,-1,-1,-1,-1,-1,-1,-1,-1,-1,-1,-1,-1,-1,-1,-1,-1,-1,-1,-1,-1,-1,-1,-1],"loss_changes":[5.791377E0,8.193491E0,1.0140616E1,8.251272E0,9.740103E0,6.617239E0,7.8582764E0,8.8221035E0,8.28398E0,5.9622426E0,1.0895924E1,2.7756646E0,5.505166E0,1.0878025E1,7.4401855E0,3.0462272E0,9.585539E0,8.127487E0,8.4914055E0,0E0,2.7950163E0,1.0520113E1,7.432706E0,0E0,0E0,1.7457068E0,2.301258E0,7.832546E0,5.589899E0,6.5377846E0,5.6905594E0,0E0,0E0,0E0,6.4113255E0,7.1601925E0,0E0,6.776043E0,2.2486663E-1,0E0,0E0,1.2234564E1,1.0276466E1,8.48963E0,4.0242653E0,0E0,0E0,0E0,3.0932205E0,9.6282015E0,1.3582789E1,0E0,1.2937355E-1,3.8561554E0,0E0,2.4992394E-1,3.0889416E0,0E0,0E0,0E0,0E0,0E0,0E0,0E0,0E0,0E0,0E0,0E0,0E0,0E0,0E0,0E0,0E0,0E0,0E0,0E0,0E0,0E0,0E0,0E0,0E0,0E0,0E0,0E0,0E0,0E0,0E0],"parents":[2147483647,0,0,1,1,2,2,3,3,4,4,5,5,6,6,7,7,8,8,9,9,10,10,11,11,12,12,13,13,14,14,15,15,16,16,17,17,18,18,20,20,21,21,22,22,25,25,26,26,27,27,28,28,29,29,30,30,34,34,35,35,37,37,38,38,41,41,42,42,43,43,44,44,48,48,49,49,50,50,52,52,53,53,55,55,56,56],"right_children":[2,4,6,8,10,12,14,16,18,20,22,24,26,28,30,32,34,36,38,-1,40,42,44,-1,-1,46,48,50,52,54,56,-1,-1,-1,58,60,-1,62,64,-1,-1,66,68,70,72,-1,-1,-1,74,76,78,-1,80,82,-1,84,86,-1,-1,-1,-1,-1,-1,-1,-1,-1,-1,-1,-1,-1,-1,-1,-1,-1,-1,-1,-1,-1,-1,-1,-1,-1,-1,-1,-1,-1,-1],"split_conditions":[2.3333333E-1,5.4E-1,2E-2,1.3333334E-1,2E-2,3.15E-1,1E-1,1.3333334E-1,3E-1,6.666667E-2,4E-1,8E-2,1.6666667E-1,2.6666668E-1,2E-1,6.25E-1,2E-2,3.6666667E-1,6E-2,8.027792E-2,9.375E-1,5.3E-1,1.8E-1,-2.1554751E-2,1.6211703E-1,8E-2,5E-1,5E-1,4E-2,6.4E-1,1E-1,3.9984316E-2,-1.007821E-1,-8.7568104E-2,2.6666668E-1,3E-1,1.413937E-1,1.4E-1,4.55E-1,-1.0790863E-1,1.681002E-2,4E-2,1.6E-1,1.4E-1,6E-2,1.19701706E-1,-2.2225734E-2,-1.0966694E-1,1.2E-1,3.7E-1,2E-1,-2.7049026E-2,8.4375E-1,9.0625E-1,-4.111868E-2,4E-2,8E-1,1.2976898E-1,-2.7155478E-2,-6.0945153E-2,8.260626E-2,1.7666948E-1,-3.943151E-2,-1.2292785E-2,-8.247784E-2,1.9052902E-1,4.1976612E-2,-3.6851738E-2,1.2559451E-1,-9.637935E-2,7.334002E-2,1.8397576E-1,-2.5971575E-2,-7.958866E-2,7.235324E-2,1.0829623E-1,-4.608273E-2,1.247278E-1,-4.3669265E-2,2.0197177E-1,5.861507E-2,1.8156646E-1,2.497285E-2,-1.3380018E-2,-8.70273E-2,-2.921906E-2,1.3560976E-1],"split_indices":[518,337,1441,1126,1563,694,9,37,1003,869,567,1222,1770,163,1235,1059,984,1004,623,0,107,1289,1670,0,0,240,1531,1651,270,1170,627,0,0,0,1002,6,0,142,575,0,0,1575,716,259,1199,0,0,0,611,932,416,0,464,1773,0,1575,1409,0,0,0,0,0,0,0,0,0,0,0,0,0,0,0,0,0,0,0,0,0,0,0,0,0,0,0,0,0,0],"split_type":[0,0,0,0,0,0,0,0,0,0,0,0,0,0,0,0,0,0,0,0,0,0,0,0,0,0,0,0,0,0,0,0,0,0,0,0,0,0,0,0,0,0,0,0,0,0,0,0,0,0,0,0,0,0,0,0,0,0,0,0,0,0,0,0,0,0,0,0,0,0,0,0,0,0,0,0,0,0,0,0,0,0,0,0,0,0,0],"sum_hessian":[2.7852884E2,1.8254207E2,9.598678E1,1.1088906E2,7.165301E1,1.8322844E1,7.766394E1,2.285689E1,8.803217E1,1.2716943E1,5.893606E1,2.0929277E0,1.6229916E1,5.7357483E1,2.0306454E1,6.31851E0,1.653838E1,7.937428E1,8.657888E0,1.7783338E0,1.0938609E1,4.176527E1,1.7170794E1,1.0202887E0,1.072639E0,2.0747533E0,1.4155163E1,5.158029E1,5.777193E0,1.3116599E1,7.1898546E0,1.4705865E0,4.8479233E0,2.6446967E0,1.3893683E1,7.81376E1,1.2366788E0,5.493193E0,3.164695E0,9.050285E0,1.8883231E0,2.3191383E1,1.8573887E1,1.4749251E1,2.421541E0,1.0178968E0,1.0568565E0,1.0734103E1,3.42106E0,3.3744015E1,1.7836275E1,1.359981E0,4.417212E0,1.15807705E1,1.5358285E0,3.6034286E0,3.5864258E0,1.0956969E1,2.9367142E0,7.533885E1,2.7987504E0,3.8738766E0,1.6193165E0,1.0013859E0,2.163309E0,8.963927E0,1.4227456E1,1.435505E1,4.2188377E0,1.171771E1,3.0315425E0,1.2513767E0,1.1701641E0,1.9429417E0,1.4781183E0,3.682047E0,3.006197E1,1.0125481E1,7.7107935E0,3.2682106E0,1.1490016E0,9.309269E0,2.271501E0,1.0040551E0,2.5993733E0,1.2714492E0,2.3149765E0],"tree_param":{"num_deleted":"0","num_feature":"1785","num_nodes":"87","size_leaf_vector":"1"}},{"base_weights":[1.4796954E-2,3.98011E-2,-7.562577E-1,-3.3210653E-3,5.693069E-1,6.5836124E-2,-1.03849255E-1,3.446818E-2,-6.6362506E-1,-1.8274409E-1,1.0984987E0,1.9328679E-1,-1.22693025E-1,5.396361E-2,-8.8247156E-1,-8.296686E-1,6.5073586E-1,-2.7321285E-1,1.4299709E0,1.19746536E-1,1.1355486E0,4.4986475E-1,-2.526005E-1,7.6170117E-3,-1.078703E-1,-1.3961379E-2,-9.489739E-2,1.2795861E0,-6.441828E-2,-6.937136E-2,3.1689275E-2,-1.3326688E-2,1.887698E0,2.5628287E-2,-3.6080066E-2,1.6979417E-1,-2.9193554E-2,8.192375E-2,-3.0118292E-2,-1.1396089E-2,-7.1595E-2,1.6602328E-1,2.3058152E-2,8.1105754E-2,-7.12862E-2,1.8074012E-3,2.3342855E-1],"categories":[],"categories_nodes":[],"categories_segments":[],"categories_sizes":[],"default_left":[0,0,0,0,0,0,0,0,0,0,0,0,0,0,0,0,0,0,0,0,0,0,0,0,0,0,0,0,0,0,0,0,0,0,0,0,0,0,0,0,0,0,0,0,0,0,0],"id":10,"left_children":[1,3,5,7,9,-1,-1,11,13,15,17,19,21,-1,23,25,27,29,31,33,35,37,39,-1,-1,-1,-1,41,-1,-1,-1,43,45,-1,-1,-1,-1,-1,-1,-1,-1,-1,-1,-1,-1,-1,-1],"loss_changes":[5.355242E0,6.1322327E0,4.167449E0,6.242432E0,8.249456E0,0E0,0E0,5.932146E0,4.0422683E0,5.5061674E0,5.8530264E0,8.049389E0,9.00868E0,0E0,2.3090115E0,3.306117E-1,4.5581694E0,1.0083319E0,6.523075E0,7.3551393E0,7.2664995E0,6.481805E0,6.221145E0,0E0,0E0,0E0,0E0,9.833112E-1,0E0,0E0,0E0,2.516561E0,6.198721E0,0E0,0E0,0E0,0E0,0E0,0E0,0E0,0E0,0E0,0E0,0E0,0E0,0E0,0E0],"parents":[2147483647,0,0,1,1,2,2,3,3,4,4,7,7,8,8,9,9,10,10,11,11,12,12,14,14,15,15,16,16,17,17,18,18,19,19,20,20,21,21,22,22,27,27,31,31,32,32],"right_children":[2,4,6,8,10,-1,-1,12,14,16,18,20,22,-1,24,26,28,30,32,34,36,38,40,-1,-1,-1,-1,42,-1,-1,-1,44,46,-1,-1,-1,-1,-1,-1,-1,-1,-1,-1,-1,-1,-1,-1],"split_conditions":[5.64E0,2.6E-1,5.62E0,6E-1,8E-2,6.5836124E-2,-1.03849255E-1,8E-1,2E-2,8E-2,2E-2,6E-1,2E-2,5.396361E-2,2E-2,2E-2,2.3333333E-1,6E-2,4E-2,2.6666668E-1,4E-1,5.45E-1,1.4E-1,7.6170117E-3,-1.078703E-1,-1.3961379E-2,-9.489739E-2,1E-1,-6.441828E-2,-6.937136E-2,3.1689275E-2,2.3333333E-1,2E-2,2.5628287E-2,-3.6080066E-2,1.6979417E-1,-2.9193554E-2,8.192375E-2,-3.0118292E-2,-1.1396089E-2,-7.1595E-2,1.6602328E-1,2.3058152E-2,8.1105754E-2,-7.12862E-2,1.8074012E-3,2.3342855E-1],"split_indices":[590,149,1782,454,1687,0,0,1171,1679,838,1569,1043,715,0,10,973,398,1458,380,1129,674,1289,506,0,0,0,0,1221,0,0,0,758,128,0,0,0,0,0,0,0,0,0,0,0,0,0,0],"split_type":[0,0,0,0,0,0,0,0,0,0,0,0,0,0,0,0,0,0,0,0,0,0,0,0,0,0,0,0,0,0,0,0,0,0,0,0,0,0,0,0,0,0,0,0,0,0,0],"sum_hessian":[2.7520657E2,2.6748096E2,7.725624E0,2.48257E2,1.9223951E1,1.0633287E0,6.6622953E0,2.3571483E2,1.2542177E1,8.210469E0,1.1013482E1,1.17124886E2,1.1858994E2,1.704528E0,1.0837649E1,4.625137E0,3.5853326E0,2.1776407E0,8.835842E0,1.0969097E2,7.4339156E0,2.1475458E1,9.711449E1,1.9454504E0,8.892199E0,1.0016834E0,3.6234536E0,2.421313E0,1.1640195E0,1.1690309E0,1.0086098E0,2.3612561E0,6.4745855E0,8.5784096E1,2.3906872E1,5.1969733E0,2.2369425E0,1.433471E1,7.140748E0,7.570777E1,2.140671E1,1.3490983E0,1.0722148E0,1.0107226E0,1.3505336E0,1.4489738E0,5.025612E0],"tree_param":{"num_deleted":"0","num_feature":"1785","num_nodes":"47","size_leaf_vector":"1"}},{"base_weights":[1.3383873E-2,-2.648845E-1,7.9516076E-2,2.433738E-1,-5.15093E-1,-2.9921618E-1,1.7592159E-1,1.2674373E0,-2.4888842E-1,4.6220434E-1,-6.949432E-1,2.9229566E-1,-5.5471355E-1,1.2474668E-1,9.5025104E-1,1.8565805E0,-1.4249444E-2,8.6865425E-1,-6.6070014E-1,1.5030743E-1,-1.8053849E-1,-7.9048055E-1,7.265765E-2,-3.2510525E-1,1.0866972E0,-9.3255943E-1,1.16025425E-1,1.4264239E-2,5.139285E-1,-6.721377E-2,1.2314137E0,5.1370632E-2,2.2053456E-1,-3.232088E-2,1.507018E-1,-9.7362494E-1,6.323959E-2,-8.176618E-2,6.705432E-2,1.866973E-1,-9.1786647E-1,-8.404767E-1,6.566902E-1,1.5830523E0,-6.556132E-2,-1.0843025E0,-1.5818366E-1,1.2394618E0,-3.5457063E-1,1.8475771E-1,-3.0822995E-1,2.0586681E-1,1.5540711E0,-1.94126E-2,1.578025E0,-1.0649383E-1,-1.4164438E-2,1.1225211E-1,-7.649655E-2,-1.01250246E-1,2.0212911E-2,-9.6701585E-2,-9.491164E-3,1.5828903E-1,-6.533646E-2,2.1619403E-1,-2.4271777E-2,-1.13447666E-1,-1.4271072E-2,-8.5149966E-2,1.0943281E-1,-2.214152E-2,1.8930624E-1,-7.040398E-2,9.292563E-2,3.1156061E-2,-5.2593756E-2,-4.4340543E-2,7.148436E-2,8.5733674E-2,-1.5313335E-2,1.908269E-1,-3.7856705E-3,1.8699576E-1,-1.45569015E-2],"categories":[],"categories_nodes":[],"categories_segments":[],"categories_sizes":[],"default_left":[0,0,0,0,0,0,0,0,0,0,0,0,0,0,0,0,0,0,0,0,0,0,0,0,0,0,0,0,0,0,0,0,0,0,0,0,0,0,0,0,0,0,0,0,0,0,0,0,0,0,0,0,0,0,0,0,0,0,0,0,0,0,0,0,0,0,0,0,0,0,0,0,0,0,0,0,0,0,0,0,0,0,0,0,0],"id":11,"left_children":[1,3,5,7,9,11,13,15,17,19,21,23,25,27,29,31,-1,33,35,-1,37,39,-1,41,43,45,47,49,51,-1,53,-1,-1,-1,-1,55,-1,-1,-1,57,59,61,63,65,-1,67,69,71,73,75,77,79,81,-1,83,-1,-1,-1,-1,-1,-1,-1,-1,-1,-1,-1,-1,-1,-1,-1,-1,-1,-1,-1,-1,-1,-1,-1,-1,-1,-1,-1,-1,-1,-1],"loss_changes":[5.0849466E0,6.8743086E0,8.19857E0,9.483283E0,6.628394E0,7.0594006E0,6.95338E0,5.305073E0,6.6110964E0,4.4043956E0,4.7444696E0,7.426499E0,8.273031E0,7.2400794E0,5.805415E0,9.0492725E-1,0E0,3.5033226E0,4.7243533E0,0E0,3.1033947E0,3.8125134E0,0E0,5.0473824E0,6.691079E0,2.263012E0,7.047097E0,7.3319006E0,1.1613072E1,0E0,5.076293E0,0E0,0E0,0E0,0E0,5.001602E-1,0E0,0E0,0E0,4.603104E0,2.9654007E0,4.99259E-1,5.426239E0,6.211441E0,0E0,6.484585E-1,4.8964095E0,4.154646E0,4.955076E0,8.020284E0,6.6969485E0,7.120509E0,4.784256E0,0E0,4.2347317E0,0E0,0E0,0E0,0E0,0E0,0E0,0E0,0E0,0E0,0E0,0E0,0E0,0E0,0E0,0E0,0E0,0E0,0E0,0E0,0E0,0E0,0E0,0E0,0E0,0E0,0E0,0E0,0E0,0E0,0E0],"parents":[2147483647,0,0,1,1,2,2,3,3,4,4,5,5,6,6,7,7,8,8,9,9,10,10,11,11,12,12,13,13,14,14,15,15,17,17,18,18,20,20,21,21,23,23,24,24,25,25,26,26,27,27,28,28,30,30,35,35,39,39,40,40,41,41,42,42,43,43,45,45,46,46,47,47,48,48,49,49,50,50,51,51,52,52,54,54],"right_children":[2,4,6,8,10,12,14,16,18,20,22,24,26,28,30,32,-1,34,36,-1,38,40,-1,42,44,46,48,50,52,-1,54,-1,-1,-1,-1,56,-1,-1,-1,58,60,62,64,66,-1,68,70,72,74,76,78,80,82,-1,84,-1,-1,-1,-1,-1,-1,-1,-1,-1,-1,-1,-1,-1,-1,-1,-1,-1,-1,-1,-1,-1,-1,-1,-1,-1,-1,-1,-1,-1,-1],"split_conditions":[2E-2,4E-2,1.3333334E-1,4E-2,1E-1,4.5E-1,3E-1,1.6666667E-1,2E-2,4E-2,2.8E-1,1.4E-1,1E-1,9E-1,6.25E-1,8E-1,-1.4249444E-2,8E-2,4E-1,1.5030743E-1,8E-2,3.3333334E-1,7.265765E-2,2.3333333E-1,2E-1,2E-1,2E-2,2.3333333E-1,1.8E-1,-6.721377E-2,3.3333334E-1,5.1370632E-2,2.2053456E-1,-3.232088E-2,1.507018E-1,2.6666668E-1,6.323959E-2,-8.176618E-2,6.705432E-2,6E-2,3.3333334E-1,4E-1,2E-1,2E-1,-6.556132E-2,6E-1,1.6E-1,6.666667E-2,4.2E-1,2E-1,2.4E-1,4E-2,2E-1,-1.94126E-2,1.2E-1,-1.0649383E-1,-1.4164438E-2,1.1225211E-1,-7.649655E-2,-1.01250246E-1,2.0212911E-2,-9.6701585E-2,-9.491164E-3,1.5828903E-1,-6.533646E-2,2.1619403E-1,-2.4271777E-2,-1.13447666E-1,-1.4271072E-2,-8.5149966E-2,1.0943281E-1,-2.214152E-2,1.8930624E-1,-7.040398E-2,9.292563E-2,3.1156061E-2,-5.2593756E-2,-4.4340543E-2,7.148436E-2,8.5733674E-2,-1.5313335E-2,1.908269E-1,-3.7856705E-3,1.8699576E-1,-1.45569015E-2],"split_indices":[1436,839,537,627,1251,1289,399,1476,738,612,1673,846,1688,1290,226,695,0,1075,794,0,246,815,0,512,878,1091,1555,41,964,0,342,0,0,0,0,50,0,0,0,145,1606,566,883,1252,0,83,1097,537,980,743,1323,977,53,0,725,0,0,0,0,0,0,0,0,0,0,0,0,0,0,0,0,0,0,0,0,0,0,0,0,0,0,0,0,0,0],"split_type":[0,0,0,0,0,0,0,0,0,0,0,0,0,0,0,0,0,0,0,0,0,0,0,0,0,0,0,0,0,0,0,0,0,0,0,0,0,0,0,0,0,0,0,0,0,0,0,0,0,0,0,0,0,0,0,0,0,0,0,0,0,0,0,0,0,0,0,0,0,0,0,0,0,0,0,0,0,0,0,0,0,0,0,0,0],"sum_hessian":[2.7417365E2,5.207005E1,2.221036E2,1.7186256E1,3.4883793E1,4.4638004E1,1.7746559E2,5.0681524E0,1.2118104E1,5.177819E0,2.9705975E1,1.3421453E1,3.121655E1,1.6755322E2,9.912376E0,3.3511E0,1.7170523E0,2.9643455E0,9.153759E0,1.4657019E0,3.7121167E0,2.825119E1,1.4547851E0,7.8844743E0,5.536979E0,1.9718325E1,1.1498226E1,1.313124E2,3.624082E1,1.2587078E0,8.653669E0,1.2007393E0,2.1503606E0,1.2061267E0,1.7582186E0,7.569117E0,1.5846416E0,2.145359E0,1.5667574E0,3.2044258E0,2.5046764E1,5.2647834E0,2.619691E0,4.3804646E0,1.1565146E0,1.6152859E1,3.5654664E0,2.912208E0,8.586018E0,8.617908E1,4.513332E1,2.8884075E1,7.3567486E0,1.7785982E0,6.8750706E0,6.568223E0,1.000894E0,1.5251365E0,1.6792893E0,2.3183786E1,1.8629766E0,4.2469554E0,1.017828E0,1.4126757E0,1.2070152E0,3.186129E0,1.1943356E0,1.5141188E1,1.0116704E0,2.5011468E0,1.0643197E0,1.1045785E0,1.8076295E0,7.103885E0,1.4821326E0,7.360757E1,1.2571516E1,4.0366425E1,4.766894E0,9.76877E0,1.9115305E1,5.8552594E0,1.5014889E0,5.806655E0,1.068416E0],"tree_param":{"num_deleted":"0","num_feature":"1785","num_nodes":"85","size_leaf_vector":"1"}},{"base_weights":[1.43905515E-2,5.2331995E-2,-4.6197703E-1,7.6517925E-2,-7.7756155E-1,-9.357892E-1,1.9547534E-1,-2.9908508E-1,1.3334511E-1,-9.821565E-2,2.2898177E-2,-1.0705751E-1,2.413532E-2,-7.8822565E-1,1.0920157E0,5.0216924E-2,-9.2447555E-1,1.7745107E-1,-5.317166E-1,-9.081058E-2,-1.655764E-2,-2.687644E-2,1.5961069E0,-9.937664E-2,4.0661183E-1,3.1123355E-2,-1.07298374E-1,1.5217733E-2,3.825775E-1,5.5673957E-1,-8.499781E-1,4.901668E-2,1.911873E-1,5.804056E-3,1.4440906E-1,-2.9275095E-2,2.5442732E-2,4.6585865E-2,-8.3688304E-2,-6.164387E-2,1.2910992E-1,-1.0703074E-1,2.6424024E-2],"categories":[],"categories_nodes":[],"categories_segments":[],"categories_sizes":[],"default_left":[0,0,0,0,0,0,0,0,0,0,0,0,0,0,0,0,0,0,0,0,0,0,0,0,0,0,0,0,0,0,0,0,0,0,0,0,0,0,0,0,0,0,0],"id":12,"left_children":[1,3,5,7,9,11,13,15,17,-1,-1,-1,-1,19,21,23,25,27,29,-1,-1,-1,31,-1,33,-1,-1,35,37,39,41,-1,-1,-1,-1,-1,-1,-1,-1,-1,-1,-1,-1],"loss_changes":[4.949843E0,5.144075E0,6.4774303E0,5.313181E0,1.7206211E0,2.149025E0,9.054196E0,7.206129E0,6.409261E0,0E0,0E0,0E0,0E0,2.2364974E-1,4.0506506E0,8.581385E0,2.4988766E0,6.737787E0,5.198115E0,0E0,0E0,0E0,4.5858383E-1,0E0,6.098032E0,0E0,0E0,8.486976E0,9.474187E0,3.9750123E0,2.9708385E0,0E0,0E0,0E0,0E0,0E0,0E0,0E0,0E0,0E0,0E0,0E0,0E0],"parents":[2147483647,0,0,1,1,2,2,3,3,4,4,5,5,6,6,7,7,8,8,13,13,14,14,15,15,16,16,17,17,18,18,22,22,24,24,27,27,28,28,29,29,30,30],"right_children":[2,4,6,8,10,12,14,16,18,-1,-1,-1,-1,20,22,24,26,28,30,-1,-1,-1,32,-1,34,-1,-1,36,38,40,42,-1,-1,-1,-1,-1,-1,-1,-1,-1,-1,-1,-1],"split_conditions":[2.4E-1,5.64E0,1.2E-1,1.3333334E-1,2E-1,1.8E-1,3.2E-1,3.08E0,3.3333334E-1,-9.821565E-2,2.2898177E-2,-1.0705751E-1,2.413532E-2,2.3333333E-1,6E-2,4E-2,1.6666667E-1,8.125E-1,2E-2,-9.081058E-2,-1.655764E-2,-2.687644E-2,2E-2,-9.937664E-2,5E-1,3.1123355E-2,-1.07298374E-1,4.95E-1,6E-1,1.4E-1,2.6666668E-1,4.901668E-2,1.911873E-1,5.804056E-3,1.4440906E-1,-2.9275095E-2,2.5442732E-2,4.6585865E-2,-8.3688304E-2,-6.164387E-2,1.2910992E-1,-1.0703074E-1,2.6424024E-2],"split_indices":[1089,590,1201,758,182,1692,1327,1065,403,0,0,0,0,1111,624,382,1771,1178,258,0,0,0,1690,0,1060,0,0,337,1626,864,634,0,0,0,0,0,0,0,0,0,0,0,0],"split_type":[0,0,0,0,0,0,0,0,0,0,0,0,0,0,0,0,0,0,0,0,0,0,0,0,0,0,0,0,0,0,0,0,0,0,0,0,0,0,0,0,0,0,0],"sum_hessian":[2.7152664E2,2.5232014E2,1.9206503E1,2.46057E2,6.2631426E0,1.0916123E1,8.290379E0,3.1775002E1,2.1428201E2,5.2252593E0,1.0378833E0,9.875844E0,1.0402795E0,4.010641E0,4.2797375E0,2.0977854E1,1.0797147E1,2.0164253E2,1.2639469E1,2.9786918E0,1.0319494E0,1.28304E0,2.9966974E0,4.8837013E0,1.6094152E1,1.0408329E0,9.756314E0,1.13193016E2,8.8449524E1,2.6900764E0,9.949392E0,1.2324545E0,1.7642428E0,1.2837099E1,3.257054E0,4.938667E1,6.3806343E1,8.3373634E1,5.07589E0,1.0974379E0,1.5926385E0,8.3396845E0,1.609708E0],"tree_param":{"num_deleted":"0","num_feature":"1785","num_nodes":"43","size_leaf_vector":"1"}},{"base_weights":[1.1570105E-2,-7.5866557E-3,8.957849E-1,-4.5648362E-2,4.579302E-1,1.2990788E0,-3.2076366E-2,-7.9823375E-2,6.36034E-1,6.4879835E-1,-8.003064E-2,1.6561456E-1,1.3167443E-2,-1.4780483E-1,3.1085023E-1,9.96073E-1,-7.896102E-2,8.290348E-1,-7.431849E-2,-2.2911935E-1,1.6755307E-1,-2.6078382E-1,6.255972E-1,1.3360661E0,-3.9771695E-2,1.0915084E0,-3.21391E-1,8.604272E-3,-3.6845606E-2,4.1958354E-2,-5.3197224E-2,-6.1202135E-2,8.2970366E-2,-4.1024513E-3,1.0641471E-1,1.707241E-1,-2.8261188E-2,1.2986502E-1,-6.3278995E-2,-7.690828E-2,4.6370704E-2],"categories":[],"categories_nodes":[],"categories_segments":[],"categories_sizes":[],"default_left":[0,0,0,0,0,0,0,0,0,0,0,0,0,0,0,0,0,0,0,0,0,0,0,0,0,0,0,0,0,0,0,0,0,0,0,0,0,0,0,0,0],"id":13,"left_children":[1,3,5,7,9,11,-1,13,15,17,-1,-1,-1,19,21,23,-1,25,-1,27,29,31,33,35,-1,37,39,-1,-1,-1,-1,-1,-1,-1,-1,-1,-1,-1,-1,-1,-1],"loss_changes":[4.607413E0,4.748802E0,3.2466273E0,5.8184547E0,5.3845296E0,1.670198E0,0E0,6.330933E0,6.910461E0,5.16787E0,0E0,0E0,0E0,5.2246857E0,6.5319185E0,5.254751E0,0E0,5.343808E0,0E0,7.1110992E0,7.6343784E0,5.5924897E0,6.8034544E0,5.434532E0,0E0,5.711914E0,1.7078403E0,0E0,0E0,0E0,0E0,0E0,0E0,0E0,0E0,0E0,0E0,0E0,0E0,0E0,0E0],"parents":[2147483647,0,0,1,1,2,2,3,3,4,4,5,5,7,7,8,8,9,9,13,13,14,14,15,15,17,17,19,19,20,20,21,21,22,22,23,23,25,25,26,26],"right_children":[2,4,6,8,10,12,-1,14,16,18,-1,-1,-1,20,22,24,-1,26,-1,28,30,32,34,36,-1,38,40,-1,-1,-1,-1,-1,-1,-1,-1,-1,-1,-1,-1,-1,-1],"split_conditions":[7.35E-1,2.6E-1,4E-1,6E-1,5.16E0,4E-1,-3.2076366E-2,2E-1,4E-1,1E0,-8.003064E-2,1.6561456E-1,1.3167443E-2,4E-1,3.3333334E-1,9E-1,-7.896102E-2,5E-1,-7.431849E-2,4E-2,1.8E-1,1.8E-1,4.85E-1,8E-2,-3.9771695E-2,2.4E-1,5.95E-1,8.604272E-3,-3.6845606E-2,4.1958354E-2,-5.3197224E-2,-6.1202135E-2,8.2970366E-2,-4.1024513E-3,1.0641471E-1,1.707241E-1,-2.8261188E-2,1.2986502E-1,-6.3278995E-2,-7.690828E-2,4.6370704E-2],"split_indices":[1765,974,1631,313,471,1614,0,956,1406,814,0,0,0,332,1415,1171,0,1294,0,615,2,1206,1646,1086,0,1100,1765,0,0,0,0,0,0,0,0,0,0,0,0,0,0],"split_type":[0,0,0,0,0,0,0,0,0,0,0,0,0,0,0,0,0,0,0,0,0,0,0,0,0,0,0,0,0,0,0,0,0,0,0,0,0,0,0,0,0],"sum_hessian":[2.70604E2,2.6583603E2,4.767992E0,2.4657726E2,1.925877E1,3.5299504E0,1.2380414E0,2.3564641E2,1.093084E1,1.7142672E1,2.1160982E0,2.3825564E0,1.1473941E0,2.0124863E2,3.4397785E1,8.967469E0,1.9633703E0,1.5535526E1,1.6071458E0,1.6021176E2,4.1036873E1,1.2275265E1,2.2122519E1,7.242251E0,1.7252182E0,1.2691199E1,2.8443267E0,4.9233734E1,1.1097802E2,3.046198E1,1.0574894E1,9.616597E0,2.6586676E0,9.138268E0,1.2984251E1,5.8468194E0,1.3954315E0,1.1550482E1,1.1407182E0,1.824391E0,1.0199358E0],"tree_param":{"num_deleted":"0","num_feature":"1785","num_nodes":"41","size_leaf_vector":"1"}},{"base_weights":[1.0359585E-2,-2.5952077E-1,7.0828296E-2,-6.908422E-1,1.2051398E-1,1.7350574E-1,-2.1601886E-1,-9.741519E-1,7.616869E-2,7.070197E-1,-4.3733728E-1,2.8370368E-1,-2.922835E-1,-3.2721198E-1,7.852061E-1,-1.0616573E0,1.3391766E-2,7.673995E-1,-6.8161935E-1,-1.7990229E-1,1.1562321E0,-7.4540216E-1,8.9880955E-1,3.502792E-1,-4.594584E-1,4.6715495E-1,-4.9439183E-1,4.5195696E-1,-5.1252705E-1,-7.129175E-2,1.4175726E0,-1.10310294E-1,-2.2892317E-2,1.4588378E-1,-3.5389885E-2,-1.7875098E-2,-7.9164065E-2,-8.9859225E-2,1.1236707E-1,1.5822074E0,-1.192066E-1,3.082617E-1,-9.879159E-1,1.5616585E-1,-1.7892502E-2,4.614657E-1,-2.063682E-1,-1.0276642E-1,3.2533163E-1,-3.8908097E-1,1.329991E0,3.745872E-1,-6.8367094E-1,-1.5445964E-1,1.5489843E0,-9.69783E-1,-1.8799111E-1,1.6552861E-1,4.2033967E-2,-3.5709393E-4,2.0080869E-1,5.265179E-2,-6.47165E-2,-2.2986965E-2,7.0407316E-2,-1.05172954E-1,-1.9966705E-2,8.306985E-2,2.379048E-2,6.880076E-2,-4.511853E-2,1.20043814E-1,-3.998169E-2,5.3669382E-2,-8.353617E-2,-2.224349E-2,1.9963127E-1,1.328018E-1,-4.2266693E-2,-8.47702E-2,4.258498E-2,7.034743E-2,-9.2591695E-2,4.5606054E-2,1.8527022E-1,-1.0670749E-1,2.7570477E-2,-5.1069755E-2,6.414986E-2],"categories":[],"categories_nodes":[],"categories_segments":[],"categories_sizes":[],"default_left":[0,0,0,0,0,0,0,0,0,0,0,0,0,0,0,0,0,0,0,0,0,0,0,0,0,0,0,0,0,0,0,0,0,0,0,0,0,0,0,0,0,0,0,0,0,0,0,0,0,0,0,0,0,0,0,0,0,0,0,0,0,0,0,0,0,0,0,0,0,0,0,0,0,0,0,0,0,0,0,0,0,0,0,0,0,0,0,0,0],"id":14,"left_children":[1,3,5,7,9,11,13,15,17,19,21,23,25,27,29,31,-1,33,35,37,39,41,43,45,47,49,51,53,55,-1,57,-1,-1,-1,-1,-1,-1,-1,-1,59,61,63,65,-1,-1,67,69,-1,71,73,75,77,79,81,83,85,87,-1,-1,-1,-1,-1,-1,-1,-1,-1,-1,-1,-1,-1,-1,-1,-1,-1,-1,-1,-1,-1,-1,-1,-1,-1,-1,-1,-1,-1,-1,-1,-1],"loss_changes":[4.422756E0,8.21615E0,6.554526E0,5.1565266E0,9.217595E0,8.475189E0,6.7999578E0,1.8052826E0,4.3134255E0,5.648405E0,6.6683016E0,6.7277546E0,5.107804E0,7.9714856E0,6.8546658E0,2.999897E-1,0E0,3.8149655E0,7.877457E-2,6.1214685E0,5.186385E0,3.4702191E0,2.553776E0,7.6695995E0,5.393387E0,5.831318E0,4.4635925E0,7.4444056E0,6.313345E0,0E0,4.1183472E-1,0E0,0E0,0E0,0E0,0E0,0E0,0E0,0E0,4.711542E0,1.4429263E0,8.179037E-1,3.085432E-1,0E0,0E0,8.248072E0,4.9229965E0,0E0,3.985432E0,2.2595181E0,4.3839645E0,4.5302114E0,4.2482986E0,5.8696733E0,4.6500206E-1,2.4669132E0,7.5127687E0,0E0,0E0,0E0,0E0,0E0,0E0,0E0,0E0,0E0,0E0,0E0,0E0,0E0,0E0,0E0,0E0,0E0,0E0,0E0,0E0,0E0,0E0,0E0,0E0,0E0,0E0,0E0,0E0,0E0,0E0,0E0,0E0],"parents":[2147483647,0,0,1,1,2,2,3,3,4,4,5,5,6,6,7,7,8,8,9,9,10,10,11,11,12,12,13,13,14,14,15,15,17,17,18,18,19,19,20,20,21,21,22,22,23,23,24,24,25,25,26,26,27,27,28,28,30,30,39,39,40,40,41,41,42,42,45,45,46,46,48,48,49,49,50,50,51,51,52,52,53,53,54,54,55,55,56,56],"right_children":[2,4,6,8,10,12,14,16,18,20,22,24,26,28,30,32,-1,34,36,38,40,42,44,46,48,50,52,54,56,-1,58,-1,-1,-1,-1,-1,-1,-1,-1,60,62,64,66,-1,-1,68,70,-1,72,74,76,78,80,82,84,86,88,-1,-1,-1,-1,-1,-1,-1,-1,-1,-1,-1,-1,-1,-1,-1,-1,-1,-1,-1,-1,-1,-1,-1,-1,-1,-1,-1,-1,-1,-1,-1,-1],"split_conditions":[2E-2,7.8125E-1,1.2E-1,4E-1,1.6666667E-1,2.6666668E-1,2.6E-1,6E-1,6E-2,4E-2,2E-1,2.6666668E-1,2E-2,2E-2,2E-1,3E-1,1.3391766E-2,8E-2,4E-2,1.4E-1,2.3333333E-1,1.3333334E-1,4E-2,1.8E-1,1.2E-1,8E-2,2E-2,5.65E-1,1.6666667E-1,-7.129175E-2,1.4E-1,-1.10310294E-1,-2.2892317E-2,1.4588378E-1,-3.5389885E-2,-1.7875098E-2,-7.9164065E-2,-8.9859225E-2,1.1236707E-1,3.3333334E-1,3.3333334E-1,4E-1,2.2E-1,1.5616585E-1,-1.7892502E-2,4E-2,2E-2,-1.0276642E-1,3.3333334E-1,4E-2,4E-2,7.1875E-1,1E-1,8E-2,6E-2,3.6666667E-1,2.6666668E-1,1.6552861E-1,4.2033967E-2,-3.5709393E-4,2.0080869E-1,5.265179E-2,-6.47165E-2,-2.2986965E-2,7.0407316E-2,-1.05172954E-1,-1.9966705E-2,8.306985E-2,2.379048E-2,6.880076E-2,-4.511853E-2,1.20043814E-1,-3.998169E-2,5.3669382E-2,-8.353617E-2,-2.224349E-2,1.9963127E-1,1.328018E-1,-4.2266693E-2,-8.47702E-2,4.258498E-2,7.034743E-2,-9.2591695E-2,4.5606054E-2,1.8527022E-1,-1.0670749E-1,2.7570477E-2,-5.1069755E-2,6.414986E-2],"split_indices":[1563,1535,604,310,650,654,1075,1753,12,1072,133,419,1550,10,654,409,0,1078,1,12,534,56,619,4,605,730,623,337,880,0,138,0,0,0,0,0,0,0,0,1770,1174,918,1092,0,0,833,1102,0,1412,1448,130,702,502,270,1333,1355,406,0,0,0,0,0,0,0,0,0,0,0,0,0,0,0,0,0,0,0,0,0,0,0,0,0,0,0,0,0,0,0,0],"split_type":[0,0,0,0,0,0,0,0,0,0,0,0,0,0,0,0,0,0,0,0,0,0,0,0,0,0,0,0,0,0,0,0,0,0,0,0,0,0,0,0,0,0,0,0,0,0,0,0,0,0,0,0,0,0,0,0,0,0,0,0,0,0,0,0,0,0,0,0,0,0,0,0,0,0,0,0,0,0,0,0,0,0,0,0,0,0,0,0,0],"sum_hessian":[2.688872E2,4.8615887E1,2.2027133E2,2.238834E1,2.6227547E1,1.6249948E2,5.7771847E1,1.6152172E1,6.236167E0,1.2655056E1,1.3572491E1,1.3172618E2,3.0773294E1,5.260309E1,5.168757E0,1.5008798E1,1.1433743E0,3.2546723E0,2.981495E0,4.456227E0,8.19883E0,1.1388792E1,2.1836987E0,1.21381035E2,1.0345151E1,6.192619E0,2.4580675E1,9.83065E0,4.2772438E1,1.4963684E0,3.6723886E0,1.3987935E1,1.0208629E0,1.8270272E0,1.427645E0,1.0063804E0,1.9751145E0,3.0727942E0,1.3834326E0,5.965823E0,2.233006E0,2.0801086E0,9.308683E0,1.0740787E0,1.1096201E0,1.0131505E2,2.006599E1,5.8210797E0,4.5240707E0,3.383785E0,2.8088338E0,4.2213707E0,2.0359304E1,6.884324E0,2.9463265E0,1.693027E1,2.584217E1,2.4326348E0,1.2397536E0,1.4729296E0,4.4928937E0,1.0057017E0,1.2273045E0,1.0592433E0,1.0208654E0,8.302299E0,1.0063846E0,3.718485E1,6.4130196E1,3.9232225E0,1.6142769E1,1.7530539E0,2.7710166E0,1.0347285E0,2.3490565E0,1.043595E0,1.7652389E0,1.6192186E0,2.602152E0,1.7942646E1,2.4166589E0,3.3011992E0,3.5831249E0,1.1847209E0,1.7616056E0,1.5836445E1,1.0938239E0,1.8880991E1,6.9611783E0],"tree_param":{"num_deleted":"0","num_feature":"1785","num_nodes":"89","size_leaf_vector":"1"}},{"base_weights":[1.0706045E-2,5.584595E-2,-3.4205267E-1,1.0751882E-2,8.093605E-1,-6.471454E-1,2.8720772E-1,4.4237975E-2,-6.873429E-1,-5.302883E-1,1.1250584E0,-8.4564716E-1,5.60197E-1,-3.8705993E-1,9.5287454E-1,-3.7502444E-3,7.1422666E-1,-1.040348E-1,2.366097E-1,-1.141213E-2,-6.662508E-2,1.3921186E0,-6.2492203E-2,-9.5436317E-1,4.723696E-2,-3.0862162E-2,1.22500315E-1,-8.8347E-2,5.0856847E-2,-2.9706448E-2,1.3668295E0,6.380374E-2,-5.907966E-1,1.1113671E0,-4.9735525E-1,9.7099E-2,-6.575283E-2,1.6396521E0,-2.6607964E-2,-1.0501983E0,2.9046927E-2,1.6297085E-2,1.683083E-1,1.6836802E-3,7.392404E-2,-7.63452E-2,8.4198415E-2,1.4672719E-1,-4.629316E-2,-8.1642754E-2,2.673865E-2,1.8406072E-1,1.6291818E-2,-1.7346518E-2,-1.0965741E-1],"categories":[],"categories_nodes":[],"categories_segments":[],"categories_sizes":[],"default_left":[0,0,0,0,0,0,0,0,0,0,0,0,0,0,0,0,0,0,0,0,0,0,0,0,0,0,0,0,0,0,0,0,0,0,0,0,0,0,0,0,0,0,0,0,0,0,0,0,0,0,0,0,0,0,0],"id":15,"left_children":[1,3,5,7,9,11,13,15,17,19,21,23,25,27,29,31,33,-1,35,-1,-1,37,-1,39,-1,-1,-1,-1,-1,-1,41,43,45,47,49,-1,-1,51,-1,53,-1,-1,-1,-1,-1,-1,-1,-1,-1,-1,-1,-1,-1,-1,-1],"loss_changes":[4.2691674E0,8.060831E0,6.0259085E0,5.292199E0,6.262248E0,5.457243E0,5.137934E0,6.9386063E0,3.6262531E0,1.06986165E-1,6.086447E0,3.066784E0,2.4213681E0,3.112352E0,3.3220553E0,8.060452E0,7.4930863E0,0E0,3.0545928E0,0E0,0E0,4.53833E0,0E0,2.3565702E0,0E0,0E0,0E0,0E0,0E0,0E0,1.4055195E0,5.7715564E0,5.831507E0,6.9390955E0,1.2557337E0,0E0,0E0,2.3220806E0,0E0,4.6780396E-1,0E0,0E0,0E0,0E0,0E0,0E0,0E0,0E0,0E0,0E0,0E0,0E0,0E0,0E0,0E0],"parents":[2147483647,0,0,1,1,2,2,3,3,4,4,5,5,6,6,7,7,8,8,9,9,10,10,11,11,12,12,13,13,14,14,15,15,16,16,18,18,21,21,23,23,30,30,31,31,32,32,33,33,34,34,37,37,39,39],"right_children":[2,4,6,8,10,12,14,16,18,20,22,24,26,28,30,32,34,-1,36,-1,-1,38,-1,40,-1,-1,-1,-1,-1,-1,42,44,46,48,50,-1,-1,52,-1,54,-1,-1,-1,-1,-1,-1,-1,-1,-1,-1,-1,-1,-1,-1,-1],"split_conditions":[5.02E0,4.8E0,6.34E0,5.3E0,4.68E0,3.4E-1,1.6666667E-1,4.62E0,1E-1,4.38E0,5.46E0,2E-1,5.84E0,6.46E0,4.75E-1,3.98E0,4E-1,-1.040348E-1,4E-2,-1.141213E-2,-6.662508E-2,6.5E-1,-6.2492203E-2,6.54E0,4.723696E-2,-3.0862162E-2,1.22500315E-1,-8.8347E-2,5.0856847E-2,-2.9706448E-2,3.3333334E-1,4.06E0,4.86E0,1.4E-1,1.2E-1,9.7099E-2,-6.575283E-2,2.6666668E-1,-2.6607964E-2,4.94E0,2.9046927E-2,1.6297085E-2,1.683083E-1,1.6836802E-3,7.392404E-2,-7.63452E-2,8.4198415E-2,1.4672719E-1,-4.629316E-2,-8.1642754E-2,2.673865E-2,1.8406072E-1,1.6291818E-2,-1.7346518E-2,-1.0965741E-1],"split_indices":[1062,1062,116,1305,945,617,48,1421,257,947,1423,9,1067,115,1765,712,1754,0,243,0,0,932,0,706,0,0,0,0,0,0,1532,1777,709,1549,971,0,0,1487,0,1299,0,0,0,0,0,0,0,0,0,0,0,0,0,0,0],"split_type":[0,0,0,0,0,0,0,0,0,0,0,0,0,0,0,0,0,0,0,0,0,0,0,0,0,0,0,0,0,0,0,0,0,0,0,0,0,0,0,0,0,0,0,0,0,0,0,0,0,0,0,0,0,0,0],"sum_hessian":[2.6590527E2,2.3648566E2,2.941962E1,2.2408931E2,1.2396353E1,1.979414E1,9.62548E0,2.14726E2,9.36331E0,2.234524E0,1.0161829E1,1.7256536E1,2.5376043E0,4.9897738E0,4.6357064E0,2.0130205E2,1.3423942E1,6.683745E0,2.6795654E0,1.0031983E0,1.2313256E0,8.993802E0,1.168027E0,1.6196486E1,1.0600504E0,1.3322681E0,1.2053362E0,3.2191217E0,1.7706519E0,1.2235541E0,3.4121523E0,1.8132726E2,1.9974806E1,1.0172308E1,3.2516332E0,1.4240241E0,1.2555413E0,7.8353376E0,1.158464E0,1.5183887E1,1.0125992E0,1.0251408E0,2.3870115E0,1.7049658E2,1.0830667E1,1.8243544E1,1.7312614E0,8.352113E0,1.8201952E0,2.2466712E0,1.004962E0,6.6799245E0,1.1554134E0,1.0009692E0,1.4182917E1],"tree_param":{"num_deleted":"0","num_feature":"1785","num_nodes":"55","size_leaf_vector":"1"}},{"base_weights":[9.871471E-3,2.7903004E-2,-8.297746E-1,-5.398202E-2,2.5064576E-1,-2.0171696E-2,-9.234711E-2,-4.650437E-1,1.9974304E-2,1.1815908E0,1.5553212E-1,-6.368588E-1,7.987808E-1,8.399506E-1,-3.5200186E-2,-6.363225E-2,1.6856452E0,3.6565202E-1,-2.8375047E-1,5.698309E-1,-8.169182E-1,1.3105637E-1,-2.8523652E-2,1.1850479E0,-7.0150666E-2,1.7506213E-1,-2.404107E-1,2.0681284E-1,8.343796E-3,-4.1348416E-1,6.4056844E-1,-7.7617246E-1,2.4998099E-1,1.09154776E-1,-3.0843327E-2,-1.2781264E-4,-1.02126084E-1,-3.5961796E-2,1.5331316E-1,7.40697E-2,3.6561918E-3,8.3408296E-2,-3.2064497E-2,-7.615937E-2,8.962225E-2,-1.9843252E-3,9.717046E-2,2.4015097E-2,-1.0540493E-1,9.253803E-2,-5.2589037E-2],"categories":[],"categories_nodes":[],"categories_segments":[],"categories_sizes":[],"default_left":[0,0,0,0,0,0,0,0,0,0,0,0,0,0,0,0,0,0,0,0,0,0,0,0,0,0,0,0,0,0,0,0,0,0,0,0,0,0,0,0,0,0,0,0,0,0,0,0,0,0,0],"id":16,"left_children":[1,3,5,7,9,-1,-1,11,13,15,17,19,21,23,25,-1,27,29,31,33,35,-1,-1,37,-1,39,41,-1,-1,43,45,47,49,-1,-1,-1,-1,-1,-1,-1,-1,-1,-1,-1,-1,-1,-1,-1,-1,-1,-1],"loss_changes":[4.036165E0,4.764016E0,1.435585E-1,5.823873E0,6.03106E0,0E0,0E0,6.8505435E0,7.4066787E0,6.895607E0,6.0879965E0,6.1726313E0,2.5590446E0,6.321304E0,6.6756363E0,0E0,3.044281E0,9.752273E0,5.8553104E0,2.169324E0,3.876625E0,0E0,0E0,5.285239E0,0E0,5.9670377E0,7.0113745E0,0E0,0E0,6.2266116E0,7.2649517E0,3.4860215E0,6.299655E0,0E0,0E0,0E0,0E0,0E0,0E0,0E0,0E0,0E0,0E0,0E0,0E0,0E0,0E0,0E0,0E0,0E0,0E0],"parents":[2147483647,0,0,1,1,2,2,3,3,4,4,7,7,8,8,9,9,10,10,11,11,12,12,13,13,14,14,16,16,17,17,18,18,19,19,20,20,23,23,25,25,26,26,29,29,30,30,31,31,32,32],"right_children":[2,4,6,8,10,-1,-1,12,14,16,18,20,22,24,26,-1,28,30,32,34,36,-1,-1,38,-1,40,42,-1,-1,44,46,48,50,-1,-1,-1,-1,-1,-1,-1,-1,-1,-1,-1,-1,-1,-1,-1,-1,-1,-1],"split_conditions":[4E-1,1.4E-1,5.9375E-1,2E-2,1.6666667E-1,-2.0171696E-2,-9.234711E-2,2.4E-1,1.6666667E-1,1.6666667E-1,1.2E-1,1.3333334E-1,1E-1,9.375E-1,6E-2,-6.363225E-2,1.6E-1,7E-1,8E-2,4E-2,2E-2,1.3105637E-1,-2.8523652E-2,2E-2,-7.0150666E-2,2E-2,1.6666667E-1,2.0681284E-1,8.343796E-3,4E-1,3.3333334E-1,4E-1,1.4E-1,1.09154776E-1,-3.0843327E-2,-1.2781264E-4,-1.02126084E-1,-3.5961796E-2,1.5331316E-1,7.40697E-2,3.6561918E-3,8.3408296E-2,-3.2064497E-2,-7.615937E-2,8.962225E-2,-1.9843252E-3,9.717046E-2,2.4015097E-2,-1.0540493E-1,9.253803E-2,-5.2589037E-2],"split_indices":[240,240,583,716,1771,0,0,728,462,413,1695,390,717,464,1317,0,621,933,721,484,1084,0,0,124,0,508,342,0,0,545,108,932,959,0,0,0,0,0,0,0,0,0,0,0,0,0,0,0,0,0,0],"split_type":[0,0,0,0,0,0,0,0,0,0,0,0,0,0,0,0,0,0,0,0,0,0,0,0,0,0,0,0,0,0,0,0,0,0,0,0,0,0,0,0,0,0,0,0,0,0,0,0,0,0,0],"sum_hessian":[2.640584E2,2.5945337E2,4.605034E0,1.9026537E2,6.918799E1,1.007114E0,3.5979197E0,2.8205633E1,1.6205974E2,5.3547077E0,6.3833282E1,2.526674E1,2.9388912E0,9.3204365E0,1.527393E2,1.1054401E0,4.2492676E0,4.3292843E1,2.054044E1,2.999636E0,2.2267105E1,1.8544066E0,1.0844846E0,7.80442E0,1.5160166E0,7.5513626E1,7.722568E1,3.1956048E0,1.0536629E0,1.1160111E1,3.2132732E1,1.0447402E1,1.0093038E1,1.7294441E0,1.2701917E0,4.6625695E0,1.7604536E1,1.4291682E0,6.375252E0,1.3997963E1,6.1515663E1,4.7130556E0,7.251263E1,9.1473255E0,2.0127854E0,1.1044955E1,2.1087776E1,2.2723038E0,8.175098E0,5.292872E0,4.8001657E0],"tree_param":{"num_deleted":"0","num_feature":"1785","num_nodes":"51","size_leaf_vector":"1"}},{"base_weights":[9.383776E-3,3.408421E-2,-5.994584E-1,-1.0439395E-1,1.5310146E-1,5.626467E-2,-8.752321E-1,-6.5981483E-1,4.8364024E-3,7.305224E-2,9.76235E-1,1.5485885E-2,-1.0366275E-1,2.0302705E-1,-9.3693644E-1,3.579637E-1,-1.753658E-1,-1.12539366E-1,3.0960804E-1,1.239444E0,-6.656477E-2,-7.442016E-2,8.290206E-1,-1.0978147E-1,4.9567442E-2,-1.645949E-1,7.364787E-1,-4.8897082E-1,2.8506437E-1,-2.2521248E-1,7.27087E-1,4.225351E-1,-6.9545716E-1,1.6851907E0,1.01306126E-1,2.1254069E-3,1.212754E-1,-8.823821E-2,3.537675E-2,1.0166373E-1,-4.1174382E-2,-6.9223866E-2,2.2216268E-2,-4.7366235E-2,6.904828E-2,-3.780973E-2,3.7840873E-2,1.3211617E-1,-2.8001776E-2,2.4314073E-3,7.224256E-2,2.2982463E-2,-9.319679E-2,1.9100714E-1,1.4535317E-2,8.304819E-2,-7.1024366E-2],"categories":[],"categories_nodes":[],"categories_segments":[],"categories_sizes":[],"default_left":[0,0,0,0,0,0,0,0,0,0,0,0,0,0,0,0,0,0,0,0,0,0,0,0,0,0,0,0,0,0,0,0,0,0,0,0,0,0,0,0,0,0,0,0,0,0,0,0,0,0,0,0,0,0,0,0,0],"id":17,"left_children":[1,3,5,7,9,-1,11,13,15,17,19,-1,-1,21,23,25,27,29,31,33,-1,-1,35,-1,-1,37,39,41,43,45,47,49,51,53,55,-1,-1,-1,-1,-1,-1,-1,-1,-1,-1,-1,-1,-1,-1,-1,-1,-1,-1,-1,-1,-1,-1],"loss_changes":[3.9740603E0,4.1955385E0,3.7945225E0,7.1504974E0,8.94164E0,0E0,1.6100402E0,4.821396E0,6.390593E0,5.5553093E0,6.0292683E0,0E0,0E0,3.8961716E0,3.963951E0,6.8320255E0,9.743336E0,6.899046E0,6.5984836E0,5.271843E0,0E0,0E0,1.1529601E0,0E0,0E0,5.919108E0,6.806739E0,5.9261E0,8.810603E0,6.006378E0,5.5512347E0,6.020338E0,1.5247643E0,2.369648E0,3.006077E0,0E0,0E0,0E0,0E0,0E0,0E0,0E0,0E0,0E0,0E0,0E0,0E0,0E0,0E0,0E0,0E0,0E0,0E0,0E0,0E0,0E0,0E0],"parents":[2147483647,0,0,1,1,2,2,3,3,4,4,6,6,7,7,8,8,9,9,10,10,13,13,14,14,15,15,16,16,17,17,18,18,19,19,22,22,25,25,26,26,27,27,28,28,29,29,30,30,31,31,32,32,33,33,34,34],"right_children":[2,4,6,8,10,-1,12,14,16,18,20,-1,-1,22,24,26,28,30,32,34,-1,-1,36,-1,-1,38,40,42,44,46,48,50,52,54,56,-1,-1,-1,-1,-1,-1,-1,-1,-1,-1,-1,-1,-1,-1,-1,-1,-1,-1,-1,-1,-1,-1],"split_conditions":[6E-1,6E-2,2E-2,2E-2,3E-1,5.626467E-2,2E-2,2E-2,3.3333334E-1,8E-2,2E-1,1.5485885E-2,-1.0366275E-1,4E-2,3E-1,5.15E-1,1E-1,2.6666668E-1,2.2E-1,5E-1,-6.656477E-2,-7.442016E-2,2E-1,-1.0978147E-1,4.9567442E-2,8E-1,1.8E-1,4E-1,6E-2,2E-1,5.3E-1,8E-2,1.6666667E-1,2E-1,2E-1,2.1254069E-3,1.212754E-1,-8.823821E-2,3.537675E-2,1.0166373E-1,-4.1174382E-2,-6.9223866E-2,2.2216268E-2,-4.7366235E-2,6.904828E-2,-3.780973E-2,3.7840873E-2,1.3211617E-1,-2.8001776E-2,2.4314073E-3,7.224256E-2,2.2982463E-2,-9.319679E-2,1.9100714E-1,1.4535317E-2,8.304819E-2,-7.1024366E-2],"split_indices":[1161,126,508,618,747,0,742,1448,579,262,138,0,0,389,1128,456,358,635,625,1413,0,0,416,0,0,1766,267,791,373,1091,1527,478,1248,1453,158,0,0,0,0,0,0,0,0,0,0,0,0,0,0,0,0,0,0,0,0,0,0],"split_type":[0,0,0,0,0,0,0,0,0,0,0,0,0,0,0,0,0,0,0,0,0,0,0,0,0,0,0,0,0,0,0,0,0,0,0,0,0,0,0,0,0,0,0,0,0,0,0,0,0,0,0,0,0,0,0,0,0],"sum_hessian":[2.6189755E2,2.5259396E2,9.3035965E0,1.1680854E2,1.3578543E2,1.5848442E0,7.718752E0,1.836821E1,9.844033E1,1.24743E2,1.104243E1,1.0510466E0,6.6677055E0,4.530252E0,1.3837958E1,3.2927868E1,6.551247E1,7.019514E1,5.4547855E1,9.728043E0,1.3143876E0,1.727474E0,2.802778E0,1.2650984E1,1.186974E0,1.4069453E1,1.8858416E1,3.8932823E1,2.6579641E1,6.2535057E1,7.66008E0,4.9559093E1,4.988763E0,6.6449294E0,3.083113E0,1.2425573E0,1.5602206E0,5.6053534E0,8.4641E0,1.5251702E1,3.6067138E0,3.0298874E1,8.633949E0,9.19785E0,1.7381792E1,5.019525E1,1.2339806E1,4.6218724E0,3.0382078E0,2.1753695E1,2.7805399E1,1.0213372E0,3.9674256E0,5.5883584E0,1.0565711E0,1.6116872E0,1.4714257E0],"tree_param":{"num_deleted":"0","num_feature":"1785","num_nodes":"57","size_leaf_vector":"1"}},{"base_weights":[8.131368E-3,-1.6423649E-1,9.3420036E-2,-2.3245296E-1,8.020967E-1,-9.976624E-2,2.7305442E-1,-7.7764995E-2,-7.136714E-1,1.5584053E-1,-2.905173E-1,3.02741E-1,-2.8912878E-1,6.005295E-1,1.6552215E-3,5.4509634E-1,-2.1158962E-1,-8.2387155E-1,6.3063145E-2,2.6758824E-2,-6.6317566E-2,5.132338E-1,-7.6994914E-1,1.4729004E-1,-5.1957417E-1,-1.3404553E-1,8.578769E-1,1.3800322E-1,-7.947879E-1,-3.3172986E-1,1.1261463E0,-3.1167006E-1,8.010356E-1,-1.07939065E-1,-1.9563654E-1,-1.6878936E-1,8.6299175E-1,-1.7088031E-2,-8.7904274E-2,-5.845021E-1,4.893276E-1,-6.6879445E-1,6.2484926E-1,1.1924572E-1,-4.1758674E-1,1.358598E0,4.172982E-1,-1.9528961E-1,6.1897856E-1,-9.994994E-2,2.6498571E-2,6.711852E-2,-8.8060714E-2,-2.8760586E-2,1.4916001E-1,-4.0115993E-2,7.556626E-2,1.3442376E-1,-3.5581257E-2,-8.771243E-2,6.0385372E-2,-6.288993E-2,8.449292E-2,-7.5909145E-2,1.1220651E-1,-9.678424E-2,4.0444594E-2,-3.0924633E-2,9.319988E-2,-7.845167E-2,6.746549E-2,1.1398219E-1,-6.162364E-2,3.3260714E-2,-9.919592E-2,-4.4715997E-2,1.6572E-1,-7.42213E-2,7.508605E-2,-5.1579643E-2,5.3082615E-2,-1.445538E-2,9.5406644E-2],"categories":[],"categories_nodes":[],"categories_segments":[],"categories_sizes":[],"default_left":[0,0,0,0,0,0,0,0,0,0,0,0,0,0,0,0,0,0,0,0,0,0,0,0,0,0,0,0,0,0,0,0,0,0,0,0,0,0,0,0,0,0,0,0,0,0,0,0,0,0,0,0,0,0,0,0,0,0,0,0,0,0,0,0,0,0,0,0,0,0,0,0,0,0,0,0,0,0,0,0,0,0,0],"id":18,"left_children":[1,3,5,7,9,11,13,15,17,-1,19,21,23,25,27,29,31,33,-1,-1,-1,35,37,39,41,43,45,47,49,51,53,55,57,-1,59,61,63,-1,-1,65,67,69,71,-1,73,75,77,79,81,-1,-1,-1,-1,-1,-1,-1,-1,-1,-1,-1,-1,-1,-1,-1,-1,-1,-1,-1,-1,-1,-1,-1,-1,-1,-1,-1,-1,-1,-1,-1,-1,-1,-1],"loss_changes":[3.847523E0,5.8984165E0,6.1010876E0,6.027032E0,5.359844E0,6.5710487E0,8.083273E0,5.3630924E0,3.4460564E0,0E0,8.5796463E-1,6.6504707E0,5.945814E0,7.907076E0,5.619897E0,6.1887903E0,5.574606E0,2.7893019E0,0E0,0E0,0E0,5.813254E0,1.7293239E-1,5.5288734E0,6.9778175E0,4.8454494E0,6.196909E0,7.2026577E0,1.9060555E0,3.520481E0,4.093359E0,4.939203E0,3.6240904E0,0E0,4.139579E0,4.67806E0,7.520425E0,0E0,0E0,3.093508E0,5.5267315E0,5.887538E0,3.8647528E0,0E0,4.752546E0,8.239874E0,7.423568E0,6.5235505E0,4.825623E0,0E0,0E0,0E0,0E0,0E0,0E0,0E0,0E0,0E0,0E0,0E0,0E0,0E0,0E0,0E0,0E0,0E0,0E0,0E0,0E0,0E0,0E0,0E0,0E0,0E0,0E0,0E0,0E0,0E0,0E0,0E0,0E0,0E0,0E0],"parents":[2147483647,0,0,1,1,2,2,3,3,4,4,5,5,6,6,7,7,8,8,10,10,11,11,12,12,13,13,14,14,15,15,16,16,17,17,21,21,22,22,23,23,24,24,25,25,26,26,27,27,28,28,29,29,30,30,31,31,32,32,34,34,35,35,36,36,39,39,40,40,41,41,42,42,44,44,45,45,46,46,47,47,48,48],"right_children":[2,4,6,8,10,12,14,16,18,-1,20,22,24,26,28,30,32,34,-1,-1,-1,36,38,40,42,44,46,48,50,52,54,56,58,-1,60,62,64,-1,-1,66,68,70,72,-1,74,76,78,80,82,-1,-1,-1,-1,-1,-1,-1,-1,-1,-1,-1,-1,-1,-1,-1,-1,-1,-1,-1,-1,-1,-1,-1,-1,-1,-1,-1,-1,-1,-1,-1,-1,-1,-1],"split_conditions":[7.1875E-1,6E-1,8E-2,2.6666668E-1,6E-2,4E-2,6E-2,5.9375E-1,3.6E-1,1.5584053E-1,6E-2,1.8E-1,4E-2,1.6666667E-1,2E-1,2.3333333E-1,2.6E-1,2.3333333E-1,6.3063145E-2,2.6758824E-2,-6.6317566E-2,4.65E-1,3.3333334E-1,4E-2,6E-1,3.3333334E-1,2.84E0,2E-1,8.333333E-1,4E-2,2E-2,2.6E-1,3.64E0,-1.07939065E-1,1E-1,2.3333333E-1,1.3333334E-1,-1.7088031E-2,-8.7904274E-2,1.6E-1,4E-2,6E-1,6.666667E-1,1.1924572E-1,4E-2,1.6666667E-1,3.68E0,1.2E-1,4.75E-1,-9.994994E-2,2.6498571E-2,6.711852E-2,-8.8060714E-2,-2.8760586E-2,1.4916001E-1,-4.0115993E-2,7.556626E-2,1.3442376E-1,-3.5581257E-2,-8.771243E-2,6.0385372E-2,-6.288993E-2,8.449292E-2,-7.5909145E-2,1.1220651E-1,-9.678424E-2,4.0444594E-2,-3.0924633E-2,9.319988E-2,-7.845167E-2,6.746549E-2,1.1398219E-1,-6.162364E-2,3.3260714E-2,-9.919592E-2,-4.4715997E-2,1.6572E-1,-7.42213E-2,7.508605E-2,-5.1579643E-2,5.3082615E-2,-1.445538E-2,9.5406644E-2],"split_indices":[583,1504,1091,58,1572,1220,1668,1178,1336,0,974,481,372,1598,266,637,1093,1253,0,0,0,218,1532,494,1495,221,593,156,1530,261,1566,5,1419,0,1667,1709,520,0,0,964,119,662,934,0,854,1580,707,1190,1289,0,0,0,0,0,0,0,0,0,0,0,0,0,0,0,0,0,0,0,0,0,0,0,0,0,0,0,0,0,0,0,0,0,0],"split_type":[0,0,0,0,0,0,0,0,0,0,0,0,0,0,0,0,0,0,0,0,0,0,0,0,0,0,0,0,0,0,0,0,0,0,0,0,0,0,0,0,0,0,0,0,0,0,0,0,0,0,0,0,0,0,0,0,0,0,0,0,0,0,0,0,0,0,0,0,0,0,0,0,0,0,0,0,0,0,0,0,0,0,0],"sum_hessian":[2.5967435E2,8.565019E1,1.7402415E2,8.071194E1,4.9382586E0,8.406345E1,8.996071E1,6.1957317E1,1.8754618E1,2.6663198E0,2.2719386E0,2.6703661E1,5.735979E1,4.0219017E1,4.9741688E1,1.0414021E1,5.1543297E1,1.7691484E1,1.0631335E0,1.0225226E0,1.249416E0,2.2759195E1,3.9444659E0,1.9946272E1,3.741352E1,1.0558851E1,2.9660166E1,4.3176723E1,6.564964E0,4.3216205E0,6.0924006E0,4.7537277E1,4.00602E0,1.2065861E1,5.6256237E0,7.890413E0,1.4868783E1,1.0030042E0,2.9414618E0,6.1275177E0,1.3818755E1,3.346558E1,3.9479394E0,1.2949669E0,9.263885E0,1.2907277E1,1.6752888E1,2.585466E1,1.7322065E1,5.549808E0,1.0151558E0,1.4497632E0,2.8718572E0,1.2951497E0,4.7972507E0,4.4435738E1,3.101541E0,2.615786E0,1.390234E0,2.9845123E0,2.6411114E0,5.688231E0,2.202182E0,1.781929E0,1.3086854E1,4.431213E0,1.6963046E0,5.0357413E0,8.783013E0,3.119458E1,2.2710001E0,2.8478522E0,1.1000872E0,4.199628E0,5.0642567E0,1.7609057E0,1.1146371E1,3.469006E0,1.3283882E1,1.8138147E1,7.7165117E0,5.456798E0,1.1865268E1],"tree_param":{"num_deleted":"0","num_feature":"1785","num_nodes":"83","size_leaf_vector":"1"}},{"base_weights":[7.7515203E-3,-1.8303764E-1,8.4297515E-2,-2.4303289E-1,1.1665843E-1,-2.8741035E-1,1.55864E-1,-5.019049E-1,5.6990217E-2,-4.7650364E-1,6.928004E-1,5.4118372E-3,3.947274E-1,-4.398562E-2,-7.852494E-1,-1.815428E-1,7.65963E-1,5.8882374E-1,-6.469658E-1,-6.418938E-2,1.2270538E0,2.524864E-1,-3.4365404E-1,3.492115E-2,7.127689E-1,-7.7178603E-1,4.7007152E-1,-9.5580333E-1,3.0147037E-1,2.071591E-1,-6.8411535E-1,1.114214E0,-4.5367386E-2,1.17165186E-1,-5.9548613E-2,-7.397684E-1,6.436475E-2,1.3737212E-2,1.6083346E-1,4.9972373E-1,-2.1843983E-1,-5.505913E-1,2.7214667E-1,3.4179875E-1,-6.379834E-1,7.691802E-2,1.1061484E0,-9.8020114E-2,2.2891207E-2,8.9320384E-2,-7.833035E-2,-1.0655048E-1,6.0138058E-2,9.098331E-2,-6.280194E-2,-3.1937625E-2,8.185542E-2,5.090937E-2,-9.207821E-2,1.4265525E-1,-2.3927052E-2,-8.710562E-2,3.5852052E-2,8.428481E-2,3.3480418E-3,-6.5731935E-2,4.96389E-2,-8.016491E-3,-8.92302E-2,8.900015E-2,-6.1697956E-2,5.4234814E-2,-8.30509E-2,-9.090411E-2,1.5975807E-2,8.1838235E-2,-4.957096E-2,2.0282796E-2,1.3376316E-1],"categories":[],"categories_nodes":[],"categories_segments":[],"categories_sizes":[],"default_left":[0,0,0,0,0,0,0,0,0,0,0,0,0,0,0,0,0,0,0,0,0,0,0,0,0,0,0,0,0,0,0,0,0,0,0,0,0,0,0,0,0,0,0,0,0,0,0,0,0,0,0,0,0,0,0,0,0,0,0,0,0,0,0,0,0,0,0,0,0,0,0,0,0,0,0,0,0,0,0],"id":19,"left_children":[1,3,5,7,-1,9,11,13,15,17,19,21,23,25,27,29,31,33,35,-1,37,39,41,43,45,47,49,51,53,55,57,59,-1,-1,-1,61,-1,-1,-1,63,65,67,69,71,73,75,77,-1,-1,-1,-1,-1,-1,-1,-1,-1,-1,-1,-1,-1,-1,-1,-1,-1,-1,-1,-1,-1,-1,-1,-1,-1,-1,-1,-1,-1,-1,-1,-1],"loss_changes":[3.767236E0,6.2651176E0,4.9402413E0,5.586254E0,0E0,5.9022737E0,5.566884E0,4.9627085E0,5.8960357E0,5.0650105E0,4.54483E0,8.374216E0,6.8265057E0,6.267113E0,4.686987E0,5.2756367E0,4.22691E0,3.5149093E0,3.196436E0,0E0,1.4851317E0,6.72733E0,5.278903E0,6.2361193E0,7.8513527E0,1.6657667E0,5.9343E0,4.186014E0,2.821802E0,5.279091E0,3.7710247E0,3.344901E0,0E0,0E0,0E0,3.434596E0,0E0,0E0,0E0,5.9834404E0,6.683748E0,4.8243475E0,6.4781723E0,5.3092184E0,2.1944332E0,6.0109615E0,3.8119202E0,0E0,0E0,0E0,0E0,0E0,0E0,0E0,0E0,0E0,0E0,0E0,0E0,0E0,0E0,0E0,0E0,0E0,0E0,0E0,0E0,0E0,0E0,0E0,0E0,0E0,0E0,0E0,0E0,0E0,0E0,0E0,0E0],"parents":[2147483647,0,0,1,1,2,2,3,3,5,5,6,6,7,7,8,8,9,9,10,10,11,11,12,12,13,13,14,14,15,15,16,16,17,17,18,18,20,20,21,21,22,22,23,23,24,24,25,25,26,26,27,27,28,28,29,29,30,30,31,31,35,35,39,39,40,40,41,41,42,42,43,43,44,44,45,45,46,46],"right_children":[2,4,6,8,-1,10,12,14,16,18,20,22,24,26,28,30,32,34,36,-1,38,40,42,44,46,48,50,52,54,56,58,60,-1,-1,-1,62,-1,-1,-1,64,66,68,70,72,74,76,78,-1,-1,-1,-1,-1,-1,-1,-1,-1,-1,-1,-1,-1,-1,-1,-1,-1,-1,-1,-1,-1,-1,-1,-1,-1,-1,-1,-1,-1,-1,-1,-1],"split_conditions":[4.5E-1,3.3333334E-1,2E-2,2E-1,1.1665843E-1,2E-1,1E-1,7.1875E-1,1.8E-1,6E-1,4E-2,8.125E-1,6E-2,7.8125E-1,2.4E-1,2.3333333E-1,5E-1,6E-2,3.6E-1,-6.418938E-2,6E-2,6.666667E-1,1.4E-1,1E-1,2E-1,2.6E-1,1E-1,5.48E0,1E-1,8E-2,2E-2,1.4E-1,-4.5367386E-2,1.17165186E-1,-5.9548613E-2,1E0,6.436475E-2,1.3737212E-2,1.6083346E-1,1.6666667E-1,2E-1,2.32E0,6E-2,4E-1,1.6E-1,4E-2,4E-2,-9.8020114E-2,2.2891207E-2,8.9320384E-2,-7.833035E-2,-1.0655048E-1,6.0138058E-2,9.098331E-2,-6.280194E-2,-3.1937625E-2,8.185542E-2,5.090937E-2,-9.207821E-2,1.4265525E-1,-2.3927052E-2,-8.710562E-2,3.5852052E-2,8.428481E-2,3.3480418E-3,-6.5731935E-2,4.96389E-2,-8.016491E-3,-8.92302E-2,8.900015E-2,-6.1697956E-2,5.4234814E-2,-8.30509E-2,-9.090411E-2,1.5975807E-2,8.1838235E-2,-4.957096E-2,2.0282796E-2,1.3376316E-1],"split_indices":[1408,770,837,1251,0,614,1680,345,834,457,1683,107,1190,940,721,284,222,1692,366,0,29,1053,1435,256,399,1691,852,824,146,364,845,863,0,0,0,219,0,0,0,1481,1005,950,1192,901,1218,1548,1575,0,0,0,0,0,0,0,0,0,0,0,0,0,0,0,0,0,0,0,0,0,0,0,0,0,0,0,0,0,0,0,0],"split_type":[0,0,0,0,0,0,0,0,0,0,0,0,0,0,0,0,0,0,0,0,0,0,0,0,0,0,0,0,0,0,0,0,0,0,0,0,0,0,0,0,0,0,0,0,0,0,0,0,0,0,0,0,0,0,0,0,0,0,0,0,0,0,0,0,0,0,0,0,0,0,0,0,0,0,0,0,0,0,0],"sum_hessian":[2.5590009E2,7.287345E1,1.8302663E2,7.0556885E1,2.3165665E0,2.9062654E1,1.5396397E2,3.7514755E1,3.3042126E1,2.479358E1,4.269074E0,9.509159E1,5.887239E1,1.478142E1,2.2733337E1,2.5280478E1,7.7616496E0,3.081435E0,2.1712145E1,1.1627542E0,3.1063201E0,5.5842224E1,3.9249367E1,2.8143229E1,3.072916E1,5.911117E0,8.870302E0,1.9753601E1,2.9797359E0,1.4586627E1,1.06938505E1,6.104912E0,1.6567379E0,2.0722952E0,1.0091398E0,2.0653824E1,1.0583212E0,1.157768E0,1.948552E0,3.65777E1,1.9264524E1,2.945652E1,9.792846E0,1.9666426E1,8.476804E0,1.2201854E1,1.8527308E1,4.9091687E0,1.0019482E0,6.8463683E0,2.023934E0,1.874854E1,1.0050592E0,1.813757E0,1.1659788E0,8.093826E0,6.4928007E0,1.5794741E0,9.114377E0,4.91639E0,1.188522E0,1.8633322E1,2.0205016E0,2.0605597E1,1.5972104E1,1.1985999E1,7.2785254E0,1.2913441E1,1.6543077E1,5.7772465E0,4.0155993E0,1.7252386E1,2.414039E0,6.22287E0,2.253934E0,5.130055E0,7.0717983E0,4.162017E0,1.4365291E1],"tree_param":{"num_deleted":"0","num_feature":"1785","num_nodes":"79","size_leaf_vector":"1"}},{"base_weights":[7.0923134E-3,-9.519949E-3,8.392617E-1,2.6430067E-2,-5.2990353E-1,-2.944087E-2,1.2523164E-1,-3.3566144E-1,7.6376185E-2,-7.581191E-1,3.8513312E-1,-5.4679155E-1,5.872767E-1,-2.0846447E-1,1.54754E-1,-9.150842E-1,4.1184127E-2,-3.7644982E-2,1.0021819E-1,3.3119264E-1,-7.329032E-1,1.3428406E-1,-5.12415E-2,2.0365334E-1,-5.3642565E-1,-2.2688028E-1,2.4195565E-1,-6.2003452E-3,-1.0391622E-1,-6.5167524E-2,8.404275E-2,4.6091676E-2,-8.729639E-2,-2.3318456E-2,9.04965E-2,-7.3280774E-2,4.861019E-2,2.397052E-2,-6.582667E-2,6.725293E-2,1.4877163E-2],"categories":[],"categories_nodes":[],"categories_segments":[],"categories_sizes":[],"default_left":[0,0,0,0,0,0,0,0,0,0,0,0,0,0,0,0,0,0,0,0,0,0,0,0,0,0,0,0,0,0,0,0,0,0,0,0,0,0,0,0,0],"id":20,"left_children":[1,3,5,7,9,-1,-1,11,13,15,17,19,21,23,25,27,-1,-1,-1,29,31,-1,-1,33,35,37,39,-1,-1,-1,-1,-1,-1,-1,-1,-1,-1,-1,-1,-1,-1],"loss_changes":[3.5095022E0,4.6782293E0,2.695304E0,4.2604594E0,3.6662717E0,0E0,0E0,5.8882265E0,4.644457E0,2.8137689E0,2.2046866E0,4.126624E0,5.508072E0,6.192171E0,5.465607E0,1.2068558E0,0E0,0E0,0E0,2.9731328E0,3.7336073E0,0E0,0E0,6.543127E0,5.4440384E0,6.3483925E0,5.229403E0,0E0,0E0,0E0,0E0,0E0,0E0,0E0,0E0,0E0,0E0,0E0,0E0,0E0,0E0],"parents":[2147483647,0,0,1,1,2,2,3,3,4,4,7,7,8,8,9,9,10,10,11,11,12,12,13,13,14,14,15,15,19,19,20,20,23,23,24,24,25,25,26,26],"right_children":[2,4,6,8,10,-1,-1,12,14,16,18,20,22,24,26,28,-1,-1,-1,30,32,-1,-1,34,36,38,40,-1,-1,-1,-1,-1,-1,-1,-1,-1,-1,-1,-1,-1,-1],"split_conditions":[4.2E-1,2.4E-1,3.3333334E-1,1.3333334E-1,2E-1,-2.944087E-2,1.2523164E-1,5E-1,1.3333334E-1,3.4E-1,8E-1,1.3333334E-1,6E-2,4E-2,2E-2,3.3333334E-1,4.1184127E-2,-3.7644982E-2,1.0021819E-1,4E-2,1.6666667E-1,1.3428406E-1,-5.12415E-2,2.3333333E-1,2E-1,6E-2,2E-2,-6.2003452E-3,-1.0391622E-1,-6.5167524E-2,8.404275E-2,4.6091676E-2,-8.729639E-2,-2.3318456E-2,9.04965E-2,-7.3280774E-2,4.861019E-2,2.397052E-2,-6.582667E-2,6.725293E-2,1.4877163E-2],"split_indices":[1439,1089,1175,758,1099,0,0,1060,1489,1086,576,287,268,604,1436,815,0,0,0,139,936,0,0,1472,1691,839,615,0,0,0,0,0,0,0,0,0,0,0,0,0,0],"split_type":[0,0,0,0,0,0,0,0,0,0,0,0,0,0,0,0,0,0,0,0,0,0,0,0,0,0,0,0,0,0,0,0,0,0,0,0,0,0,0,0,0],"sum_hessian":[2.5228833E2,2.4831978E2,3.9685476E0,2.3316135E2,1.5158435E1,1.1365128E0,2.8320348E0,2.7569784E1,2.0559157E2,1.226977E1,2.8886654E0,2.2768782E1,4.8010025E0,4.4005833E1,1.6158572E2,1.101043E1,1.2593393E0,1.4674306E0,1.421235E0,3.8459458E0,1.8922836E1,2.714706E0,2.0862966E0,1.9668863E1,2.433697E1,2.9756388E1,1.3182935E2,1.5885172E0,9.421913E0,1.2171073E0,2.6288383E0,1.7464E0,1.7176435E1,1.2530981E1,7.1378818E0,2.0653656E1,3.6833131E0,1.4508451E1,1.5247935E1,2.234821E1,1.0948113E2],"tree_param":{"num_deleted":"0","num_feature":"1785","num_nodes":"41","size_leaf_vector":"1"}},{"base_weights":[6.620212E-3,-2.4089903E-1,6.009419E-2,-6.428076E-1,9.704728E-2,-2.0308894E-1,1.4622842E-1,-9.2882067E-1,6.765111E-2,5.9611577E-1,-4.0315208E-1,-2.9972732E-1,9.405182E-1,-7.236191E-2,3.196736E-1,-1.0240891E0,9.767455E-3,6.6227037E-1,-6.439035E-2,-1.9318531E-1,9.856223E-1,-7.4781E-1,6.284256E-1,5.7181245E-1,-4.1100004E-1,-2.8317083E-2,1.4285123E-1,-1.6781482E-1,8.981852E-1,-3.6153335E-2,5.011856E-1,-1.0598489E-1,-2.8681943E-2,1.19212165E-1,-3.1115597E-2,-8.622511E-2,9.387487E-2,-2.1306494E-2,1.25459E0,-9.5296246E-1,3.1937424E-2,1.2814339E-1,-5.831763E-2,1.0430365E0,-6.6960424E-2,-2.1969566E-1,-9.836766E-1,-2.3105103E-3,-6.3226455E-1,1.3294609E-1,-5.3066043E-3,1.3429526E0,-2.2017628E-1,7.0802E-1,-2.3398314E-2,2.113097E-3,1.5057191E-1,-1.0052506E-1,-2.6976153E-2,-1.993287E-2,1.4626502E-1,-5.9149306E-2,9.973902E-3,-1.04616426E-1,-1.9302737E-2,6.8840794E-2,-1.8274961E-2,2.6061881E-2,-9.036964E-2,1.575208E-1,4.04221E-2,5.9126057E-2,-4.7299396E-2,8.190729E-2,-6.6075705E-2,8.986029E-2,-4.593027E-2],"categories":[],"categories_nodes":[],"categories_segments":[],"categories_sizes":[],"default_left":[0,0,0,0,0,0,0,0,0,0,0,0,0,0,0,0,0,0,0,0,0,0,0,0,0,0,0,0,0,0,0,0,0,0,0,0,0,0,0,0,0,0,0,0,0,0,0,0,0,0,0,0,0,0,0,0,0,0,0,0,0,0,0,0,0,0,0,0,0,0,0,0,0,0,0,0,0],"id":21,"left_children":[1,3,5,7,9,11,13,15,17,19,21,23,25,27,29,31,-1,33,-1,35,37,39,41,43,45,-1,-1,47,49,51,53,-1,-1,-1,-1,-1,-1,-1,55,57,-1,-1,-1,59,-1,61,63,65,67,-1,-1,69,71,73,75,-1,-1,-1,-1,-1,-1,-1,-1,-1,-1,-1,-1,-1,-1,-1,-1,-1,-1,-1,-1,-1,-1],"loss_changes":[3.343046E0,6.157798E0,4.735891E0,4.2548656E0,6.5429397E0,5.9855785E0,5.9753428E0,1.5450687E0,3.3261633E0,4.1998467E0,5.1652203E0,4.923578E0,2.9501798E0,6.6609616E0,5.6837683E0,5.4800987E-2,0E0,2.5508301E0,0E0,4.706193E0,3.1354933E0,2.571508E0,3.793858E0,4.145097E0,4.544569E0,0E0,0E0,4.981415E0,2.7166376E0,8.052645E0,6.326666E0,0E0,0E0,0E0,0E0,0E0,0E0,0E0,2.2637844E0,4.8070908E-2,0E0,0E0,0E0,2.7217808E0,0E0,4.0804768E0,3.2144833E-1,6.207431E0,4.362141E0,0E0,0E0,1.7850256E-1,5.9879723E0,6.8863792E0,7.411426E0,0E0,0E0,0E0,0E0,0E0,0E0,0E0,0E0,0E0,0E0,0E0,0E0,0E0,0E0,0E0,0E0,0E0,0E0,0E0,0E0,0E0,0E0],"parents":[2147483647,0,0,1,1,2,2,3,3,4,4,5,5,6,6,7,7,8,8,9,9,10,10,11,11,12,12,13,13,14,14,15,15,17,17,19,19,20,20,21,21,22,22,23,23,24,24,27,27,28,28,29,29,30,30,38,38,39,39,43,43,45,45,46,46,47,47,48,48,51,51,52,52,53,53,54,54],"right_children":[2,4,6,8,10,12,14,16,18,20,22,24,26,28,30,32,-1,34,-1,36,38,40,42,44,46,-1,-1,48,50,52,54,-1,-1,-1,-1,-1,-1,-1,56,58,-1,-1,-1,60,-1,62,64,66,68,-1,-1,70,72,74,76,-1,-1,-1,-1,-1,-1,-1,-1,-1,-1,-1,-1,-1,-1,-1,-1,-1,-1,-1,-1,-1,-1],"split_conditions":[2E-2,7.8125E-1,4.4E-1,4E-1,1.6666667E-1,3E-1,6E-2,3E-1,6E-2,4E-2,2.3333333E-1,5.3125E-1,2E-1,3.3333334E-1,4E-2,5.08E0,9.767455E-3,8E-2,-6.439035E-2,1.4E-1,2E-2,2E-1,2E-1,4E-1,4E-1,-2.8317083E-2,1.4285123E-1,1.2E-1,4E-2,3.25E-1,4E0,-1.0598489E-1,-2.8681943E-2,1.19212165E-1,-3.1115597E-2,-8.622511E-2,9.387487E-2,-2.1306494E-2,4.65E-1,5.84E0,3.1937424E-2,1.2814339E-1,-5.831763E-2,7E-1,-6.6960424E-2,6E-2,4.78E0,2E-2,2E-2,1.3294609E-1,-5.3066043E-3,8E-2,2E-2,6E-1,2E-2,2.113097E-3,1.5057191E-1,-1.0052506E-1,-2.6976153E-2,-1.993287E-2,1.4626502E-1,-5.9149306E-2,9.973902E-3,-1.04616426E-1,-1.9302737E-2,6.8840794E-2,-1.8274961E-2,2.6061881E-2,-9.036964E-2,1.575208E-1,4.04221E-2,5.9126057E-2,-4.7299396E-2,8.190729E-2,-6.6075705E-2,8.986029E-2,-4.593027E-2],"split_indices":[1563,1535,1408,310,650,1729,136,771,12,1072,1133,1535,1702,38,119,1307,0,1078,0,12,1102,1670,892,1018,662,0,0,604,1328,1527,706,0,0,0,0,0,0,0,1051,942,0,0,0,1766,0,1549,1546,1202,1690,0,0,261,256,79,6,0,0,0,0,0,0,0,0,0,0,0,0,0,0,0,0,0,0,0,0,0,0],"split_type":[0,0,0,0,0,0,0,0,0,0,0,0,0,0,0,0,0,0,0,0,0,0,0,0,0,0,0,0,0,0,0,0,0,0,0,0,0,0,0,0,0,0,0,0,0,0,0,0,0,0,0,0,0,0,0,0,0,0,0,0,0,0,0,0,0,0,0,0,0,0,0,0,0,0,0,0,0],"sum_hessian":[2.5048158E2,4.3877472E1,2.0660411E2,1.9630022E1,2.4247448E1,5.0609375E1,1.5599474E2,1.3776566E1,5.8534575E0,1.2041458E1,1.2205991E1,4.7346367E1,3.2630062E0,6.927336E1,8.6721375E1,1.2608702E1,1.1678631E0,3.226476E0,2.6269815E0,4.145331E0,7.8961267E0,9.3553705E0,2.8506196E0,4.8918986E0,4.2454468E1,1.0499321E0,2.213074E0,6.3823444E1,5.4499164E0,2.9564821E1,5.7156555E1,1.1608141E1,1.0005616E0,1.9437803E0,1.2826957E0,2.7550943E0,1.3902366E0,1.485163E0,6.410964E0,7.936678E0,1.4186931E0,1.8148482E0,1.0357715E0,3.6617515E0,1.230147E0,3.2860836E1,9.593634E0,4.779641E1,1.6027035E1,3.4762652E0,1.9736514E0,2.73917E0,2.6825651E1,4.0742725E1,1.6413832E1,1.2678525E0,5.143111E0,6.9345646E0,1.0021131E0,1.0570565E0,2.6046948E0,1.4792183E1,1.8068651E1,8.591452E0,1.0021824E0,9.316767E0,3.8479645E1,3.7456021E0,1.2281432E1,1.6523404E0,1.0868295E0,6.054526E0,2.0771126E1,3.805668E1,2.6860468E0,4.9282975E0,1.1485535E1],"tree_param":{"num_deleted":"0","num_feature":"1785","num_nodes":"77","size_leaf_vector":"1"}},{"base_weights":[6.5698465E-3,-1.0610412E-2,7.775332E-1,-1.780008E-1,7.1108624E-2,1.0850657E0,-2.6185935E-2,-4.3720867E-2,-6.285526E-1,1.2279809E-1,-5.114239E-1,2.7376125E-2,1.2816797E-1,1.2287735E-1,-5.009162E-1,-8.0539536E-1,4.095181E-1,1.650364E-1,-6.4884835E-1,2.842258E-1,-9.6313983E-1,3.0907857E-1,-3.9569908E-1,-7.8326565E-1,3.3420593E-1,-5.0657887E-2,-9.442474E-1,1.02528036E-1,-3.2505482E-2,-6.5830946E-2,2.8510666E-1,-9.066037E-2,3.6350083E-2,-5.762195E-1,1.0160041E0,-1.0252029E-1,-2.4085762E-2,4.605628E-2,-8.9521475E-2,1.4141931E-2,-8.6887605E-2,-9.9428795E-2,3.6657367E-2,-6.446987E-2,8.5776515E-2,6.0034104E-2,-6.4816505E-2,-1.0544749E-1,-2.045045E-3,-1.8128963E-2,1.3243155E-1,-2.1432223E-2,3.9645877E-2,-1.6131533E-2,-6.9353424E-2,1.2601753E-1,2.161519E-2],"categories":[],"categories_nodes":[],"categories_segments":[],"categories_sizes":[],"default_left":[0,0,0,0,0,0,0,0,0,0,0,0,0,0,0,0,0,0,0,0,0,0,0,0,0,0,0,0,0,0,0,0,0,0,0,0,0,0,0,0,0,0,0,0,0,0,0,0,0,0,0,0,0,0,0,0,0],"id":22,"left_children":[1,3,5,7,9,11,-1,13,15,17,19,-1,-1,21,23,25,27,29,31,33,35,37,39,41,43,45,47,-1,-1,49,51,-1,-1,53,55,-1,-1,-1,-1,-1,-1,-1,-1,-1,-1,-1,-1,-1,-1,-1,-1,-1,-1,-1,-1,-1,-1],"loss_changes":[3.2939725E0,3.3454754E0,2.0169106E0,4.82535E0,5.0140176E0,3.474145E-1,0E0,4.8502083E0,3.697009E0,5.055952E0,5.1599064E0,0E0,0E0,4.6492033E0,4.267425E0,1.6299057E0,1.8407824E0,4.031433E0,2.4386504E0,4.1715713E0,1.5201569E-1,6.8078504E0,3.382297E0,3.5175066E0,3.1120849E0,1.7677876E0,1.3495579E0,0E0,0E0,8.319757E0,5.3913007E0,0E0,0E0,4.659033E-2,3.9938927E-1,0E0,0E0,0E0,0E0,0E0,0E0,0E0,0E0,0E0,0E0,0E0,0E0,0E0,0E0,0E0,0E0,0E0,0E0,0E0,0E0,0E0,0E0],"parents":[2147483647,0,0,1,1,2,2,3,3,4,4,5,5,7,7,8,8,9,9,10,10,13,13,14,14,15,15,16,16,17,17,18,18,19,19,20,20,21,21,22,22,23,23,24,24,25,25,26,26,29,29,30,30,33,33,34,34],"right_children":[2,4,6,8,10,12,-1,14,16,18,20,-1,-1,22,24,26,28,30,32,34,36,38,40,42,44,46,48,-1,-1,50,52,-1,-1,54,56,-1,-1,-1,-1,-1,-1,-1,-1,-1,-1,-1,-1,-1,-1,-1,-1,-1,-1,-1,-1,-1,-1],"split_conditions":[7.35E-1,7.1875E-1,4E-1,2.6666668E-1,6.666667E-1,4E-2,-2.6185935E-2,1E-1,2.2E-1,6E-1,1.6666667E-1,2.7376125E-2,1.2816797E-1,2.3333333E-1,1.4E-1,2E-2,6E-2,4E-2,4E-1,2.3333333E-1,2.6E-1,2.6666668E-1,6E-2,2E-1,2.3333333E-1,4E-2,2.2E-1,1.02528036E-1,-3.2505482E-2,2.6E-1,1.6666667E-1,-9.066037E-2,3.6350083E-2,8E-2,4E-2,-1.0252029E-1,-2.4085762E-2,4.605628E-2,-8.9521475E-2,1.4141931E-2,-8.6887605E-2,-9.9428795E-2,3.6657367E-2,-6.446987E-2,8.5776515E-2,6.0034104E-2,-6.4816505E-2,-1.0544749E-1,-2.045045E-3,-1.8128963E-2,1.3243155E-1,-2.1432223E-2,3.9645877E-2,-1.6131533E-2,-6.9353424E-2,1.2601753E-1,2.161519E-2],"split_indices":[1765,583,1631,58,819,742,0,616,378,454,753,0,0,867,1696,1448,376,1436,1735,1231,746,1597,975,1095,1708,618,369,0,0,1679,1355,0,0,607,5,0,0,0,0,0,0,0,0,0,0,0,0,0,0,0,0,0,0,0,0,0,0],"split_type":[0,0,0,0,0,0,0,0,0,0,0,0,0,0,0,0,0,0,0,0,0,0,0,0,0,0,0,0,0,0,0,0,0,0,0,0,0,0,0,0,0,0,0,0,0,0,0,0,0,0,0,0,0,0,0,0,0],"sum_hessian":[2.4706613E2,2.4264522E2,4.420904E0,7.921199E1,1.6343323E2,3.3776052E0,1.0432987E0,6.1869724E1,1.7342264E1,1.5083821E2,1.2595026E1,1.1255472E0,2.252058E0,4.5881954E1,1.5987771E1,1.500944E1,2.332823E0,1.4375546E2,7.0827475E0,4.6953874E0,7.899639E0,3.4057262E1,1.1824691E1,1.19945755E1,3.993195E0,2.5443468E0,1.2465095E1,1.053754E0,1.279069E0,4.9339237E1,9.441622E1,5.72863E0,1.3541173E0,2.2556765E0,2.4397106E0,6.8883543E0,1.011285E0,3.0800528E1,3.256735E0,5.866531E0,5.9581604E0,1.0248938E1,1.7456381E0,1.31087E0,2.6823251E0,1.2153978E0,1.3289489E0,1.1009932E1,1.4551626E0,4.635852E1,2.9807196E0,1.7044533E1,7.737169E1,1.0207344E0,1.234942E0,1.4282101E0,1.0115006E0],"tree_param":{"num_deleted":"0","num_feature":"1785","num_nodes":"57","size_leaf_vector":"1"}},{"base_weights":[4.926146E-3,2.0885197E-2,-7.7959485E-2,-1.0165337E-1,1.3536943E-1,4.6741664E-2,-4.2615202E-1,-1.7873937E-1,3.1177545E-1,-4.9079952E-1,1.5615724E-1,-5.649259E-1,4.0180334E-1,1.4964224E-1,-4.9661732E-1,5.8376133E-1,5.177751E-2,-9.487905E-2,1.4000347E-1,2.8188172E-1,-4.9919313E-1,-7.329009E-1,1.9752818E-1,9.32671E-1,-4.9391996E-2,4.3433884E-1,-5.786422E-1,-1.0354239E-1,-1.20063685E-1,-2.0833473E-1,7.435142E-1,-4.2035478E-1,3.4720594E-1,-5.0362457E-2,8.225375E-2,7.041475E-2,6.6791126E-3,-7.8951925E-2,7.388775E-2,3.3420894E-2,-8.7508544E-2,-3.284964E-2,1.1291386E-1,4.054576E-3,1.363881E-1,-5.3267654E-2,6.747889E-2,-9.756605E-2,6.1874866E-2,-4.2953238E-2,7.1072124E-2,-8.7092265E-2,3.917474E-2,-4.2981986E-2,8.663474E-2,-8.838682E-2,1.2840313E-2,-2.742592E-2,6.8946205E-2],"categories":[],"categories_nodes":[],"categories_segments":[],"categories_sizes":[],"default_left":[0,0,0,0,0,0,0,0,0,0,0,0,0,0,0,0,0,0,0,0,0,0,0,0,0,0,0,0,0,0,0,0,0,0,0,0,0,0,0,0,0,0,0,0,0,0,0,0,0,0,0,0,0,0,0,0,0,0,0],"id":23,"left_children":[1,3,-1,5,7,9,11,13,15,17,19,21,23,25,27,29,31,-1,33,35,37,39,41,43,-1,45,47,-1,49,51,53,55,57,-1,-1,-1,-1,-1,-1,-1,-1,-1,-1,-1,-1,-1,-1,-1,-1,-1,-1,-1,-1,-1,-1,-1,-1,-1,-1],"loss_changes":[3.0970309E0,3.410542E0,0E0,5.6790886E0,7.01575E0,4.8727264E0,4.4756613E0,4.8560543E0,5.683566E0,4.1868534E0,5.7856817E0,4.25401E0,3.2626095E0,5.082446E0,4.6452293E0,5.1395464E0,6.0609913E0,0E0,3.3900785E0,5.232048E0,4.6770153E0,4.313958E0,3.595538E0,1.501164E0,0E0,4.3873997E0,3.920614E0,0E0,4.1537557E0,3.2804725E0,5.1284122E0,4.3802347E0,5.8538876E0,0E0,0E0,0E0,0E0,0E0,0E0,0E0,0E0,0E0,0E0,0E0,0E0,0E0,0E0,0E0,0E0,0E0,0E0,0E0,0E0,0E0,0E0,0E0,0E0,0E0,0E0],"parents":[2147483647,0,0,1,1,3,3,4,4,5,5,6,6,7,7,8,8,9,9,10,10,11,11,12,12,13,13,14,14,15,15,16,16,18,18,19,19,20,20,21,21,22,22,23,23,