{"learner":{"attributes":{},"feature_names":[],"feature_types":[],"gradient_booster":{"model":{"cats":{"enc":[],"feature_segments":[],"sorted_idx":[]},"gbtree_model_param":{"num_parallel_tree":"1","num_trees":"100"},"iteration_indptr":[0,1,2,3,4,5,6,7,8,9,10,11,12,13,14,15,16,17,18,19,20,21,22,23,24,25,26,27,28,29,30,31,32,33,34,35,36,37,38,39,40,41,42,43,44,45,46,47,48,49,50,51,52,53,54,55,56,57,58,59,60,61,62,63,64,65,66,67,68,69,70,71,72,73,74,75,76,77,78,79,80,81,82,83,84,85,86,87,88,89,90,91,92,93,94,95,96,97,98,99,100],"tree_info":[0,0,0,0,0,0,0,0,0,0,0,0,0,0,0,0,0,0,0,0,0,0,0,0,0,0,0,0,0,0,0,0,0,0,0,0,0,0,0,0,0,0,0,0,0,0,0,0,0,0,0,0,0,0,0,0,0,0,0,0,0,0,0,0,0,0,0,0,0,0,0,0,0,0,0,0,0,0,0,0,0,0,0,0,0,0,0,0,0,0,0,0,0,0,0,0,0,0,0,0],"trees":[{"base_weights":[-6.111495E-8,-1.3787869E-1,3.6187482E-1,-1.8400899E-1,1.1145447E0,1.1133151E0,1.4764906E-1,-4.741207E-1,2.2791754E-2,2.186916E0,-2.601827E-1,1.547623E-1,2.2647674E0,4.9154586E-3,1.2758934E0,-5.379277E-1,1.3863234E-1,1.6069804E-1,-8.3164674E-1,2.6207805E-2,2.776657E-1,-8.555361E-2,7.2874956E-2,1.4110651E0,-6.674814E-1,3.749011E-2,3.1459672E0,-1.7889677E-1,9.4367355E-1,2.4999702E0,-6.3335294E-1,-6.402839E-1,4.8372322E-1,6.778399E-2,1.414706E0,-1.2227895E-1,-1.1502426E-1,-7.128481E-2,2.4723053E-1,-1.0509763E-1,7.2874956E-2,-6.712648E-2,7.2874956E-2,7.2874956E-2,3.5888755E-1,3.687213E-1,-4.7775206E-1,-8.7556556E-2,1.6269358E0,2.6207805E-2,3.1655282E-1,-7.489327E-2,-2.0459339E-2,-6.996858E-2,7.508471E-2,-4.942508E-2,1.8582071E-1,-1.5534982E-2,6.899469E-2,2.0996873E-1,-7.489327E-2,-7.994017E-2,1.2758838E-1,1.05850875E-1,-5.2319348E-2,-6.282451E-2,1.3375525E-1,2.1567436E-1,-6.712648E-2],"categories":[],"categories_nodes":[],"categories_segments":[],"categories_sizes":[],"default_left":[0,0,0,0,0,0,0,0,0,0,0,0,0,0,0,0,0,0,0,0,0,0,0,0,0,0,0,0,0,0,0,0,0,0,0,0,0,0,0,0,0,0,0,0,0,0,0,0,0,0,0,0,0,0,0,0,0,0,0,0,0,0,0,0,0,0,0,0,0],"id":0,"left_children":[1,3,5,7,9,11,13,15,17,19,21,23,25,27,29,31,-1,33,35,-1,-1,-1,-1,37,39,41,43,45,47,49,51,53,55,57,59,61,-1,-1,-1,-1,-1,-1,-1,-1,-1,63,65,-1,67,-1,-1,-1,-1,-1,-1,-1,-1,-1,-1,-1,-1,-1,-1,-1,-1,-1,-1,-1,-1],"loss_changes":[1.464843E1,1.2487274E1,1.2874578E1,1.2363482E1,1.1911265E1,1.9313519E1,1.0329569E1,1.0923059E1,1.4410335E1,4.299341E0,3.1346936E0,1.2093709E1,1.56232605E1,1.0173312E1,1.8419487E1,9.053078E0,0E0,1.2156966E1,3.7013083E0,0E0,0E0,0E0,0E0,1.2112138E1,4.6232424E0,2.0989442E0,3.524109E0,8.248714E0,1.3423206E1,6.009577E0,2.577889E-2,6.8409824E0,1.1918807E1,1.384499E1,1.2249173E1,7.067312E0,0E0,0E0,0E0,0E0,0E0,0E0,0E0,0E0,0E0,1.1615218E1,9.677027E0,0E0,1.041811E1,0E0,0E0,0E0,0E0,0E0,0E0,0E0,0E0,0E0,0E0,0E0,0E0,0E0,0E0,0E0,0E0,0E0,0E0,0E0,0E0],"parents":[2147483647,0,0,1,1,2,2,3,3,4,4,5,5,6,6,7,7,8,8,9,9,10,10,11,11,12,12,13,13,14,14,15,15,17,17,18,18,23,23,24,24,25,25,26,26,27,27,28,28,29,29,30,30,31,31,32,32,33,33,34,34,35,35,45,45,46,46,48,48],"right_children":[2,4,6,8,10,12,14,16,18,20,22,24,26,28,30,32,-1,34,36,-1,-1,-1,-1,38,40,42,44,46,48,50,52,54,56,58,60,62,-1,-1,-1,-1,-1,-1,-1,-1,-1,64,66,-1,68,-1,-1,-1,-1,-1,-1,-1,-1,-1,-1,-1,-1,-1,-1,-1,-1,-1,-1,-1,-1],"split_conditions":[5.7E-1,3.3333334E-1,1.6666667E-1,6E-2,6E-2,2E-1,2.6666668E-1,2.8E-1,2.2E-1,6E-2,8E-2,4E-2,4E-2,2.6666668E-1,8E-2,6E-1,1.3863234E-1,2.6E-1,7E-1,2.6207805E-2,2.776657E-1,-8.555361E-2,7.2874956E-2,4E-2,6.2E-1,4E-2,2E-2,4E-2,7E-1,4E-2,4E-2,6E-1,8E-2,4E-1,9.0625E-1,5.7E-1,-1.1502426E-1,-7.128481E-2,2.4723053E-1,-1.0509763E-1,7.2874956E-2,-6.712648E-2,7.2874956E-2,7.2874956E-2,3.5888755E-1,3.76E0,3E-1,-8.7556556E-2,5E-1,2.6207805E-2,3.1655282E-1,-7.489327E-2,-2.0459339E-2,-6.996858E-2,7.508471E-2,-4.942508E-2,1.8582071E-1,-1.5534982E-2,6.899469E-2,2.0996873E-1,-7.489327E-2,-7.994017E-2,1.2758838E-1,1.05850875E-1,-5.2319348E-2,-6.282451E-2,1.3375525E-1,2.1567436E-1,-6.712648E-2],"split_indices":[218,287,514,1319,1,182,870,132,1576,126,6,1211,489,1223,374,920,0,958,1647,0,0,0,0,1677,99,0,30,1316,1409,1429,2,683,239,1158,226,813,0,0,0,0,0,0,0,0,0,831,1193,0,106,0,0,0,0,0,0,0,0,0,0,0,0,0,0,0,0,0,0,0,0],"split_type":[0,0,0,0,0,0,0,0,0,0,0,0,0,0,0,0,0,0,0,0,0,0,0,0,0,0,0,0,0,0,0,0,0,0,0,0,0,0,0,0,0,0,0,0,0,0,0,0,0,0,0,0,0,0,0,0,0,0,0,0,0,0,0,0,0,0,0,0,0],"sum_hessian":[2.9158624E2,2.1158778E2,7.999847E1,2.0489403E2,6.693749E0,1.6816004E1,6.318246E1,8.473307E1,1.2016096E2,3.4285057E0,3.2652435E0,9.795731E0,7.0202737E0,5.69785E1,6.203963E0,8.261066E1,2.1224082E0,1.0416127E2,1.5999693E1,1.1428353E0,2.2856705E0,2.1224082E0,1.1428353E0,3.5917678E0,6.203963E0,2.2856705E0,4.734603E0,4.8325603E1,8.652895E0,3.5917678E0,2.6121948E0,7.5427124E1,7.1835356E0,9.7957306E1,6.203963E0,5.387652E0,1.0612041E1,1.3060974E0,2.2856705E0,5.061127E0,1.1428353E0,1.1428353E0,1.1428353E0,1.1428353E0,3.5917678E0,1.6979265E1,3.1346336E1,2.2856705E0,6.3672247E0,1.1428353E0,2.4489326E0,1.4693595E0,1.1428353E0,7.2814926E1,2.6121948E0,4.571341E0,2.6121948E0,7.2651665E1,2.5305637E1,4.734603E0,1.4693595E0,3.918292E0,1.4693595E0,9.469206E0,7.51006E0,2.9550453E1,1.7958839E0,5.2243896E0,1.1428353E0],"tree_param":{"num_deleted":"0","num_feature":"1785","num_nodes":"69","size_leaf_vector":"1"}},{"base_weights":[3.0921474E-3,2.6895836E-1,-1.645431E-1,1.1217111E-2,7.5787395E-1,-2.3307303E-1,9.729867E-1,-2.1679577E-1,6.935567E-1,-9.839827E-2,1.3280668E0,8.712566E-2,-4.0891537E-1,1.8050557E0,-2.2776681E-1,8.522755E-1,-4.2416713E-1,1.1922415E-1,2.140689E0,1.1435711E0,-5.9490573E-1,1.72902E0,-4.2996553E-1,-2.4794132E-1,7.747675E-1,-6.172936E-1,7.7752784E-2,2.498316E0,-6.7625426E-2,9.0255566E-2,-9.1075554E-2,-8.947426E-2,1.575733E0,-5.375361E-1,1.4492551E0,-8.328868E-1,1.0330741E0,3.1120735E-1,-2.950926E-3,2.1412504E0,-7.5639166E-2,-1.0079484E0,4.2945376E-1,2.0734417E0,-3.5392082E-1,8.489793E-2,-9.453463E-2,-4.282856E-1,1.1101929E0,-7.823639E-1,1.1843115E0,-6.776505E-1,9.4024086E-1,3.872333E-1,-9.748038E-1,2.9432783E-1,3.5226945E-2,2.4384518E-1,-2.371379E-2,-6.9261506E-2,6.243173E-2,-1.481568E-2,2.3261988E-1,2.8797565E-2,-1.0644843E-1,2.283213E-1,-7.0539884E-2,3.0718407E-2,2.781715E-1,-1.3721883E-2,-1.09776996E-1,1.4399587E-1,-7.734697E-2,2.5387767E-1,7.1546234E-2,3.6153995E-2,-7.690006E-2,-6.660317E-2,5.8748927E-2,1.9948639E-1,-7.286876E-2,-1.6903251E-2,-9.165802E-2,1.9290511E-1,4.745873E-5,-8.661181E-2,-1.579631E-2,2.0471542E-1,-6.5460026E-2,-1.4700396E-3,1.5853441E-1,-1.3675821E-2,-1.0755507E-1],"categories":[],"categories_nodes":[],"categories_segments":[],"categories_sizes":[],"default_left":[0,0,0,0,0,0,0,0,0,0,0,0,0,0,0,0,0,0,0,0,0,0,0,0,0,0,0,0,0,0,0,0,0,0,0,0,0,0,0,0,0,0,0,0,0,0,0,0,0,0,0,0,0,0,0,0,0,0,0,0,0,0,0,0,0,0,0,0,0,0,0,0,0,0,0,0,0,0,0,0,0,0,0,0,0,0,0,0,0,0,0,0,0],"id":1,"left_children":[1,3,5,7,9,11,13,15,17,19,21,23,25,27,29,31,33,35,37,39,41,43,45,47,49,51,53,55,-1,-1,-1,-1,57,59,61,63,65,-1,-1,67,-1,69,71,73,75,-1,-1,77,79,81,83,85,87,89,91,-1,-1,-1,-1,-1,-1,-1,-1,-1,-1,-1,-1,-1,-1,-1,-1,-1,-1,-1,-1,-1,-1,-1,-1,-1,-1,-1,-1,-1,-1,-1,-1,-1,-1,-1,-1,-1,-1],"loss_changes":[1.3038945E1,1.4247235E1,1.4214829E1,1.1833376E1,1.9189722E1,9.610134E0,1.0791037E1,1.3008304E1,1.5574777E1,1.0876415E1,1.7309338E1,1.4271107E1,1.1197489E1,1.2438536E1,4.790394E0,1.3543274E1,1.1068368E1,1.3645363E1,1.1375174E1,1.1219669E1,5.709074E0,1.4605724E1,4.207314E0,1.0724173E1,1.3848017E1,7.8845863E0,1.1403884E1,3.830513E0,0E0,0E0,0E0,0E0,1.1762255E1,8.794704E0,4.5961194E0,2.3183398E0,1.8875383E1,0E0,0E0,3.3528728E0,0E0,5.677757E-1,6.3219476E0,8.76075E0,1.3464797E0,0E0,0E0,9.485977E0,9.885895E0,2.4197888E-1,1.4493879E1,7.1893044E0,7.1567264E0,1.2964842E1,5.262952E-1,0E0,0E0,0E0,0E0,0E0,0E0,0E0,0E0,0E0,0E0,0E0,0E0,0E0,0E0,0E0,0E0,0E0,0E0,0E0,0E0,0E0,0E0,0E0,0E0,0E0,0E0,0E0,0E0,0E0,0E0,0E0,0E0,0E0,0E0,0E0,0E0,0E0,0E0],"parents":[2147483647,0,0,1,1,2,2,3,3,4,4,5,5,6,6,7,7,8,8,9,9,10,10,11,11,12,12,13,13,14,14,15,15,16,16,17,17,18,18,19,19,20,20,21,21,22,22,23,23,24,24,25,25,26,26,27,27,32,32,33,33,34,34,35,35,36,36,39,39,41,41,42,42,43,43,44,44,47,47,48,48,49,49,50,50,51,51,52,52,53,53,54,54],"right_children":[2,4,6,8,10,12,14,16,18,20,22,24,26,28,30,32,34,36,38,40,42,44,46,48,50,52,54,56,-1,-1,-1,-1,58,60,62,64,66,-1,-1,68,-1,70,72,74,76,-1,-1,78,80,82,84,86,88,90,92,-1,-1,-1,-1,-1,-1,-1,-1,-1,-1,-1,-1,-1,-1,-1,-1,-1,-1,-1,-1,-1,-1,-1,-1,-1,-1,-1,-1,-1,-1,-1,-1,-1,-1,-1,-1,-1,-1],"split_conditions":[2E-1,6.666667E-1,3E-1,2E-1,1.6666667E-1,4E-2,1E-1,2E-2,1.2E-1,2E-2,4E-1,1.2E-1,1.2E-1,5E-1,4.85E-1,2E-1,3.4E-1,2E-1,2E-1,8E-2,1.2E-1,4E-1,6.5625E-1,2.2E-1,2E-2,7.2E-1,9.0625E-1,4E-1,-6.7625426E-2,9.0255566E-2,-9.1075554E-2,-8.947426E-2,2.6666668E-1,9.6875E-1,4E-1,3.3333334E-1,8E-2,3.1120735E-1,-2.950926E-3,4E-2,-7.5639166E-2,5.3125E-1,2E-1,2.6666668E-1,1.6666667E-1,8.489793E-2,-9.453463E-2,4E-1,1.4E-1,1.3333334E-1,1E-1,1.4E-1,3.3333334E-1,1.4E-1,2E-2,2.9432783E-1,3.5226945E-2,2.4384518E-1,-2.371379E-2,-6.9261506E-2,6.243173E-2,-1.481568E-2,2.3261988E-1,2.8797565E-2,-1.0644843E-1,2.283213E-1,-7.0539884E-2,3.0718407E-2,2.781715E-1,-1.3721883E-2,-1.09776996E-1,1.4399587E-1,-7.734697E-2,2.5387767E-1,7.1546234E-2,3.6153995E-2,-7.690006E-2,-6.660317E-2,5.8748927E-2,1.9948639E-1,-7.286876E-2,-1.6903251E-2,-9.165802E-2,1.9290511E-1,4.745873E-5,-8.661181E-2,-1.579631E-2,2.0471542E-1,-6.5460026E-2,-1.4700396E-3,1.5853441E-1,-1.3675821E-2,-1.0755507E-1],"split_indices":[1228,221,597,752,420,969,1316,848,1439,257,684,257,28,1174,575,637,730,1111,158,617,1679,1628,1416,1216,1075,932,1416,671,0,0,0,0,1249,1178,918,1057,1210,0,0,1682,0,1178,1463,1487,37,0,0,1620,372,184,1676,361,1060,1319,1559,0,0,0,0,0,0,0,0,0,0,0,0,0,0,0,0,0,0,0,0,0,0,0,0,0,0,0,0,0,0,0,0,0,0,0,0,0,0],"split_type":[0,0,0,0,0,0,0,0,0,0,0,0,0,0,0,0,0,0,0,0,0,0,0,0,0,0,0,0,0,0,0,0,0,0,0,0,0,0,0,0,0,0,0,0,0,0,0,0,0,0,0,0,0,0,0,0,0,0,0,0,0,0,0,0,0,0,0,0,0,0,0,0,0,0,0,0,0,0,0,0,0,0,0,0,0,0,0,0,0,0,0,0,0],"sum_hessian":[2.9056635E2,1.1212843E2,1.7843791E2,7.409223E1,3.8036198E1,1.6904875E2,9.3891535E0,5.604599E1,1.804624E1,1.5534739E1,2.2501461E1,6.01052E1,1.0894356E2,5.2487397E0,4.1404133E0,8.600017E0,4.7445972E1,1.3693858E1,4.3523817E0,4.0645065E0,1.1470232E1,1.833607E1,4.1653914E0,4.0843056E1,1.9262148E1,7.609382E1,3.2849735E1,4.097167E0,1.1515731E0,1.4384121E0,2.7020013E0,2.4491081E0,6.150909E0,4.5411026E1,2.0349474E0,6.7499247E0,6.943934E0,2.7068064E0,1.6455754E0,2.581797E0,1.4827095E0,8.185637E0,3.284595E0,1.5738253E1,2.597817E0,1.010499E0,3.1548924E0,3.6659725E1,4.18333E0,3.8216157E0,1.5440532E1,7.379891E1,2.2949026E0,2.5874134E1,6.975603E0,3.0858555E0,1.0113113E0,3.9337955E0,2.2171135E0,4.0419838E1,4.9911866E0,1.0157479E0,1.0191996E0,1.1141822E0,5.635742E0,3.8570087E0,3.086925E0,1.0511882E0,1.5306088E0,1.0018072E0,7.18383E0,1.6779766E0,1.6066184E0,1.1074025E1,4.6642275E0,1.0011503E0,1.5966667E0,2.9985756E1,6.673971E0,2.7672179E0,1.4161121E0,1.0917989E0,2.7298167E0,9.091606E0,6.3489246E0,5.3668957E1,2.012996E1,1.1872627E0,1.1076399E0,2.011412E1,5.760012E0,1.0015798E0,5.974023E0],"tree_param":{"num_deleted":"0","num_feature":"1785","num_nodes":"93","size_leaf_vector":"1"}},{"base_weights":[5.0533093E-3,-1.5462352E-1,2.4040382E-1,-3.5514498E-1,1.7407714E-1,1.4335135E-1,1.792731E0,-4.208448E-1,9.5786417E-1,9.7792524E-1,-8.3348304E-2,-1.9620126E-1,4.5946223E-1,-6.839991E-2,2.4608145E0,-4.981817E-1,4.689747E-1,-6.775413E-2,1.5519E0,3.227277E-1,2.3622468E0,3.1782526E-1,-4.627438E-1,-5.679818E-1,3.9339653E-1,6.1899585E-1,-7.8890663E-1,6.346616E-2,2.8181753E-1,3.932615E-1,-5.999056E-1,1.2696611E0,-5.39427E-1,-2.9506642E-2,2.462508E-1,-2.4999426E-1,1.5608793E0,3.151822E-1,-1.9880718E-2,-1.4200607E-1,1.1426201E0,-7.082557E-1,6.396604E-1,-7.8015065E-1,4.199485E-1,9.160754E-1,-3.8522226E-1,1.1368649E-1,1.1401925E0,-1.0395157E-1,3.6071435E-2,-9.545149E-2,1.1499429E-1,-6.3746504E-2,1.1477726E-1,1.9022875E-1,-6.288981E-2,-8.901141E-2,3.602004E-2,1.001899E-1,-6.758906E-2,-2.6870409E-2,2.532479E-1,1.6031799E-1,-6.61303E-2,-8.254938E-2,1.803967E-1,-1.0174139E-1,4.845729E-2,-5.7761442E-2,1.7764771E-1,-9.792539E-2,2.1915665E-2,1.681456E-1,-5.3984333E-2,2.2029701E-1,3.157128E-2,-9.192945E-2,7.0218705E-2,-4.5285754E-2,1.003351E-1,-6.355184E-2,1.3675068E-1],"categories":[],"categories_nodes":[],"categories_segments":[],"categories_sizes":[],"default_left":[0,0,0,0,0,0,0,0,0,0,0,0,0,0,0,0,0,0,0,0,0,0,0,0,0,0,0,0,0,0,0,0,0,0,0,0,0,0,0,0,0,0,0,0,0,0,0,0,0,0,0,0,0,0,0,0,0,0,0,0,0,0,0,0,0,0,0,0,0,0,0,0,0,0,0,0,0,0,0,0,0,0,0],"id":2,"left_children":[1,3,5,7,9,11,13,15,17,19,21,23,25,-1,27,29,31,-1,33,35,37,39,41,43,45,47,49,-1,-1,51,53,55,57,-1,-1,59,61,-1,-1,63,65,67,69,71,73,75,77,79,81,-1,-1,-1,-1,-1,-1,-1,-1,-1,-1,-1,-1,-1,-1,-1,-1,-1,-1,-1,-1,-1,-1,-1,-1,-1,-1,-1,-1,-1,-1,-1,-1,-1,-1],"loss_changes":[1.0943002E1,1.1497898E1,1.7474817E1,9.727789E0,1.3824289E1,1.2096553E1,1.2998697E1,7.3655586E0,6.3521824E0,1.3919954E1,7.9436445E0,1.2198406E1,1.2084785E1,0E0,1.868084E0,8.926384E0,7.7919903E0,0E0,7.969286E0,9.002879E0,1.0822422E1,9.829983E0,7.68872E0,7.4360476E0,9.19106E0,1.3615465E1,2.402545E0,0E0,0E0,1.1724199E1,6.40415E0,7.4475517E0,1.7711203E0,0E0,0E0,5.5644326E0,7.7542315E0,0E0,0E0,1.6698502E1,1.3509345E1,8.731118E0,8.491603E0,5.8388233E0,8.954154E0,9.572597E0,6.120218E0,1.4370606E1,1.1194477E1,0E0,0E0,0E0,0E0,0E0,0E0,0E0,0E0,0E0,0E0,0E0,0E0,0E0,0E0,0E0,0E0,0E0,0E0,0E0,0E0,0E0,0E0,0E0,0E0,0E0,0E0,0E0,0E0,0E0,0E0,0E0,0E0,0E0,0E0],"parents":[2147483647,0,0,1,1,2,2,3,3,4,4,5,5,6,6,7,7,8,8,9,9,10,10,11,11,12,12,14,14,15,15,16,16,18,18,19,19,20,20,21,21,22,22,23,23,24,24,25,25,26,26,29,29,30,30,31,31,32,32,35,35,36,36,39,39,40,40,41,41,42,42,43,43,44,44,45,45,46,46,47,47,48,48],"right_children":[2,4,6,8,10,12,14,16,18,20,22,24,26,-1,28,30,32,-1,34,36,38,40,42,44,46,48,50,-1,-1,52,54,56,58,-1,-1,60,62,-1,-1,64,66,68,70,72,74,76,78,80,82,-1,-1,-1,-1,-1,-1,-1,-1,-1,-1,-1,-1,-1,-1,-1,-1,-1,-1,-1,-1,-1,-1,-1,-1,-1,-1,-1,-1,-1,-1,-1,-1,-1,-1],"split_conditions":[5.35E-1,2E-1,3.4E-1,3.3333334E-1,2E-2,6E-2,2E-2,2.4E-1,2E-2,1.2E-1,8E-2,1E-1,6E0,-6.839991E-2,3.3333334E-1,1E-1,1E-1,-6.775413E-2,4E-2,1.2E-1,2.6666668E-1,8E-2,2E-1,4E-1,1E-1,2E-1,6.58E0,6.346616E-2,2.8181753E-1,4E-2,8.333333E-1,4E-1,2.6666668E-1,-2.9506642E-2,2.462508E-1,4E-2,6E-2,3.151822E-1,-1.9880718E-2,2E-2,4E-2,2.4E-1,2E-1,2.2E-1,3.3333334E-1,2E-2,1.4E-1,8.4375E-1,6E-1,-1.0395157E-1,3.6071435E-2,-9.545149E-2,1.1499429E-1,-6.3746504E-2,1.1477726E-1,1.9022875E-1,-6.288981E-2,-8.901141E-2,3.602004E-2,1.001899E-1,-6.758906E-2,-2.6870409E-2,2.532479E-1,1.6031799E-1,-6.61303E-2,-8.254938E-2,1.803967E-1,-1.0174139E-1,4.845729E-2,-5.7761442E-2,1.7764771E-1,-9.792539E-2,2.1915665E-2,1.681456E-1,-5.3984333E-2,2.2029701E-1,3.157128E-2,-9.192945E-2,7.0218705E-2,-4.5285754E-2,1.003351E-1,-6.355184E-2,1.3675068E-1],"split_indices":[218,1701,121,774,125,489,846,150,1191,735,1341,1196,354,0,936,772,1458,0,746,135,867,483,971,1377,1694,1343,1067,0,0,1327,1533,568,642,0,0,1567,1207,0,0,1459,1672,258,988,1557,1536,15,498,1535,338,0,0,0,0,0,0,0,0,0,0,0,0,0,0,0,0,0,0,0,0,0,0,0,0,0,0,0,0,0,0,0,0,0,0],"split_type":[0,0,0,0,0,0,0,0,0,0,0,0,0,0,0,0,0,0,0,0,0,0,0,0,0,0,0,0,0,0,0,0,0,0,0,0,0,0,0,0,0,0,0,0,0,0,0,0,0,0,0,0,0,0,0,0,0,0,0,0,0,0,0,0,0,0,0,0,0,0,0,0,0,0,0,0,0,0,0,0,0,0,0],"sum_hessian":[2.8920285E2,1.7250644E2,1.16696396E2,1.0709405E2,6.541239E1,1.1085784E2,5.838556E0,1.0263778E2,4.4562674E0,1.518771E1,5.0224686E1,5.363007E1,5.7227768E1,1.2352805E0,4.6032753E0,9.483547E1,7.8023057E0,1.1499192E0,3.306348E0,1.114563E1,4.042081E0,2.449058E1,2.5734104E1,3.291294E1,2.071713E1,5.1190147E1,6.0376196E0,1.2077104E0,3.3955646E0,9.419861E0,8.541561E1,4.2046595E0,3.5976465E0,1.3150429E0,1.9913052E0,8.1663E0,2.9793293E0,2.9132495E0,1.1288313E0,1.6255695E1,8.234884E0,2.133926E1,4.394844E0,2.7267305E1,5.645634E0,1.2290262E1,8.4268675E0,2.6609701E1,2.4580448E1,5.035658E0,1.0019621E0,3.2930098E0,6.1268516E0,8.424045E1,1.1751682E0,3.152304E0,1.0523553E0,2.5961905E0,1.0014559E0,1.7296534E0,6.4366465E0,1.2843182E0,1.6950113E0,3.2491524E0,1.3006543E1,2.008765E0,6.226119E0,1.706373E1,4.275531E0,2.3598633E0,2.0349808E0,2.2753864E1,4.5134416E0,2.1145144E0,3.5311198E0,3.0605292E0,9.229733E0,5.754965E0,2.671903E0,1.6557047E1,1.0052653E1,2.5857291E0,2.1994719E1],"tree_param":{"num_deleted":"0","num_feature":"1785","num_nodes":"83","size_leaf_vector":"1"}},{"base_weights":[7.4065947E-3,2.3707032E-1,-1.4157227E-1,-2.0178385E-1,4.8016474E-1,-2.032624E-1,8.0596524E-1,1.736031E-1,-3.305146E-1,1.7436397E-1,1.0012001E0,-4.4234365E-1,-7.0464825E-3,1.2712183E0,-5.99985E-1,5.6221783E-1,-5.464191E-1,9.8093086E-1,-2.0409209E-1,-4.1479912E-1,1.3538892E0,8.1094176E-1,-5.227052E-1,4.5369843E-1,-2.3515902E-1,-6.718641E-2,1.6603842E0,-7.286784E-2,-1.4575966E-2,-8.555334E-2,1.2218208E0,-6.713803E-1,1.4302622E-1,1.7724538E0,-1.4665245E-1,1.7813255E-1,-3.2144585E-1,-9.523539E-2,5.251789E-2,1.5987765E0,-5.550542E-1,1.5034846E0,-6.844724E-2,-2.6023486E-1,-9.106593E-1,9.6517813E-1,-3.6357585E-1,6.9746727E-1,-4.1224846E-1,-2.1021383E-2,2.0354214E0,1.8007942E-1,-6.728819E-2,-8.324657E-2,1.0709315E-1,2.2490573E-1,-6.915321E-2,-8.316886E-2,1.0496666E-1,5.5309027E-2,-5.9935357E-2,1.8299796E-1,-7.311051E-2,-1.3139178E-2,-6.957324E-2,-2.1931896E-2,2.384715E-1,5.5520173E-2,-4.890021E-2,-1.0068244E-1,8.273874E-2,1.2400714E-1,-8.406677E-2,-9.754134E-2,7.427823E-2,1.6413927E-1,-3.395625E-2,-7.94326E-2,-3.4582484E-4,2.5313258E-1,-1.6959403E-2],"categories":[],"categories_nodes":[],"categories_segments":[],"categories_sizes":[],"default_left":[0,0,0,0,0,0,0,0,0,0,0,0,0,0,0,0,0,0,0,0,0,0,0,0,0,0,0,0,0,0,0,0,0,0,0,0,0,0,0,0,0,0,0,0,0,0,0,0,0,0,0,0,0,0,0,0,0,0,0,0,0,0,0,0,0,0,0,0,0,0,0,0,0,0,0,0,0,0,0,0,0],"id":3,"left_children":[1,3,5,7,9,11,13,-1,15,17,19,21,23,25,27,29,31,33,35,37,39,41,43,45,47,-1,49,-1,-1,-1,51,53,-1,55,57,-1,59,-1,-1,61,63,65,-1,67,69,71,73,75,77,-1,79,-1,-1,-1,-1,-1,-1,-1,-1,-1,-1,-1,-1,-1,-1,-1,-1,-1,-1,-1,-1,-1,-1,-1,-1,-1,-1,-1,-1,-1,-1],"loss_changes":[9.905657E0,1.2247849E1,1.0430224E1,1.0877653E1,1.1551144E1,7.7699304E0,7.9169564E0,0E0,7.934575E0,1.4725716E1,1.4049046E1,7.944681E0,9.778406E0,7.572131E0,9.246516E-2,8.713093E0,8.956615E0,1.3977298E1,8.31184E0,3.608116E0,1.1104584E1,6.094949E0,6.97048E0,1.3231869E1,1.0561726E1,0E0,5.6205177E0,0E0,0E0,0E0,7.8021994E0,9.628075E0,0E0,1.2249857E1,6.8248672E0,0E0,8.159712E0,0E0,0E0,1.1911457E1,1.0093337E-1,6.073617E0,0E0,8.408382E0,5.54018E0,1.0586805E1,9.245324E0,1.0638562E1,8.261159E0,0E0,7.273592E0,0E0,0E0,0E0,0E0,0E0,0E0,0E0,0E0,0E0,0E0,0E0,0E0,0E0,0E0,0E0,0E0,0E0,0E0,0E0,0E0,0E0,0E0,0E0,0E0,0E0,0E0,0E0,0E0,0E0,0E0],"parents":[2147483647,0,0,1,1,2,2,3,3,4,4,5,5,6,6,8,8,9,9,10,10,11,11,12,12,13,13,14,14,15,15,16,16,17,17,18,18,19,19,20,20,21,21,22,22,23,23,24,24,26,26,30,30,31,31,33,33,34,34,36,36,39,39,40,40,41,41,43,43,44,44,45,45,46,46,47,47,48,48,50,50],"right_children":[2,4,6,8,10,12,14,-1,16,18,20,22,24,26,28,30,32,34,36,38,40,42,44,46,48,-1,50,-1,-1,-1,52,54,-1,56,58,-1,60,-1,-1,62,64,66,-1,68,70,72,74,76,78,-1,80,-1,-1,-1,-1,-1,-1,-1,-1,-1,-1,-1,-1,-1,-1,-1,-1,-1,-1,-1,-1,-1,-1,-1,-1,-1,-1,-1,-1,-1,-1],"split_conditions":[2E-1,4E-2,3E-1,5E-1,6.666667E-1,6E-2,1.6E-1,1.736031E-1,2E-2,3.3333334E-1,2E-2,5E-1,3.3333334E-1,2E-2,8E-2,4E-2,4E-1,2E-1,1E-1,8E-2,1.8E-1,4E-1,2E-1,1E-1,2E-2,-6.718641E-2,2E-2,-7.286784E-2,-1.4575966E-2,-8.555334E-2,1.4E-1,5.26E0,1.4302622E-1,1.6E-1,1.4E-1,1.7813255E-1,2E-2,-9.523539E-2,5.251789E-2,6E-1,1E-1,8E-2,-6.844724E-2,2E-2,6E-1,6.666667E-1,8E-2,4E-1,8E-2,-2.1021383E-2,1.2E-1,1.8007942E-1,-6.728819E-2,-8.324657E-2,1.0709315E-1,2.2490573E-1,-6.915321E-2,-8.316886E-2,1.0496666E-1,5.5309027E-2,-5.9935357E-2,1.8299796E-1,-7.311051E-2,-1.3139178E-2,-6.957324E-2,-2.1931896E-2,2.384715E-1,5.5520173E-2,-4.890021E-2,-1.0068244E-1,8.273874E-2,1.2400714E-1,-8.406677E-2,-9.754134E-2,7.427823E-2,1.6413927E-1,-3.395625E-2,-7.94326E-2,-3.4582484E-4,2.5313258E-1,-1.6959403E-2],"split_indices":[1228,1097,597,100,1410,842,857,0,24,1533,1680,1535,584,1691,1334,1193,249,173,1229,715,1329,1619,297,1320,1222,0,248,0,0,0,1095,1780,0,1209,1205,0,1103,0,0,788,982,142,0,1572,336,224,1553,1407,504,0,493,0,0,0,0,0,0,0,0,0,0,0,0,0,0,0,0,0,0,0,0,0,0,0,0,0,0,0,0,0,0],"split_type":[0,0,0,0,0,0,0,0,0,0,0,0,0,0,0,0,0,0,0,0,0,0,0,0,0,0,0,0,0,0,0,0,0,0,0,0,0,0,0,0,0,0,0,0,0,0,0,0,0,0,0,0,0,0,0,0,0,0,0,0,0,0,0,0,0,0,0,0,0,0,0,0,0,0,0,0,0,0,0,0,0],"sum_hessian":[2.875308E2,1.1289781E2,1.74633E2,4.0305294E1,7.259252E1,1.6469583E2,9.9371605E0,1.7329551E0,3.857234E1,4.6585617E1,2.6006907E1,7.3673386E1,9.1022446E1,7.538404E0,2.398757E0,7.1994967E0,3.137284E1,1.4369454E1,3.221616E1,5.1508474E0,2.0856058E1,3.891529E0,6.978186E1,2.981426E1,6.1208183E1,1.1366677E0,6.4017363E0,1.398348E0,1.000409E0,2.191672E0,5.0078244E0,3.0128534E1,1.2443062E0,8.106839E0,6.262615E0,1.0066316E0,3.120953E1,3.2684946E0,1.8823531E0,1.8628765E1,2.2272937E0,2.6560745E0,1.2354544E0,4.261886E1,2.7162998E1,1.8226492E1,1.1587769E1,9.298728E0,5.1909454E1,1.142533E0,5.259203E0,3.8736873E0,1.1341372E0,2.8056755E1,2.0717795E0,6.8659935E0,1.240846E0,4.176094E0,2.086521E0,7.2872853E0,2.3922243E1,1.7142235E1,1.4865295E0,1.0373198E0,1.189974E0,1.1530282E0,1.5030463E0,9.024448E0,3.359441E1,2.6137539E1,1.0254588E0,1.609044E1,2.1360517E0,7.537655E0,4.0501137E0,4.562796E0,4.7359324E0,2.6343899E1,2.5565556E1,4.172768E0,1.0864348E0],"tree_param":{"num_deleted":"0","num_feature":"1785","num_nodes":"81","size_leaf_vector":"1"}},{"base_weights":[7.2967033E-3,-3.5681088E-2,7.6408476E-1,8.310036E-1,-7.1185924E-2,1.3765002E0,-2.0562683E-1,1.9279795E0,-3.7668675E-1,-1.3054846E-1,4.529021E-1,1.72189E0,-6.645024E-2,1.23015456E-1,-8.2471466E-1,-1.5196475E-2,2.3913811E-1,-9.599183E-2,9.004424E-2,-1.5994376E-1,1.1790438E0,1.3568999E0,2.8562346E-2,3.5518736E-1,2.5029006E0,-9.495466E-2,-1.5752098E-2,-1.8917401E-1,1.0203896E0,2.1937409E-1,-2.5020954E-1,1.7885385E0,-3.6617175E-2,-3.519634E-1,1.253096E0,1.2896703E-1,-7.6258145E-2,7.024669E-2,2.8135738E-1,1.985786E-2,-2.7022798E-2,1.8081878E-1,-7.385611E-2,-6.3724354E-2,2.6547113E-2,8.362757E-3,2.1869312E-1,-6.0083896E-2,1.20374165E-1,2.3564139E-1,-4.3675464E-2],"categories":[],"categories_nodes":[],"categories_segments":[],"categories_sizes":[],"default_left":[0,0,0,0,0,0,0,0,0,0,0,0,0,0,0,0,0,0,0,0,0,0,0,0,0,0,0,0,0,0,0,0,0,0,0,0,0,0,0,0,0,0,0,0,0,0,0,0,0,0,0],"id":4,"left_children":[1,3,5,7,9,11,13,15,17,19,21,23,-1,-1,25,-1,-1,-1,-1,27,29,31,33,35,37,-1,-1,39,41,-1,43,45,-1,47,49,-1,-1,-1,-1,-1,-1,-1,-1,-1,-1,-1,-1,-1,-1,-1,-1],"loss_changes":[9.356019E0,8.440072E0,9.4627905E0,1.5030676E1,8.227755E0,7.914587E0,7.106352E0,5.974432E0,5.315564E0,9.297644E0,1.029467E1,8.176069E0,0E0,0E0,2.9911804E-1,0E0,0E0,0E0,0E0,8.208071E0,8.255802E0,7.0390987E0,9.4593725E0,5.4266095E0,9.539223E-1,0E0,0E0,7.2049856E0,9.331486E0,0E0,7.8868294E-1,4.594942E0,0E0,6.742427E0,9.992878E0,0E0,0E0,0E0,0E0,0E0,0E0,0E0,0E0,0E0,0E0,0E0,0E0,0E0,0E0,0E0,0E0],"parents":[2147483647,0,0,1,1,2,2,3,3,4,4,5,5,6,6,7,7,8,8,9,9,10,10,11,11,14,14,19,19,20,20,21,21,22,22,23,23,24,24,27,27,28,28,30,30,31,31,33,33,34,34],"right_children":[2,4,6,8,10,12,14,16,18,20,22,24,-1,-1,26,-1,-1,-1,-1,28,30,32,34,36,38,-1,-1,40,42,-1,44,46,-1,48,50,-1,-1,-1,-1,-1,-1,-1,-1,-1,-1,-1,-1,-1,-1,-1,-1],"split_conditions":[2.8E-1,1E-1,2.8E0,3.3333334E-1,2.4E-1,6.05E-1,2E-2,6E-2,1.6E-1,3.4E-1,4E-2,6.8E-1,-6.645024E-2,1.23015456E-1,1E-1,-1.5196475E-2,2.3913811E-1,-9.599183E-2,9.004424E-2,5.8E0,1.54E0,5E-1,1.4E-1,6E-2,2E-2,-9.495466E-2,-1.5752098E-2,2E-2,1E-1,2.1937409E-1,4.08E0,4E-2,-3.6617175E-2,2.8E-1,5E0,1.2896703E-1,-7.6258145E-2,7.024669E-2,2.8135738E-1,1.985786E-2,-2.7022798E-2,1.8081878E-1,-7.385611E-2,-6.3724354E-2,2.6547113E-2,8.362757E-3,2.1869312E-1,-6.0083896E-2,1.20374165E-1,2.3564139E-1,-4.3675464E-2],"split_indices":[1089,1109,1305,1060,150,1051,1572,372,855,1676,1557,466,0,0,960,0,0,0,0,709,229,1175,124,374,1573,0,0,835,1697,0,1188,1429,0,1220,1537,0,0,0,0,0,0,0,0,0,0,0,0,0,0,0,0],"split_type":[0,0,0,0,0,0,0,0,0,0,0,0,0,0,0,0,0,0,0,0,0,0,0,0,0,0,0,0,0,0,0,0,0,0,0,0,0,0,0,0,0,0,0,0,0,0,0,0,0,0,0],"sum_hessian":[2.858173E2,2.713597E2,1.4457593E1,9.797368E0,2.6156235E2,8.60418E0,5.853413E0,4.821478E0,4.9758897E0,2.3562447E2,2.593787E1,7.4925933E0,1.111587E0,1.4661322E0,4.387281E0,1.0009321E0,3.820546E0,3.5864363E0,1.3894536E0,2.3131032E2,4.3141584E0,7.583848E0,1.8354021E1,3.2536898E0,4.2389035E0,3.339302E0,1.0479786E0,2.2653992E2,4.770397E0,2.2101667E0,2.103992E0,6.0342436E0,1.5496045E0,1.4546308E1,3.8077142E0,1.6883756E0,1.5653142E0,1.1037116E0,3.135192E0,3.891675E1,1.8762317E2,3.2754138E0,1.4949836E0,1.0672534E0,1.0367386E0,1.3721365E0,4.6621075E0,1.3069314E1,1.4769936E0,2.0650043E0,1.7427099E0],"tree_param":{"num_deleted":"0","num_feature":"1785","num_nodes":"51","size_leaf_vector":"1"}},{"base_weights":[9.978721E-3,-1.3273573E-1,2.1512038E-1,-3.1493616E-1,1.5415889E-1,1.3310565E-1,1.414127E0,-3.7530312E-1,7.9141134E-1,8.275629E-1,-7.524656E-2,-9.5871046E-2,5.1469046E-1,-6.3315116E-2,1.8754704E0,-6.382734E-1,-1.0202096E-1,-4.131471E-2,1.3591878E0,-2.708449E-1,1.3545793E0,1.8312773E-1,-5.642264E-1,-1.9314651E-1,1.3559085E0,-3.722311E-1,9.17498E-1,5.9030153E-2,2.1807675E-1,-7.19672E-1,1.2572072E-1,-2.8198668E-1,8.509964E-1,-1.6730797E-2,1.9099618E-1,-9.6347384E-2,9.925478E-2,-2.9185545E-1,1.8002056E0,-7.0238906E-1,5.109732E-1,-8.4213454E-1,8.689169E-1,1.5641633E-1,-5.3738195E-1,-2.4386281E-2,1.9929728E-1,-9.216965E-1,9.26392E-1,1.1934315E0,-3.8450873E-1,4.6952177E-2,-8.277726E-2,-4.2999562E-2,8.2877845E-2,2.2138153E-1,-1.3610584E-2,-6.981858E-2,3.271108E-2,-2.345199E-2,2.140493E-1,4.0923294E-2,-1.0724504E-1,2.9918749E-2,2.2070892E-1,-1.0102867E-1,6.0933203E-2,-2.6783599E-2,1.6789393E-1,9.65859E-2,-2.602611E-2,-7.08707E-2,6.236971E-2,-1.0974526E-1,3.222358E-2,1.5880178E-1,-6.4203285E-2,-2.4200749E-2,1.4152907E-1,9.272718E-2,-9.7821824E-2],"categories":[],"categories_nodes":[],"categories_segments":[],"categories_sizes":[],"default_left":[0,0,0,0,0,0,0,0,0,0,0,0,0,0,0,0,0,0,0,0,0,0,0,0,0,0,0,0,0,0,0,0,0,0,0,0,0,0,0,0,0,0,0,0,0,0,0,0,0,0,0,0,0,0,0,0,0,0,0,0,0,0,0,0,0,0,0,0,0,0,0,0,0,0,0,0,0,0,0,0,0],"id":5,"left_children":[1,3,5,7,9,11,13,15,17,19,21,23,25,-1,27,29,31,-1,33,35,37,39,41,43,45,47,49,-1,-1,51,-1,53,55,-1,-1,-1,-1,57,59,61,63,65,67,69,71,-1,-1,73,75,77,79,-1,-1,-1,-1,-1,-1,-1,-1,-1,-1,-1,-1,-1,-1,-1,-1,-1,-1,-1,-1,-1,-1,-1,-1,-1,-1,-1,-1,-1,-1],"loss_changes":[8.381325E0,8.875855E0,1.1359695E1,7.216737E0,1.0298667E1,9.749488E0,8.190443E0,7.044245E0,4.4479265E0,1.0161948E1,6.4634886E0,1.0179477E1,1.5272051E1,0E0,1.1858578E0,8.653833E0,8.7644415E0,0E0,3.7626052E0,6.486372E0,9.037073E0,1.0140293E1,7.7610693E0,8.109229E0,5.1075716E0,1.0675005E1,1.0887733E1,0E0,0E0,6.6610107E0,0E0,7.3531413E0,1.1256594E1,0E0,0E0,0E0,0E0,1.0663038E0,6.920105E0,4.357053E0,8.3803005E0,4.347479E0,3.5423846E0,1.1673072E1,7.171049E0,0E0,0E0,2.5777245E0,5.783613E0,8.047981E0,5.449485E0,0E0,0E0,0E0,0E0,0E0,0E0,0E0,0E0,0E0,0E0,0E0,0E0,0E0,0E0,0E0,0E0,0E0,0E0,0E0,0E0,0E0,0E0,0E0,0E0,0E0,0E0,0E0,0E0,0E0,0E0],"parents":[2147483647,0,0,1,1,2,2,3,3,4,4,5,5,6,6,7,7,8,8,9,9,10,10,11,11,12,12,14,14,15,15,16,16,18,18,19,19,20,20,21,21,22,22,23,23,24,24,25,25,26,26,29,29,31,31,32,32,37,37,38,38,39,39,40,40,41,41,42,42,43,43,44,44,47,47,48,48,49,49,50,50],"right_children":[2,4,6,8,10,12,14,16,18,20,22,24,26,-1,28,30,32,-1,34,36,38,40,42,44,46,48,50,-1,-1,52,-1,54,56,-1,-1,-1,-1,58,60,62,64,66,68,70,72,-1,-1,74,76,78,80,-1,-1,-1,-1,-1,-1,-1,-1,-1,-1,-1,-1,-1,-1,-1,-1,-1,-1,-1,-1,-1,-1,-1,-1,-1,-1,-1,-1,-1,-1],"split_conditions":[5.35E-1,2E-1,3.4E-1,3.3333334E-1,2E-2,2.3333333E-1,2E-2,8E-2,4E-2,4E-2,6.666667E-1,6E-1,3.3333334E-1,-6.3315116E-2,4E-2,6E-1,6.25E-1,-4.131471E-2,3.3333334E-1,1E-1,2E-2,1.86E0,2.2E-1,6E-2,4.55E-1,1.4E-1,2.6666668E-1,5.9030153E-2,2.1807675E-1,3.6E-1,1.2572072E-1,2.2E-1,2E-2,-1.6730797E-2,1.9099618E-1,-9.6347384E-2,9.925478E-2,8E-2,2E-2,2E-2,6.666667E-1,3.2E-1,4E-2,1.6666667E-1,3E-1,-2.4386281E-2,1.9929728E-1,2.4E-1,4E-1,2E-2,2E-2,4.6952177E-2,-8.277726E-2,-4.2999562E-2,8.2877845E-2,2.2138153E-1,-1.3610584E-2,-6.981858E-2,3.271108E-2,-2.345199E-2,2.140493E-1,4.0923294E-2,-1.0724504E-1,2.9918749E-2,2.2070892E-1,-1.0102867E-1,6.0933203E-2,-2.6783599E-2,1.6789393E-1,9.65859E-2,-2.602611E-2,-7.08707E-2,6.236971E-2,-1.0974526E-1,3.222358E-2,1.5880178E-1,-6.4203285E-2,-2.4200749E-2,1.4152907E-1,9.272718E-2,-9.7821824E-2],"split_indices":[218,1701,121,774,125,1104,846,622,746,259,1291,682,346,0,255,1030,1765,0,1174,1677,1441,1664,1578,1329,575,257,292,0,0,1646,0,1696,973,0,0,0,0,952,1073,1218,1653,864,506,49,639,0,0,1332,1400,134,476,0,0,0,0,0,0,0,0,0,0,0,0,0,0,0,0,0,0,0,0,0,0,0,0,0,0,0,0,0,0],"split_type":[0,0,0,0,0,0,0,0,0,0,0,0,0,0,0,0,0,0,0,0,0,0,0,0,0,0,0,0,0,0,0,0,0,0,0,0,0,0,0,0,0,0,0,0,0,0,0,0,0,0,0,0,0,0,0,0,0,0,0,0,0,0,0,0,0,0,0,0,0,0,0,0,0,0,0,0,0,0,0,0,0],"sum_hessian":[2.843046E2,1.6787148E2,1.16433105E2,1.0260902E2,6.526247E1,1.100186E2,6.414504E0,9.7926506E1,4.682508E0,1.59207535E1,4.9341713E1,6.922668E1,4.0791927E1,1.1111609E0,5.3033433E0,4.922416E1,4.8702347E1,1.5873114E0,3.0951965E0,5.3196387E0,1.0601114E1,3.2692608E1,1.6649105E1,6.5691986E1,3.5346866E0,1.2763821E1,2.8028109E1,1.581105E0,3.7222383E0,4.779212E1,1.4320393E0,4.155862E1,7.1437273E0,1.0052713E0,2.089925E0,3.589281E0,1.7303576E0,2.3316264E0,8.269488E0,8.524725E0,2.4167881E1,1.4290373E1,2.3587327E0,3.2864494E1,3.2827496E1,1.1824847E0,2.3522017E0,9.172894E0,3.5909274E0,2.3195656E1,4.832452E0,3.7038133E0,4.4088306E1,3.7212902E1,4.345718E0,2.4787538E0,4.6649737E0,1.3303258E0,1.0013006E0,1.2293701E0,7.040118E0,2.102676E0,6.4220495E0,2.2530947E1,1.636934E0,1.3079114E1,1.2112586E0,1.2599363E0,1.0987966E0,1.0720573E1,2.214392E1,2.894594E1,3.8815546E0,8.140475E0,1.0324181E0,2.5167618E0,1.0741655E0,3.0929973E0,2.010266E1,1.3306342E0,3.5018175E0],"tree_param":{"num_deleted":"0","num_feature":"1785","num_nodes":"81","size_leaf_vector":"1"}},{"base_weights":[1.2048713E-2,-5.4376706E-2,4.101267E-1,5.9165973E-3,-6.732934E-1,-6.0604864E-1,6.5167207E-1,1.2574048E-1,-3.6294168E-1,-9.3806106E-1,5.131174E-1,-1.03400104E-1,6.2129386E-2,1.0147437E0,-2.5562897E-1,3.5903457E-1,-1.240911E-1,1.1184738E-1,-7.1147937E-1,-1.1373098E-1,-1.4727344E-1,1.6095732E-1,-7.841023E-2,1.7989926E-1,1.5266176E0,1.08192734E-1,-6.3469857E-1,-1.14763245E-1,5.871843E-1,-7.235067E-1,6.901684E-2,8.519278E-1,-3.259208E-1,-8.3250386E-1,9.4773635E-2,-8.9165956E-2,1.296834E-1,-4.920773E-1,1.114107E0,1.8534197E0,-4.5254663E-2,-9.303238E-1,6.973558E-2,6.1311126E-2,-5.5614587E-2,9.234533E-2,4.010924E-3,4.6029054E-2,-9.268729E-2,7.259687E-2,-2.3853078E-2,-7.860614E-2,1.3480894E-1,-8.536061E-2,7.312848E-2,-9.700347E-2,6.475044E-2,-9.859215E-2,7.076896E-2,-2.567917E-2,1.7207943E-1,2.1626861E-1,-3.2324594E-2,-1.0288707E-1,-1.586087E-2],"categories":[],"categories_nodes":[],"categories_segments":[],"categories_sizes":[],"default_left":[0,0,0,0,0,0,0,0,0,0,0,0,0,0,0,0,0,0,0,0,0,0,0,0,0,0,0,0,0,0,0,0,0,0,0,0,0,0,0,0,0,0,0,0,0,0,0,0,0,0,0,0,0,0,0,0,0,0,0,0,0,0,0,0,0],"id":6,"left_children":[1,3,5,7,9,11,13,15,17,19,21,-1,-1,23,25,27,29,31,33,-1,35,-1,-1,37,39,-1,41,43,45,47,49,51,53,55,-1,-1,-1,57,59,61,-1,63,-1,-1,-1,-1,-1,-1,-1,-1,-1,-1,-1,-1,-1,-1,-1,-1,-1,-1,-1,-1,-1,-1,-1],"loss_changes":[7.504541E0,9.0861225E0,1.0355801E1,9.891521E0,7.270664E0,5.008163E0,1.1218966E1,9.888062E0,9.161133E0,2.6723928E0,7.790366E0,0E0,0E0,9.965385E0,5.912751E0,9.535744E0,9.575926E0,8.084432E0,7.171253E0,0E0,6.290527E0,0E0,0E0,6.977484E0,1.0360241E1,0E0,4.0595465E0,9.756091E0,1.08694E1,5.275136E0,1.2933652E1,8.562988E0,9.474144E0,6.766039E0,0E0,0E0,0E0,4.6380816E0,4.2603173E0,9.336521E0,0E0,4.0846252E-1,0E0,0E0,0E0,0E0,0E0,0E0,0E0,0E0,0E0,0E0,0E0,0E0,0E0,0E0,0E0,0E0,0E0,0E0,0E0,0E0,0E0,0E0,0E0],"parents":[2147483647,0,0,1,1,2,2,3,3,4,4,5,5,6,6,7,7,8,8,9,9,10,10,13,13,14,14,15,15,16,16,17,17,18,18,20,20,23,23,24,24,26,26,27,27,28,28,29,29,30,30,31,31,32,32,33,33,37,37,38,38,39,39,41,41],"right_children":[2,4,6,8,10,12,14,16,18,20,22,-1,-1,24,26,28,30,32,34,-1,36,-1,-1,38,40,-1,42,44,46,48,50,52,54,56,-1,-1,-1,58,60,62,-1,64,-1,-1,-1,-1,-1,-1,-1,-1,-1,-1,-1,-1,-1,-1,-1,-1,-1,-1,-1,-1,-1,-1,-1],"split_conditions":[9.375E-1,2.6E-1,2E-2,4E-1,2.3333333E-1,8.333333E-1,5.6E-1,2E-1,6E-2,4E-1,4E-2,-1.03400104E-1,6.2129386E-2,2E-1,2E-2,4E-2,2E-2,4E-2,3.8E-1,-1.1373098E-1,1E-1,1.6095732E-1,-7.841023E-2,8E-2,2.3333333E-1,1.08192734E-1,3E-1,3.3333334E-1,8E-2,2E-2,1.6666667E-1,2E-2,1.2E-1,2.6E-1,9.4773635E-2,-8.9165956E-2,1.296834E-1,2E-1,2E-1,5.86E0,-4.5254663E-2,3E-1,6.973558E-2,6.1311126E-2,-5.5614587E-2,9.234533E-2,4.010924E-3,4.6029054E-2,-9.268729E-2,7.259687E-2,-2.3853078E-2,-7.860614E-2,1.3480894E-1,-8.536061E-2,7.312848E-2,-9.700347E-2,6.475044E-2,-9.859215E-2,7.076896E-2,-2.567917E-2,1.7207943E-1,2.1626861E-1,-3.2324594E-2,-1.0288707E-1,-1.586087E-2],"split_indices":[1773,1668,1088,1049,1719,1767,99,1130,30,193,486,0,0,882,969,1553,978,1,1327,0,1450,0,0,1696,1370,0,642,1293,140,975,633,1452,1092,717,0,0,0,150,1608,347,0,409,0,0,0,0,0,0,0,0,0,0,0,0,0,0,0,0,0,0,0,0,0,0,0],"split_type":[0,0,0,0,0,0,0,0,0,0,0,0,0,0,0,0,0,0,0,0,0,0,0,0,0,0,0,0,0,0,0,0,0,0,0,0,0,0,0,0,0,0,0,0,0,0,0,0,0,0,0,0,0,0,0,0,0,0,0,0,0,0,0,0,0],"sum_hessian":[2.8196268E2,2.4238109E2,3.9581604E1,2.2176749E2,2.0613588E1,7.311838E0,3.2269764E1,1.6788805E2,5.387945E1,1.7023773E1,3.5898147E0,5.5382705E0,1.7735674E0,2.2962513E1,9.307252E0,8.6591415E1,8.129663E1,2.3096188E1,3.0783262E1,1.3247663E1,3.7761114E0,1.8149595E0,1.774855E0,9.241492E0,1.3721021E1,1.645809E0,7.6614423E0,2.8305815E1,5.82856E1,1.9139654E1,6.2156975E1,8.232481E0,1.4863707E1,2.9154934E1,1.628329E0,2.7441518E0,1.0319595E0,5.6504126E0,3.5910795E0,1.1831005E1,1.8900156E0,6.5167546E0,1.144688E0,1.0538286E1,1.7767529E1,3.5671516E1,2.2614082E1,2.6207683E0,1.6518887E1,1.9386023E1,4.277095E1,1.778104E0,6.454377E0,1.0043337E1,4.8203697E0,2.6991322E1,2.1636128E0,4.1290607E0,1.5213516E0,1.2786084E0,2.3124712E0,1.0364773E1,1.4662325E0,5.4833164E0,1.0334381E0],"tree_param":{"num_deleted":"0","num_feature":"1785","num_nodes":"65","size_leaf_vector":"1"}},{"base_weights":[1.0571735E-2,-8.8282384E-2,2.5120834E-1,-3.7072387E-2,-9.3986815E-1,4.4513783E-1,-2.2956197E-1,4.958146E-2,-5.4582834E-1,-1.0935074E-1,2.5515068E-2,-1.1172327E-1,6.9600403E-1,-4.2278445E-1,1.1410676E0,1.7591272E-1,-3.5929412E-1,-7.656899E-1,8.0064297E-1,-4.7385958E-1,1.3056496E0,-9.7731546E-2,9.558013E-1,-6.0396063E-1,9.033701E-1,1.5914512E-1,1.7666575E-2,6.674179E-1,2.3522181E-2,-9.6839654E-1,8.053089E-2,-8.9851534E-1,6.994092E-2,-4.509748E-2,1.857856E-1,9.4454706E-1,-8.487405E-1,-2.4475684E-2,1.9470175E-1,-8.830671E-1,7.90297E-1,-5.0402117E-1,1.140284E0,8.164587E-1,-8.462279E-1,1.6555158E-2,1.1882337E-1,9.0468064E-2,-4.9820732E-2,-4.2078556E-3,1.3504687E-1,6.8901437E-3,-1.1328434E-1,1.3445665E-1,-2.7290536E-2,-1.0072994E-1,2.4195746E-2,1.6353239E-1,-3.1508334E-2,6.2120277E-2,-1.05011545E-1,-9.931494E-2,-1.5996635E-2,-6.823588E-2,1.3747996E-1,2.8490243E-2,-8.45645E-2,-5.9433516E-2,1.3186E-1,-6.889158E-2,1.9824515E-1,6.2048595E-2,-9.876611E-2],"categories":[],"categories_nodes":[],"categories_segments":[],"categories_sizes":[],"default_left":[0,0,0,0,0,0,0,0,0,0,0,0,0,0,0,0,0,0,0,0,0,0,0,0,0,0,0,0,0,0,0,0,0,0,0,0,0,0,0,0,0,0,0,0,0,0,0,0,0,0,0,0,0,0,0,0,0,0,0,0,0,0,0,0,0,0,0,0,0,0,0,0,0],"id":7,"left_children":[1,3,5,7,9,11,13,15,17,-1,-1,19,21,23,25,27,29,31,33,35,37,39,41,43,45,-1,-1,47,49,51,53,55,-1,-1,-1,57,59,-1,-1,61,63,65,67,69,71,-1,-1,-1,-1,-1,-1,-1,-1,-1,-1,-1,-1,-1,-1,-1,-1,-1,-1,-1,-1,-1,-1,-1,-1,-1,-1,-1,-1],"loss_changes":[6.7148633E0,8.694256E0,7.764655E0,8.396774E0,2.3560972E0,8.306233E0,6.9131746E0,8.489875E0,8.817285E0,0E0,0E0,1.0450943E1,8.495739E0,5.834238E0,1.1393971E0,9.369482E0,1.0482088E1,5.364009E0,6.6321373E0,9.3046875E0,4.6176696E0,8.338004E0,8.867176E0,7.561309E0,4.4356823E-1,0E0,0E0,8.642004E0,8.472955E0,2.8689308E0,1.0854504E1,3.0661507E0,0E0,0E0,0E0,3.8358092E0,4.552243E0,0E0,0E0,3.4149885E-1,5.817935E0,1.3589005E0,9.334003E0,7.365254E0,4.252822E0,0E0,0E0,0E0,0E0,0E0,0E0,0E0,0E0,0E0,0E0,0E0,0E0,0E0,0E0,0E0,0E0,0E0,0E0,0E0,0E0,0E0,0E0,0E0,0E0,0E0,0E0,0E0,0E0],"parents":[2147483647,0,0,1,1,2,2,3,3,4,4,5,5,6,6,7,7,8,8,11,11,12,12,13,13,14,14,15,15,16,16,17,17,18,18,19,19,20,20,21,21,22,22,23,23,24,24,27,27,28,28,29,29,30,30,31,31,35,35,36,36,39,39,40,40,41,41,42,42,43,43,44,44],"right_children":[2,4,6,8,10,12,14,16,18,-1,-1,20,22,24,26,28,30,32,34,36,38,40,42,44,46,-1,-1,48,50,52,54,56,-1,-1,-1,58,60,-1,-1,62,64,66,68,70,72,-1,-1,-1,-1,-1,-1,-1,-1,-1,-1,-1,-1,-1,-1,-1,-1,-1,-1,-1,-1,-1,-1,-1,-1,-1,-1,-1,-1],"split_conditions":[5.7E-1,6E-1,5E-1,2E-1,1.6E-1,4E-2,2.2E-1,5.9E-1,6.35E-1,-1.0935074E-1,2.5515068E-2,4E-1,1.3333334E-1,3E-1,6E-2,2E-2,6E-2,2.4E-1,6E-2,1.3333334E-1,4E-2,1E-1,6E-1,3.3333334E-1,2E-1,1.5914512E-1,1.7666575E-2,4E-1,6E-1,1.3333334E-1,2E-2,8.333333E-1,6.994092E-2,-4.509748E-2,1.857856E-1,8E-2,6.25E-1,-2.4475684E-2,1.9470175E-1,5.14E0,4.85E-1,1.6666667E-1,1.3333334E-1,6.666667E-1,1E-1,1.6555158E-2,1.1882337E-1,9.0468064E-2,-4.9820732E-2,-4.2078556E-3,1.3504687E-1,6.8901437E-3,-1.1328434E-1,1.3445665E-1,-2.7290536E-2,-1.0072994E-1,2.4195746E-2,1.6353239E-1,-3.1508334E-2,6.2120277E-2,-1.05011545E-1,-9.931494E-2,-1.5996635E-2,-6.823588E-2,1.3747996E-1,2.8490243E-2,-8.45645E-2,-5.9433516E-2,1.3186E-1,-6.889158E-2,1.9824515E-1,6.2048595E-2,-9.876611E-2],"split_indices":[218,210,1057,1695,247,1688,744,694,1765,0,0,552,291,1610,1098,973,1432,24,1195,1596,1076,126,695,1410,169,0,0,1042,911,1716,1549,1530,0,0,0,1694,1059,0,0,1656,456,540,1243,815,639,0,0,0,0,0,0,0,0,0,0,0,0,0,0,0,0,0,0,0,0,0,0,0,0,0,0,0,0],"split_type":[0,0,0,0,0,0,0,0,0,0,0,0,0,0,0,0,0,0,0,0,0,0,0,0,0,0,0,0,0,0,0,0,0,0,0,0,0,0,0,0,0,0,0,0,0,0,0,0,0,0,0,0,0,0,0,0,0,0,0,0,0,0,0,0,0,0,0,0,0,0,0,0,0],"sum_hessian":[2.803481E2,1.9916412E2,8.118399E1,1.8885112E2,1.0313004E1,5.7902023E1,2.3281963E1,1.6213759E2,2.6713537E1,9.213413E0,1.09959E0,1.815564E1,3.9746387E1,2.1011446E1,2.2705176E0,1.2430159E2,3.783599E1,2.3334627E1,3.3789105E0,1.4991114E1,3.164526E0,9.95514E0,2.9791245E1,1.896506E1,2.0463855E0,1.1045082E0,1.1660093E0,2.8618546E1,9.5683044E1,1.5361067E1,2.2474926E1,2.174954E1,1.5850863E0,1.809776E0,1.5691346E0,2.8161776E0,1.2174935E1,1.1069735E0,2.0575523E0,5.2860045E0,4.669136E0,3.1480951E0,2.664315E1,2.4180274E0,1.6547033E1,1.0104373E0,1.0359483E0,2.3964455E1,4.6540923E0,9.2098236E1,3.584805E0,2.181514E0,1.3179553E1,4.298265E0,1.817666E1,1.9962214E1,1.7873275E0,1.6261473E0,1.1900303E0,1.2157466E0,1.0959189E1,4.263487E0,1.0225177E0,1.279078E0,3.3900578E0,1.0014491E0,2.146646E0,2.2660892E0,2.437706E1,1.2340047E0,1.1840228E0,1.1573864E0,1.5389647E1],"tree_param":{"num_deleted":"0","num_feature":"1785","num_nodes":"73","size_leaf_vector":"1"}},{"base_weights":[1.0826397E-2,1.97177E-1,-1.13486156E-1,1.0844101E-1,1.038148E0,1.903888E-1,-2.4598847E-1,-6.222446E-2,6.3073486E-1,1.6301302E0,-2.8648221E-1,-1.1067354E-2,1.1182431E0,2.9400134E-1,-3.8482437E-1,-3.0297476E-1,3.415974E-1,-1.4860626E-1,9.895713E-1,2.3468348E-1,2.2221208E-1,7.18287E-2,-8.408034E-2,-4.09612E-1,5.002915E-1,1.4343255E0,-6.50117E-2,-2.6567125E-1,9.8144037E-1,5.975503E-1,-4.8305547E-1,-6.1528736E-1,2.3358773E-1,5.503411E-1,-9.3701646E-2,-8.0885243E-1,6.9087225E-1,2.6388982E-1,1.6971267E0,-6.858144E-2,1.1455979E-1,-6.9882447E-1,4.7589576E-1,1.4857258E0,-2.9505491E-2,1.7936655E0,-2.83968E-2,-6.448227E-1,6.502751E-1,-3.9029357E-1,1.4830616E0,-4.9762505E-1,1.368107E0,4.31899E-1,-5.5781657E-1,7.827144E-2,-7.599243E-2,-7.246419E-2,8.6362086E-2,7.7106595E-2,-7.265233E-2,-9.306201E-2,-1.3610216E-2,-6.7756884E-2,1.4911772E-1,1.2254403E-1,-2.7369453E-2,2.0594287E-1,-3.2496627E-3,9.769773E-2,-8.7021984E-2,-7.021031E-2,9.134974E-2,2.0210527E-1,-3.256673E-2,-6.475922E-2,9.639179E-2,2.1893628E-1,-1.981256E-2,5.252841E-2,-1.06490724E-1,-3.622667E-2,1.9776264E-1,3.393164E-2,-7.859754E-2,3.633749E-2,2.3215702E-1,3.8177427E-2,-8.6460225E-2,2.0101936E-1,-3.4461007E-2,1.7839001E-1,-3.1465657E-2,-7.033909E-2,-1.148261E-2],"categories":[],"categories_nodes":[],"categories_segments":[],"categories_sizes":[],"default_left":[0,0,0,0,0,0,0,0,0,0,0,0,0,0,0,0,0,0,0,0,0,0,0,0,0,0,0,0,0,0,0,0,0,0,0,0,0,0,0,0,0,0,0,0,0,0,0,0,0,0,0,0,0,0,0,0,0,0,0,0,0,0,0,0,0,0,0,0,0,0,0,0,0,0,0,0,0,0,0,0,0,0,0,0,0,0,0,0,0,0,0,0,0,0,0],"id":8,"left_children":[1,3,5,7,9,11,13,15,17,19,21,23,25,27,29,31,33,35,37,39,-1,-1,-1,41,43,45,-1,47,49,51,53,55,57,59,-1,61,63,65,67,-1,-1,69,71,73,75,77,-1,79,81,83,85,87,89,91,93,-1,-1,-1,-1,-1,-1,-1,-1,-1,-1,-1,-1,-1,-1,-1,-1,-1,-1,-1,-1,-1,-1,-1,-1,-1,-1,-1,-1,-1,-1,-1,-1,-1,-1,-1,-1,-1,-1,-1,-1],"loss_changes":[6.4930277E0,8.255492E0,6.818627E0,9.180272E0,8.768235E0,9.663427E0,8.926066E0,7.7064543E0,7.2352858E0,5.6460247E0,2.898783E0,9.052096E0,6.0861216E0,9.72891E0,9.35418E0,8.442736E0,8.437172E0,5.4698105E0,8.530415E0,3.587855E0,0E0,0E0,0E0,6.721386E0,1.0205916E1,5.5316963E0,0E0,5.4035735E0,8.324688E0,8.264754E0,6.120619E0,6.9800997E0,1.2063471E1,7.9285016E0,0E0,3.173697E-1,5.873027E0,5.409669E0,5.499544E0,0E0,0E0,6.36775E0,4.114078E0,7.2765217E0,8.999099E0,5.8434887E0,0E0,5.795576E0,7.032719E0,1.3654361E0,7.0908756E0,1.7645364E0,6.7872877E0,7.683861E0,5.0718346E0,0E0,0E0,0E0,0E0,0E0,0E0,0E0,0E0,0E0,0E0,0E0,0E0,0E0,0E0,0E0,0E0,0E0,0E0,0E0,0E0,0E0,0E0,0E0,0E0,0E0,0E0,0E0,0E0,0E0,0E0,0E0,0E0,0E0,0E0,0E0,0E0,0E0,0E0,0E0,0E0],"parents":[2147483647,0,0,1,1,2,2,3,3,4,4,5,5,6,6,7,7,8,8,9,9,10,10,11,11,12,12,13,13,14,14,15,15,16,16,17,17,18,18,19,19,23,23,24,24,25,25,27,27,28,28,29,29,30,30,31,31,32,32,33,33,35,35,36,36,37,37,38,38,41,41,42,42,43,43,44,44,45,45,47,47,48,48,49,49,50,50,51,51,52,52,53,53,54,54],"right_children":[2,4,6,8,10,12,14,16,18,20,22,24,26,28,30,32,34,36,38,40,-1,-1,-1,42,44,46,-1,48,50,52,54,56,58,60,-1,62,64,66,68,-1,-1,70,72,74,76,78,-1,80,82,84,86,88,90,92,94,-1,-1,-1,-1,-1,-1,-1,-1,-1,-1,-1,-1,-1,-1,-1,-1,-1,-1,-1,-1,-1,-1,-1,-1,-1,-1,-1,-1,-1,-1,-1,-1,-1,-1,-1,-1,-1,-1,-1,-1],"split_conditions":[2E-1,2.2E-1,4E-2,5.9E-1,5E-1,2.2E-1,2E-2,1.2E-1,4E-2,4E-2,4.95E-1,1E-1,2E-1,8.125E-1,1E-1,6.666667E-1,4E-1,2.3333333E-1,3.44E0,1E-1,2.2221208E-1,7.18287E-2,-8.408034E-2,4E-1,4E-2,4E-1,-6.50117E-2,4E-1,4E-2,8E-1,6.6E-1,1.3333334E-1,4.7E-1,2E-1,-9.3701646E-2,2E-1,6E-2,1.3333334E-1,5.56E0,-6.858144E-2,1.1455979E-1,1.6666667E-1,4.35E-1,5.65E-1,1.4E-1,1.6E-1,-2.83968E-2,2E-2,1E-1,8E-2,8E-2,2E-2,4.56E0,2E-2,4E-1,7.827144E-2,-7.599243E-2,-7.246419E-2,8.6362086E-2,7.7106595E-2,-7.265233E-2,-9.306201E-2,-1.3610216E-2,-6.7756884E-2,1.4911772E-1,1.2254403E-1,-2.7369453E-2,2.0594287E-1,-3.2496627E-3,9.769773E-2,-8.7021984E-2,-7.021031E-2,9.134974E-2,2.0210527E-1,-3.256673E-2,-6.475922E-2,9.639179E-2,2.1893628E-1,-1.981256E-2,5.252841E-2,-1.06490724E-1,-3.622667E-2,1.9776264E-1,3.393164E-2,-7.859754E-2,3.633749E-2,2.3215702E-1,3.8177427E-2,-8.6460225E-2,2.0101936E-1,-3.4461007E-2,1.7839001E-1,-3.1465657E-2,-7.033909E-2,-1.148261E-2],"split_indices":[1228,256,1222,575,1057,31,969,1319,978,609,1765,28,1690,583,1581,1410,426,646,1182,1454,0,0,0,1022,3,72,0,812,1071,1647,1182,1461,1527,722,0,377,728,538,1422,0,0,1293,1051,1289,18,714,0,1573,856,139,1199,602,1304,1074,1137,0,0,0,0,0,0,0,0,0,0,0,0,0,0,0,0,0,0,0,0,0,0,0,0,0,0,0,0,0,0,0,0,0,0,0,0,0,0,0,0],"split_type":[0,0,0,0,0,0,0,0,0,0,0,0,0,0,0,0,0,0,0,0,0,0,0,0,0,0,0,0,0,0,0,0,0,0,0,0,0,0,0,0,0,0,0,0,0,0,0,0,0,0,0,0,0,0,0,0,0,0,0,0,0,0,0,0,0,0,0,0,0,0,0,0,0,0,0,0,0,0,0,0,0,0,0,0,0,0,0,0,0,0,0,0,0,0,0],"sum_hessian":[2.783201E2,1.11135864E2,1.6718423E2,1.0154969E2,9.586178E0,5.0631447E1,1.1655279E2,7.7203445E1,2.4346245E1,6.4659095E0,3.1202686E0,4.2411182E1,8.2202635E0,2.3609217E1,9.294357E1,4.85241E1,2.8679342E1,7.860417E0,1.6485826E1,2.341926E0,4.1239834E0,1.004217E0,2.1160514E0,2.3946585E1,1.8464598E1,7.1340036E0,1.0862592E0,1.3352185E1,1.0257032E1,7.986845E0,8.4956726E1,3.0578691E1,1.7945412E1,2.5143972E1,3.5353703E0,4.420329E0,3.4400876E0,8.816464E0,7.6693625E0,1.2877463E0,1.0541798E0,1.8209927E1,5.7366576E0,5.8252234E0,1.2639374E1,5.863854E0,1.27015E0,9.652559E0,3.6996257E0,2.8059132E0,7.451119E0,3.4448936E0,4.541951E0,6.0566077E0,7.8900116E1,2.4534142E0,2.8125278E1,7.05903E0,1.0886381E1,2.1775826E1,3.3681462E0,3.4183092E0,1.00202E0,1.3260452E0,2.1140423E0,2.7027168E0,6.1137476E0,6.1834445E0,1.4859179E0,1.2535291E0,1.6956398E1,1.3901144E0,4.346543E0,4.407049E0,1.4181741E0,8.006206E0,4.6331687E0,4.809239E0,1.0546151E0,2.4837832E0,7.168776E0,2.511135E0,1.1884907E0,1.0367215E0,1.7691917E0,3.8043761E0,3.646743E0,1.0024259E0,2.4424677E0,3.1771655E0,1.3647859E0,1.6603076E0,4.3963003E0,5.89427E1,1.9957417E1],"tree_param":{"num_deleted":"0","num_feature":"1785","num_nodes":"95","size_leaf_vector":"1"}},{"base_weights":[1.2417461E-2,-6.79927E-2,2.9176044E-1,-1.20846825E-2,-6.679506E-1,6.797429E-1,-1.2668514E-1,2.687271E-1,-1.4172496E-1,-9.3255246E-1,6.301299E-1,8.9012975E-1,-4.8233017E-1,4.601356E-1,-4.885422E-1,5.4856837E-1,-1.9804516E-1,9.2070913E-1,-1.945216E-1,1.5588872E-2,-1.1003057E-1,1.4329228E-1,-6.411418E-2,1.220174E0,-1.084168E-1,7.9773314E-2,-9.403609E-2,-1.9561908E-1,1.2494515E0,-7.76655E-1,5.6592536E-1,8.3678436E-1,-3.495423E-1,-6.3980097E-1,4.3368682E-1,1.4990473E0,-6.960578E-2,-5.255204E-1,-9.801951E-3,1.4213713E0,-2.8386694E-1,-6.2681574E-1,1.5274721E-1,-5.96183E-1,1.07535504E-1,1.6992161E0,-2.4720736E-2,6.1063975E-2,-9.8404485E-1,1.7443967E-1,-7.761144E-2,1.03924684E-1,-8.9113735E-2,9.078328E-2,-7.298938E-2,-9.435852E-2,3.6783125E-2,1.0385468E-1,-4.2751223E-2,2.0147963E-1,-1.791319E-2,-6.2789895E-2,7.042055E-2,-1.910854E-2,5.1187612E-2,1.6098826E-1,-3.8297858E-2,-6.680675E-2,2.9872326E-2,-9.855555E-2,6.1026175E-2,5.8441985E-2,-9.663209E-2,5.2630037E-2,1.9778077E-1,-1.110869E-1,3.1932525E-2],"categories":[],"categories_nodes":[],"categories_segments":[],"categories_sizes":[],"default_left":[0,0,0,0,0,0,0,0,0,0,0,0,0,0,0,0,0,0,0,0,0,0,0,0,0,0,0,0,0,0,0,0,0,0,0,0,0,0,0,0,0,0,0,0,0,0,0,0,0,0,0,0,0,0,0,0,0,0,0,0,0,0,0,0,0,0,0,0,0,0,0,0,0,0,0,0,0],"id":9,"left_children":[1,3,5,7,9,11,13,15,17,19,21,23,25,27,29,31,33,35,37,-1,-1,-1,-1,39,41,-1,-1,43,45,47,49,51,53,55,57,59,-1,61,63,65,67,69,-1,71,-1,73,-1,-1,75,-1,-1,-1,-1,-1,-1,-1,-1,-1,-1,-1,-1,-1,-1,-1,-1,-1,-1,-1,-1,-1,-1,-1,-1,-1,-1,-1,-1],"loss_changes":[6.219432E0,7.2077017E0,1.0132281E1,7.2390532E0,6.8798666E0,8.317836E0,6.725548E0,8.31449E0,7.8067846E0,3.023694E0,4.693481E0,9.251713E0,4.030345E0,6.555065E0,6.3400044E0,1.0527476E1,7.053614E0,7.225946E0,7.965986E0,0E0,0E0,0E0,0E0,6.721592E0,7.5657125E0,0E0,0E0,4.4717054E0,4.2354603E0,5.110921E0,8.860456E0,1.1501276E1,5.5940814E0,4.8446584E0,5.9593334E0,4.85044E0,0E0,6.3187056E0,8.107435E0,6.936966E0,9.375341E-1,3.5421185E0,0E0,3.3458982E0,0E0,4.247198E-1,0E0,0E0,2.6721907E0,0E0,0E0,0E0,0E0,0E0,0E0,0E0,0E0,0E0,0E0,0E0,0E0,0E0,0E0,0E0,0E0,0E0,0E0,0E0,0E0,0E0,0E0,0E0,0E0,0E0,0E0,0E0,0E0],"parents":[2147483647,0,0,1,1,2,2,3,3,4,4,5,5,6,6,7,7,8,8,9,9,10,10,11,11,12,12,13,13,14,14,15,15,16,16,17,17,18,18,23,23,24,24,27,27,28,28,29,29,30,30,31,31,32,32,33,33,34,34,35,35,37,37,38,38,39,39,40,40,41,41,43,43,45,45,48,48],"right_children":[2,4,6,8,10,12,14,16,18,20,22,24,26,28,30,32,34,36,38,-1,-1,-1,-1,40,42,-1,-1,44,46,48,50,52,54,56,58,60,-1,62,64,66,68,70,-1,72,-1,74,-1,-1,76,-1,-1,-1,-1,-1,-1,-1,-1,-1,-1,-1,-1,-1,-1,-1,-1,-1,-1,-1,-1,-1,-1,-1,-1,-1,-1,-1,-1],"split_conditions":[9.0625E-1,2.6E-1,6E-2,4E-2,2.3333333E-1,1.4E-1,3.3333334E-1,1E-1,3.05E-1,2E-2,4E-2,5E-1,1.3333334E-1,1E-1,1.8E-1,4E-1,1E-1,1.4E-1,3.3333334E-1,1.5588872E-2,-1.1003057E-1,1.4329228E-1,-6.411418E-2,1.8E-1,2.3333333E-1,7.9773314E-2,-9.403609E-2,1.8E-1,8.125E-1,3.2E-1,4E-2,9.6875E-1,1.6666667E-1,4E-1,6E-2,4E-1,-6.960578E-2,2.6E-1,4E-1,2E-1,4E-1,2.2E-1,1.5274721E-1,2E-2,1.07535504E-1,2E-1,-2.4720736E-2,6.1063975E-2,6E-1,1.7443967E-1,-7.761144E-2,1.03924684E-1,-8.9113735E-2,9.078328E-2,-7.298938E-2,-9.435852E-2,3.6783125E-2,1.0385468E-1,-4.2751223E-2,2.0147963E-1,-1.791319E-2,-6.2789895E-2,7.042055E-2,-1.910854E-2,5.1187612E-2,1.6098826E-1,-3.8297858E-2,-6.680675E-2,2.9872326E-2,-9.855555E-2,6.1026175E-2,5.8441985E-2,-9.663209E-2,5.2630037E-2,1.9778077E-1,-1.110869E-1,3.1932525E-2],"split_indices":[1773,1668,1190,1222,1600,1198,584,1214,1765,382,486,1650,534,486,954,309,11,1576,1534,0,0,0,0,730,172,0,0,1340,1416,1051,1211,226,1223,311,492,904,0,1078,1755,1094,1048,121,0,1453,0,1594,0,0,314,0,0,0,0,0,0,0,0,0,0,0,0,0,0,0,0,0,0,0,0,0,0,0,0,0,0,0,0],"split_type":[0,0,0,0,0,0,0,0,0,0,0,0,0,0,0,0,0,0,0,0,0,0,0,0,0,0,0,0,0,0,0,0,0,0,0,0,0,0,0,0,0,0,0,0,0,0,0,0,0,0,0,0,0,0,0,0,0,0,0,0,0,0,0,0,0,0,0,0,0,0,0,0,0,0,0,0,0],"sum_hessian":[2.7500348E2,2.141236E2,6.0879868E1,1.9680423E2,1.731937E1,3.1265799E1,2.961407E1,6.182127E1,1.3498296E2,1.4620671E1,2.6987E0,2.667115E1,4.594648E0,1.119219E1,1.842188E1,3.854023E1,2.328104E1,5.612054E0,1.293709E2,1.9619001E0,1.2658771E1,1.5761949E0,1.1225051E0,1.9878777E1,6.7923737E0,1.0153579E0,3.5792902E0,6.524159E0,4.6680307E0,1.4675538E1,3.7463436E0,2.9228643E1,9.311587E0,1.3693037E1,9.588003E0,4.18709E0,1.4249637E0,4.5677147E1,8.3693756E1,1.75818E1,2.296975E0,5.626287E0,1.1660867E0,5.364418E0,1.1597412E0,3.4853117E0,1.1827189E0,1.6556927E0,1.3019845E1,1.835098E0,1.9112456E0,2.6519842E1,2.7088017E0,1.8404751E0,7.4711127E0,1.0569941E1,3.1230972E0,5.5112596E0,4.0767436E0,3.0493572E0,1.137733E0,4.261843E1,3.0587187E0,6.258065E1,2.1113102E1,1.6016264E1,1.5655376E0,1.2957488E0,1.0012262E0,4.519111E0,1.107176E0,1.1422236E0,4.222194E0,1.2234664E0,2.2618456E0,1.1999893E1,1.0199517E0],"tree_param":{"num_deleted":"0","num_feature":"1785","num_nodes":"77","size_leaf_vector":"1"}},{"base_weights":[1.2201407E-2,6.405649E-2,-3.7956372E-1,-9.53921E-3,5.700089E-1,-7.7107644E-1,2.5751984E-1,-7.111286E-2,4.9163616E-1,-3.6455956E-1,8.8581735E-1,-8.889823E-1,6.65657E-2,-7.465706E-1,6.963786E-1,-8.0830944E-1,-1.8738689E-2,1.4290569E-2,1.2094483E0,6.9182E-2,-7.732907E-1,1.2462474E0,-1.444113E-1,-1.0115407E0,8.816189E-2,-8.427962E-2,-2.1812754E-2,-5.4436624E-1,1.1459918E0,3.3084676E-2,-1.005523E0,1.6499516E-1,-2.3241462E-1,-5.1792544E-1,8.4017605E-1,1.9696059E0,1.5900189E-2,-1.00363456E-1,2.5447218E-2,-4.6552762E-2,1.497491E0,7.6428884E-1,-9.048449E-2,-1.1105933E-1,2.8158E-2,-6.0992874E-2,7.3390484E-2,-1.4340482E-2,-6.608299E-2,-1.829014E-2,1.6338958E0,-1.07943825E-1,-1.40581895E-2,7.84379E-3,1.0784241E-1,4.1475045E-3,-5.4124843E-2,6.6319615E-2,-8.2665354E-2,-4.6313044E-2,1.4898144E-1,2.300181E-1,2.5390271E-2,-8.075859E-2,1.0586818E-1,1.7126651E-1,-6.426567E-2,-3.1896066E-2,1.4211647E-1,5.4085355E-2,1.9776149E-1],"categories":[],"categories_nodes":[],"categories_segments":[],"categories_sizes":[],"default_left":[0,0,0,0,0,0,0,0,0,0,0,0,0,0,0,0,0,0,0,0,0,0,0,0,0,0,0,0,0,0,0,0,0,0,0,0,0,0,0,0,0,0,0,0,0,0,0,0,0,0,0,0,0,0,0,0,0,0,0,0,0,0,0,0,0,0,0,0,0,0,0],"id":10,"left_children":[1,3,5,7,9,11,13,15,17,19,21,23,-1,25,27,29,31,33,35,-1,37,39,41,43,45,-1,-1,47,49,-1,51,53,55,57,59,61,63,-1,-1,-1,65,67,-1,-1,-1,-1,-1,-1,-1,-1,69,-1,-1,-1,-1,-1,-1,-1,-1,-1,-1,-1,-1,-1,-1,-1,-1,-1,-1,-1,-1],"loss_changes":[5.577643E0,9.026326E0,8.204586E0,6.591988E0,9.407775E0,4.0019007E0,6.233829E0,7.3248878E0,7.992124E0,4.1976466E0,8.831177E0,2.3684244E0,0E0,4.1243076E-2,5.9460955E0,3.160326E0,7.0469646E0,7.0508747E0,8.42831E0,0E0,1.8151524E0,8.164734E0,5.4833884E0,2.48909E0,1.8184334E0,0E0,0E0,5.5395246E-2,5.048131E0,0E0,5.500126E-1,7.5506215E0,7.038906E0,4.111371E0,6.0068126E0,2.6420918E0,4.8359957E0,0E0,0E0,0E0,8.182484E0,3.0870602E0,0E0,0E0,0E0,0E0,0E0,0E0,0E0,0E0,9.811506E-1,0E0,0E0,0E0,0E0,0E0,0E0,0E0,0E0,0E0,0E0,0E0,0E0,0E0,0E0,0E0,0E0,0E0,0E0,0E0,0E0],"parents":[2147483647,0,0,1,1,2,2,3,3,4,4,5,5,6,6,7,7,8,8,9,9,10,10,11,11,13,13,14,14,15,15,16,16,17,17,18,18,20,20,21,21,22,22,23,23,24,24,27,27,28,28,30,30,31,31,32,32,33,33,34,34,35,35,36,36,40,40,41,41,50,50],"right_children":[2,4,6,8,10,12,14,16,18,20,22,24,-1,26,28,30,32,34,36,-1,38,40,42,44,46,-1,-1,48,50,-1,52,54,56,58,60,62,64,-1,-1,-1,66,68,-1,-1,-1,-1,-1,-1,-1,-1,70,-1,-1,-1,-1,-1,-1,-1,-1,-1,-1,-1,-1,-1,-1,-1,-1,-1,-1,-1,-1],"split_conditions":[2.2E-1,2.6666668E-1,5E-1,5E-1,2E-2,6E-1,4.65E-1,3.3333334E-1,2.3333333E-1,4E-2,1.2E-1,3.8E-1,6.65657E-2,9E-1,1.6666667E-1,5.625E-1,8E-2,1.2E-1,8E-2,6.9182E-2,4E-1,1.3333334E-1,4E-2,2.8E-1,1E-1,-8.427962E-2,-2.1812754E-2,2E-1,2E-2,3.3084676E-2,2E-1,3E-1,8E-2,1.3333334E-1,3.3333334E-1,1.6E-1,4E-1,-1.00363456E-1,2.5447218E-2,-4.6552762E-2,4.38E0,1.6666667E-1,-9.048449E-2,-1.1105933E-1,2.8158E-2,-6.0992874E-2,7.3390484E-2,-1.4340482E-2,-6.608299E-2,-1.829014E-2,1.64E0,-1.07943825E-1,-1.40581895E-2,7.84379E-3,1.0784241E-1,4.1475045E-3,-5.4124843E-2,6.6319615E-2,-8.2665354E-2,-4.6313044E-2,1.4898144E-1,2.300181E-1,2.5390271E-2,-8.075859E-2,1.0586818E-1,1.7126651E-1,-6.426567E-2,-3.1896066E-2,1.4211647E-1,5.4085355E-2,1.9776149E-1],"split_indices":[1338,638,462,1179,1552,307,99,221,407,984,956,15,0,1647,1725,1178,1575,10,372,0,919,992,497,254,4,0,0,867,16,0,1198,1729,1443,887,1772,388,553,0,0,0,236,299,0,0,0,0,0,0,0,0,467,0,0,0,0,0,0,0,0,0,0,0,0,0,0,0,0,0,0,0,0],"split_type":[0,0,0,0,0,0,0,0,0,0,0,0,0,0,0,0,0,0,0,0,0,0,0,0,0,0,0,0,0,0,0,0,0,0,0,0,0,0,0,0,0,0,0,0,0,0,0,0,0,0,0,0,0,0,0,0,0,0,0,0,0,0,0,0,0,0,0,0,0,0,0],"sum_hessian":[2.723608E2,2.4126308E2,3.1097738E1,2.1148209E2,2.9780985E1,1.9130796E1,1.1966942E1,1.8910681E2,2.237527E1,7.4828124E0,2.2298174E1,1.8032225E1,1.0985713E0,3.4263754E0,8.540566E0,1.1586521E1,1.775203E2,1.4051153E1,8.324118E0,1.8943071E0,5.5885053E0,1.636361E1,5.9345627E0,1.5991313E1,2.0409117E0,2.3953357E0,1.0310396E0,2.2156248E0,6.324942E0,1.6098732E0,9.976647E0,9.557011E1,8.195019E1,8.771512E0,5.279641E0,4.688105E0,3.6360128E0,4.584497E0,1.0040082E0,1.9851918E0,1.4378418E1,2.7013927E0,3.2331703E0,1.4984645E1,1.0066681E0,1.0073558E0,1.0335557E0,1.0009339E0,1.2146909E0,1.866453E0,4.458489E0,8.962729E0,1.0139184E0,8.828958E1,7.280521E0,4.3891056E1,3.805913E1,1.5797194E0,7.191793E0,1.8517498E0,3.4278915E0,3.6451147E0,1.0429902E0,2.1576557E0,1.478357E0,1.3246352E1,1.1320659E0,1.2139324E0,1.4874601E0,1.682284E0,2.776205E0],"tree_param":{"num_deleted":"0","num_feature":"1785","num_nodes":"71","size_leaf_vector":"1"}},{"base_weights":[1.1530721E-2,-6.321155E-2,2.704809E-1,-1.5137103E-1,2.703973E-1,4.027034E-1,-6.998919E-1,-7.669566E-2,-7.5607413E-1,-2.536941E-1,6.453454E-1,6.639487E-1,-1.930299E-1,-1.011787E-1,6.0110457E-2,-2.6704156E-1,1.5374368E-1,3.6407757E-1,-9.600405E-1,-7.9825336E-1,4.3813673E-1,8.741569E-1,-3.6120754E-1,1.2308967E0,3.0675733E-1,-4.90985E-1,9.183373E-1,4.7291357E-2,-4.963293E-1,-4.502777E-1,3.5293034E-1,-6.3135654E-2,1.07067965E-1,-1.0630955E0,2.6384136E-2,6.224068E-2,-1.0175304E0,1.152671E0,-3.9275983E-1,1.3611457E0,2.0402595E-1,9.399576E-2,-9.345955E-2,1.4624211E0,-6.558319E-2,9.2220914E-1,-1.19436495E-1,-7.900741E-1,5.4141265E-1,-2.983599E-2,1.6030401E-1,-2.6615387E-2,6.707632E-2,-6.865575E-2,3.6175046E-2,-8.684521E-2,3.281359E-2,-1.3672042E-2,6.9320224E-2,-1.1184231E-1,-1.52114825E-2,-1.0917357E-1,-1.8000985E-2,1.8754502E-1,4.3893205E-3,8.068245E-2,-9.0046495E-2,-6.1325908E-2,1.598673E-1,-4.730273E-2,1.13097124E-1,1.7000602E-1,-1.0630257E-2,1.3044311E-1,-4.6225656E-2,-4.3327417E-2,9.5893666E-2,-9.75739E-2,5.3345215E-2,1.2627757E-1,-6.1453175E-2],"categories":[],"categories_nodes":[],"categories_segments":[],"categories_sizes":[],"default_left":[0,0,0,0,0,0,0,0,0,0,0,0,0,0,0,0,0,0,0,0,0,0,0,0,0,0,0,0,0,0,0,0,0,0,0,0,0,0,0,0,0,0,0,0,0,0,0,0,0,0,0,0,0,0,0,0,0,0,0,0,0,0,0,0,0,0,0,0,0,0,0,0,0,0,0,0,0,0,0,0,0],"id":11,"left_children":[1,3,5,7,9,11,13,15,17,19,21,23,25,-1,-1,27,29,31,33,35,37,39,41,43,45,47,49,51,53,55,57,-1,-1,59,-1,-1,61,63,65,67,69,-1,-1,71,-1,73,75,77,79,-1,-1,-1,-1,-1,-1,-1,-1,-1,-1,-1,-1,-1,-1,-1,-1,-1,-1,-1,-1,-1,-1,-1,-1,-1,-1,-1,-1,-1,-1,-1,-1],"loss_changes":[5.2661934E0,6.2545958E0,8.10025E0,7.5170946E0,8.912142E0,8.57331E0,3.721549E0,6.639224E0,4.536518E0,7.615196E0,6.357894E0,7.306963E0,6.185084E0,0E0,0E0,5.9871187E0,8.422155E0,3.171529E0,2.2705193E0,4.1053047E0,5.8789015E0,6.7935543E0,5.0316772E0,7.2209415E0,6.56586E0,4.8455267E0,3.8184385E0,7.1772666E0,8.072324E0,5.972188E0,8.79365E0,0E0,0E0,5.733814E-1,0E0,0E0,4.271145E-1,4.059314E0,3.7543633E0,6.7827454E0,6.9963894E0,0E0,0E0,5.055971E0,0E0,5.992441E0,5.6365404E0,3.3464432E0,3.9506552E0,0E0,0E0,0E0,0E0,0E0,0E0,0E0,0E0,0E0,0E0,0E0,0E0,0E0,0E0,0E0,0E0,0E0,0E0,0E0,0E0,0E0,0E0,0E0,0E0,0E0,0E0,0E0,0E0,0E0,0E0,0E0,0E0],"parents":[2147483647,0,0,1,1,2,2,3,3,4,4,5,5,6,6,7,7,8,8,9,9,10,10,11,11,12,12,15,15,16,16,17,17,18,18,19,19,20,20,21,21,22,22,23,23,24,24,25,25,26,26,27,27,28,28,29,29,30,30,33,33,36,36,37,37,38,38,39,39,40,40,43,43,45,45,46,46,47,47,48,48],"right_children":[2,4,6,8,10,12,14,16,18,20,22,24,26,-1,-1,28,30,32,34,36,38,40,42,44,46,48,50,52,54,56,58,-1,-1,60,-1,-1,62,64,66,68,70,-1,-1,72,-1,74,76,78,80,-1,-1,-1,-1,-1,-1,-1,-1,-1,-1,-1,-1,-1,-1,-1,-1,-1,-1,-1,-1,-1,-1,-1,-1,-1,-1,-1,-1,-1,-1,-1,-1],"split_conditions":[9.0625E-1,4E-1,1.8E-1,3E-1,2E-2,1.2E-1,2.4E-1,2E-1,2E-2,6E-2,9.0625E-1,4E-2,4E-1,-1.011787E-1,6.0110457E-2,6E-2,4E-2,6E-2,5.56E0,1E-1,7.8125E-1,2E-1,1.3333334E-1,1.4E-1,4E-2,1.2E-1,2.3333333E-1,1.6E-1,3E-1,2E-1,8E-2,-6.3135654E-2,1.07067965E-1,3E-1,2.6384136E-2,6.224068E-2,2.4E-1,6E-2,4E-2,9.6E-1,2.3333333E-1,9.399576E-2,-9.345955E-2,4E-1,-6.558319E-2,4E-1,2E-1,3.6E-1,2E-2,-2.983599E-2,1.6030401E-1,-2.6615387E-2,6.707632E-2,-6.865575E-2,3.6175046E-2,-8.684521E-2,3.281359E-2,-1.3672042E-2,6.9320224E-2,-1.1184231E-1,-1.52114825E-2,-1.0917357E-1,-1.8000985E-2,1.8754502E-1,4.3893205E-3,8.068245E-2,-9.0046495E-2,-6.1325908E-2,1.598673E-1,-4.730273E-2,1.13097124E-1,1.7000602E-1,-1.0630257E-2,1.3044311E-1,-4.6225656E-2,-4.3327417E-2,9.5893666E-2,-9.75739E-2,5.3345215E-2,1.2627757E-1,-6.1453175E-2],"split_indices":[1773,1399,974,1479,1214,1550,1097,878,844,714,1178,249,690,0,0,962,258,1216,1306,1714,821,777,653,1198,1190,136,165,607,653,1464,270,0,0,1568,0,0,359,603,357,1180,1011,0,0,1045,0,930,3,954,128,0,0,0,0,0,0,0,0,0,0,0,0,0,0,0,0,0,0,0,0,0,0,0,0,0,0,0,0,0,0,0,0],"split_type":[0,0,0,0,0,0,0,0,0,0,0,0,0,0,0,0,0,0,0,0,0,0,0,0,0,0,0,0,0,0,0,0,0,0,0,0,0,0,0,0,0,0,0,0,0,0,0,0,0,0,0,0,0,0,0,0,0,0,0,0,0,0,0,0,0,0,0,0,0,0,0,0,0,0,0,0,0,0,0,0,0],"sum_hessian":[2.7020767E2,2.1027167E2,5.9936016E1,1.6675203E2,4.351963E1,5.326338E1,6.6726384E0,1.4942609E2,1.7325941E1,1.828491E1,2.523472E1,3.6946724E1,1.6316654E1,5.5616193E0,1.1110189E0,8.1744896E1,6.768119E1,2.5479589E0,1.4777982E1,1.0145375E1,8.139534E0,2.0667973E1,4.566748E0,1.3334943E1,2.3611782E1,1.330723E1,3.0094242E0,3.481306E1,4.693184E1,1.6471571E1,5.120962E1,1.1019969E0,1.4459618E0,1.3751438E1,1.0265431E0,1.1107244E0,9.034651E0,4.167988E0,3.9715466E0,1.1372403E1,9.295569E0,1.2013257E0,3.3654225E0,1.2077748E1,1.2571943E0,9.184678E0,1.4427103E1,1.050005E1,2.8071811E0,1.2868961E0,1.722528E0,2.354774E1,1.1265319E1,3.8579105E1,8.352732E0,1.0639966E1,5.831605E0,2.1241434E1,2.9968185E1,1.27494E1,1.002038E0,8.020493E0,1.0141588E0,2.1046028E0,2.063385E0,1.0058372E0,2.9657094E0,1.051354E0,1.032105E1,5.654869E0,3.6407E0,1.0416132E1,1.6616166E0,7.2428803E0,1.9417982E0,1.1638251E1,2.7888517E0,9.438751E0,1.0612984E0,1.6716037E0,1.1355774E0],"tree_param":{"num_deleted":"0","num_feature":"1785","num_nodes":"81","size_leaf_vector":"1"}},{"base_weights":[1.0957567E-2,-1.06615625E-1,1.6409916E-1,-3.529111E-1,4.6154715E-2,-2.1356037E-1,3.3635634E-1,-4.6509212E-1,1.0525098E0,7.7471215E-1,-6.358164E-2,-4.0473562E-1,7.7804244E-1,9.1546184E-1,1.5893735E-1,-7.0569104E-1,-6.988528E-2,-2.4055058E-2,1.5793599E-1,1.3045707E0,-2.4929306E-1,4.9815956E-1,-2.068111E-1,-6.0021996E-1,4.047739E-1,-6.398427E-2,1.2342631E0,-3.165895E-2,1.2842492E0,4.3973857E-1,-1.8709314E-1,-8.7595093E-1,2.985815E-1,1.0445899E0,-3.0870312E-1,-4.2308662E-2,1.7718997E0,1.1632904E-1,-8.933518E-2,-1.5839635E-1,1.1637282E0,3.1630284E-1,-4.8716557E-1,-7.1621495E-1,1.1014994E-1,-7.459002E-2,8.723364E-1,6.4929365E-3,1.6027355E-1,-8.847587E-2,9.276236E-1,8.707137E-2,1.5675774E0,1.9773339E-1,1.4551799E0,7.1818E-1,-4.379135E-1,-9.906181E-2,4.3199003E-2,1.313719E-1,-6.295113E-2,1.5536459E-1,-1.8662287E-2,-5.3856242E-2,6.8400346E-2,2.1538101E-1,6.7975405E-3,7.7949025E-2,-9.719016E-2,-4.0838541E-4,1.5751164E-1,-9.1342434E-2,5.5443693E-2,-2.9417861E-2,-1.0842445E-1,-8.5076876E-2,1.8850286E-2,1.3282311E-1,-2.9056836E-2,1.4513996E-1,-1.5620582E-2,-7.0829265E-2,9.024618E-2,-1.9046089E-2,1.7811096E-1,-7.077671E-2,4.105892E-2,1.7601787E-1,-1.1930232E-2,1.7225197E-1,-2.7222186E-2,-5.839337E-2,9.687795E-2],"categories":[],"categories_nodes":[],"categories_segments":[],"categories_sizes":[],"default_left":[0,0,0,0,0,0,0,0,0,0,0,0,0,0,0,0,0,0,0,0,0,0,0,0,0,0,0,0,0,0,0,0,0,0,0,0,0,0,0,0,0,0,0,0,0,0,0,0,0,0,0,0,0,0,0,0,0,0,0,0,0,0,0,0,0,0,0,0,0,0,0,0,0,0,0,0,0,0,0,0,0,0,0,0,0,0,0,0,0,0,0,0,0],"id":12,"left_children":[1,3,5,7,9,11,13,15,17,19,21,23,25,27,29,31,33,-1,-1,35,37,39,41,43,45,-1,47,49,51,53,55,57,59,61,63,-1,65,-1,-1,67,69,71,73,75,-1,-1,77,-1,-1,-1,79,81,83,85,87,89,91,-1,-1,-1,-1,-1,-1,-1,-1,-1,-1,-1,-1,-1,-1,-1,-1,-1,-1,-1,-1,-1,-1,-1,-1,-1,-1,-1,-1,-1,-1,-1,-1,-1,-1,-1,-1],"loss_changes":[4.849479E0,5.7512608E0,7.6797028E0,9.707077E0,7.640725E0,7.3752594E0,8.146163E0,5.1648474E0,3.5328302E0,7.1105337E0,6.8170676E0,5.288173E0,4.905138E0,6.577898E0,6.2023473E0,6.070896E0,6.1408525E0,0E0,0E0,7.5331154E0,5.6827197E0,7.721213E0,1.000952E1,5.9375257E0,4.3084626E0,0E0,2.1169343E0,5.9118934E0,4.4408817E0,8.330104E0,6.8804812E0,4.8229656E0,6.1697397E0,2.85082E0,4.6524754E0,0E0,4.282385E0,0E0,0E0,8.053736E0,4.178814E0,7.550576E0,4.767891E0,3.206727E0,0E0,0E0,3.1932921E0,0E0,0E0,0E0,2.166216E0,3.000742E0,4.4136086E0,5.971965E0,3.3755598E0,7.0861826E0,5.3444076E0,0E0,0E0,0E0,0E0,0E0,0E0,0E0,0E0,0E0,0E0,0E0,0E0,0E0,0E0,0E0,0E0,0E0,0E0,0E0,0E0,0E0,0E0,0E0,0E0,0E0,0E0,0E0,0E0,0E0,0E0,0E0,0E0,0E0,0E0,0E0,0E0],"parents":[2147483647,0,0,1,1,2,2,3,3,4,4,5,5,6,6,7,7,8,8,9,9,10,10,11,11,12,12,13,13,14,14,15,15,16,16,19,19,20,20,21,21,22,22,23,23,24,24,26,26,27,27,28,28,29,29,30,30,31,31,32,32,33,33,34,34,36,36,39,39,40,40,41,41,42,42,43,43,46,46,50,50,51,51,52,52,53,53,54,54,55,55,56,56],"right_children":[2,4,6,8,10,12,14,16,18,20,22,24,26,28,30,32,34,-1,-1,36,38,40,42,44,46,-1,48,50,52,54,56,58,60,62,64,-1,66,-1,-1,68,70,72,74,76,-1,-1,78,-1,-1,-1,80,82,84,86,88,90,92,-1,-1,-1,-1,-1,-1,-1,-1,-1,-1,-1,-1,-1,-1,-1,-1,-1,-1,-1,-1,-1,-1,-1,-1,-1,-1,-1,-1,-1,-1,-1,-1,-1,-1,-1,-1],"split_conditions":[5.3E-1,2.36E0,1.6666667E-1,1E0,2.7E0,2.6666668E-1,1.3333334E-1,8.4375E-1,6E-2,8E-2,2E-2,2.6666668E-1,4E-2,6E-2,4.08E0,2.6666668E-1,2E-2,-2.4055058E-2,1.5793599E-1,1.6666667E-1,6.5625E-1,4.58E0,4E-2,4.2E-1,5E-1,-6.398427E-2,2E-2,8E-2,6.875E-1,3.92E0,2E-2,2.8E-1,4.45E-1,2E-1,2E-1,-4.2308662E-2,1.6E-1,1.1632904E-1,-8.933518E-2,3.4E0,4E-2,2E-2,5.86E0,2.4E-1,1.1014994E-1,-7.459002E-2,8E-2,6.4929365E-3,1.6027355E-1,-8.847587E-2,2E-1,8.125E-1,1.3333334E-1,6.25E-1,1.6E-1,6E-2,2.4E-1,-9.906181E-2,4.3199003E-2,1.313719E-1,-6.295113E-2,1.5536459E-1,-1.8662287E-2,-5.3856242E-2,6.8400346E-2,2.1538101E-1,6.7975405E-3,7.7949025E-2,-9.719016E-2,-4.0838541E-4,1.5751164E-1,-9.1342434E-2,5.5443693E-2,-2.9417861E-2,-1.0842445E-1,-8.5076876E-2,1.8850286E-2,1.3282311E-1,-2.9056836E-2,1.4513996E-1,-1.5620582E-2,-7.0829265E-2,9.024618E-2,-1.9046089E-2,1.7811096E-1,-7.077671E-2,4.105892E-2,1.7601787E-1,-1.1930232E-2,1.7225197E-1,-2.7222186E-2,-5.839337E-2,9.687795E-2],"split_indices":[218,825,1105,1409,1426,1699,184,1773,1692,1453,1459,401,361,360,473,1255,1678,0,0,159,821,1184,3,477,458,0,133,357,1059,1663,1672,20,932,158,27,0,962,0,0,114,375,715,1418,858,0,0,1693,0,0,0,1603,107,643,1773,494,1440,1096,0,0,0,0,0,0,0,0,0,0,0,0,0,0,0,0,0,0,0,0,0,0,0,0,0,0,0,0,0,0,0,0,0,0,0,0],"split_type":[0,0,0,0,0,0,0,0,0,0,0,0,0,0,0,0,0,0,0,0,0,0,0,0,0,0,0,0,0,0,0,0,0,0,0,0,0,0,0,0,0,0,0,0,0,0,0,0,0,0,0,0,0,0,0,0,0,0,0,0,0,0,0,0,0,0,0,0,0,0,0,0,0,0,0,0,0,0,0,0,0,0,0,0,0,0,0,0,0,0,0,0,0],"sum_hessian":[2.6736383E2,1.5141785E2,1.1594599E2,5.746424E1,9.3953606E1,3.6244083E1,7.970191E1,5.38361E1,3.6281378E0,1.15056925E1,8.2447914E1,3.0882042E1,5.362041E0,1.7716002E1,6.1985905E1,3.297534E1,2.086076E1,1.2076333E0,2.4205046E0,7.4017577E0,4.103935E0,1.6247541E1,6.620037E1,2.5083334E1,5.798707E0,1.2073233E0,4.154718E0,5.221159E0,1.2494843E1,3.406864E1,2.7917263E1,2.8304499E1,4.6708436E0,3.0859168E0,1.7774843E1,1.5960459E0,5.8057117E0,1.0327238E0,3.071211E0,8.562753E0,7.6847878E0,2.3054575E1,4.3145798E1,2.4024841E1,1.058493E0,1.5034391E0,4.295268E0,1.2773397E0,2.877378E0,2.804646E0,2.416513E0,2.641354E0,9.853489E0,2.8476665E1,5.5919776E0,5.652535E0,2.2264729E1,2.6246115E1,2.058384E0,2.0323634E0,2.6384804E0,1.9979597E0,1.0879571E0,1.4804395E1,2.9704485E0,4.5270166E0,1.2786955E0,3.9967408E0,4.566012E0,2.259837E0,5.4249506E0,3.2801397E0,1.9774435E1,3.3734787E1,9.411011E0,2.0966272E1,3.0585692E0,2.9834833E0,1.3117847E0,1.4005414E0,1.0159715E0,1.4035861E0,1.2377679E0,1.0788904E0,8.774598E0,4.9774055E0,2.349926E1,4.58572E0,1.0062577E0,2.4394956E0,3.2130392E0,2.0700794E1,1.5639341E0],"tree_param":{"num_deleted":"0","num_feature":"1785","num_nodes":"93","size_leaf_vector":"1"}},{"base_weights":[1.2854357E-2,-2.4986179E-1,7.854348E-2,6.83123E-2,-6.2797743E-1,4.3728113E-2,8.484542E-1,-1.8645392E-1,1.0678794E0,3.5970032E-1,-8.894749E-1,3.6165682E-3,8.077778E-1,1.2112033E0,-6.855384E-2,-5.3169763E-1,4.0383425E-1,-5.9626456E-2,1.5119987E0,1.1363056E0,-5.724831E-1,6.802893E-2,-1.0056677E0,3.4834102E-1,-9.0289265E-2,1.6035305E0,1.3140085E-1,1.7679043E-1,2.179463E-1,-8.705626E-1,4.6984947E-1,-3.5996985E-1,1.1084166E0,1.7808778E-2,1.835322E-1,1.5247598E-1,1.6048457E-2,-6.7056954E-2,-1.7454995E-2,7.1668595E-2,-6.0508158E-2,-1.1018814E-1,-1.7346751E-2,9.5968986E-1,4.2339526E-2,6.241194E-1,-1.5293379E-1,1.9837698E-1,1.4476672E-2,-4.6979824E-1,1.2546648E-1,-6.680094E-2,9.311699E-2,1.486054E-2,-1.0701495E-1,-4.3473948E-2,1.1099404E-1,7.946652E-2,-8.945272E-2,1.6113614E-1,-1.1990167E-2,1.5511647E-1,-1.1658063E-2,2.9280597E-2,-8.680137E-2,-7.4427776E-2,9.002886E-2,1.2008675E-1,-1.8448025E-2,-8.7898515E-2,5.072056E-2],"categories":[],"categories_nodes":[],"categories_segments":[],"categories_sizes":[],"default_left":[0,0,0,0,0,0,0,0,0,0,0,0,0,0,0,0,0,0,0,0,0,0,0,0,0,0,0,0,0,0,0,0,0,0,0,0,0,0,0,0,0,0,0,0,0,0,0,0,0,0,0,0,0,0,0,0,0,0,0,0,0,0,0,0,0,0,0,0,0,0,0],"id":13,"left_children":[1,3,5,7,9,11,13,15,17,19,21,23,25,27,-1,29,31,-1,33,35,37,39,41,43,45,47,49,-1,51,53,55,57,59,-1,-1,-1,-1,-1,-1,-1,-1,-1,-1,61,63,65,67,-1,-1,69,-1,-1,-1,-1,-1,-1,-1,-1,-1,-1,-1,-1,-1,-1,-1,-1,-1,-1,-1,-1,-1],"loss_changes":[4.580344E0,6.4312153E0,5.6501336E0,7.7719827E0,6.6122055E0,6.2505765E0,5.907988E0,5.2176437E0,5.475435E0,4.858066E0,2.2435179E0,6.339856E0,5.264914E0,3.8952274E0,0E0,5.812535E0,5.58031E0,0E0,1.9019318E0,1.0841451E0,1.2007356E-2,1.7663677E0,1.2099266E0,7.802669E0,6.9852133E0,2.2559986E0,5.038651E0,0E0,3.0996952E0,2.650178E0,3.1891434E0,4.0281487E0,3.438498E0,0E0,0E0,0E0,0E0,0E0,0E0,0E0,0E0,0E0,0E0,9.054371E0,6.86358E0,5.434674E0,6.3005567E0,0E0,0E0,2.452342E0,0E0,0E0,0E0,0E0,0E0,0E0,0E0,0E0,0E0,0E0,0E0,0E0,0E0,0E0,0E0,0E0,0E0,0E0,0E0,0E0,0E0],"parents":[2147483647,0,0,1,1,2,2,3,3,4,4,5,5,6,6,7,7,8,8,9,9,10,10,11,11,12,12,13,13,15,15,16,16,18,18,19,19,20,20,21,21,22,22,23,23,24,24,25,25,26,26,28,28,29,29,30,30,31,31,32,32,43,43,44,44,45,45,46,46,49,49],"right_children":[2,4,6,8,10,12,14,16,18,20,22,24,26,28,-1,30,32,-1,34,36,38,40,42,44,46,48,50,-1,52,54,56,58,60,-1,-1,-1,-1,-1,-1,-1,-1,-1,-1,62,64,66,68,-1,-1,70,-1,-1,-1,-1,-1,-1,-1,-1,-1,-1,-1,-1,-1,-1,-1,-1,-1,-1,-1,-1,-1],"split_conditions":[2E-2,8E-2,3E-1,4E-1,2E-2,6E-1,4E-1,2.3333333E-1,4E-2,4.65E-1,1.6666667E-1,2E-2,3.3333334E-1,6E-2,-6.855384E-2,1.4E-1,1E-1,-5.9626456E-2,2E-1,1E-1,2E-1,7.1875E-1,2.6666668E-1,7E-1,3.5E-1,1.4E-1,1.6E-1,1.7679043E-1,8E-2,2E-2,2E-1,2E-1,8E-2,1.7808778E-2,1.835322E-1,1.5247598E-1,1.6048457E-2,-6.7056954E-2,-1.7454995E-2,7.1668595E-2,-6.0508158E-2,-1.1018814E-1,-1.7346751E-2,8E-2,9E-1,2E-2,4E-1,1.9837698E-1,1.4476672E-2,5.65E-1,1.2546648E-1,-6.680094E-2,9.311699E-2,1.486054E-2,-1.0701495E-1,-4.3473948E-2,1.1099404E-1,7.946652E-2,-8.945272E-2,1.6113614E-1,-1.1990167E-2,1.5511647E-1,-1.1658063E-2,2.9280597E-2,-8.680137E-2,-7.4427776E-2,9.002886E-2,1.2008675E-1,-1.8448025E-2,-8.7898515E-2,5.072056E-2],"split_indices":[957,1549,55,665,502,1405,1383,765,1208,1765,1531,1197,937,1577,0,727,501,0,540,499,1009,1178,870,100,932,717,372,0,257,1554,1492,990,246,0,0,0,0,0,0,0,0,0,0,252,695,145,576,0,0,932,0,0,0,0,0,0,0,0,0,0,0,0,0,0,0,0,0,0,0,0,0],"split_type":[0,0,0,0,0,0,0,0,0,0,0,0,0,0,0,0,0,0,0,0,0,0,0,0,0,0,0,0,0,0,0,0,0,0,0,0,0,0,0,0,0,0,0,0,0,0,0,0,0,0,0,0,0,0,0,0,0,0,0,0,0,0,0,0,0,0,0,0,0,0,0],"sum_hessian":[2.6327316E2,5.210029E1,2.1117288E2,2.8737661E1,2.3362629E1,2.0304785E2,8.125028E0,2.354903E1,5.1886306E0,4.812027E0,1.8550602E1,1.9387445E2,9.173406E0,6.741309E0,1.3837188E0,1.492125E1,8.62778E0,1.0208523E0,4.167778E0,2.5056167E0,2.3064103E0,2.0523586E0,1.6498243E1,4.092628E1,1.5294817E2,3.5849602E0,5.588445E0,3.8202357E0,2.9210732E0,1.1246779E1,3.674471E0,4.3745933E0,4.2531867E0,1.1156843E0,3.0520937E0,1.3898184E0,1.1157982E0,1.300676E0,1.0057344E0,1.0121968E0,1.040162E0,1.4498018E1,2.0002255E0,1.2939239E1,2.7987043E1,1.1607817E1,1.4134035E2,2.5582361E0,1.026724E0,4.0190854E0,1.5693594E0,1.3310531E0,1.5900202E0,1.8836359E0,9.363143E0,1.6555839E0,2.018887E0,1.2303886E0,3.1442049E0,2.7963536E0,1.4568331E0,8.065516E0,4.873722E0,2.2480358E1,5.5066843E0,1.6646414E0,9.943175E0,2.3744702E0,1.3896588E2,2.9034104E0,1.1156751E0],"tree_param":{"num_deleted":"0","num_feature":"1785","num_nodes":"71","size_leaf_vector":"1"}},{"base_weights":[1.4022148E-2,5.0690457E-2,-4.4854987E-1,-2.5627685E-1,1.1283155E-1,2.870482E-1,-8.7237716E-1,4.2586124E-1,-5.053818E-1,2.6275083E-1,-9.4109565E-2,1.1057485E0,-3.3723184E-1,-9.838494E-1,1.9450014E-2,7.628142E-1,-8.067698E-2,-6.244923E-1,1.3129197E-1,-6.777571E-1,3.3192164E-1,-1.7295247E-1,9.7010255E-1,1.6152959E-1,7.7434047E-3,7.6020345E-2,-8.7813266E-2,-1.04720734E-1,-1.6004024E-2,1.1183906E0,-5.0091412E-2,6.6438293E-1,-8.202785E-1,-1.008675E-1,5.9298106E-2,5.7724136E-1,7.8838535E-2,-4.916225E-1,1.0671803E-1,-2.8035704E-2,1.3847816E0,1.4251083E-1,-3.3368718E-2,1.4072476E-1,-2.0303128E-2,-9.5663E-2,2.1998359E-2,-2.1515794E-2,7.107399E-2,-1.3147408E-2,8.5252784E-2,-6.0212214E-2,8.745762E-2,3.7518036E-2,-3.953262E-2,2.7648479E-2,1.6230027E-1],"categories":[],"categories_nodes":[],"categories_segments":[],"categories_sizes":[],"default_left":[0,0,0,0,0,0,0,0,0,0,0,0,0,0,0,0,0,0,0,0,0,0,0,0,0,0,0,0,0,0,0,0,0,0,0,0,0,0,0,0,0,0,0,0,0,0,0,0,0,0,0,0,0,0,0,0,0],"id":14,"left_children":[1,3,5,7,9,11,13,15,17,19,21,23,25,27,-1,29,-1,31,-1,33,35,37,39,-1,-1,-1,-1,-1,-1,41,-1,43,45,-1,-1,47,49,51,53,-1,55,-1,-1,-1,-1,-1,-1,-1,-1,-1,-1,-1,-1,-1,-1,-1,-1],"loss_changes":[4.4600596E0,4.6697726E0,6.272547E0,7.227127E0,6.3235216E0,4.3663263E0,1.6782732E0,5.425435E0,7.465408E0,7.9013805E0,7.3861003E0,1.7685919E0,3.7539327E0,4.3186378E-1,0E0,4.8779497E0,0E0,7.9828777E0,0E0,4.135662E0,6.8203096E0,7.2663927E0,3.5436573E0,0E0,0E0,0E0,0E0,0E0,0E0,3.9531317E0,0E0,3.1463883E0,3.903389E0,0E0,0E0,6.076372E0,9.157417E0,6.265113E0,6.0694056E0,0E0,8.0222607E-1,0E0,0E0,0E0,0E0,0E0,0E0,0E0,0E0,0E0,0E0,0E0,0E0,0E0,0E0,0E0,0E0],"parents":[2147483647,0,0,1,1,2,2,3,3,4,4,5,5,6,6,7,7,8,8,9,9,10,10,11,11,12,12,13,13,15,15,17,17,19,19,20,20,21,21,22,22,29,29,31,31,32,32,35,35,36,36,37,37,38,38,40,40],"right_children":[2,4,6,8,10,12,14,16,18,20,22,24,26,28,-1,30,-1,32,-1,34,36,38,40,-1,-1,-1,-1,-1,-1,42,-1,44,46,-1,-1,48,50,52,54,-1,56,-1,-1,-1,-1,-1,-1,-1,-1,-1,-1,-1,-1,-1,-1,-1,-1],"split_conditions":[6.666667E-1,2E-2,4E-2,1.3333334E-1,8E-2,4E-2,1.8E-1,1.4E-1,6E-1,3.5E-1,6.95E-1,3.95E-1,2E-2,2.6E-1,1.9450014E-2,1.4E-1,-8.067698E-2,3.8E-1,1.3129197E-1,4E-1,6E-2,8E-2,6E-2,1.6152959E-1,7.7434047E-3,7.6020345E-2,-8.7813266E-2,-1.04720734E-1,-1.6004024E-2,1.8E-1,-5.0091412E-2,1.3333334E-1,6.666667E-1,-1.008675E-1,5.9298106E-2,2E-2,4E-1,3.4E-1,2E-1,-2.8035704E-2,4E-2,1.4251083E-1,-3.3368718E-2,1.4072476E-1,-2.0303128E-2,-9.5663E-2,2.1998359E-2,-2.1515794E-2,7.107399E-2,-1.3147408E-2,8.5252784E-2,-6.0212214E-2,8.745762E-2,3.7518036E-2,-3.953262E-2,2.7648479E-2,1.6230027E-1],"split_indices":[223,359,476,537,507,972,838,1221,90,813,1646,575,505,3,0,1341,0,813,0,314,374,270,738,0,0,0,0,0,0,977,0,638,1296,0,0,1691,1047,250,657,0,1330,0,0,0,0,0,0,0,0,0,0,0,0,0,0,0,0],"split_type":[0,0,0,0,0,0,0,0,0,0,0,0,0,0,0,0,0,0,0,0,0,0,0,0,0,0,0,0,0,0,0,0,0,0,0,0,0,0,0,0,0,0,0,0,0,0,0,0,0,0,0,0,0,0,0,0,0],"sum_hessian":[2.6060782E2,2.4229164E2,1.831616E1,4.026495E1,2.020267E2,6.813434E0,1.1502727E1,1.0580956E1,2.9683992E1,1.1699763E2,8.502907E1,2.6140497E0,4.199384E0,1.0485026E1,1.0177002E0,8.608798E0,1.9721583E0,2.8475233E1,1.2087595E0,7.4124913E0,1.0958514E2,7.9943855E1,5.0852137E0,1.3662372E0,1.2478125E0,1.2525804E0,2.9468038E0,9.484416E0,1.0006104E0,6.8081813E0,1.8006169E0,3.439479E0,2.5035753E1,6.0446177E0,1.3678738E0,5.4995655E1,5.458948E1,3.7012344E1,4.293151E1,1.3470674E0,3.7381465E0,5.6362314E0,1.17195E0,1.5175135E0,1.9219655E0,2.220557E1,2.8301835E0,7.8412304E0,4.7154423E1,4.3574623E1,1.1014857E1,3.4760178E1,2.2521682E0,2.813783E1,1.4793682E1,1.0435885E0,2.694558E0],"tree_param":{"num_deleted":"0","num_feature":"1785","num_nodes":"57","size_leaf_vector":"1"}},{"base_weights":[1.3473232E-2,4.8702978E-2,-4.457058E-1,-3.5528492E-2,2.9147968E-1,4.4477567E-1,-6.980682E-1,-1.2413574E-1,3.0545253E-1,8.737305E-1,9.660611E-2,-4.9336605E-2,1.1938822E-1,-9.1987276E-1,1.8309957E-1,-1.9665821E-1,4.523609E-1,1.0836364E0,1.0816027E-1,1.1724257E0,-3.9735115E-1,-3.9470938E-1,3.3396164E-1,-1.0433085E-1,2.3644823E-3,-6.407117E-2,8.041081E-2,-2.7913296E-1,3.514805E-1,-3.2635635E-1,9.403492E-1,1.5166545E0,-3.898165E-2,-2.6926538E-1,5.4833066E-1,1.3451446E0,-2.6262505E-2,-7.395612E-2,2.5977278E-2,2.704743E-1,-9.0556073E-1,3.258188E-2,1.0250087E0,-4.2034857E-2,9.094851E-3,6.857584E-2,-7.456167E-2,-8.234287E-2,7.119354E-2,1.3244465E-1,-2.9040813E-2,1.0237168E-2,1.8678729E-1,3.6618415E-2,-7.371401E-2,1.3031268E-3,1.147969E-1,-4.850714E-3,1.5583889E-1,-6.25579E-2,8.264952E-2,1.0323933E-2,-1.0394844E-1,-3.3944584E-2,6.39827E-2,-2.0507185E-2,1.3613273E-1],"categories":[],"categories_nodes":[],"categories_segments":[],"categories_sizes":[],"default_left":[0,0,0,0,0,0,0,0,0,0,0,0,0,0,0,0,0,0,0,0,0,0,0,0,0,0,0,0,0,0,0,0,0,0,0,0,0,0,0,0,0,0,0,0,0,0,0,0,0,0,0,0,0,0,0,0,0,0,0,0,0,0,0,0,0,0,0],"id":15,"left_children":[1,3,5,7,9,11,13,15,17,19,21,-1,-1,23,25,27,29,31,33,35,37,39,41,-1,-1,-1,-1,43,45,47,49,51,-1,53,55,57,-1,-1,-1,59,61,63,65,-1,-1,-1,-1,-1,-1,-1,-1,-1,-1,-1,-1,-1,-1,-1,-1,-1,-1,-1,-1,-1,-1,-1,-1],"loss_changes":[4.216558E0,4.953746E0,4.4850082E0,5.4872446E0,6.9930844E0,3.9010353E0,3.0734377E0,6.1040535E0,5.63869E0,6.357217E0,5.712921E0,0E0,0E0,1.4269428E0,2.4710164E0,5.9069037E0,6.5311346E0,5.358365E0,5.30085E0,3.5302753E0,1.0240333E0,5.6980896E0,6.800062E0,0E0,0E0,0E0,0E0,5.90425E0,6.83654E0,4.226007E0,5.2665157E0,2.7787237E0,0E0,5.434306E0,4.687005E0,3.5241966E0,0E0,0E0,0E0,4.373728E0,1.3646846E0,5.611914E0,4.3876925E0,0E0,0E0,0E0,0E0,0E0,0E0,0E0,0E0,0E0,0E0,0E0,0E0,0E0,0E0,0E0,0E0,0E0,0E0,0E0,0E0,0E0,0E0,0E0,0E0],"parents":[2147483647,0,0,1,1,2,2,3,3,4,4,5,5,6,6,7,7,8,8,9,9,10,10,13,13,14,14,15,15,16,16,17,17,18,18,19,19,20,20,21,21,22,22,27,27,28,28,29,29,30,30,31,31,33,33,34,34,35,35,39,39,40,40,41,41,42,42],"right_children":[2,4,6,8,10,12,14,16,18,20,22,-1,-1,24,26,28,30,32,34,36,38,40,42,-1,-1,-1,-1,44,46,48,50,52,-1,54,56,58,-1,-1,-1,60,62,64,66,-1,-1,-1,-1,-1,-1,-1,-1,-1,-1,-1,-1,-1,-1,-1,-1,-1,-1,-1,-1,-1,-1,-1,-1],"split_conditions":[2.6E-1,2.3333333E-1,2E-2,1.8E-1,2E-2,1E-1,1.4E-1,3E-1,2E-2,8.75E-1,4E-2,-4.9336605E-2,1.1938822E-1,2.2E-1,8.4375E-1,2E-1,4.75E-1,3.92E0,8E-2,2.2E-1,8E-2,6E-2,4E-1,-1.0433085E-1,2.3644823E-3,-6.407117E-2,8.041081E-2,4E-1,1.8E-1,1.4E-1,5E-1,8E-2,-3.898165E-2,6E-2,4E-1,5.625E-1,-2.6262505E-2,-7.395612E-2,2.5977278E-2,8E-2,3.4E-1,2E-1,4.5E-1,-4.2034857E-2,9.094851E-3,6.857584E-2,-7.456167E-2,-8.234287E-2,7.119354E-2,1.3244465E-1,-2.9040813E-2,1.0237168E-2,1.8678729E-1,3.6618415E-2,-7.371401E-2,1.3031268E-3,1.147969E-1,-4.850714E-3,1.5583889E-1,-6.25579E-2,8.264952E-2,1.0323933E-2,-1.0394844E-1,-3.3944584E-2,6.39827E-2,-2.0507185E-2,1.3613273E-1],"split_indices":[1576,519,954,1678,141,147,250,525,1218,1416,137,0,0,1216,345,137,1051,586,503,1091,718,373,1634,0,0,0,0,680,972,1318,1174,1448,0,1,1158,1178,0,0,0,383,813,1017,1051,0,0,0,0,0,0,0,0,0,0,0,0,0,0,0,0,0,0,0,0,0,0,0,0],"split_type":[0,0,0,0,0,0,0,0,0,0,0,0,0,0,0,0,0,0,0,0,0,0,0,0,0,0,0,0,0,0,0,0,0,0,0,0,0,0,0,0,0,0,0,0,0,0,0,0,0,0,0,0,0,0,0,0,0,0,0,0,0,0,0,0,0,0,0],"sum_hessian":[2.583134E2,2.4073717E2,1.7576223E1,1.7936134E2,6.1375828E1,3.7128122E0,1.3863411E1,1.428709E2,3.649045E1,1.45171995E1,4.6858627E1,1.7999914E0,1.9128208E0,1.1040427E1,2.8229833E0,1.27491516E2,1.5379381E1,6.4716487E0,3.0018803E1,1.1817732E1,2.6994677E0,1.5047669E1,3.1810959E1,9.669633E0,1.3707949E0,1.1997298E0,1.6232535E0,1.1124412E2,1.6247393E1,6.0523853E0,9.326996E0,4.9790783E0,1.4925706E0,1.63703E1,1.3648502E1,1.0604101E1,1.2136315E0,1.692575E0,1.0068928E0,6.7408705E0,8.3068E0,2.2879772E1,8.931188E0,8.0421196E1,3.0822924E1,1.2740413E1,3.506981E0,4.2328753E0,1.8195102E0,7.0505295E0,2.2764664E0,1.247427E0,3.7316513E0,7.0341425E0,9.336158E0,7.7509403E0,5.8975616E0,1.5097438E0,9.094357E0,2.5332773E0,4.207593E0,1.0003829E0,7.3064165E0,1.4461168E1,8.418603E0,2.0013874E0,6.9298005E0],"tree_param":{"num_deleted":"0","num_feature":"1785","num_nodes":"67","size_leaf_vector":"1"}},{"base_weights":[1.29317595E-2,-8.506964E-2,3.133842E-2,1.1059561E-2,8.605034E-1,7.2360165E-2,-4.2441875E-1,1.3178289E0,-6.1018188E-2,4.600844E-2,1.2867477E0,6.93952E-1,-6.0020745E-1,1.0969856E-2,1.680861E-1,1.3398497E-1,-2.7280945E-1,1.6014183E-1,1.38332695E-2,1.3413431E-1,-6.4811125E-2,6.79684E-2,-7.263547E-1,-8.249915E-3,2.5995294E-2,-4.8115622E-2,2.7617106E-2,2.1429164E-2,-8.921293E-2],"categories":[],"categories_nodes":[],"categories_segments":[],"categories_sizes":[],"default_left":[0,0,0,0,0,0,0,0,0,0,0,0,0,0,0,0,0,0,0,0,0,0,0,0,0,0,0,0,0],"id":16,"left_children":[1,-1,3,5,7,9,11,13,-1,15,17,19,21,-1,-1,23,25,-1,-1,-1,-1,-1,27,-1,-1,-1,-1,-1,-1],"loss_changes":[4.1028595E0,0E0,4.2283206E0,6.625214E0,4.842179E0,6.897936E0,6.437942E0,1.9630346E0,0E0,6.033939E0,1.4336538E0,4.8869343E0,4.853647E0,0E0,0E0,4.60963E0,5.459731E0,0E0,0E0,0E0,0E0,0E0,4.0996675E0,0E0,0E0,0E0,0E0,0E0,0E0],"parents":[2147483647,0,0,2,2,3,3,4,4,5,5,6,6,7,7,9,9,10,10,11,11,12,12,15,15,16,16,22,22],"right_children":[2,-1,4,6,8,10,12,14,-1,16,18,20,22,-1,-1,24,26,-1,-1,-1,-1,-1,28,-1,-1,-1,-1,-1,-1],"split_conditions":[2.8E-1,-8.506964E-2,5.8E0,4.92E0,1E-1,5.52E0,6E-1,2E-1,-6.1018188E-2,1.4E-1,5.64E0,2E-1,1.3333334E-1,1.0969856E-2,1.680861E-1,4E-2,5.85E-1,1.6014183E-1,1.38332695E-2,1.3413431E-1,-6.4811125E-2,6.79684E-2,2E-2,-8.249915E-3,2.5995294E-2,-4.8115622E-2,2.7617106E-2,2.1429164E-2,-8.921293E-2],"split_indices":[1646,0,709,355,1697,1541,1647,1351,0,1444,706,57,1344,0,0,489,1408,0,0,0,0,0,1220,0,0,0,0,0,0],"split_type":[0,0,0,0,0,0,0,0,0,0,0,0,0,0,0,0,0,0,0,0,0,0,0,0,0,0,0,0,0],"sum_hessian":[2.5542107E2,4.386628E0,2.5103444E2,2.4603061E2,5.003824E0,2.1640233E2,2.9628284E1,3.8961952E0,1.1076287E0,2.1282207E2,3.580268E0,3.6240933E0,2.6004192E1,1.2011328E0,2.6950626E0,1.6724986E2,4.5572193E1,2.500626E0,1.0796419E0,2.4451342E0,1.1789591E0,1.9393635E0,2.4064829E1,6.164831E1,1.05601555E2,3.3124477E1,1.2447717E1,3.5617726E0,2.0503056E1],"tree_param":{"num_deleted":"0","num_feature":"1785","num_nodes":"29","size_leaf_vector":"1"}},{"base_weights":[1.2279042E-2,3.8993016E-2,-5.551655E-1,-5.839818E-1,6.6890724E-2,2.932878E-1,-9.3071586E-1,4.8697557E-2,-8.5124296E-1,-2.1983384E-1,1.3358851E-1,1.0129269E-1,-6.874041E-2,-1.0076674E-1,-1.880914E-2,-1.0048411E-1,1.6113933E-2,5.1414713E-2,-7.3265064E-1,1.9583818E-1,-4.34444E-1,3.4441638E-1,-6.3234687E-1,-9.1259205E-1,6.335609E-2,9.421548E-1,1.5164009E-1,-7.0910096E-1,3.725767E-1,-3.743329E-2,7.065884E-2,-9.197601E-2,4.7178917E-2,-3.8624525E-3,-1.0746183E-1,1.2711145E-1,-2.101526E-2,2.4567379E-2,-1.846541E-2,-8.394298E-2,5.1973462E-2,9.158057E-2,-6.781734E-2],"categories":[],"categories_nodes":[],"categories_segments":[],"categories_sizes":[],"default_left":[0,0,0,0,0,0,0,0,0,0,0,0,0,0,0,0,0,0,0,0,0,0,0,0,0,0,0,0,0,0,0,0,0,0,0,0,0,0,0,0,0,0,0],"id":17,"left_children":[1,3,5,7,9,11,13,-1,15,17,19,-1,-1,-1,-1,-1,-1,21,23,25,27,29,31,33,-1,35,37,39,41,-1,-1,-1,-1,-1,-1,-1,-1,-1,-1,-1,-1,-1,-1],"loss_changes":[3.8922684E0,4.293477E0,3.951939E0,3.447129E0,4.5272837E0,3.7330618E0,2.8152466E-1,0E0,1.5370111E0,6.264469E0,6.854161E0,0E0,0E0,0E0,0E0,0E0,0E0,6.2706976E0,4.4014473E0,5.570809E0,4.523864E0,5.938524E0,3.4219005E0,1.96247E0,0E0,3.8654938E0,5.2544184E0,2.7877083E0,3.7805889E0,0E0,0E0,0E0,0E0,0E0,0E0,0E0,0E0,0E0,0E0,0E0,0E0,0E0,0E0],"parents":[2147483647,0,0,1,1,2,2,3,3,4,4,5,5,6,6,8,8,9,9,10,10,17,17,18,18,19,19,20,20,21,21,22,22,23,23,25,25,26,26,27,27,28,28],"right_children":[2,4,6,8,10,12,14,-1,16,18,20,-1,-1,-1,-1,-1,-1,22,24,26,28,30,32,34,-1,36,38,40,42,-1,-1,-1,-1,-1,-1,-1,-1,-1,-1,-1,-1,-1,-1],"split_conditions":[3E-1,3.25E-1,2E-2,2E-2,2E-2,6E-2,2E-1,4.8697557E-2,2.2E-1,2.3333333E-1,2.2E-1,1.0129269E-1,-6.874041E-2,-1.0076674E-1,-1.880914E-2,-1.0048411E-1,1.6113933E-2,1E-1,2.4E-1,1E-1,2.6666668E-1,6.875E-1,2E-1,2E-2,6.335609E-2,8E-2,1.6E-1,1E0,1E-1,-3.743329E-2,7.065884E-2,-9.197601E-2,4.7178917E-2,-3.8624525E-3,-1.0746183E-1,1.2711145E-1,-2.101526E-2,2.4567379E-2,-1.846541E-2,-8.394298E-2,5.1973462E-2,9.158057E-2,-6.781734E-2],"split_indices":[1595,218,848,855,970,120,379,0,840,637,1338,0,0,0,0,0,0,1566,737,1110,1480,1178,1100,835,0,373,1312,345,125,0,0,0,0,0,0,0,0,0,0,0,0,0,0],"split_type":[0,0,0,0,0,0,0,0,0,0,0,0,0,0,0,0,0,0,0,0,0,0,0,0,0,0,0,0,0,0,0,0,0,0,0,0,0,0,0,0,0,0,0],"sum_hessian":[2.543399E2,2.4379393E2,1.0545969E1,9.595132E0,2.341988E2,3.302935E0,7.243034E0,1.7520989E0,7.8430333E0,4.3764652E1,1.9043416E2,1.8860601E0,1.4168748E0,6.239581E0,1.0034528E0,6.816314E0,1.0267187E0,2.921268E1,1.45519705E1,1.7221649E2,1.8217663E1,2.0797112E1,8.41557E0,1.3151797E1,1.4001739E0,8.492798E0,1.637237E2,1.3682404E1,4.535259E0,6.9570007E0,1.384011E1,6.8098993E0,1.6056707E0,2.250581E0,1.0901216E1,6.5265117E0,1.9662856E0,1.2815797E2,3.556572E1,1.2656917E1,1.0254874E0,3.0742986E0,1.4609599E0],"tree_param":{"num_deleted":"0","num_feature":"1785","num_nodes":"43","size_leaf_vector":"1"}},{"base_weights":[1.0014064E-2,5.0731774E-2,-3.4736496E-1,-2.3668662E-1,1.23441204E-1,1.0438787E-1,-9.1978353E-1,-7.5664586E-1,9.7883055E-3,4.6597666E-1,3.479426E-2,6.007236E-1,-5.3096807E-1,-1.0528888E-1,2.2662377E-2,-9.520386E-1,4.892659E-2,-1.4464438E-1,1.1536669E0,1.3371366E-2,8.4791106E-1,1.9490954E-1,-2.0098728E-1,-4.4642746E-2,8.927259E-1,8.0805086E-2,-9.6899085E-2,7.4829916E-3,-1.0681804E-1,-4.413404E-1,4.5016342E-1,1.4919662E-1,1.0482632E-2,8.0669075E-1,-3.2568526E-1,1.1153693E0,-1.6220583E-1,3.8315246E-1,-1.5293176E-1,-6.378292E-1,1.7831117E-2,1.1910782E0,-1.13935135E-2,-7.218928E-2,5.0644424E-2,-5.598814E-2,7.611435E-2,-4.081639E-2,1.400314E-1,6.691375E-2,-6.350603E-2,1.3484763E-1,-4.5413557E-3,-8.035834E-2,6.407153E-2,7.6413624E-2,1.2452377E-2,6.563086E-2,-4.1115906E-2,4.2412918E-2,-8.70703E-2,2.4212733E-2,-7.062494E-2,1.9343292E-2,1.5264854E-1],"categories":[],"categories_nodes":[],"categories_segments":[],"categories_sizes":[],"default_left":[0,0,0,0,0,0,0,0,0,0,0,0,0,0,0,0,0,0,0,0,0,0,0,0,0,0,0,0,0,0,0,0,0,0,0,0,0,0,0,0,0,0,0,0,0,0,0,0,0,0,0,0,0,0,0,0,0,0,0,0,0,0,0,0,0],"id":18,"left_children":[1,3,5,7,9,11,13,15,17,19,21,23,25,-1,-1,27,-1,29,31,33,35,37,39,-1,41,-1,-1,-1,-1,43,45,-1,-1,47,49,51,53,55,57,59,61,63,-1,-1,-1,-1,-1,-1,-1,-1,-1,-1,-1,-1,-1,-1,-1,-1,-1,-1,-1,-1,-1,-1,-1],"loss_changes":[3.7124038E0,4.8109064E0,6.8445816E0,5.971751E0,5.5487657E0,5.201886E0,2.010706E0,4.1123705E0,5.9186993E0,6.488076E0,5.576411E0,3.2001002E0,5.0773997E0,0E0,0E0,1.66469E0,0E0,5.4181213E0,1.257359E0,5.1643867E0,5.685507E0,5.8116016E0,5.7287774E0,0E0,2.3876019E0,0E0,0E0,0E0,0E0,5.7468915E0,3.6733503E0,0E0,0E0,4.713926E0,4.5734596E0,4.454611E0,3.161072E0,5.5502377E0,6.86624E0,5.3125677E0,6.80109E0,1.66926E0,0E0,0E0,0E0,0E0,0E0,0E0,0E0,0E0,0E0,0E0,0E0,0E0,0E0,0E0,0E0,0E0,0E0,0E0,0E0,0E0,0E0,0E0,0E0],"parents":[2147483647,0,0,1,1,2,2,3,3,4,4,5,5,6,6,7,7,8,8,9,9,10,10,11,11,12,12,15,15,17,17,18,18,19,19,20,20,21,21,22,22,24,24,29,29,30,30,33,33,34,34,35,35,36,36,37,37,38,38,39,39,40,40,41,41],"right_children":[2,4,6,8,10,12,14,16,18,20,22,24,26,-1,-1,28,-1,30,32,34,36,38,40,-1,42,-1,-1,-1,-1,44,46,-1,-1,48,50,52,54,56,58,60,62,64,-1,-1,-1,-1,-1,-1,-1,-1,-1,-1,-1,-1,-1,-1,-1,-1,-1,-1,-1,-1,-1,-1,-1],"split_conditions":[3E-1,1.3333334E-1,8E-1,4E-2,2E-2,8E-2,2.4E-1,2.4E-1,8.333333E-1,8E-2,1E-1,3E-1,1.6666667E-1,-1.0528888E-1,2.2662377E-2,1.6666667E-1,4.892659E-2,4E-1,6E-2,2E-2,1.2E-1,8E-2,1.3333334E-1,-4.4642746E-2,1.4E-1,8.0805086E-2,-9.6899085E-2,7.4829916E-3,-1.0681804E-1,5.54E0,2E-2,1.4919662E-1,1.0482632E-2,4E-2,2E-2,4E-1,2E-1,1.6666667E-1,2E-2,2E-2,4.56E0,3.3333334E-1,-1.13935135E-2,-7.218928E-2,5.0644424E-2,-5.598814E-2,7.611435E-2,-4.081639E-2,1.400314E-1,6.691375E-2,-6.350603E-2,1.3484763E-1,-4.5413557E-3,-8.035834E-2,6.407153E-2,7.6413624E-2,1.2452377E-2,6.563086E-2,-4.1115906E-2,4.2412918E-2,-8.70703E-2,2.4212733E-2,-7.062494E-2,1.9343292E-2,1.5264854E-1],"split_indices":[1479,531,100,380,1197,1082,499,839,815,148,148,1241,1653,0,0,1651,0,797,1553,1316,1325,1,62,0,254,0,0,0,0,1420,1572,0,0,1212,861,1019,645,773,1566,717,1186,108,0,0,0,0,0,0,0,0,0,0,0,0,0,0,0,0,0,0,0,0,0,0,0],"split_type":[0,0,0,0,0,0,0,0,0,0,0,0,0,0,0,0,0,0,0,0,0,0,0,0,0,0,0,0,0,0,0,0,0,0,0,0,0,0,0,0,0,0,0,0,0,0,0,0,0,0,0,0,0,0,0,0,0,0,0,0,0,0,0,0,0],"sum_hessian":[2.5290797E2,2.278106E2,2.5097383E1,4.553939E1,1.822712E2,1.4484137E1,1.0613246E1,1.3979213E1,3.1560177E1,3.65981E1,1.456731E2,8.162307E0,6.3218303E0,9.58226E0,1.0309858E0,1.22879925E1,1.6912199E0,2.857577E1,2.9844065E0,1.7223122E1,1.9374977E1,8.686076E1,5.8812336E1,1.6644746E0,6.497832E0,1.3500404E0,4.97179E0,1.2847327E0,1.1003261E1,1.9237785E1,9.337985E0,1.9371086E0,1.0472978E0,4.743989E0,1.2479133E1,1.5236472E1,4.138504E0,5.629423E1,3.056653E1,1.8988811E1,3.9823524E1,4.870982E0,1.6268495E0,1.5027771E1,4.210013E0,2.009823E0,7.328162E0,1.6597393E0,3.08425E0,2.6843853E0,9.794747E0,1.2553749E1,2.682723E0,2.3002377E0,1.8382667E0,2.1972363E1,3.432187E1,7.0213184E0,2.3545212E1,3.2674048E0,1.5721407E1,3.0913233E1,8.910291E0,1.6222932E0,3.2486892E0],"tree_param":{"num_deleted":"0","num_feature":"1785","num_nodes":"65","size_leaf_vector":"1"}},{"base_weights":[9.429957E-3,-8.198021E-2,2.6489263E-2,-7.727879E-2,1.7003362E-1,-2.1900661E-1,1.3219461E-1,-8.95522E-2,3.778319E-1,-5.0070256E-1,-9.737312E-3,6.084745E-1,-4.8200816E-2,-3.7541455E-1,2.9872894E-1,9.7894764E-1,2.074926E-1,-6.248736E-1,4.5217022E-1,-2.6920077E-1,5.1030934E-1,8.965561E-1,-3.363992E-1,1.5908699E-1,-4.7753334E-1,-5.6486374E-1,4.0101925E-1,-2.6769558E-1,6.6955215E-1,1.2615672E0,-4.8441198E-2,6.418743E-1,-3.595099E-2,-7.479777E-2,4.5682788E-2,-6.470418E-2,1.067183E-1,3.307129E-3,-8.999809E-2,-3.644177E-2,9.698232E-2,1.3206692E-1,-9.033601E-3,7.042752E-2,-8.3881296E-2,-5.9931763E-2,3.9902467E-2,-7.41239E-2,5.93245E-2,-2.850328E-3,-1.0029166E-1,1.0769186E-1,-7.54848E-2,4.387906E-2,-9.32065E-2,9.3829416E-2,-3.4873467E-2,-2.5618E-2,1.4449368E-1,-2.6914354E-3,1.0099808E-1,2.8442834E-2,-5.998158E-2],"categories":[],"categories_nodes":[],"categories_segments":[],"categories_sizes":[],"default_left":[0,0,0,0,0,0,0,0,0,0,0,0,0,0,0,0,0,0,0,0,0,0,0,0,0,0,0,0,0,0,0,0,0,0,0,0,0,0,0,0,0,0,0,0,0,0,0,0,0,0,0,0,0,0,0,0,0,0,0,0,0,0,0],"id":19,"left_children":[1,-1,3,5,7,9,11,13,15,17,19,21,23,25,27,29,31,33,35,37,39,41,43,45,47,49,51,53,55,57,-1,59,61,-1,-1,-1,-1,-1,-1,-1,-1,-1,-1,-1,-1,-1,-1,-1,-1,-1,-1,-1,-1,-1,-1,-1,-1,-1,-1,-1,-1,-1,-1],"loss_changes":[3.5711696E0,0E0,3.6896667E0,4.3025274E0,5.6370473E0,5.0786643E0,5.0739846E0,5.327956E0,5.7238636E0,4.6292095E0,6.9511714E0,4.712019E0,3.9482894E0,4.2728605E0,4.481556E0,5.785779E0,4.9268274E0,4.7255497E0,3.945935E0,6.5780168E0,7.2483344E0,5.430688E0,2.950357E0,5.715334E0,4.510813E0,5.2644753E0,5.4850473E0,4.5481057E0,3.7929387E0,3.3659267E0,0E0,4.140406E0,5.710159E0,0E0,0E0,0E0,0E0,0E0,0E0,0E0,0E0,0E0,0E0,0E0,0E0,0E0,0E0,0E0,0E0,0E0,0E0,0E0,0E0,0E0,0E0,0E0,0E0,0E0,0E0,0E0,0E0,0E0,0E0],"parents":[2147483647,0,0,2,2,3,3,4,4,5,5,6,6,7,7,8,8,9,9,10,10,11,11,12,12,13,13,14,14,15,15,16,16,17,17,18,18,19,19,20,20,21,21,22,22,23,23,24,24,25,25,26,26,27,27,28,28,29,29,31,31,32,32],"right_children":[2,-1,4,6,8,10,12,14,16,18,20,22,24,26,28,30,32,34,36,38,40,42,44,46,48,50,52,54,56,58,-1,60,62,-1,-1,-1,-1,-1,-1,-1,-1,-1,-1,-1,-1,-1,-1,-1,-1,-1,-1,-1,-1,-1,-1,-1,-1,-1,-1,-1,-1,-1,-1],"split_conditions":[2.8E-1,-8.198021E-2,5.35E-1,2E-1,6E-2,6E-2,2E-2,1E-1,2E-2,9.6875E-1,1.2E-1,1.2E-1,6.666667E-1,4E-1,8E-1,4E-1,4E-2,2.4E-1,2E-1,4.06E0,2E-1,1E-1,2E-2,1.86E0,2.2E-1,4E-2,8E-2,6E-2,1.4E-1,2E-2,-4.8441198E-2,1.6666667E-1,1E-1,-7.479777E-2,4.5682788E-2,-6.470418E-2,1.067183E-1,3.307129E-3,-8.999809E-2,-3.644177E-2,9.698232E-2,1.3206692E-1,-9.033601E-3,7.042752E-2,-8.3881296E-2,-5.9931763E-2,3.9902467E-2,-7.41239E-2,5.93245E-2,-2.850328E-3,-1.0029166E-1,1.0769186E-1,-7.54848E-2,4.387906E-2,-9.32065E-2,9.3829416E-2,-3.4873467E-2,-2.5618E-2,1.4449368E-1,-2.6914354E-3,1.0099808E-1,2.8442834E-2,-5.998158E-2],"split_indices":[1646,0,218,1701,489,612,125,1196,1198,345,1439,1666,1291,1521,219,1163,744,133,1703,711,641,724,243,1664,1578,1666,1450,614,380,389,0,1124,975,0,0,0,0,0,0,0,0,0,0,0,0,0,0,0,0,0,0,0,0,0,0,0,0,0,0,0,0,0,0],"split_type":[0,0,0,0,0,0,0,0,0,0,0,0,0,0,0,0,0,0,0,0,0,0,0,0,0,0,0,0,0,0,0,0,0,0,0,0,0,0,0,0,0,0,0,0,0,0,0,0,0,0,0,0,0,0,0,0,0,0,0,0,0,0,0],"sum_hessian":[2.4991348E2,4.0891447E0,2.4582434E2,1.429486E2,1.0287574E2,8.5234314E1,5.771428E1,4.59914E1,5.6884342E1,3.573673E1,4.949758E1,1.5202815E1,4.2511467E1,2.6508392E1,1.948301E1,1.1512052E1,4.537229E1,3.1921225E1,3.8155057E0,3.3343887E1,1.6153694E1,1.1689846E1,3.5129688E0,2.909395E1,1.3417515E1,2.1528055E1,4.980337E0,7.818509E0,1.16645E1,9.764185E0,1.7478672E0,1.5707827E1,2.9664463E1,2.8936584E1,2.98464E0,1.3502054E0,2.4653003E0,2.318238E1,1.0161508E1,5.634622E0,1.0519073E1,7.939616E0,3.7502298E0,1.0129702E0,2.4999986E0,6.63235E0,2.2461601E1,1.1013039E1,2.4044762E0,1.0156861E1,1.1371193E1,3.1857538E0,1.7945836E0,3.9537039E0,3.864805E0,9.291011E0,2.373489E0,1.0097147E0,8.75447E0,5.9054623E0,9.802365E0,1.9232452E1,1.0432011E1],"tree_param":{"num_deleted":"0","num_feature":"1785","num_nodes":"63","size_leaf_vector":"1"}},{"base_weights":[7.7304495E-3,-4.1145112E-2,2.8585842E-1,4.1952003E-3,-5.6612605E-1,4.3759036E-1,-5.7440484E-1,9.448594E-2,-3.0017734E-1,-8.076509E-1,2.9649016E-1,6.3373405E-1,-2.8254294E-1,-9.255323E-2,4.7526296E-2,2.7167726E-1,-1.0614462E-1,-4.9289426E-1,3.1335986E-1,1.0236773E-2,-1.03656724E-1,9.32682E-2,-6.613962E-2,-3.0351514E-1,8.27758E-1,-8.1219816E-1,6.042948E-1,-2.9660842E-1,3.9233175E-1,-6.423938E-1,5.4276332E-2,-6.1930996E-1,6.034798E-1,-3.8138255E-1,9.7296023E-1,-7.188617E-2,9.408537E-2,9.4810985E-2,-8.7072276E-2,9.295331E-1,-5.886645E-2,-8.891145E-2,-2.4574298E-2,-2.7906314E-2,1.1992228E-1,1.6247874E-2,-9.707794E-2,-2.836742E-3,5.8499407E-2,2.1130873E-2,-8.819874E-2,-1.7540969E-2,5.7868738E-2,-8.447391E-2,1.5200176E-3,-3.141493E-2,1.1053958E-1,-7.583993E-2,5.8296133E-2,1.4307539E-1,-3.350776E-2,-1.7305972E-2,1.0973896E-1],"categories":[],"categories_nodes":[],"categories_segments":[],"categories_sizes":[],"default_left":[0,0,0,0,0,0,0,0,0,0,0,0,0,0,0,0,0,0,0,0,0,0,0,0,0,0,0,0,0,0,0,0,0,0,0,0,0,0,0,0,0,0,0,0,0,0,0,0,0,0,0,0,0,0,0,0,0,0,0,0,0,0,0],"id":20,"left_children":[1,3,5,7,9,11,13,15,17,19,21,23,25,-1,-1,27,29,31,33,35,-1,-1,-1,37,39,41,43,45,47,49,51,53,55,57,59,-1,-1,-1,-1,61,-1,-1,-1,-1,-1,-1,-1,-1,-1,-1,-1,-1,-1,-1,-1,-1,-1,-1,-1,-1,-1,-1,-1],"loss_changes":[3.3803418E0,5.0400286E0,5.1023507E0,5.409575E0,3.746451E0,4.721571E0,2.652944E0,5.4243364E0,5.4795003E0,2.523059E0,3.3064852E0,4.9035826E0,4.0493407E0,0E0,0E0,5.6616483E0,6.2198787E0,5.1775866E0,5.5842657E0,3.3393295E0,0E0,0E0,0E0,4.460056E0,3.6413698E0,6.74963E-3,2.1247153E0,4.7176814E0,5.458623E0,3.5886302E0,6.8784714E0,4.5285673E0,2.2308788E0,2.7177017E0,4.142535E0,0E0,0E0,0E0,0E0,3.9678822E0,0E0,0E0,0E0,0E0,0E0,0E0,0E0,0E0,0E0,0E0,0E0,0E0,0E0,0E0,0E0,0E0,0E0,0E0,0E0,0E0,0E0,0E0,0E0],"parents":[2147483647,0,0,1,1,2,2,3,3,4,4,5,5,6,6,7,7,8,8,9,9,10,10,11,11,12,12,15,15,16,16,17,17,18,18,19,19,23,23,24,24,25,25,26,26,27,27,28,28,29,29,30,30,31,31,32,32,33,33,34,34,39,39],"right_children":[2,4,6,8,10,12,14,16,18,20,22,24,26,-1,-1,28,30,32,34,36,-1,-1,-1,38,40,42,44,46,48,50,52,54,56,58,60,-1,-1,-1,-1,62,-1,-1,-1,-1,-1,-1,-1,-1,-1,-1,-1,-1,-1,-1,-1,-1,-1,-1,-1,-1,-1,-1,-1],"split_conditions":[9.375E-1,2.6E-1,2E-1,4E-1,2.3333333E-1,1.2E-1,5E-1,2E-1,4E-1,4E-2,4E-2,4E-2,5E-1,-9.255323E-2,4.7526296E-2,2E-2,2E-2,2.8E-1,2E-1,4E-1,-1.03656724E-1,9.32682E-2,-6.613962E-2,2E-2,2.6666668E-1,2.3333333E-1,1E-1,6E-2,4E-2,4.35E-1,2.3333333E-1,1.8E-1,4.12E0,2E-1,6.666667E-1,-7.188617E-2,9.408537E-2,9.4810985E-2,-8.7072276E-2,2E-2,-5.886645E-2,-8.891145E-2,-2.4574298E-2,-2.7906314E-2,1.1992228E-1,1.6247874E-2,-9.707794E-2,-2.836742E-3,5.8499407E-2,2.1130873E-2,-8.819874E-2,-1.7540969E-2,5.7868738E-2,-8.447391E-2,1.5200176E-3,-3.141493E-2,1.1053958E-1,-7.583993E-2,5.8296133E-2,1.4307539E-1,-3.350776E-2,-1.7305972E-2,1.0973896E-1],"split_indices":[1773,1668,29,1049,1719,603,1060,1130,1161,1558,486,1192,1769,0,0,953,978,1212,654,680,0,0,0,1193,1706,273,132,1203,1553,337,751,845,1061,1193,1767,0,0,0,0,1088,0,0,0,0,0,0,0,0,0,0,0,0,0,0,0,0,0,0,0,0,0,0,0],"split_type":[0,0,0,0,0,0,0,0,0,0,0,0,0,0,0,0,0,0,0,0,0,0,0,0,0,0,0,0,0,0,0,0,0,0,0,0,0,0,0,0,0,0,0,0,0,0,0,0,0,0,0,0,0,0,0,0,0,0,0,0,0,0,0],"sum_hessian":[2.4680522E2,2.106412E2,3.6164017E1,1.9480846E2,1.5832747E1,3.1159483E1,5.0045323E0,1.5077216E2,4.403631E1,1.2419201E1,3.4135466E0,2.4583593E1,6.5758896E0,3.8386996E0,1.1658329E0,7.9874825E1,7.089733E1,3.3660053E1,1.0376255E1,2.9247477E0,9.494453E0,2.0670216E0,1.346525E0,4.1195316E0,2.0464062E1,4.1697254E0,2.4061644E0,1.3733127E1,6.61417E1,1.56335745E1,5.526376E1,3.0570318E1,3.0897338E0,5.258934E0,5.117321E0,1.767517E0,1.1572307E0,1.0752654E0,3.044266E0,1.9412918E1,1.0511434E0,3.1697135E0,1.0000119E0,1.1820172E0,1.2241472E0,8.621308E0,5.1118183E0,2.1043556E1,4.509814E1,3.451936E0,1.2181639E1,3.88941E1,1.6369658E1,2.2311981E1,8.258337E0,1.2247257E0,1.8650082E0,3.9343376E0,1.3245963E0,3.7211552E0,1.3961657E0,2.5608108E0,1.6852108E1],"tree_param":{"num_deleted":"0","num_feature":"1785","num_nodes":"63","size_leaf_vector":"1"}},{"base_weights":[5.8515198E-3,-2.3091412E-1,6.2469855E-2,-5.0992286E-1,1.20995246E-1,1.6560602E-1,-1.3721326E-1,8.7415166E-2,-7.3905134E-1,3.9077163E-1,-4.9519423E-1,-2.3678923E-1,2.8050402E-1,2.8646526E-1,-3.2675987E-1,-5.7484907E-1,6.3711166E-1,-7.6520736E-3,-9.3114674E-1,-2.9549426E-1,8.242205E-1,-9.263685E-2,3.9770162E-1,-3.5930613E-1,9.481751E-2,3.251974E-1,-7.1672523E-1,5.60463E-1,-4.8931822E-1,-4.279108E-1,7.182632E-1,8.098807E-3,-8.0020405E-2,-6.37208E-2,1.21447064E-1,-7.284156E-2,6.1484545E-1,-1.0671239E-1,7.947261E-3,-8.9552E-2,5.938212E-1,1.1218112E0,-1.9685723E-1,1.08973235E-2,4.8832636E-2,1.7229488E-1,-7.19175E-1,4.5437953E-1,-4.720993E-2,-8.4090486E-2,-1.2789245E-2,8.1956255E-1,-3.3307815E-1,-9.0499625E-2,3.7827607E-2,-8.365044E-2,-8.1887037E-1,-1.9311352E-2,1.3647513E-1,9.682569E-2,-5.475526E-3,-2.0886859E-2,1.0508577E-1,1.1770746E-2,1.4826094E-1,3.0974654E-2,-5.8864444E-2,1.06083624E-1,-3.6887493E-2,-8.420715E-2,5.82291E-2,5.8655508E-2,-1.326633E-2,-6.426009E-2,2.4864934E-2,1.0142559E-1,-6.1789673E-2,-8.0348335E-2,5.921794E-2,-4.2998355E-2,5.0192576E-2,-9.338834E-2,4.130057E-2],"categories":[],"categories_nodes":[],"categories_segments":[],"categories_sizes":[],"default_left":[0,0,0,0,0,0,0,0,0,0,0,0,0,0,0,0,0,0,0,0,0,0,0,0,0,0,0,0,0,0,0,0,0,0,0,0,0,0,0,0,0,0,0,0,0,0,0,0,0,0,0,0,0,0,0,0,0,0,0,0,0,0,0,0,0,0,0,0,0,0,0,0,0,0,0,0,0,0,0,0,0,0,0],"id":21,"left_children":[1,3,5,7,9,11,13,15,17,19,21,23,25,27,29,31,33,35,37,39,41,-1,43,45,-1,47,49,51,53,55,57,-1,-1,-1,-1,-1,59,-1,-1,-1,61,63,65,-1,-1,67,69,71,73,-1,-1,75,77,-1,-1,79,81,-1,-1,-1,-1,-1,-1,-1,-1,-1,-1,-1,-1,-1,-1,-1,-1,-1,-1,-1,-1,-1,-1,-1,-1,-1,-1],"loss_changes":[3.2977166E0,4.7235136E0,4.1096253E0,3.7154808E0,3.8182154E0,6.137503E0,5.5652986E0,3.383974E0,2.7164545E0,4.920912E0,3.0944304E0,4.653671E0,4.806032E0,4.8641567E0,5.332745E0,6.981802E-1,4.4555187E0,2.7094345E0,2.1934748E0,4.172649E0,3.229447E0,0E0,2.5424749E-2,5.4134674E0,0E0,4.778863E0,2.3709393E-1,4.075257E0,2.5674171E0,5.8498726E0,2.9555407E0,0E0,0E0,0E0,0E0,0E0,8.2138586E-1,0E0,0E0,0E0,1.4485265E0,2.6570683E0,7.9467785E-1,0E0,0E0,6.1463127E0,3.1584282E0,5.7820396E0,4.8056874E0,0E0,0E0,4.270693E0,2.3921106E0,0E0,0E0,5.1838484E0,3.2867842E0,0E0,0E0,0E0,0E0,0E0,0E0,0E0,0E0,0E0,0E0,0E0,0E0,0E0,0E0,0E0,0E0,0E0,0E0,0E0,0E0,0E0,0E0,0E0,0E0,0E0,0E0],"parents":[2147483647,0,0,1,1,2,2,3,3,4,4,5,5,6,6,7,7,8,8,9,9,10,10,11,11,12,12,13,13,14,14,15,15,16,16,17,17,18,18,19,19,20,20,22,22,23,23,25,25,26,26,27,27,28,28,29,29,30,30,36,36,40,40,41,41,42,42,45,45,46,46,47,47,48,48,51,51,52,52,55,55,56,56],"right_children":[2,4,6,8,10,12,14,16,18,20,22,24,26,28,30,32,34,36,38,40,42,-1,44,46,-1,48,50,52,54,56,58,-1,-1,-1,-1,-1,60,-1,-1,-1,62,64,66,-1,-1,68,70,72,74,-1,-1,76,78,-1,-1,80,82,-1,-1,-1,-1,-1,-1,-1,-1,-1,-1,-1,-1,-1,-1,-1,-1,-1,-1,-1,-1,-1,-1,-1,-1,-1,-1],"split_conditions":[2E-2,2E-1,2.3333333E-1,2E-2,6.666667E-1,4.25E-1,7E-1,8.125E-1,2E-2,6E-2,1.6E-1,3E-1,3.3333334E-1,1E-1,6E-1,1.3333334E-1,6E-2,5.2E-1,2.2E-1,2.6666668E-1,1.2E-1,-9.263685E-2,5.25E-1,3.3333334E-1,9.481751E-2,1.2E-1,3.2E-1,4E-1,1.4E-1,2E-1,1E-1,8.098807E-3,-8.0020405E-2,-6.37208E-2,1.21447064E-1,-7.284156E-2,6E-2,-1.0671239E-1,7.947261E-3,-8.9552E-2,1.3333334E-1,3.3333334E-1,8E-2,1.08973235E-2,4.8832636E-2,4E-2,3.3333334E-1,1.4E-1,4E-2,-8.4090486E-2,-1.2789245E-2,2.6666668E-1,2.6666668E-1,-9.0499625E-2,3.7827607E-2,6E-2,6E-1,-1.9311352E-2,1.3647513E-1,9.682569E-2,-5.475526E-3,-2.0886859E-2,1.0508577E-1,1.1770746E-2,1.4826094E-1,3.0974654E-2,-5.8864444E-2,1.06083624E-1,-3.6887493E-2,-8.420715E-2,5.82291E-2,5.8655508E-2,-1.326633E-2,-6.426009E-2,2.4864934E-2,1.0142559E-1,-6.1789673E-2,-8.0348335E-2,5.921794E-2,-4.2998355E-2,5.0192576E-2,-9.338834E-2,4.130057E-2],"split_indices":[957,1465,1487,620,697,1289,100,1535,267,1320,862,174,1611,1084,1286,1108,1332,1527,728,1363,380,0,99,701,0,379,834,1498,1191,1228,1572,0,0,0,0,0,133,0,0,0,1488,346,1095,0,0,372,1471,854,1684,0,0,1110,406,0,0,1097,788,0,0,0,0,0,0,0,0,0,0,0,0,0,0,0,0,0,0,0,0,0,0,0,0,0,0],"split_type":[0,0,0,0,0,0,0,0,0,0,0,0,0,0,0,0,0,0,0,0,0,0,0,0,0,0,0,0,0,0,0,0,0,0,0,0,0,0,0,0,0,0,0,0,0,0,0,0,0,0,0,0,0,0,0,0,0,0,0,0,0,0,0,0,0,0,0,0,0,0,0,0,0,0,0,0,0,0,0,0,0,0,0],"sum_hessian":[2.4392531E2,4.647953E1,1.9744579E2,2.5674597E1,2.0804932E1,1.3031094E2,6.713484E1,7.28946E0,1.8385136E1,1.4724267E1,6.080665E0,2.870823E1,1.0160271E2,2.0593195E1,4.654165E1,3.2854512E0,4.004009E0,4.040573E0,1.43445635E1,5.8230643E0,8.901202E0,4.0752583E0,2.005407E0,2.6649626E1,2.058603E0,9.788944E1,3.7132678E0,1.5423386E1,5.169809E0,4.2972717E1,3.5689335E0,1.0040487E0,2.2814026E0,1.2161405E0,2.7878683E0,1.7936413E0,2.2469318E0,1.2594133E1,1.75043E0,3.4729028E0,2.3501618E0,6.8160324E0,2.08517E0,1.0052307E0,1.0001763E0,1.096834E1,1.5681286E1,7.251502E1,2.5374416E1,2.7130265E0,1.0002412E0,1.2020578E1,3.4028068E0,3.4660568E0,1.703752E0,2.3496649E1,1.9476067E1,1.7720714E0,1.7968622E0,1.1787649E0,1.0681667E0,1.0496546E0,1.3005073E0,2.152329E0,4.6637034E0,1.0006596E0,1.0845104E0,3.7882252E0,7.1801147E0,1.4650804E1,1.0304823E0,5.918914E1,1.3325887E1,8.034236E0,1.7340181E1,1.0845981E1,1.1745977E0,2.3431497E0,1.0596571E0,1.4931357E1,8.565291E0,1.803422E1,1.4418471E0],"tree_param":{"num_deleted":"0","num_feature":"1785","num_nodes":"83","size_leaf_vector":"1"}},{"base_weights":[4.529018E-3,-2.4700715E-1,5.5833034E-2,-3.682776E-1,6.382923E-1,9.259888E-2,-4.9263477E-1,5.462173E-1,-5.037767E-1,1.0733354E0,-6.0332906E-2,6.737917E-2,1.0003817E0,-9.473554E-1,3.8995367E-1,1.2399087E-1,-6.8605326E-2,-7.741412E-1,1.0555316E-2,5.5963923E-3,1.3774562E-1,9.097323E-2,-8.10578E-2,1.339809E-1,-3.2497973E-3,-2.5412774E-2,-1.0057097E-1,-7.266278E-2,1.1657196E-1,2.9559338E-2,-8.8958514E-1,6.610094E-1,-6.316056E-1,1.4103135E-1,-3.292514E-1,2.7537141E-2,-9.769565E-2,1.1173954E-1,-4.4932824E-2,3.6143724E-2,-9.451299E-2,-1.9256832E-2,2.1897744E-2,5.8300216E-2,-5.6675494E-2],"categories":[],"categories_nodes":[],"categories_segments":[],"categories_sizes":[],"default_left":[0,0,0,0,0,0,0,0,0,