{"learner":{"attributes":{},"feature_names":[],"feature_types":[],"gradient_booster":{"model":{"cats":{"enc":[],"feature_segments":[],"sorted_idx":[]},"gbtree_model_param":{"num_parallel_tree":"1","num_trees":"100"},"iteration_indptr":[0,1,2,3,4,5,6,7,8,9,10,11,12,13,14,15,16,17,18,19,20,21,22,23,24,25,26,27,28,29,30,31,32,33,34,35,36,37,38,39,40,41,42,43,44,45,46,47,48,49,50,51,52,53,54,55,56,57,58,59,60,61,62,63,64,65,66,67,68,69,70,71,72,73,74,75,76,77,78,79,80,81,82,83,84,85,86,87,88,89,90,91,92,93,94,95,96,97,98,99,100],"tree_info":[0,0,0,0,0,0,0,0,0,0,0,0,0,0,0,0,0,0,0,0,0,0,0,0,0,0,0,0,0,0,0,0,0,0,0,0,0,0,0,0,0,0,0,0,0,0,0,0,0,0,0,0,0,0,0,0,0,0,0,0,0,0,0,0,0,0,0,0,0,0,0,0,0,0,0,0,0,0,0,0,0,0,0,0,0,0,0,0,0,0,0,0,0,0,0,0,0,0,0,0],"trees":[{"base_weights":[-1.9069198E-8,7.2189415E-1,-9.393639E-2,1.6468786E0,1.8379825E-1,2.3292942E-1,-2.436722E-1,2.7186422E0,2.1993505E-2,-3.5992298E-1,1.2621213E0,-5.7817437E-2,1.0208492E0,2.2707142E-2,-5.221171E-1,2.471033E-2,3.765165E-1,1.5863656E-1,-8.854839E-2,9.733479E-1,-7.263502E-1,2.073559E0,-7.415532E-2,-2.3604912E-1,2.103599E0,1.4895412E0,-4.1270214E-1,-1.975228E-1,8.796911E-1,-5.7782024E-1,1.2829618E-1,2.2459696E-1,-6.583254E-2,5.9081554E-2,-1.06455795E-1,2.9138396E0,8.308235E-3,-3.8637272E-1,1.344015E0,2.996801E-1,-1.45125855E-2,2.0012772E0,-5.835546E-1,-9.15086E-2,8.1131235E-2,-3.1289327E-1,2.1524714E-1,2.4778888E0,2.5019082E-1,7.230018E-1,-6.506679E-1,8.1131235E-2,3.5410914E-1,-6.170025E-2,3.94531E-2,2.4817161E-1,-3.6228232E-2,-1.8068662E-2,2.827657E-1,-1.45125855E-2,-7.168373E-2,1.2663275E-1,-4.4615716E-2,-2.0938719E-2,3.580264E-1,1.4247061E-1,-7.635316E-2,1.9133432E-1,-7.415532E-2,-7.184731E-2,6.672645E-2],"categories":[],"categories_nodes":[],"categories_segments":[],"categories_sizes":[],"default_left":[0,0,0,0,0,0,0,0,0,0,0,0,0,0,0,0,0,0,0,0,0,0,0,0,0,0,0,0,0,0,0,0,0,0,0,0,0,0,0,0,0,0,0,0,0,0,0,0,0,0,0,0,0,0,0,0,0,0,0,0,0,0,0,0,0,0,0,0,0,0,0],"id":0,"left_children":[1,3,5,7,9,11,13,15,17,19,21,23,25,27,29,-1,-1,-1,-1,31,33,35,-1,37,39,41,43,45,47,49,-1,-1,-1,-1,-1,51,-1,53,55,-1,-1,57,59,-1,-1,61,-1,63,65,67,69,-1,-1,-1,-1,-1,-1,-1,-1,-1,-1,-1,-1,-1,-1,-1,-1,-1,-1,-1,-1],"loss_changes":[1.6653723E1,1.3771776E1,1.0692621E1,1.7832792E1,1.159587E1,1.5816437E1,1.11024065E1,1.506126E1,8.632892E0,7.258973E0,1.2255051E1,2.0216711E1,1.310784E1,1.4777285E1,8.0963E0,0E0,0E0,0E0,0E0,8.369599E0,5.57044E0,8.04579E0,0E0,1.1965358E1,8.470184E0,1.6263596E1,4.0411043E0,1.7584303E1,1.5479637E1,7.259947E0,0E0,0E0,0E0,0E0,0E0,1.6835117E0,0E0,8.308298E0,9.459367E0,0E0,0E0,2.1496014E1,1.05828404E-1,0E0,0E0,1.3261222E1,0E0,1.3812782E1,1.6081266E1,8.868534E0,6.5895767E0,0E0,0E0,0E0,0E0,0E0,0E0,0E0,0E0,0E0,0E0,0E0,0E0,0E0,0E0,0E0,0E0,0E0,0E0,0E0,0E0],"parents":[2147483647,0,0,1,1,2,2,3,3,4,4,5,5,6,6,7,7,8,8,9,9,10,10,11,11,12,12,13,13,14,14,19,19,20,20,21,21,23,23,24,24,25,25,26,26,27,27,28,28,29,29,35,35,37,37,38,38,41,41,42,42,45,45,47,47,48,48,49,49,50,50],"right_children":[2,4,6,8,10,12,14,16,18,20,22,24,26,28,30,-1,-1,-1,-1,32,34,36,-1,38,40,42,44,46,48,50,-1,-1,-1,-1,-1,52,-1,54,56,-1,-1,58,60,-1,-1,62,-1,64,66,68,70,-1,-1,-1,-1,-1,-1,-1,-1,-1,-1,-1,-1,-1,-1,-1,-1,-1,-1,-1,-1],"split_conditions":[6E-1,4E-2,4E-2,1E-1,4E-1,1.2E-1,8E-2,6E-2,2E-2,2E-2,5E-1,6E-1,1E-1,4E-1,6E0,2.471033E-2,3.765165E-1,1.5863656E-1,-8.854839E-2,2.3333333E-1,1.3333334E-1,5E-1,-7.415532E-2,6.7E-1,6E-2,4E-1,2.4E-1,2.6E-1,1.6666667E-1,1E-1,1.2829618E-1,2.2459696E-1,-6.583254E-2,5.9081554E-2,-1.06455795E-1,6E-2,8.308235E-3,4E-1,5.5E-1,2.996801E-1,-1.45125855E-2,3.3333334E-1,2E-2,-9.15086E-2,8.1131235E-2,3.55E-1,2.1524714E-1,6E-2,8E-2,4E-2,6E-1,8.1131235E-2,3.5410914E-1,-6.170025E-2,3.94531E-2,2.4817161E-1,-3.6228232E-2,-1.8068662E-2,2.827657E-1,-1.45125855E-2,-7.168373E-2,1.2663275E-1,-4.4615716E-2,-2.0938719E-2,3.580264E-1,1.4247061E-1,-7.635316E-2,1.9133432E-1,-7.415532E-2,-7.184731E-2,6.672645E-2],"split_indices":[933,959,506,130,917,1572,12,1341,1079,965,820,1753,4,1266,113,0,0,0,0,649,634,580,0,218,608,1142,361,952,45,1467,0,0,0,0,0,4,0,1495,1527,0,0,1412,4,0,0,694,0,370,136,376,1381,0,0,0,0,0,0,0,0,0,0,0,0,0,0,0,0,0,0,0,0],"split_type":[0,0,0,0,0,0,0,0,0,0,0,0,0,0,0,0,0,0,0,0,0,0,0,0,0,0,0,0,0,0,0,0,0,0,0,0,0,0,0,0,0,0,0,0,0,0,0,0,0,0,0,0,0,0,0,0,0,0,0,0,0,0,0,0,0,0,0,0,0,0,0],"sum_hessian":[2.4358623E2,2.7277294E1,2.1630894E2,9.27428E0,1.8003014E1,6.778407E1,1.4852487E2,5.182686E0,4.091594E0,1.2411169E1,5.591845E0,5.019022E1,1.7593855E1,7.637642E1,7.2148445E1,1.9094106E0,3.2732754E0,1.2274783E0,2.864116E0,2.31857E0,1.0092599E1,3.9552076E0,1.6366377E0,4.718972E1,3.0005023E0,1.3229487E1,4.364367E0,6.1373913E1,1.5002512E1,7.064819E1,1.5002512E0,1.0910918E0,1.2274783E0,1.9094106E0,8.183188E0,2.4549565E0,1.5002512E0,4.3780056E1,3.4096618E0,1.9094106E0,1.0910918E0,1.06381445E1,2.591343E0,3.2732754E0,1.0910918E0,5.9328114E1,2.045797E0,3.4096618E0,1.159285E1,3.2732754E0,6.7374916E1,1.0910918E0,1.3638647E0,3.396023E1,9.819826E0,1.7730241E0,1.6366377E0,3.1368887E0,7.501256E0,1.0910918E0,1.5002512E0,3.9552076E0,5.5372906E1,1.2274783E0,2.1821835E0,5.182686E0,6.410164E0,1.6366377E0,1.6366377E0,6.45108E1,2.864116E0],"tree_param":{"num_deleted":"0","num_feature":"1785","num_nodes":"71","size_leaf_vector":"1"}},{"base_weights":[6.1207693E-3,6.545254E-1,-8.156282E-2,1.6192226E0,2.1879585E-1,2.1142566E-1,-2.199925E-1,2.735476E0,4.547014E-1,-2.9580486E-1,1.176187E0,4.8700804E-1,-5.2029324E-1,1.3378927E-1,-4.071419E-1,3.268337E-1,7.095318E-2,1.4499674E0,-8.022117E-2,-6.271232E-1,1.1969211E-1,1.8530803E0,-4.6734594E-2,1.7883006E-2,1.0970348E0,1.2590672E-1,-6.963776E-1,-1.244778E-1,1.0934643E0,-4.8809674E-1,9.9439174E-1,2.609488E-1,-2.4316108E-2,8.923869E-2,-9.0796524E-1,2.5694635E0,-2.5020225E-2,-3.808719E-1,8.960777E-1,2.1384773E0,3.5780793E-1,-8.9156556E-1,1.07372664E-1,-3.9492875E-1,8.2569045E-1,-1.8556896E-1,1.8971634E0,-6.4811677E-1,5.5748627E-2,-4.1266498E-1,2.9159063E-1,-1.07463434E-1,3.849165E-2,3.0253735E-1,7.284451E-2,-6.0888756E-2,1.2398421E-1,-2.1314053E-2,1.8190725E-1,-4.3089222E-2,2.877573E-1,1.6817743E-1,-1.8385805E-2,-1.0516163E-1,3.1311873E-2,-5.836715E-2,1.1407991E-1,-2.74813E-2,1.9467132E-1,1.1661776E-1,-8.909892E-2,-1.5577808E-2,2.8355488E-1,2.5423491E-2,-7.578575E-2,1.01555765E-1,-5.3998973E-2,3.889067E-2,-7.99707E-2],"categories":[],"categories_nodes":[],"categories_segments":[],"categories_sizes":[],"default_left":[0,0,0,0,0,0,0,0,0,0,0,0,0,0,0,0,0,0,0,0,0,0,0,0,0,0,0,0,0,0,0,0,0,0,0,0,0,0,0,0,0,0,0,0,0,0,0,0,0,0,0,0,0,0,0,0,0,0,0,0,0,0,0,0,0,0,0,0,0,0,0,0,0,0,0,0,0,0,0],"id":1,"left_children":[1,3,5,7,9,11,13,15,17,19,21,23,25,27,29,-1,-1,31,-1,33,-1,35,-1,37,39,-1,41,43,45,47,49,-1,-1,-1,51,53,-1,55,57,59,61,63,-1,65,67,69,71,73,75,77,-1,-1,-1,-1,-1,-1,-1,-1,-1,-1,-1,-1,-1,-1,-1,-1,-1,-1,-1,-1,-1,-1,-1,-1,-1,-1,-1,-1,-1],"loss_changes":[1.3874947E1,1.1865063E1,8.767954E0,1.0310354E1,1.0783322E1,1.42696705E1,9.755983E0,2.3651085E0,8.105479E0,7.9591184E0,9.32742E0,1.4577925E1,6.986455E0,1.2887453E1,1.1386575E1,0E0,0E0,7.4141755E0,0E0,6.1804223E0,0E0,9.063379E0,0E0,1.0794582E1,1.6293169E1,0E0,7.310361E0,1.0973957E1,1.1671628E1,7.999298E0,1.6278652E1,0E0,0E0,0E0,2.8091173E0,1.3695602E0,0E0,8.600798E0,1.0236519E1,1.8326424E1,1.0464061E1,3.62788E0,0E0,1.0211216E1,1.2260431E1,5.959534E0,1.364086E1,7.201605E0,1.2969809E1,1.5814071E0,0E0,0E0,0E0,0E0,0E0,0E0,0E0,0E0,0E0,0E0,0E0,0E0,0E0,0E0,0E0,0E0,0E0,0E0,0E0,0E0,0E0,0E0,0E0,0E0,0E0,0E0,0E0,0E0,0E0],"parents":[2147483647,0,0,1,1,2,2,3,3,4,4,5,5,6,6,7,7,8,8,9,9,10,10,11,11,12,12,13,13,14,14,17,17,19,19,21,21,23,23,24,24,26,26,27,27,28,28,29,29,30,30,34,34,35,35,37,37,38,38,39,39,40,40,41,41,43,43,44,44,45,45,46,46,47,47,48,48,49,49],"right_children":[2,4,6,8,10,12,14,16,18,20,22,24,26,28,30,-1,-1,32,-1,34,-1,36,-1,38,40,-1,42,44,46,48,50,-1,-1,-1,52,54,-1,56,58,60,62,64,-1,66,68,70,72,74,76,78,-1,-1,-1,-1,-1,-1,-1,-1,-1,-1,-1,-1,-1,-1,-1,-1,-1,-1,-1,-1,-1,-1,-1,-1,-1,-1,-1,-1,-1],"split_conditions":[6E-1,4E-2,4E-2,6E-2,2.3333333E-1,1.4E-1,1.6666667E-1,4E-1,1.2E-1,6.666667E-1,2E-1,8E-2,2.6E-1,1.8E-1,3E-1,3.268337E-1,7.095318E-2,5.1E-1,-8.022117E-2,1E-1,1.1969211E-1,5E-1,-4.6734594E-2,4E-1,7.5E-1,1.2590672E-1,3E-1,1.6E-1,3.3333334E-1,4E-1,3.28E0,2.609488E-1,-2.4316108E-2,8.923869E-2,2.2E-1,6.666667E-1,-2.5020225E-2,2.4E-1,2.3333333E-1,1.3333334E-1,1.6666667E-1,1E0,1.07372664E-1,5.12E0,8E-2,1.3333334E-1,3.3333334E-1,1E-1,4E-2,2E-2,2.9159063E-1,-1.07463434E-1,3.849165E-2,3.0253735E-1,7.284451E-2,-6.0888756E-2,1.2398421E-1,-2.1314053E-2,1.8190725E-1,-4.3089222E-2,2.877573E-1,1.6817743E-1,-1.8385805E-2,-1.0516163E-1,3.1311873E-2,-5.836715E-2,1.1407991E-1,-2.74813E-2,1.9467132E-1,1.1661776E-1,-8.909892E-2,-1.5577808E-2,2.8355488E-1,2.5423491E-2,-7.578575E-2,1.01555765E-1,-5.3998973E-2,3.889067E-2,-7.99707E-2],"split_indices":[933,14,506,478,992,963,1245,1520,3,224,995,1334,350,480,412,0,0,1527,0,283,0,1057,0,1753,821,0,171,263,1058,1147,472,0,0,0,721,1172,0,21,1462,1701,747,219,0,947,1695,62,941,999,1340,149,0,0,0,0,0,0,0,0,0,0,0,0,0,0,0,0,0,0,0,0,0,0,0,0,0,0,0,0,0],"split_type":[0,0,0,0,0,0,0,0,0,0,0,0,0,0,0,0,0,0,0,0,0,0,0,0,0,0,0,0,0,0,0,0,0,0,0,0,0,0,0,0,0,0,0,0,0,0,0,0,0,0,0,0,0,0,0,0,0,0,0,0,0,0,0,0,0,0,0,0,0,0,0,0,0,0,0,0,0,0,0],"sum_hessian":[2.4210434E2,2.8069647E1,2.140347E2,7.8885098E0,2.0181137E1,6.850838E1,1.4552632E2,3.3389456E0,4.5495644E0,1.3575366E1,6.6057706E0,5.000846E1,1.849992E1,5.0447308E1,9.507901E1,2.1580873E0,1.1808583E0,2.4533362E0,2.0962281E0,1.1584096E1,1.99127E0,4.588491E0,2.0172796E0,2.8850817E1,2.1157644E1,1.112056E0,1.7387863E1,4.04356E1,1.0011709E1,9.050314E1,4.5758677E0,1.1348938E0,1.3184423E0,1.4673555E0,1.0116741E1,3.2573762E0,1.3311148E0,2.0230991E1,8.619824E0,7.9975824E0,1.3160062E1,1.6107971E1,1.2798927E0,3.1931221E1,8.504377E0,4.160176E0,5.8515334E0,6.9779594E1,2.0723547E1,3.094855E0,1.4810126E0,9.11102E0,1.0057204E0,2.0952044E0,1.1621718E0,1.8283083E1,1.9479083E0,4.2642713E0,4.355553E0,1.8797786E0,6.1178036E0,3.2097697E0,9.950293E0,1.4331051E1,1.7769196E0,2.8988445E1,2.9427762E0,4.6723785E0,3.8319993E0,1.2025834E0,2.9575922E0,2.0972638E0,3.7542696E0,7.4234014E0,6.2356194E1,7.6667495E0,1.3056798E1,1.0061926E0,2.0886626E0],"tree_param":{"num_deleted":"0","num_feature":"1785","num_nodes":"79","size_leaf_vector":"1"}},{"base_weights":[1.20570185E-2,6.0631573E-1,-7.051897E-2,8.86799E-1,-5.409275E-1,-9.345914E-2,1.614386E-1,-6.1902385E-3,1.3568734E0,-9.588292E-2,7.3553726E-2,5.8155257E-1,-1.5582755E-1,-6.193215E-1,1.4946486E-1,1.8111787E0,-2.4319716E-1,1.4689565E0,-2.7570248E-1,1.4548489E0,-1.8415026E-1,8.1153445E-2,-9.920534E-2,-4.395245E-2,2.2586315E0,8.520203E-2,-8.328269E-2,-2.1939836E-1,2.466653E0,-8.690806E-1,8.092318E-1,2.6809672E-1,-2.6585141E-2,2.5873792E-1,-2.867174E-1,2.8222743E-1,2.928639E-2,-8.2095586E-2,8.479561E-2,-9.899951E-3,3.040018E-1,-9.859612E-2,-8.70899E-3,2.1004815E-1,-4.408097E-2,-2.4756035E-2,9.955901E-2,-5.527563E-2,-2.3530645E-3],"categories":[],"categories_nodes":[],"categories_segments":[],"categories_sizes":[],"default_left":[0,0,0,0,0,0,0,0,0,0,0,0,0,0,0,0,0,0,0,0,0,0,0,0,0,0,0,0,0,0,0,0,0,0,0,0,0,0,0,0,0,0,0,0,0,0,0,0,0],"id":2,"left_children":[1,3,5,7,9,11,-1,13,15,-1,-1,17,19,21,-1,23,25,27,29,31,33,-1,-1,-1,35,-1,-1,37,39,41,43,-1,-1,45,47,-1,-1,-1,-1,-1,-1,-1,-1,-1,-1,-1,-1,-1,-1],"loss_changes":[1.188362E1,9.986222E0,8.374282E0,1.0132566E1,4.132611E0,8.96696E0,0E0,9.495631E0,1.1929632E1,0E0,0E0,1.41320915E1,9.108713E0,4.708461E0,0E0,1.350922E1,3.5360024E0,1.5742502E1,7.154045E0,8.015272E0,8.765795E0,0E0,0E0,0E0,1.0840881E1,0E0,0E0,3.4379964E0,8.76556E0,5.502424E-1,7.480079E0,0E0,0E0,1.3865079E1,1.0898025E1,0E0,0E0,0E0,0E0,0E0,0E0,0E0,0E0,0E0,0E0,0E0,0E0,0E0,0E0],"parents":[2147483647,0,0,1,1,2,2,3,3,4,4,5,5,7,7,8,8,11,11,12,12,13,13,15,15,16,16,17,17,18,18,19,19,20,20,24,24,27,27,28,28,29,29,30,30,33,33,34,34],"right_children":[2,4,6,8,10,12,-1,14,16,-1,-1,18,20,22,-1,24,26,28,30,32,34,-1,-1,-1,36,-1,-1,38,40,42,44,-1,-1,46,48,-1,-1,-1,-1,-1,-1,-1,-1,-1,-1,-1,-1,-1,-1],"split_conditions":[6E-1,2.3333333E-1,8.333333E-1,4E-2,2.6666668E-1,5.3125E-1,1.614386E-1,2.2E-1,5E-1,-9.588292E-2,7.3553726E-2,6E-2,4E-1,1E-1,1.4946486E-1,2E-2,2E-2,6E-2,1.2E-1,4E-2,2E-2,8.1153445E-2,-9.920534E-2,-4.395245E-2,2.3333333E-1,8.520203E-2,-8.328269E-2,1E-1,2E-2,2.6666668E-1,1.6666667E-1,2.6809672E-1,-2.6585141E-2,2E-1,8E-2,2.8222743E-1,2.928639E-2,-8.2095586E-2,8.479561E-2,-9.899951E-3,3.040018E-1,-9.859612E-2,-8.70899E-3,2.1004815E-1,-4.408097E-2,-2.4756035E-2,9.955901E-2,-5.527563E-2,-2.3530645E-3],"split_indices":[933,48,103,26,635,226,0,1081,1057,0,0,497,1409,164,0,976,597,1319,477,956,7,0,0,0,1352,0,0,361,959,999,534,0,0,1017,743,0,0,0,0,0,0,0,0,0,0,0,0,0,0],"split_type":[0,0,0,0,0,0,0,0,0,0,0,0,0,0,0,0,0,0,0,0,0,0,0,0,0,0,0,0,0,0,0,0,0,0,0,0,0,0,0,0,0,0,0,0,0,0,0,0,0],"sum_hessian":[2.4029817E2,2.8543335E1,2.1175484E2,2.3118288E1,5.4250464E0,2.0984235E2,1.9124961E0,8.313038E0,1.480525E1,4.2744684E0,1.1505779E0,1.7044601E1,1.9279774E2,6.3189383E0,1.9940993E0,1.14284525E1,3.376798E0,8.024416E0,9.0201845E0,2.4612746E0,1.9033647E2,1.0625857E0,5.256353E0,1.8981935E0,9.530259E0,1.0260098E0,2.3507879E0,3.270314E0,4.754102E0,5.9596543E0,3.0605307E0,1.1113169E0,1.3499576E0,3.5504467E1,1.54832E2,7.067959E0,2.4623E0,2.2391732E0,1.0311408E0,1.0194912E0,3.734611E0,4.9578E0,1.0018542E0,1.1708026E0,1.8897282E0,2.1438143E1,1.4066325E1,7.645164E1,7.838037E1],"tree_param":{"num_deleted":"0","num_feature":"1785","num_nodes":"49","size_leaf_vector":"1"}},{"base_weights":[1.349333E-2,5.4058975E-1,-6.1820097E-2,2.520761E-1,1.5876735E0,1.585892E-2,-5.3766346E-1,1.0877291E0,-1.7701082E-1,2.1287553E0,-6.0209718E-2,-9.2057966E-2,4.8523057E-1,-7.0414066E-1,1.151623E0,1.889743E0,-3.7604263E-1,-6.2361795E-1,7.8802073E-1,1.9649705E-2,2.677313E-1,-3.5662934E-1,1.6375877E-1,8.7754047E-1,-9.160513E-1,-8.807942E-1,4.2105645E-1,1.8895109E-1,-1.3784011E-2,2.3906742E-1,1.5702778E-2,-7.632946E-2,3.6465265E-2,-8.9284855E-1,5.7595123E-2,-7.776874E-2,1.7254115E0,-5.626929E-1,2.3094855E-1,-2.5415823E-1,6.469243E-1,2.5224766E-1,1.7806547E0,-1.02075614E-1,-1.0175018E-2,3.366862E-2,-9.8995954E-1,1.400393E-1,-7.4007116E-2,2.893939E-2,-1.0596587E-1,2.2013849E-2,2.2719672E-1,-6.640693E-2,1.0498325E-1,-4.2241546E-3,2.3008732E-1,-8.30813E-2,1.5987711E-2,2.0545192E-1,2.7032867E-2,1.7078038E-1,-1.9317694E-2,3.0615363E-1,8.570717E-2,3.884354E-3,-1.070351E-1],"categories":[],"categories_nodes":[],"categories_segments":[],"categories_sizes":[],"default_left":[0,0,0,0,0,0,0,0,0,0,0,0,0,0,0,0,0,0,0,0,0,0,0,0,0,0,0,0,0,0,0,0,0,0,0,0,0,0,0,0,0,0,0,0,0,0,0,0,0,0,0,0,0,0,0,0,0,0,0,0,0,0,0,0,0,0,0],"id":3,"left_children":[1,3,5,7,9,11,13,15,17,19,-1,21,23,25,27,29,31,33,35,-1,-1,37,39,41,43,45,47,-1,-1,-1,-1,-1,-1,49,-1,-1,51,53,55,57,59,61,63,-1,-1,-1,65,-1,-1,-1,-1,-1,-1,-1,-1,-1,-1,-1,-1,-1,-1,-1,-1,-1,-1,-1,-1],"loss_changes":[9.571205E0,8.70509E0,7.8122296E0,9.09152E0,8.772438E0,9.287101E0,9.15116E0,1.0759737E1,7.929514E0,5.081024E0,0E0,1.01562605E1,1.964283E1,5.860244E0,3.1528268E0,4.568552E0,1.3866665E0,4.5048485E0,1.0003809E1,0E0,0E0,9.048313E0,1.5619284E1,1.4958496E1,5.769391E-1,3.5486774E0,6.0670733E0,0E0,0E0,0E0,0E0,0E0,0E0,2.3741188E0,0E0,0E0,2.7926245E0,9.659361E0,1.1312828E1,1.0102836E1,1.8411434E1,1.1537685E1,1.0385853E1,0E0,0E0,0E0,1.8988285E0,0E0,0E0,0E0,0E0,0E0,0E0,0E0,0E0,0E0,0E0,0E0,0E0,0E0,0E0,0E0,0E0,0E0,0E0,0E0,0E0],"parents":[2147483647,0,0,1,1,2,2,3,3,4,4,5,5,6,6,7,7,8,8,9,9,11,11,12,12,13,13,14,14,15,15,16,16,17,17,18,18,21,21,22,22,23,23,24,24,25,25,26,26,33,33,36,36,37,37,38,38,39,39,40,40,41,41,42,42,46,46],"right_children":[2,4,6,8,10,12,14,16,18,20,-1,22,24,26,28,30,32,34,36,-1,-1,38,40,42,44,46,48,-1,-1,-1,-1,-1,-1,50,-1,-1,52,54,56,58,60,62,64,-1,-1,-1,66,-1,-1,-1,-1,-1,-1,-1,-1,-1,-1,-1,-1,-1,-1,-1,-1,-1,-1,-1,-1],"split_conditions":[6E-1,1.6E-1,1.8E-1,4E-2,1.4E-1,1.8E-1,2.8E-1,8E-2,1.2E-1,6E-2,-6.0209718E-2,8E-2,1.6E-1,2.6E-1,1.2E-1,3.3E0,1E-1,8.333333E-1,6E-2,1.9649705E-2,2.677313E-1,4E-1,8E-2,1E-1,1.4E-1,1.3333334E-1,6E-2,1.8895109E-1,-1.3784011E-2,2.3906742E-1,1.5702778E-2,-7.632946E-2,3.6465265E-2,1E-1,5.7595123E-2,-7.776874E-2,2.14E0,3.2E-1,6.666667E-1,2.82E0,1.3333334E-1,2E-2,4E-2,-1.02075614E-1,-1.0175018E-2,3.366862E-2,3.3333334E-1,1.400393E-1,-7.4007116E-2,2.893939E-2,-1.0596587E-1,2.2013849E-2,2.2719672E-1,-6.640693E-2,1.0498325E-1,-4.2241546E-3,2.3008732E-1,-8.30813E-2,1.5987711E-2,2.0545192E-1,2.7032867E-2,1.7078038E-1,-1.9317694E-2,3.0615363E-1,8.570717E-2,3.884354E-3,-1.070351E-1],"split_indices":[933,1091,487,122,597,1219,1200,14,4,733,0,1695,1444,1691,23,826,254,1291,603,0,0,305,842,242,1436,1227,1208,0,0,0,0,0,0,65,0,0,951,1548,937,946,1132,1201,1449,0,0,0,1054,0,0,0,0,0,0,0,0,0,0,0,0,0,0,0,0,0,0,0,0],"split_type":[0,0,0,0,0,0,0,0,0,0,0,0,0,0,0,0,0,0,0,0,0,0,0,0,0,0,0,0,0,0,0,0,0,0,0,0,0,0,0,0,0,0,0,0,0,0,0,0,0,0,0,0,0,0,0,0,0,0,0,0,0,0,0,0,0,0,0],"sum_hessian":[2.39262E2,2.9140236E1,2.1012177E2,2.3818127E1,5.3221097E0,1.8146516E2,2.8656597E1,7.559976E0,1.625815E1,4.289948E0,1.0321617E0,1.481961E2,3.326905E1,2.6616722E1,2.0398738E0,4.695991E0,2.8639855E0,1.1356335E1,4.901815E0,1.248919E0,3.041029E0,7.265775E1,7.553835E1,2.6284163E1,6.984887E0,2.3192722E1,3.424E0,1.0014518E0,1.0384221E0,3.3482723E0,1.3477186E0,1.860673E0,1.0033125E0,9.483545E0,1.8727894E0,1.8994933E0,3.002322E0,5.3824028E1,1.8833729E1,4.075824E1,3.4780113E1,1.6286867E1,9.997296E0,5.96443E0,1.0204575E0,1.7369518E0,2.145577E1,1.7456195E0,1.6783806E0,1.0817717E0,8.401773E0,1.1734068E0,1.828915E0,5.1193752E1,2.6302752E0,1.7503233E1,1.3304961E0,1.6613243E1,2.4144999E1,6.4007277E0,2.8379387E1,3.1521585E0,1.3134709E1,3.21864E0,6.778656E0,1.5925152E0,1.9863255E1],"tree_param":{"num_deleted":"0","num_feature":"1785","num_nodes":"67","size_leaf_vector":"1"}},{"base_weights":[1.6282937E-2,1.8846399E-1,-1.9134668E-1,-2.4394193E-1,3.8593692E-1,-8.2008755E-1,-5.1110685E-2,-4.7888884E-1,6.138922E-1,6.4677554E-1,-1.1981299E-1,4.824658E-1,-1.0013658E0,4.0555635E-1,-3.243608E-1,9.3125516E-1,-6.8350685E-1,-2.4977745E-1,1.9211723E0,1.5741056E0,3.6756966E-1,1.8122503E-1,-2.8936416E-1,-1.5574858E-2,9.052401E-2,-1.10442296E-1,2.04243E-2,-5.123749E-1,7.9013443E-1,-5.8673227E-1,5.184382E-1,1.8804153E0,-6.883942E-2,-8.228697E-1,9.22485E-2,-7.7931195E-1,1.2509948E-1,2.793314E-1,-1.6546126E-2,1.9663355E0,-4.6162993E-2,8.170488E-1,-2.4097252E-1,1.4496352E-1,-4.427031E-1,6.062737E-2,-8.179285E-1,1.346538E0,-1.0661243E-1,-6.7862546E-1,1.0474866E-1,-5.913775E-1,1.4112488E0,6.29804E-2,2.2860141E-1,-9.170832E-2,7.883572E-2,-1.0368927E-2,-9.080416E-2,2.3919943E-1,-3.604984E-2,1.215158E-1,-3.7865605E-2,-6.1985135E-2,8.269422E-2,-6.094219E-2,1.0910232E-1,3.4869947E-2,-1.0230328E-1,-6.3975537E-3,2.1261719E-1,-7.0670344E-2,1.9454359E-1,-8.04281E-2,3.441638E-2,-9.8255955E-2,8.389497E-2,1.9400142E-1,-6.785878E-2],"categories":[],"categories_nodes":[],"categories_segments":[],"categories_sizes":[],"default_left":[0,0,0,0,0,0,0,0,0,0,0,0,0,0,0,0,0,0,0,0,0,0,0,0,0,0,0,0,0,0,0,0,0,0,0,0,0,0,0,0,0,0,0,0,0,0,0,0,0,0,0,0,0,0,0,0,0,0,0,0,0,0,0,0,0,0,0,0,0,0,0,0,0,0,0,0,0,0,0],"id":4,"left_children":[1,3,5,7,9,11,13,15,17,19,21,23,25,27,29,31,33,35,37,39,41,-1,43,-1,-1,-1,-1,45,47,49,51,53,-1,55,-1,57,-1,-1,-1,59,-1,61,63,-1,65,-1,67,69,71,73,-1,75,77,-1,-1,-1,-1,-1,-1,-1,-1,-1,-1,-1,-1,-1,-1,-1,-1,-1,-1,-1,-1,-1,-1,-1,-1,-1,-1],"loss_changes":[8.565383E0,1.1273981E1,9.538338E0,8.690415E0,1.1985684E1,5.1462164E0,1.1350355E1,1.0234854E1,1.1087523E1,1.488138E1,1.0862451E1,9.740606E-1,2.4198837E0,1.2443132E1,1.286513E1,8.425328E0,7.389968E0,6.1742406E0,7.473528E0,1.1697533E1,1.3106646E1,0E0,8.608057E0,0E0,0E0,0E0,0E0,4.144794E0,1.2330936E1,7.2866383E0,1.4722864E1,1.796999E-1,0E0,4.9414062E0,0E0,3.800397E-1,0E0,0E0,0E0,1.2272293E1,0E0,1.3490862E1,8.937822E0,0E0,7.8807893E0,0E0,2.4649577E0,1.679263E1,1.4032791E1,5.682781E0,0E0,4.714937E0,1.022629E1,0E0,0E0,0E0,0E0,0E0,0E0,0E0,0E0,0E0,0E0,0E0,0E0,0E0,0E0,0E0,0E0,0E0,0E0,0E0,0E0,0E0,0E0,0E0,0E0,0E0,0E0],"parents":[2147483647,0,0,1,1,2,2,3,3,4,4,5,5,6,6,7,7,8,8,9,9,10,10,11,11,12,12,13,13,14,14,15,15,16,16,17,17,18,18,19,19,20,20,22,22,27,27,28,28,29,29,30,30,31,31,33,33,35,35,39,39,41,41,42,42,44,44,46,46,47,47,48,48,49,49,51,51,52,52],"right_children":[2,4,6,8,10,12,14,16,18,20,22,24,26,28,30,32,34,36,38,40,42,-1,44,-1,-1,-1,-1,46,48,50,52,54,-1,56,-1,58,-1,-1,-1,60,-1,62,64,-1,66,-1,68,70,72,74,-1,76,78,-1,-1,-1,-1,-1,-1,-1,-1,-1,-1,-1,-1,-1,-1,-1,-1,-1,-1,-1,-1,-1,-1,-1,-1,-1,-1],"split_conditions":[8E-2,5E-1,2E-2,2.3333333E-1,1E-1,1.3333334E-1,4E-2,3.6E-1,1.2E-1,2E-2,5E-1,6E-2,3E-1,4E-2,1.2E-1,8E-2,2.8E-1,1.2E-1,1E-1,2.6666668E-1,8.125E-1,1.8122503E-1,1E-1,-1.5574858E-2,9.052401E-2,-1.10442296E-1,2.04243E-2,2E-2,5.1E-1,6E-1,6E-2,1.2E-1,-6.883942E-2,2.8E-1,9.22485E-2,1.3333334E-1,1.2509948E-1,2.793314E-1,-1.6546126E-2,1.6E-1,-4.6162993E-2,2.3333333E-1,2.3333333E-1,1.4496352E-1,8.333333E-1,6.062737E-2,2E-2,1.6666667E-1,2.2E-1,6E-1,1.0474866E-1,1.2E-1,1.6E-1,6.29804E-2,2.2860141E-1,-9.170832E-2,7.883572E-2,-1.0368927E-2,-9.080416E-2,2.3919943E-1,-3.604984E-2,1.215158E-1,-3.7865605E-2,-6.1985135E-2,8.269422E-2,-6.094219E-2,1.0910232E-1,3.4869947E-2,-1.0230328E-1,-6.3975537E-3,2.1261719E-1,-7.0670344E-2,1.9454359E-1,-8.04281E-2,3.441638E-2,-9.8255955E-2,8.389497E-2,1.9400142E-1,-6.785878E-2],"split_indices":[12,1291,371,422,136,294,1449,1419,1335,1547,345,270,1596,26,600,1551,6,488,1572,638,821,0,159,0,0,0,0,1565,1765,307,22,1064,0,5,0,407,0,0,0,1086,0,180,294,0,1529,0,1082,1370,1445,71,0,9,603,0,0,0,0,0,0,0,0,0,0,0,0,0,0,0,0,0,0,0,0,0,0,0,0,0,0],"split_type":[0,0,0,0,0,0,0,0,0,0,0,0,0,0,0,0,0,0,0,0,0,0,0,0,0,0,0,0,0,0,0,0,0,0,0,0,0,0,0,0,0,0,0,0,0,0,0,0,0,0,0,0,0,0,0,0,0,0,0,0,0,0,0,0,0,0,0,0,0,0,0,0,0,0,0,0,0,0,0],"sum_hessian":[2.3758315E2,1.2992911E2,1.0765404E2,4.066022E1,8.926889E1,1.8748444E1,8.8905594E1,3.2265083E1,8.395138E0,5.8710384E1,3.0558508E1,2.087499E0,1.6660944E1,3.310123E1,5.5804363E1,3.6385422E0,2.8626541E1,5.5424128E0,2.8527255E0,1.25130005E1,4.6197384E1,1.683721E0,2.8874786E1,1.0834861E0,1.0040128E0,1.5426218E1,1.2347261E0,9.675333E0,2.34259E1,4.2787903E1,1.30164585E1,2.1926095E0,1.4459325E0,2.6789461E1,1.8370796E0,4.452214E0,1.0901991E0,1.7730013E0,1.0797242E0,1.0520149E1,1.9928505E0,2.637428E1,1.9823105E1,1.6547422E0,2.7220045E1,1.8646321E0,7.810701E0,1.4146719E1,9.279181E0,4.106361E1,1.7242941E0,5.953515E0,7.062944E0,1.1621245E0,1.030485E0,2.5716553E1,1.0729091E0,1.0014901E0,3.4507234E0,8.86959E0,1.6505594E0,1.9774202E1,6.600078E0,1.4941627E1,4.8814783E0,2.5094841E1,2.1252024E0,1.0631905E0,6.7475104E0,5.362616E0,8.784102E0,7.686878E0,1.5923026E0,3.6760956E1,4.3026547E0,4.920778E0,1.0327374E0,5.6939626E0,1.3689814E0],"tree_param":{"num_deleted":"0","num_feature":"1785","num_nodes":"79","size_leaf_vector":"1"}},{"base_weights":[1.8123217E-2,2.3651445E-1,-1.3519785E-1,1.6877957E-1,1.7927744E0,5.254216E-2,-4.3516886E-1,8.7451115E-2,1.4303768E0,-1.6824339E-2,2.632887E-1,3.2639238E-1,-3.204179E-1,7.7979416E-2,-8.0018604E-1,5.155486E-1,-1.5085208E-1,-5.9389472E-2,2.0185623E0,9.146147E-1,-1.8713016E-2,-4.7226664E-1,1.2212614E0,-3.00775E-1,1.1098825E0,-9.346943E-1,4.3083408E-1,1.5077795E0,8.470464E-2,6.536302E-1,-3.4390277E-1,2.2061106E-2,2.594999E-1,1.4269022E0,-2.6016814E-1,-3.9459142E-1,1.0693594E0,-6.2570786E-1,1.0718565E0,-2.093502E-2,2.0050724E-1,1.0148885E0,-5.478614E-1,-2.6083657E-1,1.969837E0,-1.0244017E0,1.8707309E-2,1.4547966E-1,-6.904358E-2,2.1801554E-1,1.786554E-2,-1.1621797E-2,2.2854288E-1,-2.7199028E-2,1.5393528E-1,4.5603752E-2,-5.308486E-2,5.9187163E-2,2.5514674E-1,1.3091277E-1,-7.889311E-2,-6.8659216E-2,7.2990045E-2,1.7031723E-1,-7.591167E-2,-7.2895214E-2,1.1776426E-1,-2.0844249E-2,1.8321589E-1,-6.03082E-2,2.0851938E-1,-9.229085E-2,4.317323E-2,-6.71556E-2,3.4338254E-2,2.9355714E-2,2.521198E-1,-1.0904534E-1,-6.4826566E-3],"categories":[],"categories_nodes":[],"categories_segments":[],"categories_sizes":[],"default_left":[0,0,0,0,0,0,0,0,0,0,0,0,0,0,0,0,0,0,0,0,0,0,0,0,0,0,0,0,0,0,0,0,0,0,0,0,0,0,0,0,0,0,0,0,0,0,0,0,0,0,0,0,0,0,0,0,0,0,0,0,0,0,0,0,0,0,0,0,0,0,0,0,0,0,0,0,0,0,0],"id":5,"left_children":[1,3,5,7,9,11,13,15,17,-1,-1,19,21,23,25,27,29,-1,31,33,35,37,39,41,43,45,47,49,51,53,55,-1,-1,57,59,61,63,65,67,-1,-1,69,71,73,75,77,-1,-1,-1,-1,-1,-1,-1,-1,-1,-1,-1,-1,-1,-1,-1,-1,-1,-1,-1,-1,-1,-1,-1,-1,-1,-1,-1,-1,-1,-1,-1,-1,-1],"loss_changes":[7.959251E0,1.0029572E1,7.892115E0,9.625517E0,7.0068283E0,8.97359E0,1.0157638E1,9.29415E0,7.973668E0,0E0,0E0,1.0281994E1,9.301679E0,9.445722E0,5.632246E0,1.3779734E1,9.358214E0,0E0,4.2325935E0,1.1635812E1,1.3856606E1,8.880153E0,4.479671E0,6.3557863E0,8.143705E0,3.088522E0,5.3621774E0,8.359375E0,1.07639475E1,1.0032173E1,7.4327283E0,0E0,0E0,1.0873934E1,6.4508095E0,8.757635E0,1.1379726E1,6.8440523E0,3.7893267E0,0E0,0E0,6.74953E0,6.1553297E0,1.0690084E0,3.044077E0,1.6285744E0,0E0,0E0,0E0,0E0,0E0,0E0,0E0,0E0,0E0,0E0,0E0,0E0,0E0,0E0,0E0,0E0,0E0,0E0,0E0,0E0,0E0,0E0,0E0,0E0,0E0,0E0,0E0,0E0,0E0,0E0,0E0,0E0,0E0],"parents":[2147483647,0,0,1,1,2,2,3,3,4,4,5,5,6,6,7,7,8,8,11,11,12,12,13,13,14,14,15,15,16,16,18,18,19,19,20,20,21,21,22,22,23,23,24,24,25,25,26,26,27,27,28,28,29,29,30,30,33,33,34,34,35,35,36,36,37,37,38,38,41,41,42,42,43,43,44,44,45,45],"right_children":[2,4,6,8,10,12,14,16,18,-1,-1,20,22,24,26,28,30,-1,32,34,36,38,40,42,44,46,48,50,52,54,56,-1,-1,58,60,62,64,66,68,-1,-1,70,72,74,76,78,-1,-1,-1,-1,-1,-1,-1,-1,-1,-1,-1,-1,-1,-1,-1,-1,-1,-1,-1,-1,-1,-1,-1,-1,-1,-1,-1,-1,-1,-1,-1,-1,-1],"split_conditions":[6E-2,6E-1,1E-1,6E-1,1E-1,8E-2,6E-2,2E-1,4E-2,-1.6824339E-2,2.632887E-1,4E-2,2.6E-1,4E-1,2E-1,4.6E-1,2E-2,-5.9389472E-2,4E-2,2.3333333E-1,5.85E-1,3E-1,3.3333334E-1,1.3333334E-1,6E-2,2E-1,7.5E-1,8E-2,5.48E0,8E-2,2E-2,2.2061106E-2,2.594999E-1,6.666667E-1,2E-2,2E-1,1.8E-1,3.6666667E-1,8.75E-1,-2.093502E-2,2.0050724E-1,6E-2,1.4E-1,8E-2,6E-2,6E-1,1.8707309E-2,1.4547966E-1,-6.904358E-2,2.1801554E-1,1.786554E-2,-1.1621797E-2,2.2854288E-1,-2.7199028E-2,1.5393528E-1,4.5603752E-2,-5.308486E-2,5.9187163E-2,2.5514674E-1,1.3091277E-1,-7.889311E-2,-6.8659216E-2,7.2990045E-2,1.7031723E-1,-7.591167E-2,-7.2895214E-2,1.1776426E-1,-2.0844249E-2,1.8321589E-1,-6.03082E-2,2.0851938E-1,-9.229085E-2,4.317323E-2,-6.71556E-2,3.4338254E-2,2.9355714E-2,2.521198E-1,-1.0904534E-1,-6.4826566E-3],"split_indices":[148,1030,1439,913,32,1206,128,1117,269,0,0,249,1690,192,616,218,1672,0,974,396,218,650,1293,420,1221,1666,464,953,1538,1201,1432,0,0,1648,1451,1572,487,522,1654,0,0,17,614,150,1099,453,0,0,0,0,0,0,0,0,0,0,0,0,0,0,0,0,0,0,0,0,0,0,0,0,0,0,0,0,0,0,0,0,0],"split_type":[0,0,0,0,0,0,0,0,0,0,0,0,0,0,0,0,0,0,0,0,0,0,0,0,0,0,0,0,0,0,0,0,0,0,0,0,0,0,0,0,0,0,0,0,0,0,0,0,0,0,0,0,0,0,0,0,0,0,0,0,0,0,0,0,0,0,0,0,0,0,0,0,0,0,0,0,0,0,0],"sum_hessian":[2.357483E2,9.701586E1,1.3873244E2,9.403166E1,2.9841957E0,8.583595E1,5.2896492E1,8.9341606E1,4.690059E0,1.1348735E0,1.8493223E0,4.9566235E1,3.626972E1,2.2313751E1,3.0582739E1,3.1532299E1,5.7809303E1,1.0537652E0,3.6362941E0,1.7717321E1,3.1848913E1,3.3649094E1,2.6206226E0,1.684091E1,5.472841E0,2.778726E1,2.7954786E0,8.789814E0,2.2742485E1,1.0726007E1,4.7083298E1,1.2184788E0,2.4178152E0,1.2187924E1,5.5293965E0,2.4145214E1,7.7037E0,3.1148605E1,2.5004897E0,1.1870061E0,1.4336164E0,2.1714015E0,1.4669509E1,2.3784351E0,3.094406E0,2.5810038E1,1.9772233E0,1.305667E0,1.4898115E0,5.411803E0,3.3780115E0,2.170779E1,1.0346955E0,5.5837016E0,5.142306E0,8.646322E0,3.8436974E1,7.8702726E0,4.3176517E0,1.0215992E0,4.5077972E0,1.9476978E1,4.668235E0,5.771595E0,1.9321046E0,3.0025389E1,1.1232157E0,1.2020907E0,1.2983991E0,1.0383182E0,1.1330832E0,1.06499405E1,4.019569E0,1.349598E0,1.0288371E0,1.1451814E0,1.9492245E0,2.4020227E1,1.7898097E0],"tree_param":{"num_deleted":"0","num_feature":"1785","num_nodes":"79","size_leaf_vector":"1"}},{"base_weights":[2.2907019E-2,2.7698317E-1,-1.0541968E-1,9.997085E-1,9.945176E-2,-3.3874094E-1,1.457436E-1,2.011244E0,2.583987E-1,-8.522002E-2,7.418174E-1,-4.1001102E-1,8.601258E-1,-1.2681302E-1,6.538137E-1,1.7076254E-2,2.4438636E0,-6.639592E-1,1.3231883E0,3.7475926E-1,-4.993249E-1,1.4087929E0,-6.0229015E-1,-6.151025E-1,2.2230368E-2,1.8938665E-1,-4.4707693E-2,3.972716E-1,-5.2567255E-1,1.2524782E-1,1.4447838E0,7.43597E-2,2.7559936E-1,3.530706E-2,-9.3572475E-2,-2.6836893E-2,1.943876E0,-5.0919163E-1,8.3182454E-1,-7.6290137E-1,3.5448152E-1,1.8162161E0,-3.685093E-2,-9.078433E-2,3.7634697E-2,-7.226023E-1,4.4166017E-1,5.252159E-1,-5.4338974E-1,1.5456982E0,-4.2518685E-3,-7.395883E-1,3.2459843E-1,1.61753E0,-2.3822728E-1,-6.4933196E-2,1.7875906E0,6.0872253E-2,2.3460884E-1,-1.0032784E-1,8.64063E-2,1.193975E-1,-6.2948756E-2,-9.253114E-2,6.932531E-2,9.695717E-2,-7.850411E-2,1.0319333E-2,2.390753E-1,-8.0280446E-2,4.4936825E-2,-3.9273962E-2,1.5939988E-1,-7.6389755E-3,1.4743789E-1,6.2668644E-2,-9.5056765E-2,2.132871E-1,-5.875793E-2,-4.1297402E-2,1.0366147E-1,-9.585348E-2,4.7466826E-2,1.7651032E-1,-5.469004E-2,2.2574022E-1,1.9022873E-2,-9.8005824E-2,2.9180923E-2,9.06038E-3,2.2911644E-1],"categories":[],"categories_nodes":[],"categories_segments":[],"categories_sizes":[],"default_left":[0,0,0,0,0,0,0,0,0,0,0,0,0,0,0,0,0,0,0,0,0,0,0,0,0,0,0,0,0,0,0,0,0,0,0,0,0,0,0,0,0,0,0,0,0,0,0,0,0,0,0,0,0,0,0,0,0,0,0,0,0,0,0,0,0,0,0,0,0,0,0,0,0,0,0,0,0,0,0,0,0,0,0,0,0,0,0,0,0,0,0],"id":6,"left_children":[1,3,5,7,9,11,13,15,17,19,21,23,25,27,29,-1,31,33,35,37,39,41,43,45,47,-1,-1,49,51,53,55,-1,-1,-1,-1,-1,57,59,61,63,65,67,-1,-1,-1,69,71,73,75,77,79,81,83,85,87,-1,89,-1,-1,-1,-1,-1,-1,-1,-1,-1,-1,-1,-1,-1,-1,-1,-1,-1,-1,-1,-1,-1,-1,-1,-1,-1,-1,-1,-1,-1,-1,-1,-1,-1,-1],"loss_changes":[7.673305E0,1.0030571E1,9.220307E0,1.1072285E1,7.713782E0,7.3103456E0,1.0616309E1,4.670906E0,1.0766929E1,9.899473E0,1.3850987E1,6.8873796E0,7.457363E0,1.0732706E1,1.0990478E1,0E0,6.567364E-1,2.0055785E0,5.468396E0,1.0414115E1,6.4053864E0,7.905449E0,1.989506E0,6.29706E0,7.658668E0,0E0,0E0,1.0301792E1,5.5180836E0,9.667119E0,8.776432E0,0E0,0E0,0E0,0E0,0E0,5.716591E-1,7.006266E0,9.578537E0,5.6428223E0,5.746953E0,7.9203377E0,0E0,0E0,0E0,4.88587E0,5.894499E0,8.236206E0,6.6417456E0,8.5014925E0,7.890044E0,6.700015E0,9.160607E0,2.7488508E0,6.039321E0,0E0,7.8105087E0,0E0,0E0,0E0,0E0,0E0,0E0,0E0,0E0,0E0,0E0,0E0,0E0,0E0,0E0,0E0,0E0,0E0,0E0,0E0,0E0,0E0,0E0,0E0,0E0,0E0,0E0,0E0,0E0,0E0,0E0,0E0,0E0,0E0,0E0],"parents":[2147483647,0,0,1,1,2,2,3,3,4,4,5,5,6,6,7,7,8,8,9,9,10,10,11,11,12,12,13,13,14,14,16,16,17,17,18,18,19,19,20,20,21,21,22,22,23,23,24,24,27,27,28,28,29,29,30,30,36,36,37,37,38,38,39,39,40,40,41,41,45,45,46,46,47,47,48,48,49,49,50,50,51,51,52,52,53,53,54,54,56,56],"right_children":[2,4,6,8,10,12,14,16,18,20,22,24,26,28,30,-1,32,34,36,38,40,42,44,46,48,-1,-1,50,52,54,56,-1,-1,-1,-1,-1,58,60,62,64,66,68,-1,-1,-1,70,72,74,76,78,80,82,84,86,88,-1,90,-1,-1,-1,-1,-1,-1,-1,-1,-1,-1,-1,-1,-1,-1,-1,-1,-1,-1,-1,-1,-1,-1,-1,-1,-1,-1,-1,-1,-1,-1,-1,-1,-1,-1],"split_conditions":[4E-2,2E-2,2E-1,4.55E-1,4E-1,6E-1,1E-1,1.6666667E-1,1.2E-1,2E-1,1.2E-1,1E-1,1E-1,4.8E-1,1.4E-1,1.7076254E-2,1.6666667E-1,2E-2,1.6666667E-1,4E-2,2.3333333E-1,1.2E-1,1.8E-1,6.16E0,6E-2,1.8938665E-1,-4.4707693E-2,1.6666667E-1,4.52E0,1.6666667E-1,2E-2,7.43597E-2,2.7559936E-1,3.530706E-2,-9.3572475E-2,-2.6836893E-2,8E-1,6.05E-1,4E-1,1E0,6E-2,4E-2,-3.685093E-2,-9.078433E-2,3.7634697E-2,3E-1,1E-1,5E-1,2E-2,1E-1,4E-1,1.8E-1,4.36E0,4E-2,2.1E0,-6.4933196E-2,4E-2,6.0872253E-2,2.3460884E-1,-1.0032784E-1,8.64063E-2,1.193975E-1,-6.2948756E-2,-9.253114E-2,6.932531E-2,9.695717E-2,-7.850411E-2,1.0319333E-2,2.390753E-1,-8.0280446E-2,4.4936825E-2,-3.9273962E-2,1.5939988E-1,-7.6389755E-3,1.4743789E-1,6.2668644E-2,-9.5056765E-2,2.132871E-1,-5.875793E-2,-4.1297402E-2,1.0366147E-1,-9.585348E-2,4.7466826E-2,1.7651032E-1,-5.469004E-2,2.2574022E-1,1.9022873E-2,-9.8005824E-2,2.9180923E-2,9.06038E-3,2.2911644E-1],"split_indices":[506,122,282,1527,1521,926,714,1468,1200,1580,1668,845,368,1765,480,0,1716,244,539,1096,1710,7,491,592,1199,0,0,752,1658,525,738,0,0,0,0,0,1052,218,1638,219,1577,384,0,0,0,22,1437,1055,1317,255,1512,597,1665,1314,1546,0,253,0,0,0,0,0,0,0,0,0,0,0,0,0,0,0,0,0,0,0,0,0,0,0,0,0,0,0,0,0,0,0,0,0,0],"split_type":[0,0,0,0,0,0,0,0,0,0,0,0,0,0,0,0,0,0,0,0,0,0,0,0,0,0,0,0,0,0,0,0,0,0,0,0,0,0,0,0,0,0,0,0,0,0,0,0,0,0,0,0,0,0,0,0,0,0,0,0,0,0,0,0,0,0,0,0,0,0,0,0,0,0,0,0,0,0,0,0,0,0,0,0,0,0,0,0,0,0,0],"sum_hessian":[2.3344757E2,7.795156E1,1.55496E2,1.4458847E1,6.3492714E1,8.043045E1,7.506556E1,5.3904076E0,9.0684395E0,4.998889E1,1.3503822E1,7.653841E1,3.8920426E0,4.934474E1,2.5720818E1,1.291354E0,4.0990534E0,5.060928E0,4.0075116E0,2.372768E1,2.6261213E1,8.993116E0,4.5107055E0,5.1621693E1,2.4916712E1,1.9227399E0,1.9693029E0,2.1326542E1,2.8018198E1,1.611219E1,9.608627E0,1.1603897E0,2.938664E0,1.0041012E0,4.056827E0,1.2836428E0,2.7238688E0,8.048353E0,1.5679327E1,2.014788E1,6.1133323E0,7.2982044E0,1.6949124E0,3.4925804E0,1.018125E0,4.7142326E1,4.4793673E0,1.3226392E1,1.1690319E1,4.786563E0,1.653998E1,2.2490173E1,5.5280247E0,2.4800253E0,1.3632165E1,1.2258817E0,8.382746E0,1.2124728E0,1.5113959E0,6.11694E0,1.9314139E0,1.271193E1,2.9673972E0,1.8454174E1,1.6937069E0,4.067126E0,2.0462062E0,2.1292644E0,5.16894E0,4.4417664E1,2.7246637E0,2.980436E0,1.498931E0,8.658141E0,4.56825E0,2.878757E0,8.811563E0,3.7535968E0,1.0329661E0,1.2309564E1,4.2304163E0,1.9232838E1,3.2573347E0,1.6972563E0,3.8307683E0,1.3107958E0,1.1692295E0,5.3272243E0,8.304941E0,2.1883094E0,6.1944366E0],"tree_param":{"num_deleted":"0","num_feature":"1785","num_nodes":"91","size_leaf_vector":"1"}},{"base_weights":[2.5098652E-2,6.362919E-1,-2.4275253E-2,1.2742401E0,-3.0400562E-1,-2.1099012E-1,1.56269E-1,-1.1028979E-1,1.7911096E0,-8.0917794E-1,8.5411035E-2,-3.579098E-1,4.032397E-1,5.6728818E-2,1.1664047E0,7.745077E-2,-7.361439E-2,2.3585124E0,1.4092319E-1,-1.124578E-2,-9.272225E-2,2.6711413E-1,-4.9549678E-1,-2.3170239E-1,1.1404792E0,-3.0325964E-1,3.2052943E-1,-4.539932E-1,1.6404564E0,6.1477304E-2,2.690011E-1,-5.9303742E-2,8.196606E-2,1.2833856E0,-4.0747017E-1,-5.9622085E-1,5.6993216E-1,-8.904403E-1,7.361343E-1,-6.894236E-2,1.5355157E0,-4.3859765E-1,9.210485E-1,-2.0244353E-1,6.339243E-1,-8.97513E-3,-5.912406E-2,2.2421322E0,2.547159E-1,-4.0551517E-2,1.9544367E-1,-7.346039E-2,1.3236575E-1,9.637723E-3,-7.399141E-2,-4.4645324E-2,1.6859442E-1,-1.0695139E-2,-9.953588E-2,1.6721329E-1,-3.1524133E-2,-3.2544058E-2,1.9564219E-1,-6.752932E-2,2.6387969E-2,1.6014399E-1,-6.251036E-2,-5.2550912E-2,8.066889E-2,3.0081077E-2,1.3930061E-1,2.2570226E-2,2.7201426E-1,1.2802668E-1,-6.8814956E-2],"categories":[],"categories_nodes":[],"categories_segments":[],"categories_sizes":[],"default_left":[0,0,0,0,0,0,0,0,0,0,0,0,0,0,0,0,0,0,0,0,0,0,0,0,0,0,0,0,0,0,0,0,0,0,0,0,0,0,0,0,0,0,0,0,0,0,0,0,0,0,0,0,0,0,0,0,0,0,0,0,0,0,0,0,0,0,0,0,0,0,0,0,0,0,0],"id":7,"left_children":[1,3,5,7,9,11,13,15,17,19,-1,21,23,25,27,-1,-1,29,31,-1,-1,33,35,37,39,41,43,45,47,-1,-1,-1,-1,49,51,53,55,57,59,-1,61,63,65,67,69,-1,-1,71,73,-1,-1,-1,-1,-1,-1,-1,-1,-1,-1,-1,-1,-1,-1,-1,-1,-1,-1,-1,-1,-1,-1,-1,-1,-1,-1],"loss_changes":[7.010486E0,1.0802528E1,7.2954426E0,7.73806E0,5.2694654E0,9.7402115E0,1.1004615E1,2.6779265E0,6.9060287E0,3.8609076E-1,0E0,7.5571127E0,1.0092232E1,9.715077E0,8.292134E0,0E0,0E0,1.6348362E0,2.0012918E0,0E0,0E0,1.1647328E1,7.971203E0,8.377109E0,8.203469E0,7.5859222E0,9.787376E0,9.7263336E-2,5.9475136E0,0E0,0E0,0E0,0E0,8.402684E0,6.9253635E0,6.585909E0,8.299718E0,5.2313614E-1,5.8927174E0,0E0,7.246763E0,6.7804546E0,5.879174E0,7.870428E0,8.9602375E0,0E0,0E0,4.516943E0,4.260616E0,0E0,0E0,0E0,0E0,0E0,0E0,0E0,0E0,0E0,0E0,0E0,0E0,0E0,0E0,0E0,0E0,0E0,0E0,0E0,0E0,0E0,0E0,0E0,0E0,0E0,0E0],"parents":[2147483647,0,0,1,1,2,2,3,3,4,4,5,5,6,6,7,7,8,8,9,9,11,11,12,12,13,13,14,14,17,17,18,18,21,21,22,22,23,23,24,24,25,25,26,26,27,27,28,28,33,33,34,34,35,35,36,36,37,37,38,38,40,40,41,41,42,42,43,43,44,44,47,47,48,48],"right_children":[2,4,6,8,10,12,14,16,18,20,-1,22,24,26,28,-1,-1,30,32,-1,-1,34,36,38,40,42,44,46,48,-1,-1,-1,-1,50,52,54,56,58,60,-1,62,64,66,68,70,-1,-1,72,74,-1,-1,-1,-1,-1,-1,-1,-1,-1,-1,-1,-1,-1,-1,-1,-1,-1,-1,-1,-1,-1,-1,-1,-1,-1,-1],"split_conditions":[3.45E-1,6E-2,8E-2,3.3333334E-1,2.3333333E-1,2E-1,6.666667E-1,4E-2,2E-1,1.3333334E-1,8.5411035E-2,2E-2,1E-1,6E-2,4E-2,7.745077E-2,-7.361439E-2,3.3333334E-1,1.2E-1,-1.124578E-2,-9.272225E-2,1.6666667E-1,2.4E-1,4E-1,2E-2,2.6E-1,2.04E0,2E-1,5E-1,6.1477304E-2,2.690011E-1,-5.9303742E-2,8.196606E-2,2E-1,2.4E-1,2E-2,1.4E-1,5E-1,4E-2,-6.894236E-2,2E-2,1.4E-1,5.9E-1,1.8E-1,1.4E-1,-8.97513E-3,-5.912406E-2,4E-2,4E-2,-4.0551517E-2,1.9544367E-1,-7.346039E-2,1.3236575E-1,9.637723E-3,-7.399141E-2,-4.4645324E-2,1.6859442E-1,-1.0695139E-2,-9.953588E-2,1.6721329E-1,-3.1524133E-2,-3.2544058E-2,1.9564219E-1,-6.752932E-2,2.6387969E-2,1.6014399E-1,-6.251036E-2,-5.2550912E-2,8.066889E-2,3.0081077E-2,1.3930061E-1,2.2570226E-2,2.7201426E-1,1.2802668E-1,-6.8814956E-2],"split_indices":[1051,238,1695,582,1344,1219,343,1566,175,290,0,1680,20,737,612,0,0,461,1559,0,0,414,1097,196,861,266,590,1115,1296,0,0,0,0,401,1310,7,1319,815,1196,0,263,245,1170,717,1572,0,0,1689,974,0,0,0,0,0,0,0,0,0,0,0,0,0,0,0,0,0,0,0,0,0,0,0,0,0,0],"split_type":[0,0,0,0,0,0,0,0,0,0,0,0,0,0,0,0,0,0,0,0,0,0,0,0,0,0,0,0,0,0,0,0,0,0,0,0,0,0,0,0,0,0,0,0,0,0,0,0,0,0,0,0,0,0,0,0,0,0,0,0,0,0,0,0,0,0,0,0,0,0,0,0,0,0,0],"sum_hessian":[2.308004E2,1.6362604E1,2.1443779E2,9.537027E0,6.825576E0,1.05334526E2,1.0910327E2,2.8063424E0,6.730685E0,4.9623065E0,1.8632693E0,8.533925E1,1.9995275E1,1.002779E2,8.825365E0,1.0642476E0,1.7420946E0,4.6891274E0,2.041558E0,1.0018544E0,3.960452E0,1.5226696E1,7.011256E1,1.1111389E1,8.883886E0,4.2344303E1,5.79336E1,2.0070848E0,6.81828E0,1.2050235E0,3.4841037E0,1.0415401E0,1.0000179E0,5.7147913E0,9.511905E0,6.445908E1,5.653473E0,6.6590285E0,4.4523606E0,1.4450159E0,7.4388704E0,3.8707268E1,3.6370368E0,2.1840921E1,3.6092678E1,1.0019474E0,1.0051374E0,4.323189E0,2.4950912E0,1.7375152E0,3.9772763E0,8.484269E0,1.0276351E0,1.1132067E1,5.3327015E1,3.2727962E0,2.3806765E0,1.0248959E0,5.6341324E0,2.0430708E0,2.4092898E0,1.4139905E0,6.02488E0,2.8980991E1,9.726276E0,2.500793E0,1.1362437E0,1.69074E1,4.9335213E0,2.6055035E1,1.0037644E1,1.1105667E0,3.2126222E0,1.0237336E0,1.4713576E0],"tree_param":{"num_deleted":"0","num_feature":"1785","num_nodes":"75","size_leaf_vector":"1"}},{"base_weights":[2.5943892E-2,-7.50206E-2,3.198303E-1,-1.885501E-1,3.2933134E-1,5.776225E-2,9.342433E-1,6.943256E-1,-2.6557332E-1,5.6665707E-1,-5.716811E-1,6.8519956E-1,-3.6403188E-1,-7.74193E-2,1.207205E0,-2.9771796E-1,1.4783474E0,2.9553595E-1,-3.9127135E-1,1.4385984E0,2.5503707E-1,-9.8186865E-2,6.5586224E-2,9.7885734E-1,-8.050358E-2,-7.460011E-1,2.8045326E-1,1.7637112E0,1.6415258E-1,5.7775833E-2,-8.630878E-2,2.0529568E0,-6.2983386E-2,9.5614016E-1,-2.9796633E-1,-4.5310095E-1,8.3048815E-1,-2.7834618E-2,1.8216529E0,-5.392873E-1,6.0002583E-1,-2.4166605E-1,1.4635894E0,6.556841E-2,-9.016054E-1,-2.8161326E-1,1.4031534E0,2.1815588E0,1.04526274E-1,1.3461395E-1,-5.2496314E-1,5.9527505E-2,2.3134194E-1,-3.8220298E-2,1.4780265E-1,-5.3442627E-2,1.1894156E-1,-5.3461384E-2,4.6696767E-2,1.6150074E-1,-4.0627472E-2,2.2313486E-1,1.0515307E-2,-8.4881954E-2,7.373223E-2,-1.2405413E-2,1.15153275E-1,1.04143456E-1,-8.696772E-2,1.8742709E-1,-1.5473737E-2,-1.07014894E-1,5.2211612E-2,1.1013358E-1,-6.9474764E-2,1.8608402E-2,1.8819366E-1,1.1693192E-2,2.5643066E-1,-5.8834493E-2,7.676595E-2,3.6297165E-2,-8.583697E-2],"categories":[],"categories_nodes":[],"categories_segments":[],"categories_sizes":[],"default_left":[0,0,0,0,0,0,0,0,0,0,0,0,0,0,0,0,0,0,0,0,0,0,0,0,0,0,0,0,0,0,0,0,0,0,0,0,0,0,0,0,0,0,0,0,0,0,0,0,0,0,0,0,0,0,0,0,0,0,0,0,0,0,0,0,0,0,0,0,0,0,0,0,0,0,0,0,0,0,0,0,0,0,0],"id":8,"left_children":[1,3,5,7,9,11,13,15,17,19,21,23,25,-1,27,29,31,33,35,37,39,-1,-1,41,-1,43,45,47,49,-1,-1,51,-1,53,55,57,59,-1,61,63,65,67,69,-1,71,73,75,77,79,-1,81,-1,-1,-1,-1,-1,-1,-1,-1,-1,-1,-1,-1,-1,-1,-1,-1,-1,-1,-1,-1,-1,-1,-1,-1,-1,-1,-1,-1,-1,-1,-1,-1],"loss_changes":[6.8373833E0,7.9449425E0,9.430834E0,9.344919E0,8.4513E0,1.1459567E1,9.117328E0,9.0625725E0,8.9053955E0,7.9437666E0,4.8845606E0,8.391723E0,6.605612E0,0E0,8.719425E0,3.332896E0,8.997163E0,9.450748E0,8.100029E0,5.6616516E0,6.831462E0,0E0,0E0,9.208114E0,0E0,4.209031E0,6.955229E0,6.7172565E0,6.0029626E0,0E0,0E0,6.094742E-1,0E0,8.45838E0,5.234876E0,7.5969753E0,5.7772894E0,0E0,4.3648853E0,3.6755567E0,6.9438105E0,5.0254064E0,7.5035515E0,0E0,4.2423763E0,5.1990247E0,1.7681737E0,5.9842567E0,1.8602252E0,0E0,1.7405581E0,0E0,0E0,0E0,0E0,0E0,0E0,0E0,0E0,0E0,0E0,0E0,0E0,0E0,0E0,0E0,0E0,0E0,0E0,0E0,0E0,0E0,0E0,0E0,0E0,0E0,0E0,0E0,0E0,0E0,0E0,0E0,0E0],"parents":[2147483647,0,0,1,1,2,2,3,3,4,4,5,5,6,6,7,7,8,8,9,9,10,10,11,11,12,12,14,14,15,15,16,16,17,17,18,18,19,19,20,20,23,23,25,25,26,26,27,27,28,28,31,31,33,33,34,34,35,35,36,36,38,38,39,39,40,40,41,41,42,42,44,44,45,45,46,46,47,47,48,48,50,50],"right_children":[2,4,6,8,10,12,14,16,18,20,22,24,26,-1,28,30,32,34,36,38,40,-1,-1,42,-1,44,46,48,50,-1,-1,52,-1,54,56,58,60,-1,62,64,66,68,70,-1,72,74,76,78,80,-1,82,-1,-1,-1,-1,-1,-1,-1,-1,-1,-1,-1,-1,-1,-1,-1,-1,-1,-1,-1,-1,-1,-1,-1,-1,-1,-1,-1,-1,-1,-1,-1,-1],"split_conditions":[4E-1,1.6E-1,4E-1,5E-1,1.6E-1,6E-2,2E-2,8E-2,2E-2,2E-2,4E-1,2.6666668E-1,1E-1,-7.74193E-2,5.3E-1,4E-2,2E-1,1.6666667E-1,5.56E0,1.6666667E-1,5E-1,-9.8186865E-2,6.5586224E-2,1.6666667E-1,-8.050358E-2,1.3333334E-1,4E-1,5E-1,4E-2,5.7775833E-2,-8.630878E-2,4E-2,-6.2983386E-2,3.3333334E-1,2E-1,2.8E-1,5.2E-1,-2.7834618E-2,4.76E0,1.8E-1,6E-2,1.3333334E-1,5.5E-1,6.556841E-2,2.6666668E-1,2E-2,2E-1,2E-2,2.3333333E-1,1.3461395E-1,2E-2,5.9527505E-2,2.3134194E-1,-3.8220298E-2,1.4780265E-1,-5.3442627E-2,1.1894156E-1,-5.3461384E-2,4.6696767E-2,1.6150074E-1,-4.0627472E-2,2.2313486E-1,1.0515307E-2,-8.4881954E-2,7.373223E-2,-1.2405413E-2,1.15153275E-1,1.04143456E-1,-8.696772E-2,1.8742709E-1,-1.5473737E-2,-1.07014894E-1,5.2211612E-2,1.1013358E-1,-6.9474764E-2,1.8608402E-2,1.8819366E-1,1.1693192E-2,2.5643066E-1,-5.8834493E-2,7.676595E-2,3.6297165E-2,-8.583697E-2],"split_indices":[1019,480,313,226,12,1312,861,597,955,1192,77,292,957,0,1765,732,1243,894,1538,1708,1292,0,0,513,0,1230,306,1177,139,0,0,124,0,698,744,1219,813,0,1419,974,244,398,1646,0,894,147,1468,1204,998,0,1436,0,0,0,0,0,0,0,0,0,0,0,0,0,0,0,0,0,0,0,0,0,0,0,0,0,0,0,0,0,0,0,0],"split_type":[0,0,0,0,0,0,0,0,0,0,0,0,0,0,0,0,0,0,0,0,0,0,0,0,0,0,0,0,0,0,0,0,0,0,0,0,0,0,0,0,0,0,0,0,0,0,0,0,0,0,0,0,0,0,0,0,0,0,0,0,0,0,0,0,0,0,0,0,0,0,0,0,0,0,0,0,0,0,0,0,0,0,0],"sum_hessian":[2.2862282E2,1.7071762E2,5.79052E1,1.3370976E2,3.7007862E1,4.1358433E1,1.6546766E1,1.0085911E1,1.2362385E2,2.9586021E1,7.4218397E0,1.6375166E1,2.4983269E1,2.02655E0,1.4520217E1,4.7261086E0,5.3598027E0,2.237809E1,1.0124576E2,6.8375144E0,2.2748507E1,5.712968E0,1.7088715E0,1.3966212E1,2.4089544E0,1.5587472E1,9.395796E0,9.017919E0,5.5022984E0,1.8458673E0,2.8802412E0,4.232406E0,1.1273963E0,1.0301206E1,1.2076884E1,9.696765E1,4.278101E0,1.2970712E0,5.5404434E0,6.717802E0,1.6030704E1,4.112543E0,9.853669E0,1.2363771E0,1.4351094E1,6.760431E0,2.6353652E0,6.952235E0,2.065683E0,1.6753205E0,3.826978E0,1.139672E0,3.092734E0,2.965087E0,7.336119E0,1.0973104E1,1.1037809E0,8.946086E1,7.506791E0,2.4305127E0,1.8475881E0,4.230712E0,1.309731E0,5.676542E0,1.0412601E0,7.2660656E0,8.76464E0,1.1350983E0,2.977445E0,7.7330947E0,2.120574E0,1.3054068E1,1.2970271E0,1.1718638E0,5.5885673E0,1.1360867E0,1.4992785E0,1.2914374E0,5.660798E0,1.065344E0,1.0003389E0,1.0204964E0,2.8064816E0],"tree_param":{"num_deleted":"0","num_feature":"1785","num_nodes":"83","size_leaf_vector":"1"}},{"base_weights":[2.7349466E-2,-3.388571E-1,9.897155E-2,3.6173916E-1,-6.3628656E-1,4.7362622E-2,7.294449E-1,1.5285517E0,-4.2042547E-1,-8.793105E-1,1.0139209E-1,2.8504083E-1,-1.2756953E-1,1.1009418E0,-6.288325E-1,2.1983428E-1,4.2046386E-1,4.356671E-1,-9.2946045E-2,-1.0389934E0,1.3962206E-1,9.404406E-1,-6.8158257E-1,4.1147172E-2,7.286961E-1,4.9669194E-1,-2.618893E-1,1.430224E0,-6.9258444E-2,-7.241863E-2,-1.8507715E-2,-5.8208775E-2,1.2175907E-1,1.3208437E-1,-6.4465836E-2,-1.4914189E-2,-1.08438864E-1,1.0485109E-1,-6.8920195E-2,1.6887806E-1,-6.0254227E-2,-1.0156674E-2,-8.209847E-2,6.1208916E-1,-2.412087E-1,-1.1171259E-1,1.0440974E0,9.37179E-1,-3.3162898E-1,-6.832737E-1,-6.950772E-2,1.9317687E0,1.0378279E-1,-6.4390846E-2,9.582788E-2,-4.61254E-2,6.799609E-2,-6.692433E-2,1.1200831E-1,1.3369033E-1,-1.4458403E-2,-1.2574171E-2,1.5399891E-1,1.1054238E-1,-7.90391E-2,-8.8905536E-2,6.028185E-2,-2.0802287E-2,8.4521584E-2,2.2528537E-1,1.7180912E-2,-7.041837E-2,1.0205736E-1],"categories":[],"categories_nodes":[],"categories_segments":[],"categories_sizes":[],"default_left":[0,0,0,0,0,0,0,0,0,0,0,0,0,0,0,0,0,0,0,0,0,0,0,0,0,0,0,0,0,0,0,0,0,0,0,0,0,0,0,0,0,0,0,0,0,0,0,0,0,0,0,0,0,0,0,0,0,0,0,0,0,0,0,0,0,0,0,0,0,0,0,0,0],"id":9,"left_children":[1,3,5,7,9,11,13,15,17,19,21,23,25,27,29,-1,31,33,-1,35,37,39,41,43,45,47,49,51,-1,-1,-1,-1,-1,-1,-1,-1,-1,-1,-1,-1,-1,-1,-1,53,55,57,59,61,63,65,67,69,71,-1,-1,-1,-1,-1,-1,-1,-1,-1,-1,-1,-1,-1,-1,-1,-1,-1,-1,-1,-1],"loss_changes":[5.9840436E0,8.010761E0,6.165029E0,1.1380014E1,4.8531084E0,7.4033284E0,7.9317536E0,2.740098E0,3.8161674E0,3.4141455E0,5.5561333E0,8.131876E0,8.7462635E0,7.8585367E0,2.3280263E-2,0E0,3.1833985E0,4.2938547E0,0E0,5.4471207E-1,3.4373052E0,5.6729174E0,2.7642012E-1,8.164957E0,7.1931868E0,7.0753865E0,6.860703E0,6.553108E0,0E0,0E0,0E0,0E0,0E0,0E0,0E0,0E0,0E0,0E0,0E0,0E0,0E0,0E0,0E0,7.8954453E0,7.204056E0,6.37324E0,6.9833546E0,8.116325E0,5.604003E0,7.575038E0,7.7297306E0,3.743555E0,3.5646455E0,0E0,0E0,0E0,0E0,0E0,0E0,0E0,0E0,0E0,0E0,0E0,0E0,0E0,0E0,0E0,0E0,0E0,0E0,0E0,0E0],"parents":[2147483647,0,0,1,1,2,2,3,3,4,4,5,5,6,6,7,7,8,8,9,9,10,10,11,11,12,12,13,13,14,14,16,16,17,17,19,19,20,20,21,21,22,22,23,23,24,24,25,25,26,26,27,27,43,43,44,44,45,45,46,46,47,47,48,48,49,49,50,50,51,51,52,52],"right_children":[2,4,6,8,10,12,14,16,18,20,22,24,26,28,30,-1,32,34,-1,36,38,40,42,44,46,48,50,52,-1,-1,-1,-1,-1,-1,-1,-1,-1,-1,-1,-1,-1,-1,-1,54,56,58,60,62,64,66,68,70,72,-1,-1,-1,-1,-1,-1,-1,-1,-1,-1,-1,-1,-1,-1,-1,-1,-1,-1,-1,-1],"split_conditions":[2E-2,1.6666667E-1,6.666667E-1,4E-2,4E-1,6E-2,4E-1,4E-2,4E-2,1.6E-1,6E-2,1.2E-1,2E-2,1.6E-1,2.3333333E-1,2.1983428E-1,1.2E-1,6E-2,-9.2946045E-2,1E-1,2E-2,8E-2,7.1875E-1,1.6666667E-1,4.85E-1,8E-2,5E-1,4E-1,-6.9258444E-2,-7.241863E-2,-1.8507715E-2,-5.8208775E-2,1.2175907E-1,1.3208437E-1,-6.4465836E-2,-1.4914189E-2,-1.08438864E-1,1.0485109E-1,-6.8920195E-2,1.6887806E-1,-6.0254227E-2,-1.0156674E-2,-8.209847E-2,4E-2,2E-1,5.95E-1,2.3333333E-1,6E-2,3.95E-1,2.6E-1,5E0,4E-1,1.4E-1,-6.4390846E-2,9.582788E-2,-4.61254E-2,6.799609E-2,-6.692433E-2,1.1200831E-1,1.3369033E-1,-1.4458403E-2,-1.2574171E-2,1.5399891E-1,1.1054238E-1,-7.90391E-2,-8.8905536E-2,6.028185E-2,-2.0802287E-2,8.4521584E-2,2.2528537E-1,1.7180912E-2,-7.041837E-2,1.0205736E-1],"split_indices":[1575,1358,698,963,1140,389,317,720,388,362,27,242,122,141,1350,0,1197,968,0,55,249,1561,226,541,456,625,1291,911,0,0,0,0,0,0,0,0,0,0,0,0,0,0,0,483,970,1051,866,740,1051,6,114,206,23,0,0,0,0,0,0,0,0,0,0,0,0,0,0,0,0,0,0,0,0],"split_type":[0,0,0,0,0,0,0,0,0,0,0,0,0,0,0,0,0,0,0,0,0,0,0,0,0,0,0,0,0,0,0,0,0,0,0,0,0,0,0,0,0,0,0,0,0,0,0,0,0,0,0,0,0,0,0,0,0,0,0,0,0,0,0,0,0,0,0,0,0,0,0,0,0],"sum_hessian":[2.2587196E2,3.633884E1,1.8953313E2,1.0765184E1,2.5573654E1,1.761861E2,1.3347018E1,3.9373262E0,6.827858E0,1.9091932E1,6.4817224E0,7.4429794E1,1.0175631E2,1.0629299E1,2.7177188E0,1.8407602E0,2.096566E0,2.5997474E0,4.228111E0,1.6488272E1,2.6036603E0,3.0317438E0,3.4499788E0,4.8732494E1,2.56973E1,1.7539997E1,8.421631E1,9.151665E0,1.4776347E0,1.7168533E0,1.0008657E0,1.0481141E0,1.048452E0,1.3065643E0,1.293183E0,1.00832E0,1.5479952E1,1.1154255E0,1.4882349E0,1.9779539E0,1.0537899E0,1.0034541E0,2.4465246E0,1.5739139E1,3.299336E1,7.188596E0,1.8508705E1,1.136491E1,6.1750875E0,2.5597342E1,5.861897E1,6.3095765E0,2.8420882E0,3.2149851E0,1.2524154E1,2.7034693E1,5.958665E0,5.2631164E0,1.9254793E0,1.4750538E1,3.7581675E0,4.3992405E0,6.9656696E0,1.1531894E0,5.0218983E0,2.2332703E1,3.2646375E0,5.1580757E1,7.038209E0,5.099221E0,1.2103555E0,1.6339732E0,1.2081149E0],"tree_param":{"num_deleted":"0","num_feature":"1785","num_nodes":"73","size_leaf_vector":"1"}},{"base_weights":[2.6007857E-2,2.1093383E-1,-1.0940012E-1,1.3808184E0,1.485981E-1,-2.1281141E-1,3.3815646E-1,5.5817296E-3,1.9208588E-1,-3.5944974E-1,3.1446105E-1,-3.5635966E-1,3.139247E-1,-5.7900834E-1,7.4703693E-1,4.959631E-1,-6.03021E-1,4.9192876E-1,-2.7082264E-1,-6.8890584E-1,4.048042E-2,6.006738E-1,-7.58621E-1,-8.716724E-1,7.638134E-2,-3.2001933E-1,1.1861821E0,1.2335478E0,-7.247759E-2,3.0325398E-1,-9.4117755E-1,1.1130701E0,2.2853078E-1,4.915214E-1,-7.238703E-1,-1.671439E-2,-8.58506E-1,-1.5138967E-1,1.0834551E0,-3.8730514E-1,1.012477E0,-1.1567797E-2,-8.809204E-2,-9.704123E-2,-1.3182387E-2,1.0192197E-1,-8.9668095E-2,1.4781363E0,-3.811772E-2,-2.2416173E-2,1.8767402E-1,1.0175561E-1,-7.425513E-2,-1.0644727E-1,2.915628E-2,1.5642084E-1,1.031918E-2,6.623131E-2,-3.2239478E-2,-6.8971075E-2,9.5353134E-2,6.0958173E-2,-9.502304E-2,9.233119E-2,-6.1538815E-2,-9.8391466E-2,-7.699719E-3,-3.0383727E-2,1.3434832E-1,1.5631999E-1,-6.019467E-2,-8.930849E-2,6.508653E-2,1.5432307E-1,-1.1478401E-2,-1.0611909E-2,1.8025056E-1],"categories":[],"categories_nodes":[],"categories_segments":[],"categories_sizes":[],"default_left":[0,0,0,0,0,0,0,0,0,0,0,0,0,0,0,0,0,0,0,0,0,0,0,0,0,0,0,0,0,0,0,0,0,0,0,0,0,0,0,0,0,0,0,0,0,0,0,0,0,0,0,0,0,0,0,0,0,0,0,0,0,0,0,0,0,0,0,0,0,0,0,0,0,0,0,0,0],"id":10,"left_children":[1,3,5,7,9,11,13,-1,-1,15,17,19,21,23,25,27,29,31,33,35,37,39,41,43,-1,45,47,49,-1,51,53,55,57,59,61,63,65,67,69,71,73,-1,-1,-1,-1,-1,-1,75,-1,-1,-1,-1,-1,-1,-1,-1,-1,-1,-1,-1,-1,-1,-1,-1,-1,-1,-1,-1,-1,-1,-1,-1,-1,-1,-1,-1,-1],"loss_changes":[5.650119E0,6.746945E0,6.106553E0,3.2573652E0,7.8343353E0,8.166653E0,9.754737E0,0E0,0E0,5.0950823E0,7.3636723E0,1.1137203E1,7.635679E0,3.8995063E0,8.640943E0,5.981639E0,5.914575E0,8.542796E0,6.172392E0,5.213501E0,8.033635E0,8.113759E0,3.2009435E-1,3.9973164E-1,0E0,5.4918313E0,6.3760033E0,4.0700808E0,0E0,5.0491633E0,2.3805628E0,7.015688E0,9.537815E0,4.4087024E0,3.8898077E0,6.341566E0,3.5111275E0,8.1775E0,5.9807043E0,3.8928514E0,8.357166E0,0E0,0E0,0E0,0E0,0E0,0E0,5.799206E0,0E0,0E0,0E0,0E0,0E0,0E0,0E0,0E0,0E0,0E0,0E0,0E0,0E0,0E0,0E0,0E0,0E0,0E0,0E0,0E0,0E0,0E0,0E0,0E0,0E0,0E0,0E0,0E0,0E0],"parents":[2147483647,0,0,1,1,2,2,3,3,4,4,5,5,6,6,9,9,10,10,11,11,12,12,13,13,14,14,15,15,16,16,17,17,18,18,19,19,20,20,21,21,22,22,23,23,25,25,26,26,27,27,29,29,30,30,31,31,32,32,33,33,34,34,35,35,36,36,37,37,38,38,39,39,40,40,47,47],"right_children":[2,4,6,8,10,12,14,-1,-1,16,18,20,22,24,26,28,30,32,34,36,38,40,42,44,-1,46,48,50,-1,52,54,56,58,60,62,64,66,68,70,72,74,-1,-1,-1,-1,-1,-1,76,-1,-1,-1,-1,-1,-1,-1,-1,-1,-1,-1,-1,-1,-1,-1,-1,-1,-1,-1,-1,-1,-1,-1,-1,-1,-1,-1,-1,-1],"split_conditions":[6E-2,2.8E-1,2.2E-1,1E-1,5E-1,4E-1,3.3333334E-1,5.5817296E-3,1.9208588E-1,2E-2,5.75E-1,2E-1,1.4E-1,3E-1,5E-1,6E-2,2E-2,1.3333334E-1,4E-2,2E-2,2.6E-1,4E-2,4E-2,1.4E-1,7.638134E-2,5E-1,2.3333333E-1,8E-2,-7.247759E-2,1.6666667E-1,6E-1,1E-1,6E-2,6E-2,1E-1,5E-1,2.2E-1,3E-1,8E-2,1.4E-1,2E-1,-1.1567797E-2,-8.809204E-2,-9.704123E-2,-1.3182387E-2,1.0192197E-1,-8.9668095E-2,6.875E-1,-3.811772E-2,-2.2416173E-2,1.8767402E-1,1.0175561E-1,-7.425513E-2,-1.0644727E-1,2.915628E-2,1.5642084E-1,1.031918E-2,6.623131E-2,-3.2239478E-2,-6.8971075E-2,9.5353134E-2,6.0958173E-2,-9.502304E-2,9.233119E-2,-6.1538815E-2,-9.8391466E-2,-7.699719E-3,-3.0383727E-2,1.3434832E-1,1.5631999E-1,-6.019467E-2,-8.930849E-2,6.508653E-2,1.5432307E-1,-1.1478401E-2,-1.0611909E-2,1.8025056E-1],"split_indices":[148,1299,1698,354,102,93,1293,0,0,140,1527,401,1677,1236,339,1216,142,418,1340,841,862,129,30,487,0,697,1364,1557,0,1016,79,1312,1076,1334,533,458,383,888,1210,477,410,0,0,0,0,0,0,464,0,0,0,0,0,0,0,0,0,0,0,0,0,0,0,0,0,0,0,0,0,0,0,0,0,0,0,0,0],"split_type":[0,0,0,0,0,0,0,0,0,0,0,0,0,0,0,0,0,0,0,0,0,0,0,0,0,0,0,0,0,0,0,0,0,0,0,0,0,0,0,0,0,0,0,0,0,0,0,0,0,0,0,0,0,0,0,0,0,0,0,0,0,0,0,0,0,0,0,0,0,0,0,0,0,0,0,0,0],"sum_hessian":[2.237181E2,9.433183E1,1.2938626E2,3.7020664E0,9.062977E1,1.0552778E2,2.3858477E1,1.3914559E0,2.3106105E0,2.2018545E1,6.861123E1,8.318211E1,2.2345669E1,7.228364E0,1.6630114E1,4.6503797E0,1.7368164E1,5.2769993E1,1.5841232E1,4.4856796E1,3.8325317E1,1.7978899E1,4.3667703E0,6.2229543E0,1.0054095E0,4.927734E0,1.1702379E1,2.8923159E0,1.7580639E0,4.7475986E0,1.2620566E1,1.4753259E1,3.8016735E1,5.8732996E0,9.967933E0,9.258863E0,3.559793E1,3.3092354E1,5.232963E0,5.3067307E0,1.2672168E1,1.0088708E0,3.3578997E0,5.215288E0,1.0076663E0,1.2521929E0,3.6755412E0,9.912829E0,1.7895502E0,1.0849369E0,1.807379E0,2.8369365E0,1.9106622E0,1.1597152E1,1.0234149E0,9.818277E0,4.934981E0,2.1156532E1,1.6860203E1,1.5127548E0,4.360545E0,1.2008632E0,8.76707E0,3.3914347E0,5.8674293E0,3.0452267E1,5.145664E0,3.0752909E1,2.3394442E0,4.129904E0,1.103059E0,3.6622791E0,1.6444516E0,8.364746E0,4.3074217E0,1.799027E0,8.113802E0],"tree_param":{"num_deleted":"0","num_feature":"1785","num_nodes":"77","size_leaf_vector":"1"}},{"base_weights":[2.4458326E-2,1.6260073E-1,-1.4938541E-1,-3.7130588E-1,2.654291E-1,-7.521179E-1,-2.5883382E-2,1.22837566E-1,-5.8031005E-1,4.4030544E-1,-2.2176896E-1,3.5429147E-1,-9.4231933E-1,2.1606839E-1,-4.017679E-1,-7.837831E-1,8.802419E-2,-6.3754874E-1,5.200565E-1,-5.301538E-1,4.102375E-1,-6.1313536E-2,1.1812855E-1,-1.05045095E-1,1.5983086E-2,-5.9479856E-1,3.6220774E-1,1.9393745E-1,-7.196238E-1,2.3444675E-1,-1.0662661E-1,2.855857E-2,-8.996116E-2,1.0721627E0,3.4138873E-1,-7.6346266E-1,7.578979E-1,8.4704816E-1,-7.848822E-2,3.610931E-2,-8.5565114E-1,5.7983905E-1,-3.5330677E-1,8.4828234E-1,-6.398194E-1,-1.407288E-1,-1.0551798E-1,-5.282333E-2,1.07815765E-1,4.5775007E-2,1.6182654E-1,6.638003E-2,-5.996437E-3,-9.545426E-2,4.59966E-2,1.5832569E-1,-2.6776848E-2,-6.773108E-2,1.3122125E-1,-9.520905E-2,-1.5288727E-2,7.843462E-2,-4.8375066E-2,-7.95028E-2,8.9119025E-2,-6.369401E-2,1.2657362E-1,-9.112614E-2,3.407713E-2,-6.6283904E-2,6.442975E-2],"categories":[],"categories_nodes":[],"categories_segments":[],"categories_sizes":[],"default_left":[0,0,0,0,0,0,0,0,0,0,0,0,0,0,0,0,0,0,0,0,0,0,0,0,0,0,0,0,0,0,0,0,0,0,0,0,0,0,0,0,0,0,0,0,0,0,0,0,0,0,0,0,0,0,0,0,0,0,0,0,0,0,0,0,0,0,0,0,0,0,0],"id":11,"left_children":[1,3,5,7,9,11,13,-1,15,17,19,21,23,25,27,29,-1,31,33,35,37,-1,-1,-1,-1,39,41,43,45,47,-1,-1,-1,49,51,53,55,57,-1,-1,59,61,63,65,67,69,-1,-1,-1,-1,-1,-1,-1,-1,-1,-1,-1,-1,-1,-1,-1,-1,-1,-1,-1,-1,-1,-1,-1,-1,-1],"loss_changes":[5.358323E0,6.919566E0,7.3401537E0,7.560521E0,9.023254E0,3.8645678E0,7.643555E0,0E0,6.275065E0,6.9870358E0,5.7402244E0,3.2747848E0,1.9066658E0,6.28281E0,6.3670306E0,5.146802E0,0E0,1.6560128E0,6.7996407E0,6.432636E0,5.81011E0,0E0,0E0,0E0,0E0,2.352917E0,7.057156E0,7.215425E0,4.0586386E0,3.4761722E0,0E0,0E0,0E0,5.061653E0,7.3313904E0,4.411044E0,3.377697E0,6.347895E0,0E0,0E0,3.1100512E-1,7.8009634E0,6.691809E0,5.321523E0,1.8937671E0,4.1574216E0,0E0,0E0,0E0,0E0,0E0,0E0,0E0,0E0,0E0,0E0,0E0,0E0,0E0,0E0,0E0,0E0,0E0,0E0,0E0,0E0,0E0,0E0,0E0,0E0,0E0],"parents":[2147483647,0,0,1,1,2,2,3,3,4,4,5,5,6,6,8,8,9,9,10,10,11,11,12,12,13,13,14,14,15,15,17,17,18,18,19,19,20,20,25,25,26,26,27,27,28,28,29,29,33,33,34,34,35,35,36,36,37,37,40,40,41,41,42,42,43,43,44,44,45,45],"right_children":[2,4,6,8,10,12,14,-1,16,18,20,22,24,26,28,30,-1,32,34,36,38,-1,-1,-1,-1,40,42,44,46,48,-1,-1,-1,50,52,54,56,58,-1,-1,60,62,64,66,68,70,-1,-1,-1,-1,-1,-1,-1,-1,-1,-1,-1,-1,-1,-1,-1,-1,-1,-1,-1,-1,-1,-1,-1,-1,-1],"split_conditions":[8E-2,2E-2,2E-2,1.4E-1,5E-1,1.3333334E-1,8E-2,1.22837566E-1,4.9E0,1E-1,1E-1,1E-1,3E-1,2E-2,4E-2,4.3E-1,8.802419E-2,2E-2,1.6666667E-1,8.333333E-1,1.2E-1,-6.1313536E-2,1.1812855E-1,-1.05045095E-1,1.5983086E-2,5.9375E-1,1.2E-1,8.4375E-1,7.5E-1,5.45E-1,-1.0662661E-1,2.855857E-2,-8.996116E-2,8E-2,8E-2,2.4E-1,2E-1,1.6666667E-1,-7.848822E-2,3.610931E-2,2E-1,1.6E-1,4E-1,2E-2,9.375E-1,2E-1,-1.0551798E-1,-5.282333E-2,1.07815765E-1,4.5775007E-2,1.6182654E-1,6.638003E-2,-5.996437E-3,-9.545426E-2,4.59966E-2,1.5832569E-1,-2.6776848E-2,-6.773108E-2,1.3122125E-1,-9.520905E-2,-1.5288727E-2,7.843462E-2,-4.8375066E-2,-7.95028E-2,8.9119025E-2,-6.369401E-2,1.2657362E-1,-9.112614E-2,3.407713E-2,-6.6283904E-2,6.442975E-2],"split_indices":[12,1098,371,1659,1534,175,1568,0,1546,289,246,606,1596,1697,840,932,0,1212,276,935,1558,0,0,0,0,940,1692,1416,226,1408,0,0,0,1097,128,980,1699,641,0,0,122,1320,573,483,1178,987,0,0,0,0,0,0,0,0,0,0,0,0,0,0,0,0,0,0,0,0,0,0,0,0,0],"split_type":[0,0,0,0,0,0,0,0,0,0,0,0,0,0,0,0,0,0,0,0,0,0,0,0,0,0,0,0,0,0,0,0,0,0,0,0,0,0,0,0,0,0,0,0,0,0,0,0,0,0,0,0,0,0,0,0,0,0,0,0,0,0,0,0,0,0,0,0,0,0,0],"sum_hessian":[2.211108E2,1.2324256E2,9.786824E1,1.9481192E1,1.0376137E2,1.5777699E1,8.209054E1,1.6875668E0,1.7793625E1,7.642529E1,2.7336077E1,2.1878977E0,1.3589802E1,5.0201614E1,3.1888924E1,1.6024567E1,1.7690567E0,4.783321E0,7.1641975E1,1.8479998E1,8.856078E0,1.1275153E0,1.0603824E0,1.2418349E1,1.171452E0,7.1972065E0,4.3004406E1,1.1230776E1,2.0658148E1,3.517074E0,1.2507493E1,1.0378087E0,3.7455122E0,1.6293156E1,5.534882E1,1.5990807E1,2.4891918E0,6.698904E0,2.157174E0,1.4605942E0,5.7366123E0,3.3120174E1,9.884232E0,6.282642E0,4.9481335E0,8.10131E0,1.2556838E1,2.0436316E0,1.4734426E0,8.532062E0,7.7610936E0,3.0330263E1,2.5018555E1,1.4020768E1,1.9700385E0,1.0780457E0,1.411146E0,1.4596184E0,5.2392855E0,4.7324104E0,1.0042019E0,2.7999062E1,5.1211143E0,7.561516E0,2.322716E0,1.2630774E0,5.0195646E0,3.9307468E0,1.0173868E0,4.9588766E0,3.1424334E0],"tree_param":{"num_deleted":"0","num_feature":"1785","num_nodes":"71","size_leaf_vector":"1"}},{"base_weights":[2.1336576E-2,6.27244E-2,-5.3879964E-1,2.6613674E-1,-7.886265E-2,8.1042933E-1,-9.7366434E-1,4.795397E-1,-5.2823596E-2,1.761117E-2,-5.5512154E-1,-3.3913206E-2,1.539767E-1,-1.03944324E-1,-1.3540737E-2,-3.5602233E-1,6.97799E-1,5.391856E-1,-3.8026568E-1,1.8698728E-1,-4.4196618E-1,-7.072516E-1,7.542878E-2,-8.2787484E-1,7.556351E-1,1.9565408E-1,1.0579293E0,-1.9129455E-1,1.1608766E0,-6.165192E-1,7.4481285E-1,-4.6834832E-1,3.1589764E-1,-6.6454184E-1,5.22546E-1,-8.715168E-1,6.333984E-2,-9.926405E-2,1.8390018E-2,1.5384077E-1,-6.0348388E-2,-2.4916483E-2,1.2399524E-1,1.21205464E-1,-6.952839E-2,8.967204E-2,-9.004593E-2,2.0129262E-1,-5.9640274E-4,-8.065041E-2,4.4129316E-2,1.4237113E-1,-6.1933037E-2,9.338955E-2,-7.382564E-2,4.308444E-2,-4.9818363E-2,-8.302062E-2,8.985802E-2,1.08766355E-1,-6.7651756E-2,-1.0208573E-1,5.9493702E-2],"categories":[],"categories_nodes":[],"categories_segments":[],"categories_sizes":[],"default_left":[0,0,0,0,0,0,0,0,0,0,0,0,0,0,0,0,0,0,0,0,0,0,0,0,0,0,0,0,0,0,0,0,0,0,0,0,0,0,0,0,0,0,0,0,0,0,0,0,0,0,0,0,0,0,0,0,0,0,0,0,0,0,0],"id":12,"left_children":[1,3,5,7,9,11,13,15,17,19,21,-1,-1,-1,-1,23,25,27,29,31,33,35,-1,37,39,41,43,45,47,49,51,53,55,57,59,61,-1,-1,-1,-1,-1,-1,-1,-1,-1,-1,-1,-1,-1,-1,-1,-1,-1,-1,-1,-1,-1,-1,-1,-1,-1,-1,-1],"loss_changes":[5.1328487E0,5.9456005E0,9.729649E0,5.787364E0,5.617984E0,4.0937757E0,5.1971436E-1,9.51604E0,6.9576488E0,8.058932E0,4.635217E0,0E0,0E0,0E0,0E0,6.493664E0,7.140562E0,6.0436425E0,6.5767617E0,6.5326266E0,6.334997E0,4.7282715E0,0E0,1.571341E0,5.0310974E0,8.761586E0,7.1750183E0,6.0174847E0,7.0377607E0,4.288505E0,5.0002728E0,5.543685E0,6.180189E0,6.7284603E0,4.6588283E0,4.3992968E0,0E0,0E0,0E0,0E0,0E0,0E0,0E0,0E0,0E0,0E0,0E0,0E0,0E0,0E0,0E0,0E0,0E0,0E0,0E0,0E0,0E0,0E0,0E0,0E0,0E0,0E0,0E0],"parents":[2147483647,0,0,1,1,2,2,3,3,4,4,5,5,6,6,7,7,8,8,9,9,10,10,15,15,16,16,17,17,18,18,19,19,20,20,21,21,23,23,24,24,25,25,26,26,27,27,28,28,29,29,30,30,31,31,32,32,33,33,34,34,35,35],"right_children":[2,4,6,8,10,12,14,16,18,20,22,-1,-1,-1,-1,24,26,28,30,32,34,36,-1,38,40,42,44,46,48,50,52,54,56,58,60,62,-1,-1,-1,-1,-1,-1,-1,-1,-1,-1,-1,-1,-1,-1,-1,-1,-1,-1,-1,-1,-1,-1,-1,-1,-1,-1,-1],"split_conditions":[2.6666668E-1,6E-2,2E-2,8E-2,2.6666668E-1,6E-2,1.8E-1,4.45E-1,4E-2,1.2E-1,6E-1,-3.3913206E-2,1.539767E-1,-1.03944324E-1,-1.3540737E-2,1.2E-1,6E-2,8.125E-1,9.375E-1,2E-2,2.2E-1,6.7E-1,7.542878E-2,2E-1,4E-2,2.6666668E-1,2.4E-1,2E-2,2E-1,5E-1,8E-2,1E-1,1.8E-1,3.8E-1,8E-2,3.2E-1,6.333984E-2,-9.926405E-2,1.8390018E-2,1.5384077E-1,-6.0348388E-2,-2.4916483E-2,1.2399524E-1,1.21205464E-1,-6.952839E-2,8.967204E-2,-9.004593E-2,2.0129262E-1,-5.9640274E-4,-8.065041E-2,4.4129316E-2,1.4237113E-1,-6.1933037E-2,9.338955E-2,-7.382564E-2,4.308444E-2,-4.9818363E-2,-8.302062E-2,8.985802E-2,1.08766355E-1,-6.7651756E-2,-1.0208573E-1,5.9493702E-2],"split_indices":[895,148,1206,12,277,119,362,99,1682,368,1169,0,0,0,0,727,1450,940,1059,1073,1455,575,0,599,1690,1232,974,732,1465,1060,954,893,1561,738,364,620,0,0,0,0,0,0,0,0,0,0,0,0,0,0,0,0,0,0,0,0,0,0,0,0,0,0,0],"split_type":[0,0,0,0,0,0,0,0,0,0,0,0,0,0,0,0,0,0,0,0,0,0,0,0,0,0,0,0,0,0,0,0,0,0,0,0,0,0,0,0,0,0,0,0,0,0,0,0,0,0,0,0,0,0,0,0,0,0,0,0,0,0,0],"sum_hessian":[2.1894966E2,2.0471176E2,1.4237898E1,8.365228E1,1.2105949E2,3.2599154E0,1.09779825E1,4.9817825E1,3.3834457E1,1.0146845E2,1.9591032E1,1.4730884E0,1.786827E0,9.956667E0,1.021315E0,1.0187157E1,3.963067E1,1.1819095E1,2.2015362E1,7.457658E1,2.6891882E1,1.7963823E1,1.6272073E0,7.33081E0,2.8563466E0,1.7196348E1,2.2434319E1,5.752394E0,6.0667005E0,1.8568262E1,3.4470997E0,1.1825698E1,6.2750874E1,2.2102423E1,4.7894583E0,1.6314762E1,1.6490622E0,6.320449E0,1.0103611E0,1.7287645E0,1.1275821E0,1.2593535E1,4.6028123E0,2.0905205E1,1.5291153E0,2.1655262E0,3.586868E0,3.0872343E0,2.9794662E0,1.5942531E1,2.625732E0,2.272479E0,1.1746207E0,1.5117431E0,1.0313955E1,5.5399353E1,7.351522E0,2.0408363E1,1.6940598E0,3.3184035E0,1.4710547E0,1.5082638E1,1.232124E0],"tree_param":{"num_deleted":"0","num_feature":"1785","num_nodes":"63","size_leaf_vector":"1"}},{"base_weights":[2.0126997E-2,4.5512266E-2,-8.3271486E-1,7.1382364E-3,7.8439844E-1,-9.2986055E-2,-1.5929706E-2,5.1778596E-2,-5.8062774E-1,1.317089E0,-1.7193264E-1,1.9818713E-1,-1.7925394E-1,4.0794986E-1,-8.2595545E-1,-2.2477664E-2,1.6690361E0,-8.1023075E-2,9.914707E-2,-1.356987E-2,4.8515075E-1,6.310703E-2,-4.8282495E-1,1.0532212E-1,-5.7561256E-2,1.6523864E-2,-1.0285064E-1,2.491677E-2,1.9299497E-1,1.6986093E-2,-5.1646907E-2,6.908125E-2,-3.196001E-2,3.62461E-2,-6.0281318E-2,-6.434797E-2,4.444306E-2],"categories":[],"categories_nodes":[],"categories_segments":[],"categories_sizes":[],"default_left":[0,0,0,0,0,0,0,0,0,0,0,0,0,0,0,0,0,0,0,0,0,0,0,0,0,0,0,0,0,0,0,0,0,0,0,0,0],"id":13,"left_children":[1,3,5,7,9,-1,-1,11,13,15,17,19,21,23,25,-1,27,-1,-1,29,31,33,35,-1,-1,-1,-1,-1,-1,-1,-1,-1,-1,-1,-1,-1,-1],"loss_changes":[4.744522E0,6.0072727E0,2.6636124E-1,5.3459897E0,5.555381E0,0E0,0E0,6.435922E0,3.8252573E0,4.083581E0,4.239147E0,7.073552E0,5.4692736E0,2.8460386E0,2.5498772E0,0E0,1.6242847E0,0E0,0E0,6.3503933E0,8.397958E0,8.589051E0,5.1919475E0,0E0,0E0,0E0,0E0,0E0,0E0,0E0,0E0,0E0,0E0,0E0,0E0,0E0,0E0],"parents":[2147483647,0,0,1,1,2,2,3,3,4,4,7,7,8,8,9,9,10,10,11,11,12,12,13,13,14,14,16,16,19,19,20,20,21,21,22,22],"right_children":[2,4,6,8,10,-1,-1,12,14,16,18,20,22,24,26,-1,28,-1,-1,30,32,34,36,-1,-1,-1,-1,-1,-1,-1,-1,-1,-1,-1,-1,-1,-1],"split_conditions":[3.4E-1,2.6E-1,2.4E-1,2.8E-1,2.3333333E-1,-9.2986055E-2,-1.5929706E-2,2E-1,2E-2,2E-2,3E-1,1E-1,8E-2,3.3333334E-1,2E-2,-2.2477664E-2,1.6666667E-1,-8.1023075E-2,9.914707E-2,1.2E-1,5.28E0,1E-1,1.8E-1,1.0532212E-1,-5.7561256E-2,1.6523864E-2,-1.0285064E-1,2.491677E-2,1.9299497E-1,1.6986093E-2,-5.1646907E-2,6.908125E-2,-3.196001E-2,3.62461E-2,-6.0281318E-2,-6.434797E-2,4.444306E-2],"split_indices":[1331,1212,1576,15,1347,0,0,167,1199,952,280,477,248,936,1341,0,1373,0,0,149,1775,1456,618,0,0,0,0,0,0,0,0,0,0,0,0,0,0],"split_type":[0,0,0,0,0,0,0,0,0,0,0,0,0,0,0,0,0,0,0,0,0,0,0,0,0,0,0,0,0,0,0,0,0,0,0,0,0],"sum_hessian":[2.1639981E2,2.1106401E2,5.335793E0,2.0160341E2,9.460607E0,4.3303056E0,1.0054874E0,1.8822014E2,1.3383264E1,5.8338404E0,3.6267662E0,1.15297005E2,7.292314E1,2.5290945E0,1.0854169E1,1.1513147E0,4.6825256E0,2.5379145E0,1.0888515E0,6.689003E1,4.8406967E1,4.099012E1,3.1933025E1,1.4844139E0,1.0446806E0,1.872958E0,8.981212E0,1.0303631E0,3.6521626E0,4.949803E1,1.7392002E1,3.8666862E1,9.740104E0,2.8592506E1,1.2397613E1,2.7478233E1,4.454793E0],"tree_param":{"num_deleted":"0","num_feature":"1785","num_nodes":"37","size_leaf_vector":"1"}},{"base_weights":[1.7371725E-2,5.1776405E-2,-5.973369E-1,-3.2515585E-2,3.117843E-1,-8.53606E-1,7.071063E-2,1.2265998E-1,-2.6157755E-1,-3.3690515E-1,5.2255785E-1,1.4192738E-2,-1.0090738E-1,3.1305256E-1,-2.075745E-1,2.511975E-1,-4.8511368E-1,9.598091E-2,-5.988114E-1,1.2350663E-1,1.0175622E0,-4.772203E-1,4.786341E-1,7.48701E-1,-4.30101E-1,-4.8330158E-1,5.8488303E-1,8.0162875E-2,-6.936516E-1,-8.524533E-1,3.612012E-1,-1.8357183E-1,9.5950294E-1,1.2609369E0,-3.2173365E-1,-7.994329E-2,6.258483E-2,9.481131E-2,1.6597347E-2,-6.89415E-2,1.3044538E-1,-8.103508E-3,-9.5370285E-2,-9.3614265E-2,6.895657E-2,8.742791E-2,-7.635259E-2,-5.2238382E-2,7.303694E-2,-8.015396E-2,4.8524644E-2,2.2307066E-2,-1.01088956E-1,-5.7253104E-2,1.0945409E-1,-5.693158E-2,6.77021E-2,1.4769043E-1,-6.351446E-2,-2.5426272E-2,1.5384237E-1,2.5673447E-2,-6.680657E-2],"categories":[],"categories_nodes":[],"categories_segments":[],"categories_sizes":[],"default_left":[0,0,0,0,0,0,0,0,0,0,0,0,0,0,0,0,0,0,0,0,0,0,0,0,0,0,0,0,0,0,0,0,0,0,0,0,0,0,0,0,0,0,0,0,0,0,0,0,0,0,0,0,0,0,0,0,0,0,0,0,0,0,0],"id":14,"left_children":[1,3,5,7,9,11,-1,13,15,17,19,-1,-1,21,23,25,27,-1,29,31,33,35,37,39,41,43,45,47,49,51,53,55,57,59,61,-1,-1,-1,-1,-1,-1,-1,-1,-1,-1,-1,-1,-1,-1,-1,-1,-1,-1,-1,-1,-1,-1,-1,-1,-1,-1,-1,-1],"loss_changes":[4.6050496E0,4.519233E0,4.4623766E0,5.58686E0,7.075788E0,1.7065711E0,0E0,5.965331E0,7.392614E0,4.984226E0,7.475376E0,0E0,0E0,8.069735E0,7.752838E0,5.163911E0,5.3031683E0,0E0,3.08812E0,5.9376493E0,5.9589043E0,4.36778E0,7.1882763E0,6.4594393E0,5.216334E0,4.240703E0,6.1880155E0,5.4327693E0,4.5381594E0,1.8152056E0,2.7415423E0,6.113E0,6.045053E0,6.538292E0,8.559984E-1,0E0,0E0,0E0,0E0,0E0,0E0,0E0,0E0,0E0,0E0,0E0,0E0,0E0,0E0,0E0,0E0,0E0,0E0,0E0,0E0,0E0,0E0,0E0,0E0,0E0,0E0,0E0,0E0],"parents":[2147483647,0,0,1,1,2,2,3,3,4,4,5,5,7,7,8,8,9,9,10,10,13,13,14,14,15,15,16,16,18,18,19,19,20,20,21,21,22,22,23,23,24,24,25,25,26,26,27,27,28,28,29,29,30,30,31,31,32,32,33,33,34,34],"right_children":[2,4,6,8,10,12,-1,14,16,18,20,-1,-1,22,24,26,28,-1,30,32,34,36,38,40,42,44,46,48,50,52,54,56,58,60,62,-1,-1,-1,-1,-1,-1,-1,-1,-1,-1,-1,-1,-1,-1,-1,-1,-1,-1,-1,-1,-1,-1,-1,-1,-1,-1,-1,-1],"split_conditions":[6E-1,5.85E-1,6E-1,5.3E-1,2E-2,6E-1,7.071063E-2,8E-2,4.4E-1,5.9375E-1,2.3333333E-1,1.4192738E-2,-1.0090738E-1,2E-2,6E-1,3.3333334E-1,6.5625E-1,9.598091E-2,4E-1,1.8E-1,1.8E-1,1.4E-1,4E-2,6E-2,8E-2,1.8E-1,1.8E-1,5.5E-1,3.2E-1,3.75E-1,2E-1,2.6666668E-1,9.0625E-1,1.38E0,2E-2,-7.994329E-2,6.258483E-2,9.481131E-2,1.6597347E-2,-6.89415E-2,1.3044538E-1,-8.103508E-3,-9.5370285E-2,-9.3614265E-2,6.895657E-2,8.742791E-2,-7.635259E-2,-5.2238382E-2,7.303694E-2,-8.015396E-2,4.8524644E-2,2.2307066E-2,-1.01088956E-1,-5.7253104E-2,1.0945409E-1,-5.693158E-2,6.77021E-2,1.4769043E-1,-6.351446E-2,-2.5426272E-2,1.5384237E-1,2.5673447E-2,-6.680657E-2],"split_indices":[85,218,1156,1646,144,695,0,1687,1051,1654,1244,0,0,371,814,461,345,0,1377,361,1196,0,126,1459,9,1676,835,1051,121,99,44,1593,1773,1538,1450,0,0,0,0,0,0,0,0,0,0,0,0,0,0,0,0,0,0,0,0,0,0,0,0,0,0,0,0],"split_type":[0,0,0,0,0,0,0,0,0,0,0,0,0,0,0,0,0,0,0,0,0,0,0,0,0,0,0,0,0,0,0,0,0,0,0,0,0,0,0,0,0,0,0,0,0,0,0,0,0,0,0,0,0,0,0,0,0,0,0,0,0,0,0],"sum_hessian":[2.1528227E2,2.0473898E2,1.0543283E1,1.5527524E2,4.9463757E1,9.100942E0,1.4423418E0,9.284374E1,6.2431488E1,1.1983668E1,3.7480087E1,1.2410438E0,7.8598976E0,5.8923923E1,3.3919823E1,1.8915958E1,4.351553E1,1.5659328E0,1.0417736E1,2.1443094E1,1.6036993E1,9.88129E0,4.9042633E1,5.956798E0,2.7963024E1,5.7690077E0,1.314695E1,1.1893049E1,3.162248E1,8.329155E0,2.0885804E0,1.625333E1,5.1897635E0,1.362042E1,2.4165726E0,7.8604674E0,2.0208228E0,1.8792355E1,3.0250277E1,1.5933068E0,4.363491E0,1.7470713E1,1.04923115E1,4.307664E0,1.4613439E0,1.1113408E1,2.0335417E0,6.274788E0,5.6182613E0,2.9264416E1,2.3580651E0,1.017055E0,7.3121004E0,1.0152216E0,1.0733587E0,1.1456595E1,4.796735E0,3.9741442E0,1.2156193E0,2.1212373E0,1.1499183E1,1.0018748E0,1.4146976E0],"tree_param":{"num_deleted":"0","num_feature":"1785","num_nodes":"63","size_leaf_vector":"1"}},{"base_weights":[1.53424535E-2,4.3790158E-2,-6.8335444E-1,-4.5965612E-2,3.0720118E-1,-9.583882E-2,2.6191244E-2,2.2775412E-1,-1.8612933E-1,-2.7039438E-1,4.8540878E-1,6.685194E-1,-6.2236235E-2,3.690137E-1,-3.1668347E-1,6.3852406E-1,-6.7342895E-1,5.937871E-1,-8.125413E-2,5.4247897E-2,1.1533722E0,-3.5859233E-1,4.8654795E-1,-2.8684133E-1,9.5786023E-1,-4.7434735E-1,8.12827E-2,-5.752595E-2,1.1761396E0,3.3399653E-2,-9.785654E-2,7.044912E-1,-4.6657202E-1,-3.1013817E-2,1.114098E-1,1.5125576E-1,-1.1882467E-2,-6.8118855E-2,3.6977574E-2,-3.6315452E-2,9.326882E-2,-8.457908E-2,5.9666604E-2,-4.6064E-2,1.2837175E-1,-5.820785E-2,4.6995234E-2,-5.5002164E-2,4.0507417E-2,1.8888686E-2,1.5288317E-1,8.783501E-2,-6.6275457E-3,-7.823886E-2,2.7057383E-2],"categories":[],"categories_nodes":[],"categories_segments":[],"categories_sizes":[],"default_left":[0,0,0,0,0,0,0,0,0,0,0,0,0,0,0,0,0,0,0,0,0,0,0,0,0,0,0,0,0,0,0,0,0,0,0,0,0,0,0,0,0,0,0,0,0,0,0,0,0,0,0,0,0,0,0],"id":15,"left_children":[1,3,5,7,9,-1,-1,11,13,15,17,19,21,23,25,27,29,31,-1,33,35,37,39,41,43,45,47,-1,49,-1,-1,51,53,-1,-1,-1,-1,-1,-1,-1,-1,-1,-1,-1,-1,-1,-1,-1,-1,-1,-1,-1,-1,-1,-1],"loss_changes":[4.277773E0,4.89143E0,2.4403725E0,5.97886E0,5.541205E0,0E0,0E0,6.796929E0,7.5734305E0,5.2049804E0,6.1829367E0,6.209299E0,5.507744E0,8.018166E0,5.298626E0,3.6245532E0,3.2524395E0,4.786854E0,0E0,4.338312E0,5.535081E0,5.3905125E0,4.858704E0,5.5689583E0,5.5812464E0,6.3967915E0,5.2598534E0,0E0,9.157505E-1,0E0,0E0,4.719799E0,1.1875594E0,0E0,0E0,0E0,0E0,0E0,0E0,0E0,0E0,0E0,0E0,0E0,0E0,0E0,0E0,0E0,0E0,0E0,0E0,0E0,0E0,0E0,0E0],"parents":[2147483647,0,0,1,1,2,2,3,3,4,4,7,7,8,8,9,9,10,10,11,11,12,12,13,13,14,14,15,15,16,16,17,17,19,19,20,20,21,21,22,22,23,23,24,24,25,25,26,26,28,28,31,31,32,32],"right_children":[2,4,6,8,10,-1,-1,12,14,16,18,20,22,24,26,28,30,32,-1,34,36,38,40,42,44,46,48,-1,50,-1,-1,52,54,-1,-1,-1,-1,-1,-1,-1,-1,-1,-1,-1,-1,-1,-1,-1,-1,-1,-1,-1,-1,-1,-1],"split_conditions":[3.4E-1,4E-1,4E-1,4E-2,7E-1,-9.583882E-2,2.6191244E-2,4E-2,2E-2,2E-2,2.8E-1,2E-1,1.4E-1,8E-2,1.2E-1,2.22E0,2E-2,2.4E-1,-8.125413E-2,4E-1,8.75E-1,2.3333333E-1,6E-2,5.5E-1,2E-2,9.6875E-1,3.3333334E-1,-5.752595E-2,4E-1,3.3399653E-2,-9.785654E-2,1.6E-1,4.92E0,-3.1013817E-2,1.114098E-1,1.5125576E-1,-1.1882467E-2,-6.8118855E-2,3.6977574E-2,-3.6315452E-2,9.326882E-2,-8.457908E-2,5.9666604E-2,-4.6064E-2,1.2837175E-1,-5.820785E-2,4.6995234E-2,-5.5002164E-2,4.0507417E-2,1.8888686E-2,1.5288317E-1,8.783501E-2,-6.6275457E-3,-7.823886E-2,2.7057383E-2],"split_indices":[1192,1019,1733,1680,457,0,0,1692,7,840,729,39,29,1205,1084,946,508,864,0,676,1416,877,1314,1289,845,1416,1771,0,1755,0,0,599,466,0,0,0,0,0,0,0,0,0,0,0,0,0,0,0,0,0,0,0,0,0,0],"split_type":[0,0,0,0,0,0,0,0,0,0,0,0,0,0,0,0,0,0,0,0,0,0,0,0,0,0,0,0,0,0,0,0,0,0,0,0,0,0,0,0,0,0,0,0,0,0,0,0,0,0,0,0,0,0,0],"sum_hessian":[2.1271402E2,2.0529279E2,7.4212465E0,1.5373424E2,5.1558548E1,5.7378783E0,1.6833678E0,5.1851242E1,1.0188299E2,1.20348E1,3.952375E1,2.0058458E1,3.1792782E1,1.9050373E1,8.283262E1,3.517619E0,8.51718E0,3.6978573E1,2.5451763E0,9.338799E0,1.0719659E1,2.0869398E1,1.0923386E1,9.255031E0,9.795342E0,5.919082E1,2.3641798E1,1.0582869E0,2.459332E0,1.9580344E0,6.559146E0,3.3786762E1,3.19181E0,7.4758945E0,1.862905E0,8.212151E0,2.5075088E0,1.4508373E1,6.361024E0,3.8248062E0,7.098579E0,5.69487E0,3.5601606E0,1.7525649E0,8.042777E0,5.3473804E1,5.7170134E0,7.7780495E0,1.58637495E1,1.0515102E0,1.4078218E0,2.74544E1,6.3323627E0,2.1915185E0,1.0002913E0],"tree_param":{"num_deleted":"0","num_feature":"1785","num_nodes":"55","size_leaf_vector":"1"}},{"base_weights":[1.3543192E-2,-2.8946987E-1,7.568101E-2,-7.8072345E-1,1.4362745E-1,1.20647006E-1,-5.8941513E-1,2.7871665E-1,-1.0066444E0,-2.2760807E-1,9.1117525E-1,-5.993851E-1,1.64042E-1,6.68399E-1,-9.9222936E-2,9.74943E-2,-6.273289E-2,-1.0559779E-1,-1.7567463E-2,2.8546432E-1,-8.392397E-1,1.3184656E0,-5.9834607E-2,-8.938416E-1,5.1734604E-2,3.2276842E-1,-5.297113E-2,-2.2369845E-2,1.21133976E-1,-6.247008E-1,1.3637203E0,-9.4542526E-2,-1.1256597E-2,6.890805E-3,1.672009E-1,-2.0866184E-2,-9.644552E-2,-7.909596E-2,4.8455247E-1,2.767191E-1,-3.7256542E-1,-8.66621E-2,2.0485347E-2,1.6308731E-1,2.5739877E-2,-6.1493646E-2,2.762326E-2,6.443113E-2,-2.4384342E-2,7.604179E-2,-1.2109155E-2,7.6797605E-2,-5.2593987E-2],"categories":[],"categories_nodes":[],"categories_segments":[],"categories_sizes":[],"default_left":[0,0,0,0,0,0,0,0,0,0,0,0,0,0,0,0,0,0,0,0,0,0,0,0,0,0,0,0,0,0,0,0,0,0,0,0,0,0,0,0,0,0,0,0,0,0,0,0,0,0,0,0,0],"id":16,"left_children":[1,3,5,7,9,11,13,15,17,19,21,23,25,27,-1,-1,-1,-1,-1,29,31,33,-1,35,-1,37,39,-1,-1,41,43,-1,-1,-1,-1,-1,-1,45,47,49,51,-1,-1,-1,-1,-1,-1,-1,-1,-1,-1,-1,-1],"loss_changes":[4.0034823E0,7.812416E0,5.3428373E0,4.3765535E0,5.9287977E0,5.2832384E0,6.405082E0,3.0030296E0,4.016142E-1,4.737649E0,4.936167E0,3.6347265E0,5.4351454E0,1.8918438E0,0E0,0E0,0E0,0E0,0E0,9.234051E0,4.1771126E-1,2.3694954E0,0E0,1.8586206E-1,0E0,5.9538813E0,7.19485E0,0E0,0E0,1.244653E0,8.2855797E-1,0E0,0E0,0E0,0E0,0E0,0E0,5.306029E0,7.7223387E0,6.5772533E0,6.456844E0,0E0,0E0,0E0,0E0,0E0,0E0,0E0,0E0,0E0,0E0,0E0,0E0],"parents":[2147483647,0,0,1,1,2,2,3,3,4,4,5,5,6,6,7,7,8,8,9,9,10,10,11,11,12,12,13,13,19,19,20,20,21,21,23,23,25,25,26,26,29,29,30,30,37,37,38,38,39,39,40,40],"right_children":[2,4,6,8,10,12,14,16,18,20,22,24,26,28,-1,-1,-1,-1,-1,30,32,34,-1,36,-1,38,40,-1,-1,42,44,-1,-1,-1,-1,-1,-1,46,48,50,52,-1,-1,-1,-1,-1,-1,-1,-1,-1,-1,-1,-1],"split_conditions":[2E-2,8E-1,2.6666668E-1,1.3333334E-1,4E-1,1.6666667E-1,2E-2,3.3333334E-1,2.4E-1,2.38E0,1.4E-1,1E0,8E-2,2.3333333E-1,-9.9222936E-2,9.74943E-2,-6.273289E-2,-1.0559779E-1,-1.7567463E-2,2.2E0,3E-1,6E-2,-5.9834607E-2,1.3333334E-1,5.1734604E-2,5E-1,6E-2,-2.2369845E-2,1.21133976E-1,1.4E-1,4E-1,-9.4542526E-2,-1.1256597E-2,6.890805E-3,1.672009E-1,-2.0866184E-2,-9.644552E-2,4E-2,4E-1,3.3333334E-1,3.55E-1,-8.66621E-2,2.0485347E-2,1.6308731E-1,2.5739877E-2,-6.1493646E-2,2.762326E-2,6.443113E-2,-2.4384342E-2,7.604179E-2,-1.2109155E-2,7.6797605E-2,-5.2593987E-2],"split_indices":[974,1290,895,659,1273,1771,1206,1534,11,1300,1340,933,12,53,0,0,0,0,0,1427,622,842,0,1127,0,1291,840,0,0,1696,1269,0,0,0,0,0,0,1326,1258,1772,1051,0,0,0,0,0,0,0,0,0,0,0,0],"split_type":[0,0,0,0,0,0,0,0,0,0,0,0,0,0,0,0,0,0,0,0,0,0,0,0,0,0,0,0,0,0,0,0,0,0,0,0,0,0,0,0,0,0,0,0,0,0,0,0,0,0,0,0,0],"sum_hessian":[2.1046455E2,3.5192238E1,1.7527232E2,1.6112968E1,1.907927E1,1.6493964E2,1.0332682E1,2.7910144E0,1.3321954E1,1.3333695E1,5.745573E0,8.647275E0,1.5629237E2,2.3464408E0,7.986241E0,1.5352505E0,1.2557638E0,1.231977E1,1.0021842E0,7.541075E0,5.7926207E0,4.6244087E0,1.1211641E0,7.0008907E0,1.646384E0,8.9987175E1,6.630519E1,1.1102287E0,1.2362121E0,4.3173776E0,3.2236977E0,4.7914386E0,1.0011818E0,1.2833754E0,3.3410335E0,1.0236045E0,5.9772863E0,2.5975729E1,6.4011444E1,3.2703133E1,3.3602062E1,3.307995E0,1.0093824E0,2.2147446E0,1.0089531E0,1.0065779E1,1.590995E1,5.259192E1,1.1419528E1,1.4347034E1,1.8356096E1,3.5080297E0,3.0094032E1],"tree_param":{"num_deleted":"0","num_feature":"1785","num_nodes":"53","size_leaf_vector":"1"}},{"base_weights":[1.137986E-2,4.2877536E-2,-5.724855E-1,8.131777E-2,-4.4804558E-1,-8.2136893E-1,5.982205E-2,1.5696284E-1,-2.1440412E-1,-7.327881E-1,3.8553292E-1,1.3892821E-2,-9.826962E-2,2.2477292E-1,-3.8492653E-1,1.3557082E-1,-5.745871E-1,-9.14172E-1,1.3220708E-2,1.1271508E-1,-4.4843424E-2,-2.5746447E-1,3.3708876E-1,5.7777655E-1,-7.097267E-1,9.174565E-1,-2.1620198E-1,-7.2562146E-1,6.657817E-2,-9.857881E-2,-1.6352415E-2,2.0433076E-2,-6.874989E-2,4.091349E-2,-4.1949194E-2,1.194394E-1,-6.270483E-2,-8.804997E-2,5.661573E-2,-3.4310117E-2,1.3254221E-1,3.962082E-2,-7.166456E-2,3.358582E-2,-8.771607E-2],"categories":[],"categories_nodes":[],"categories_segments":[],"categories_sizes":[],"default_left":[0,0,0,0,0,0,0,0,0,0,0,0,0,0,0,0,0,0,0,0,0,0,0,0,0,0,0,0,0,0,0,0,0,0,0,0,0,0,0,0,0,0,0,0,0],"id":17,"left_children":[1,3,5,7,9,11,-1,13,15,17,19,-1,-1,21,23,25,27,29,-1,-1,-1,31,33,35,37,39,41,43,-1,-1,-1,-1,-1,-1,-1,-1,-1,-1,-1,-1,-1,-1,-1,-1,-1],"loss_changes":[3.8774E0,3.805205E0,3.6361732E0,4.1956735E0,3.7611368E0,1.5807619E0,0E0,5.551824E0,4.9084215E0,1.8889098E0,3.2186542E0,0E0,0E0,7.280871E0,5.69779E0,5.7666364E0,4.056745E0,3.4637928E-1,0E0,0E0,0E0,5.235903E0,6.0675497E0,4.327804E0,3.3513637E0,3.7834196E0,4.811282E0,3.1069593E0,0E0,0E0,0E0,0E0,0E0,0E0,0E0,0E0,0E0,0E0,0E0,0E0,0E0,0E0,0E0,0E0,0E0],"parents":[2147483647,0,0,1,1,2,2,3,3,4,4,5,5,7,7,8,8,9,9,10,10,13,13,14,14,15,15,16,16,17,17,21,21,22,22,23,23,24,24,25,25,26,26,27,27],"right_children":[2,4,6,8,10,12,-1,14,16,18,20,-1,-1,22,24,26,28,30,-1,-1,-1,32,34,36,38,40,42,44,-1,-1,-1,-1,-1,-1,-1,-1,-1,-1,-1,-1,-1,-1,-1,-1,-1],"split_conditions":[6E-1,2.8E-1,6E-1,5.9E-1,1.6E-1,6E-1,5.982205E-2,2.6666668E-1,8E-2,1.6E-1,3.3333334E-1,1.3892821E-2,-9.826962E-2,2E-2,2E-2,1.3333334E-1,4E-1,1.6E-1,1.3220708E-2,1.1271508E-1,-4.4843424E-2,8E-2,2.4E-1,6E-2,1E0,4E-2,4E-2,6E-1,6.657817E-2,-9.857881E-2,-1.6352415E-2,2.0433076E-2,-6.874989E-2,4.091349E-2,-4.1949194E-2,1.194394E-1,-6.270483E-2,-8.804997E-2,5.661573E-2,-3.4310117E-2,1.3254221E-1,3.962082E-2,-7.166456E-2,3.358582E-2,-8.771607E-2],"split_indices":[85,15,1156,1170,718,695,0,881,1077,119,936,0,0,1073,737,1465,622,1549,0,0,0,1074,1442,614,219,1338,599,933,0,0,0,0,0,0,0,0,0,0,0,0,0,0,0,0,0],"split_type":[0,0,0,0,0,0,0,0,0,0,0,0,0,0,0,0,0,0,0,0,0,0,0,0,0,0,0,0,0,0,0,0,0,0,0,0,0,0,0,0,0,0,0,0,0],"sum_hessian":[2.0850345E2,1.9871024E2,9.793221E0,1.8505446E2,1.3655766E1,8.32235E0,1.4708714E0,1.477337E2,3.7320763E1,1.0268915E1,3.3868508E0,1.2170033E0,7.1053467E0,1.3182304E2,1.5910653E1,1.9244898E1,1.8075867E1,8.441859E0,1.8270556E0,1.6066023E0,1.7802485E0,2.4658297E1,1.0716475E2,3.8173156E0,1.2093338E1,5.4726777E0,1.377222E1,1.6483711E1,1.5921544E0,7.4206376E0,1.0212215E0,1.2143147E1,1.2515148E1,9.8266464E1,8.898287E0,2.5307567E0,1.2865587E0,1.0939069E1,1.1542692E0,1.3769832E0,4.0956945E0,6.286948E0,7.4852715E0,1.9073168E0,1.4576395E1],"tree_param":{"num_deleted":"0","num_feature":"1785","num_nodes":"45","size_leaf_vector":"1"}},{"base_weights":[9.20585E-3,-3.2484025E-1,6.474077E-2,3.6003023E-1,-4.9962655E-1,8.4793836E-1,2.222645E-2,-6.4184433E-1,1.2437154E0,-6.438819E-1,6.203242E-1,-4.0433053E-2,1.189143E0,6.701388E-2,-6.4457196E-1,-7.374729E-2,-1.901987E-2,1.5616713E-1,1.6805965E-2,-8.34258E-1,1.20372504E-1,1.7935412E-3,9.561619E-2,1.4430238E0,-2.091902E-2,4.1843003E-1,-1.9190656E-2,5.1581413E-2,-8.45945E-1,2.6181249E-2,-9.5104504E-1,9.697249E-2,-5.94787E-2,1.4131791E-2,1.7167678E-1,6.552189E-1,-3.6453745E-1,-3.287733E-1,1.2691094E-1,7.835612E-3,-9.765301E-2,-1.0418413E-1,1.1646886E-3,8.1954636E-2,-5.4972023E-2,7.542514E-2,-8.0059886E-2,4.034206E-2,-4.6095394E-2,-4.887731E-3,5.4650273E-2],"categories":[],"categories_nodes":[],"categories_segments":[],"categories_sizes":[],"default_left":[0,0,0,0,0,0,0,0,0,0,0,0,0,0,0,0,0,0,0,0,0,0,0,0,0,0,0,0,0,0,0,0,0,0,0,0,0,0,0,0,0,0,0,0,0,0,0,0,0,0,0],"id":18,"left_children":[1,3,5,7,9,11,13,15,17,19,21,-1,23,25,27,-1,-1,-1,-1,29,31,-1,-1,33,-1,35,37,-1,39,-1,41,-1,-1,-1,-1,43,45,47,49,-1,-1,-1,-1,-1,-1,-1,-1,-1,-1,-1,-1],"loss_changes":[3.8791256E0,3.7485979E0,5.94658E0,6.6793056E0,4.304243E0,4.4107385E0,5.148775E0,2.2679329E-2,1.0611029E0,3.2871323E0,6.438333E-1,0E0,2.9580011E0,4.888506E0,2.972713E0,0E0,0E0,0E0,0E0,2.5096798E0,3.7607505E0,0E0,0E0,2.0588808E0,0E0,6.130644E0,5.936453E0,0E0,1.2386293E0,0E0,1.426054E0,0E0,0E0,0E0,0E0,5.3526096E0,4.517319E0,4.2569675E0,6.610656E0,0E0,0E0,0E0,0E0,0E0,0E0,0E0,0E0,0E0,0E0,0E0,0E0],"parents":[2147483647,0,0,1,1,2,2,3,3,4,4,5,5,6,6,7,7,8,8,9,9,10,10,12,12,13,13,14,14,19,19,20,20,23,23,25,25,26,26,28,28,30,30,35,35,36,36,37,37,38,38],"right_children":[2,4,6,8,10,12,14,16,18,20,22,-1,24,26,28,-1,-1,-1,-1,30,32,-1,-1,34,-1,36,38,-1,40,-1,42,-1,-1,-1,-1,44,46,48,50,-1,-1,-1,-1,-1,-1,-1,-1,-1,-1,-1,-1],"split_conditions":[1.3333334E-1,2E-2,1.3333334E-1,6E-2,6E-1,1.3333334E-1,2.8E-1,8E-2,2.3333333E-1,1.8E-1,9E-1,-4.0433053E-2,5.92E0,1.3333334E-1,1.6666667E-1,-7.374729E-2,-1.901987E-2,1.5616713E-1,1.6805965E-2,1.6666667E-1,2E-2,1.7935412E-3,9.561619E-2,2E-2,-2.091902E-2,5E-1,4E-2,5.1581413E-2,1.3333334E-1,2.6181249E-2,2.2E-1,9.697249E-2,-5.94787E-2,1.4131791E-2,1.7167678E-1,1.4E-1,2E-2,3.95E-1,4E-1,7.835612E-3,-9.765301E-2,-1.0418413E-1,1.1646886E-3,8.1954636E-2,-5.4972023E-2,7.542514E-2,-8.0059886E-2,4.034206E-2,-4.6095394E-2,-4.887731E-3,5.4650273E-2],"split_indices":[646,1693,884,714,430,392,15,26,46,1460,576,0,704,286,223,0,0,0,0,1295,611,0,0,508,0,1177,974,0,158,0,973,0,0,0,0,9,1322,575,1138,0,0,0,0,0,0,0,0,0,0,0,0],"split_type":[0,0,0,0,0,0,0,0,0,0,0,0,0,0,0,0,0,0,0,0,0,0,0,0,0,0,0,0,0,0,0,0,0,0,0,0,0,0,0,0,0,0,0,0,0,0,0,0,0,0,0],"sum_hessian":[2.0696985E2,2.8812357E1,1.7815749E2,5.642672E0,2.3169685E1,8.1975565E0,1.6995993E2,2.7727504E0,2.869922E0,2.0902428E1,2.2672586E0,1.7156972E0,6.4818587E0,1.6010548E2,9.854445E0,1.7659763E0,1.0067741E0,1.8663967E0,1.0035253E0,1.6660654E1,4.2417736E0,1.1886299E0,1.0786288E0,5.458801E0,1.0230579E0,3.0779152E1,1.2932634E2,1.2263391E0,8.628107E0,1.484694E0,1.517596E1,1.7762597E0,2.465514E0,1.2119559E0,4.2468452E0,2.3757462E1,7.0216894E0,4.106377E1,8.8262566E1,1.1175908E0,7.5105157E0,1.379287E1,1.3830899E0,2.118776E1,2.5697036E0,1.7646058E0,5.2570834E0,5.965695E0,3.5098076E1,6.282535E1,2.5437212E1],"tree_param":{"num_deleted":"0","num_feature":"1785","num_nodes":"51","size_leaf_vector":"1"}},{"base_weights":[8.880885E-3,3.0946953E-2,-7.8415257E-1,-3.2427296E-2,3.450955E-1,-1.7507955E-2,-8.784949E-2,-2.349469E-1,1.4237514E-1,5.5296046E-1,-6.8779004E-1,-3.816506E-1,1.6810562E-1,-2.2473994E-1,3.0415097E-1,7.252164E-1,-5.166993E-1,1.6090374E-2,-8.9726746E-2,4.0252224E-1,-4.8532152E-1,-3.238071E-1,6.3991994E-1,-7.832626E-1,2.3409942E-1,-1.4389884E-1,5.11147E-1,-5.17486E-1,8.7008685E-1,2.7457831E-2,-8.2078815E-2,-4.7481354E-2,1.0510848E-1,-7.395979E-2,-1.1654834E-2,-6.124664E-2,9.089006E-2,-4.2808294E-2,1.0083576E-1,-9.5309265E-2,4.753422E-2,-6.302339E-2,6.455986E-2,-5.1143613E-2,4.5674007E-2,8.853123E-2,1.6840842E-2,-6.2796466E-2,-1.3558601E-2,1.1763215E-1,3.0841187E-2],"categories":[],"categories_nodes":[],"categories_segments":[],"categories_sizes":[],"default_left":[0,0,0,0,0,0,0,0,0,0,0,0,0,0,0,0,0,0,0,0,0,0,0,0,0,0,0,0,0,0,0,0,0,0,0,0,0,0,0,0,0,0,0,0,0,0,0,0,0,0,0],"id":19,"left_children":[1,3,5,7,9,-1,-1,11,13,15,17,19,21,23,25,27,29,-1,-1,31,33,35,37,39,41,43,45,47,49,-1,-1,-1,-1,-1,-1,-1,-1,-1,-1,-1,-1,-1,-1,-1,-1,-1,-1,-1,-1,-1,-1],"loss_changes":[3.6260912E0,4.017238E0,1.6855645E-1,5.993354E0,7.65099E0,0E0,0E0,4.698185E0,5.4718876E0,5.671175E0,1.2322216E0,4.891279E0,5.222179E0,7.4627304E0,5.9701147E0,4.9824E0,1.3252298E0,0E0,0E0,4.6479793E0,4.7403345E0,4.557137E0,4.9037695E0,3.240532E0,6.227065E0,4.8410797E0,5.455961E0,5.220753E-2,3.5793514E0,0E0,0E0,0E0,0E0,0E0,0E0,0E0,0E0,0E0,0E0,0E0,0E0,0E0,0E0,0E0,0E0,0E0,0E0,0E0,0E0,0E0,0E0],"parents":[2147483647,0,0,1,1,2,2,3,3,4,4,7,7,8,8,9,9,10,10,11,11,12,12,13,13,14,14,15,15,16,16,19,19,20,20,21,21,22,22,23,23,24,24,25,25,26,26,27,27,28,28],"right_children":[2,4,6,8,10,-1,-1,12,14,16,18,20,22,24,26,28,30,-1,-1,32,34,36,38,40,42,44,46,48,50,-1,-1,-1,-1,-1,-1,-1,-1,-1,-1,-1,-1,-1,-1,-1,-1,-1,-1,-1,-1,-1,-1],"split_conditions":[3.4E-1,2E-1,2E-2,8E-2,1.8E-1,-1.7507955E-2,-8.784949E-2,4E-1,4E-2,1.4E-1,2E-2,3.7E-1,8E-2,6E-2,4E-2,2E-2,4E-2,1.6090374E-2,-8.9726746E-2,2.3333333E-1,1E-1,1E0,5E-1,2.6E-1,4E-2,1E-1,4.8E-1,7.5E-1,8E-2,2.7457831E-2,-8.2078815E-2,-4.7481354E-2,1.0510848E-1,-7.395979E-2,-1.1654834E-2,-6.124664E-2,9.089006E-2,-4.2808294E-2,1.0083576E-1,-9.5309265E-2,4.753422E-2,-6.302339E-2,6.455986E-2,-5.1143613E-2,4.5674007E-2,8.853123E-2,1.6840842E-2,-6.2796466E-2,-1.3558601E-2,1.1763215E-1,3.0841187E-2],"split_indices":[1331,1219,833,1695,1444,0,0,305,618,364,387,1051,483,362,1078,360,476,0,0,1230,1445,1647,1648,376,1334,1314,575,940,842,0,0,0,0,0,0,0,0,0,0,0,0,0,0,0,0,0,0,0,0,0,0],"split_type":[0,0,0,0,0,0,0,0,0,0,0,0,0,0,0,0,0,0,0,0,0,0,0,0,0,0,0,0,0,0,0,0,0,0,0,0,0,0,0,0,0,0,0,0,0,0,0,0,0,0,0],"sum_hessian":[2.0482874E2,2.0021866E2,4.6100855E0,1.6735445E2,3.2864204E1,1.0013262E0,3.6087594E0,7.737109E1,8.998335E1,2.7745213E1,5.118992E0,5.6763374E1,2.0607721E1,2.7404837E1,6.2578518E1,2.417425E1,3.5709624E0,1.059268E0,4.059724E0,6.29149E0,5.0471886E1,1.0242554E1,1.0365168E1,1.2040939E1,1.5363897E1,1.9871286E1,4.2707233E1,2.255391E0,2.191886E1,1.0182897E0,2.5526726E0,2.7879798E0,3.50351E0,2.9278336E1,2.119355E1,8.706851E0,1.5357023E0,2.6170757E0,7.748092E0,1.0823242E1,1.2176973E0,4.783932E0,1.0579966E1,1.241992E1,7.4513664E0,1.9660717E1,2.3046516E1,1.2495854E0,1.0058055E0,1.3476782E1,8.442078E0],"tree_param":{"num_deleted":"0","num_feature":"1785","num_nodes":"51","size_leaf_vector":"1"}},{"base_weights":[6.669201E-3,-2.9996967E-1,6.218459E-2,3.3798498E-1,-5.991525E-1,1.16343975E-1,-3.8950306E-1,1.1407223E0,-3.2549244E-1,-8.194277E-1,8.933513E-3,2.0967242E-1,-1.9273265E-1,-6.834975E-1,2.9989213E-1,8.686676E-3,1.4331172E-1,4.2705238E-1,-8.4981404E-2,-9.789981E-1,8.2976766E-2,6.710581E-1,-5.1161313E-1,-9.237892E-2,3.4589425E-1,2.0742637E-1,-5.574941E-1,3.210901E-1,-8.9368534E-1,-7.21669E-2,8.609955E-1,1.0138734E-1,-3.010991E-2,-1.7505633E-2,-1.0308614E-1,7.509207E-2,-6.092726E-2,1.02824114E-1,1.3440377E-4,-7.806158E-2,1.9539915E-2,-4.2354313E-1,2.9076424E-1,3.9174208E-1,-8.031726E-2,-3.7247664E-1,5.945908E-1,-7.4697536E-1,7.1807146E-2,1.0546535E-1,-5.618101E-2,6.051652E-4,-1.00916564E-1,1.2533526E-1,-4.724296E-3,-7.84016E-2,8.822725E-3,8.181668E-2,-1.9937998E-2,7.7313736E-2,2.4046663E-2,3.9676037E-2,-7.7348486E-2,-7.102657E-2,8.951126E-2,-9.1679886E-2,4.383806E-2],"categories":[],"categories_nodes":[],"categories_segments":[],"categories_sizes":[],"default_left":[0,0,0,0,0,0,0,0,0,0,0,0,0,0,0,0,0,0,0,0,0,0,0,0,0,0,0,0,0,0,0,0,0,0,0,0,0,0,0,0,0,0,0,0,0,0,0,0,0,0,0,0,0,0,0,0,0,0,0,0,0,0,0,0,0,0,0],"id":20,"left_children":[1,3,5,7,9,11,13,15,17,19,21,23,25,27,29,-1,-1,31,-1,33,35,37,39,41,43,45,47,49,51,-1,53,-1,-1,-1,-1,-1,-1,-1,-1,-1,-1,55,57,59,-1,61,63,65,-1,-1,-1,-1,-1,-1,-1,-1,-1,-1,-1,-1,-1,-1,-1,-1,-1,-1,-1],"loss_changes":[3.484539E0,6.192173E0,4.2827296E0,6.0477285E0,2.9171262E0,4.5241966E0,4.0104055E0,1.4300404E0,2.9723027E0,2.3791065E0,2.6753056E0,4.9640718E0,5.453765E0,3.1306386E0,4.2372417E0,0E0,0E0,1.7500083E0,0E0,3.881836E-1,1.9924686E0,8.144622E-1,9.8086536E-1,4.9505816E0,4.6779156E0,4.3006372E0,5.22608E0,2.578188E0,1.190753E0,0E0,1.672694E0,0E0,0E0,0E0,0E0,0E0,0E0,0E0,0E0,0E0,0E0,3.909007E0,4.8761E0,4.4480267E0,0E0,2.7402883E0,5.0590653E0,3.9013147E0,0E0,0E0,0E0,0E0,0E0,0E0,0E0,0E0,0E0,0E0,0E0,0E0,0E0,0E0,0E0,0E0,0E0,0E0,0E0],"parents":[2147483647,0,0,1,1,2,2,3,3,4,4,5,5,6,6,7,7,8,8,9,9,10,10,11,11,12,12,13,13,14,14,17,17,19,19,20,20,21,21,22,22,23,23,24,24,25,25,26,26,27,27,28,28,30,30,41,41,42,42,43,43,45,45,46,46,47,47],"right_children":[2,4,6,8,10,12,14,16,18,20,22,24,26,28,30,-1,-1,32,-1,34,36,38,40,42,44,46,48,50,52,-1,54,-1,-1,-1,-1,-1,-1,-1,-1,-1,-1,56,58,60,-1,62,64,66,-1,-1,-1,-1,-1,-1,-1,-1,-1,-1,-1,-1,-1,-1,-1,-1,-1,-1,-1],"split_conditions":[2E-2,1.6666667E-1,2E-1,4E-2,4E-1,2.3333333E-1,1.4E-1,5E-1,3.3333334E-1,1.6E-1,4E-2,4E-2,2E-1,1.3333334E-1,4E-2,8.686676E-3,1.4331172E-1,2E-2,-8.4981404E-2,1E-1,2E-2,8E-2,4.6E0,2.3333333E-1,3.4E-1,8E-2,6E-1,2E-2,2E-2,-7.21669E-2,3.3333334E-1,1.0138734E-1,-3.010991E-2,-1.7505633E-2,-1.0308614E-1,7.509207E-2,-6.092726E-2,1.02824114E-1,1.3440377E-4,-7.806158E-2,1.9539915E-2,4E-1,6E-2,4.35E-1,-8.031726E-2,2E-2,2E-2,2.6666668E-1,7.1807146E-2,1.0546535E-1,-5.618101E-2,6.051652E-4,-1.00916564E-1,1.2533526E-1,-4.724296E-3,-7.84016E-2,8.822725E-3,8.181668E-2,-1.9937998E-2,7.7313736E-2,2.4046663E-2,3.9676037E-2,-7.7348486E-2,-7.102657E-2,8.951126E-2,-9.1679886E-2,4.383806E-2],"split_indices":[1575,1358,130,963,1140,400,361,339,1774,362,27,477,747,1480,602,0,0,1092,0,35,249,1669,112,406,1561,263,1512,380,862,0,1412,0,0,0,0,0,0,0,0,0,0,1019,22,932,0,1340,846,1581,0,0,0,0,0,0,0,0,0,0,0,0,0,0,0,0,0,0,0],"split_type":[0,0,0,0,0,0,0,0,0,0,0,0,0,0,0,0,0,0,0,0,0,0,0,0,0,0,0,0,0,0,0,0,0,0,0,0,0,0,0,0,0,0,0,0,0,0,0,0,0,0,0,0,0,0,0,0,0,0,0,0,0,0,0,0,0,0,0],"sum_hessian":[2.0259805E2,3.0381683E1,1.7221637E2,9.658003E0,2.072368E1,1.5444067E2,1.7775707E1,4.0448523E0,5.613151E0,1.4957773E1,5.7659073E0,1.1886879E2,3.557188E1,1.2467474E1,5.3082333E0,1.1602266E0,2.8846257E0,2.3811147E0,3.2320364E0,1.2638122E1,2.3196518E0,2.4105701E0,3.3553371E0,3.7046223E1,8.182257E1,1.7168564E1,1.8403316E1,2.0659034E0,1.040157E1,1.7804797E0,3.5277536E0,1.1012324E0,1.2798823E0,1.0310452E0,1.1607076E1,1.1374165E0,1.1822355E0,1.2229714E0,1.1875988E0,2.3551493E0,1.0001878E0,1.9814447E1,1.7231773E1,7.9316895E1,2.505671E0,6.888604E0,1.027996E1,1.6383932E1,2.0193846E0,1.0221283E0,1.0437752E0,1.2909601E0,9.11061E0,2.1981678E0,1.3295858E0,1.1313589E1,8.500858E0,7.978042E0,9.253732E0,2.1358107E1,5.795879E1,2.3641493E0,4.5244546E0,1.6691442E0,8.610815E0,1.452896E1,1.8549715E0],"tree_param":{"num_deleted":"0","num_feature":"1785","num_nodes":"67","size_leaf_vector":"1"}},{"base_weights":[5.2957158E-3,9.5223755E-2,-1.7836268E-1,2.0326655E-1,-3.0821505E-1,-2.5241998E-1,6.769157E-1,2.5923982E-1,-5.570361E-1,-4.4601625E-1,6.1134833E-1,3.8927365E-2,-4.9059197E-1,1.2272668E0,-4.0813312E-2,4.3378896E-1,2.7326882E-2,-9.2276104E-2,3.0278474E-1,4.3668064E-1,-5.869083E-1,1.2282645E-1,-3.477128E-2,4.3276453E-1,-3.8848615E-1,-5.618422E-1,6.997385E-2,1.5312073E-1,2.0198703E-2,5.09408E-1,-8.095452E-2,-1.823034E-1,5.079396E-1,-2.178344E-2,6.838327E-2,9.9531494E-2,-3.961409E-2,4.4132566E-1,-7.2421944E-1,-5.4494363E-1,7.752595E-1,4.2530125E-1,-9.0634197E-1,-6.418001E-1,5.714007E-2,6.390301E-3,6.809957E-2,5.6390382E-2,-3.8486E-2,7.1647875E-2,-6.817427E-2,-3.0394657E-2,1.03847064E-1,-8.1894815E-2,3.7579093E-2,2.075835E-2,-8.143952E-2,1.0071057E-1,-6.355085E-2,9.74949E-2,-4.7679663E-2,-9.8260365E-2,-1.4605472E-2,8.771536E-3,-7.75626E-2],"categories":[],"categories_nodes":[],"categories_segments":[],"categories_sizes":[],"default_left":[0,0,0,0,0,0,0,0,0,0,0,0,0,0,0,0,0,0,0,0,0,0,0,0,0,0,0,0,0,0,0,0,0,0,0,0,0,0,0,0,0,0,0,0,0,0,0,0,0,0,0,0,0,0,0,0,0,0,0,0,0,0,0,0,0],"id":21,"left_children":[1,3,5,7,9,11,13,15,17,19,21,23,25,27,-1,29,31,-1,33,35,37,-1,-1,39,41,43,-1,-1,-1,45,-1,47,49,-1,-1,-1,-1,51,53,55,57,59,61,63,-1,-1,-1,-1,-1,-1,-1,-1,-1,-1,-1,-1,-1,-1,-1,-1,-1,-1,-1,-1,-1],"loss_changes":[3.3366315E0,5.9723983E0,4.3775883E0,4.72109E0,3.9521048E0,4.311001E0,3.823562E0,4.0706286E0,2.6982088E0,3.4687161E0,2.9156203E0,5.0070567E0,3.2856092E0,9.1890097E-1,0E0,5.8161726E0,4.5635595E0,0E0,7.537005E-1,2.3151982E0,3.5248342E0,0E0,0E0,5.590678E0,6.4171314E0,3.3327417E0,0E0,0E0,0E0,4.1450787E0,0E0,4.9986153E0,3.8976395E0,0E0,0E0,0E0,0E0,1.7823961E0,2.4341059E0,1.1000085E0,4.5135617E0,3.5621195E0,3.8213968E-1,3.099083E0,0E0,0E0,0E0,0E0,0E0,0E0,0E0,0E0,0E0,0E0,0E0,0E0,0E0,0E0,0E0,0E0,0E0,0E0,0E0,0E0,0E0],"parents":[2147483647,0,0,1,1,2,2,3,3,4,4,5,5,6,6,7,7,8,8,9,9,10,10,11,11,12,12,13,13,15,15,16,16,18,18,19,19,20,20,23,23,24,24,25,25,29,29,31,31,32,32,37,37,38,38,39,39,40,40,41,41,42,42,43,43],"right_children":[2,4,6,8,10,12,14,16,18,20,22,24,26,28,-1,30,32,-1,34,36,38,-1,-1,40,42,44,-1,-1,-1,46,-1,48,50,-1,-1,-1,-1,52,54,56,58,60,62,64,-1,-1,-1,-1,-1,-1,-1,-1,-1,-1,-1,-1,-1,-1,-1,-1,-1,-1,-1,-1,-1],"split_conditions":[1E-1,4E-1,2.4E-1,2.6E-1,2.8E-1,4.9E-1,4.85E-1,2E-1,1.4E-1,6E-1,4E-2,1.6666667E-1,3.4E-1,5E-1,-4.0813312E-2,6.55E-1,1.6E-1,-9.2276104E-2,6E-2,1.6666667E-1,1E-1,1.2282645E-1,-3.477128E-2,4.65E-1,4E-2,2.6E-1,6.997385E-2,1.5312073E-1,2.0198703E-2,4E-2,-8.095452E-2,2E-2,9.0625E-1,-2.178344E-2,6.838327E-2,9.9531494E-2,-3.961409E-2,1.6666667E-1,6.66E0,6E-2,4E-1,2E-1,2E-1,1E-1,5.714007E-2,6.390301E-3,6.809957E-2,5.6390382E-2,-3.8486E-2,7.1647875E-2,-6.817427E-2,-3.0394657E-2,1.03847064E-1,-8.1894815E-2,3.7579093E-2,2.075835E-2,-8.143952E-2,1.0071057E-1,-6.355085E-2,9.74949E-2,-4.7679663E-2,-9.8260365E-2,-1.4605472E-2,8.771536E-3,-7.75626E-2],"split_indices":[968,204,489,1204,1335,1765,1527,43,857,933,1312,422,264,461,0,1170,19,0,1197,1461,56,0,0,99,1551,1554,0,0,0,627,0,503,1773,0,0,0,0,45,949,1686,1377,302,490,172,0,0,0,0,0,0,0,0,0,0,0,0,0,0,0,0,0,0,0,0,0],"split_type":[0,0,0,0,0,0,0,0,0,0,0,0,0,0,0,0,0,0,0,0,0,0,0,0,0,0,0,0,0,0,0,0,0,0,0,0,0,0,0,0,0,0,0,0,0,0,0,0,0,0,0,0,0,0,0,0,0,0,0,0,0,0,0,0,0],"sum_hessian":[1.9999535E2,1.3457999E2,6.541535E1,1.0654335E2,2.8036638E1,6.0851208E1,4.564147E0,9.985135E1,6.6920004E0,2.4830616E1,3.206023E0,2.7746483E1,3.3104725E1,2.9412405E0,1.6229067E0,5.6475E1,4.3376347E1,4.64363E0,2.0483704E0,3.1288414E0,2.1701775E1,1.7802088E0,1.4258143E0,1.4433925E1,1.3312557E1,3.1733248E1,1.3714782E0,1.8880746E0,1.0531658E0,5.3793587E1,2.681413E0,3.0634912E1,1.2741436E1,1.0466622E0,1.0017081E0,1.7559114E0,1.3729302E0,2.295819E0,1.9405954E1,3.5911882E0,1.0842736E1,5.2465553E0,8.066002E0,3.0046896E1,1.6863503E0,1.5339366E1,3.845422E1,6.1595488E0,2.4475365E1,1.1179534E1,1.5619015E0,1.2396557E0,1.0561634E0,1.8102541E1,1.3034134E0,1.0073786E0,2.5838096E0,9.558085E0,1.2846509E0,3.209967E0,2.0365887E0,7.064934E0,1.0010684E0,4.710957E0,2.533594E1],"tree_param":{"num_deleted":"0","num_feature":"1785","num_nodes":"65","size_leaf_vector":"1"}},{"base_weights":[4.917773E-3,2.7616563E-1,-5.5187006E-2,2.3753498E-2,8.601678E-1,1.2985747E-1,-1.9634423E-1,-7.1067804E-1,3.3372957E-1,1.0811833E0,-3.254784E-2,-5.653435E-2,4.7325125E-1,-5.6148154E-1,-4.697902E-2,5.1113673E-2,-9.6102834E-2,-3.2359728E-1,7.5235105E-1,1.3077041E0,-2.6116023E-2,1.6330795E-1,-5.4004264E-1,6.620104E-1,-8.209426E-2,-7.431639E-1,5.163707E-1,2.8085902E-1,-2.7269253E-1,-7.7862734E-1,4.905299E-1,-6.2411796E-2,9.769034E-1,1.1818183E-2,1.4592292E0,-1.9751015E-1,5.7937545E-1,-7.539875E-1,6.526486E-2,9.3727416E-1,-7.7042386E-2,2.8444452E-2,-8.272744E-1,1.1185204E-1,-6.1768588E-2,-5.04173E-1,5.2625006E-1,-4.438018E-1,3.9499947E-1,-8.671271E-2,-1.8545546E-2,1.016408E-1,-2.8438438E-2,-1.0053914E-2,1.2328442E-1,1.6039568E-1,3.8146272E-2,4.516404E-2,-5.702147E-2,-4.2441037E-2,7.868004E-2,6.041649E-2,-9.253247E-2,1.5142485E-2,1.23432316E-1,8.6894415E-2,-8.690158E-2,8.030407E-3,-9.233888E-2,-9.218986E-2,5.7839405E-2,7.552662E-2,-3.375876E-2,1.2998427E-2,-6.5598436E-2,-4.3108307E-2,8.804086E-2],"categories":[],"categories_nodes":[],"categories_segments":[],"categories_sizes":[],"default_left":[0,0,0,0,0,0,0,0,0,0,0,0,0,0,0,0,0,0,0,0,0,0,0,0,0,0,0,0,0,0,0,0,0,0,0,0,0,0,0,0,0,0,0,0,0,0,0,0,0,0,0,0,0,0,0,0,0,0,0,0,0,0,0,0,0,0,0,0,0,0,0,0,0,0,0,0,0],"id":22,"left_children":[1,3,5,7,9,11,13,15,17,19,-1,21,23,25,27,-1,-1,29,31,33,-1,35,37,39,-1,41,43,45,47,49,51,-1,53,-1,55,57,59,61,-1,63,65,-1,67,-1,-1,69,71,73,75,-1,-1,-1,-1,-1,-1,-1,-1,-1,-1,-1,-1,-1,-1,-1,-1,-1,-1,-1,-1,-1,-1,-1,-1,-1,-1,-1,-1],"loss_changes":[3.2475562E0,5.3054094E0,4.2865605E0,6.2142596E0,3.2015905E0,4.58358E0,5.042346E0,2.9724927E0,5.511058E0,3.1990042E0,0E0,5.0882754E0,6.6884933E0,5.6494293E0,5.0380025E0,0E0,0E0,3.4001074E0,4.3174586E0,1.3068161E0,0E0,5.084219E0,4.303062E0,4.6507645E0,0E0,2.259632E0,3.7424576E0,5.6268663E0,4.7699633E0,1.3382936E-1,1.729407E0,0E0,3.0754528E0,0E0,5.099211E-1,4.7274227E0,3.5881052E0,3.6138315E0,0E0,3.6588354E0,6.023301E0,0E0,1.9849272E0,0E0,0E0,3.7614918E0,4.5465913E0,4.04005E0,3.8813384E0,0E0,0E0,0E0,0E0,0E0,0E0,0E0,0E0,0E0,0E0,0E0,0E0,0E0,0E0,0E0,0E0,0E0,0E0,0E0,0E0,0E0,0E0,0E0,0E0,0E0,0E0,0E0,0E0],"parents":[2147483647,0,0,1,1,2,2,3,3,4,4,5,5,6,6,7,7,8,8,9,9,11,11,12,12,13,13,14,14,17,17,18,18,19,19,21,21,22,22,23,23,25,25,26,26,27,27,28,28,29,29,30,30,32,32,34,34,35,35,36,36,37,37,39,39,40,40,42,42,45,45,46,46,47,47,48,48],"right_children":[2,4,6,8,10,12,14,16,18,20,-1,22,24,26,28,-1,-1,30,32,34,-1,36,38,40,-1,42,44,46,48,50,52,-1,54,-1,56,58,60,62,-1,64,66,-1,68,-1,-1,70,72,74,76,-1,-1,-1,-1,-1,-1,-1,-1,-1,-1,-1,-1,-1,-1,-1,-1,-1,-1,-1,-1,-1,-1,-1,-1,-1,-1,-1,-1],"split_conditions":[2E-2,4E-1,6E-2,4E-2,4E-1,5E-1,5E-1,3.8E-1,1.6666667E-1,4E-1,-3.254784E-2,5.55E-1,1.8E-1,2.6E-1,4E-2,5.1113673E-2,-9.6102834E-2,1.6E-1,2E-2,2E-2,-2.6116023E-2,8E-2,3E-1,2.3333333E-1,-8.209426E-2,5E-1,6E-2,4E-2,1.8E-1,1.4E-1,4.8E-1,-6.2411796E-2,1.3333334E-1,1.1818183E-2,4E-1,4E-2,2E-2,1.6666667E-1,6.526486E-2,1.4E0,4E-2,2.8444452E-2,1.6666667E-1,1.1185204E-1,-6.1768588E-2,5.7E-1,4E-1,2E-2,5.25E-1,-8.671271E-2,-1.8545546E-2,1.016408E-1,-2.8438438E-2,-1.0053914E-2,1.2328442E-1,1.6039568E-1,3.8146272E-2,4.516404E-2,-5.702147E-2,-4.2441037E-2,7.868004E-2,6.041649E-2,-9.253247E-2,1.5142485E-2,1.23432316E-1,8.6894415E-2,-8.690158E-2,8.030407E-3,-9.233888E-2,-9.218986E-2,5.7839405E-2,7.552662E-2,-3.375876E-2,1.2998427E-2,-6.5598436E-2,-4.3108307E-2,8.804086E-2],"split_indices":[122,1517,389,746,321,581,1291,337,630,1613,0,1408,17,6,600,0,0,1202,1675,1313,0,1334,361,1240,0,457,1688,1562,1194,967,1646,0,519,0,798,266,1575,1414,0,1181,120,0,223,0,0,99,335,1206,932,0,0,0,0,0,0,0,0,0,0,0,0,0,0,0,0,0,0,0,0,0,0,0,0,0,0,0,0],"split_type":[0,0,0,0,0,0,0,0,0,0,0,0,0,0,0,0,0,0,0,0,0,0,0,0,0,0,0,0,0,0,0,0,0,0,0,0,0,0,0,0,0,0,0,0,0,0,0,0,0,0,0,0,0,0,0,0,0,0,0,0,0,0,0,0,0,0,0,0,0,0,0,0,0,0,0,0,0],"sum_hessian":[1.972615E2,3.5129635E1,1.6213187E2,2.5254875E1,9.874761E0,7.019395E1,9.193792E1,7.111883E0,1.8142992E1,8.397495E0,1.4772652E0,4.603942E1,2.415452E1,2.5889492E1,6.604843E1,1.0322726E0,6.079611E0,7.147249E0,1.0995744E1,7.207101E0,1.1903948E0,3.2104393E1,1.393503E1,2.1506289E1,2.6482315E0,2.242077E1,3.4687214E0,2.6831968E1,3.921646E1,4.612722E0,2.534527E0,1.2926464E0,9.703097E0,1.0154481E0,6.1916523E0,1.7475098E1,1.4629294E1,1.2127439E1,1.8075917E0,1.547452E1,6.0317693E0,1.5161101E0,2.0904661E1,2.2746508E0,1.1940708E0,6.138782E0,2.0693186E1,3.1483511E1,7.732952E0,3.6119761E0,1.000746E0,1.3242295E0,1.2102975E0,1.9790417E0,7.724056E0,5.0282173E0,1.1634352E0,6.2965016E0,1.1178596E1,2.3261812E0,1.2303114E1,1.0755575E0,1.1051881E1,4.658946E0,1.0815574E1,2.7043376E0,3.327432E0,2.0176E0,1.8887062E1,4.536656E0,1.602126E0,1.6456112E1,4.2370734E0,8.60397E0,2.2879541E1,2.9035423E0,4.8294096E0],"tree_param":{"num_deleted":"0","num_feature":"1785","num_nodes":"77","size_leaf_vector":"1"}},{"base_weights":[4.292203E-3,2.5845954E-1,-5.7969693E-2,1.0910681E-2,7.7159303E-1,-1.2397591E-1,3.172566E-1,-2.904862E-1,5.308569E-1,-6.1192095E-2,9.8042315E-1,-3.144526E-2,-4.6086064E-1,7.837734E-1,-9.35183E-2,2.8192765E-1,-7.191482E-1,-4.3367004E-1,9.275545E-1,-1.195776E-1,1.2674912E0,2.458926E-1,-1.9851635E-1,1.63258E-1,-6.6802555E-1,2.82948E-2,1.1402737E0,-5.84471E-1,3.8720143E-1,1.0697671E0,-4.29783E-1,4.2899437E-2,-9.155028E-1,1.2272327E-2,-6.886267E-2,1.1890298E0,-3.2434676E-2,-6.176218E-2,4.972034E-2,1.4645736E0,-1.7641546E-3,4.5926264E-1,-2.9596892E-1,3.713109E-1,-3.3411452E-1,-5.3730565E-1,7.758084E-1,-7.742679E-1,4.2040817E-2,-7.056637E-2,6.988289E-2,1.3656752E0,1.5503475E-2,-8.378386E-2,4.436896E-2,-3.475175E-1,9.530987E-1,1.3328728E-1,1.4164937E-2,-8.3052695E-2,5.979171E-2,-9.709317E-2,-2.3539094E-2,1.4021793E-1,1.1977061E-2,1.6101801E-1,2.4883635E-2,6.9143414E-2,-4.0422045E-2,2.8005857E-2,-8.3409E-2,-5.6520995E-2,7.649848E-2,-4.2159237E-2,6.470613E-2,-7.865509E-2,1.4413411E-2,-2.192944E-2,1.13743775E-1,1.9717317E-2,-8.78385E-2,4.1304525E-2,1.4723888E-1,-7.6106116E-2,4.3554325E-2,1.31498E-1,2.888424E-3],"categories":[],"categories_nodes":[],"categories_segments":[],"categories_sizes":[],"default_left":[0,0,0,0,0,0,0,0,0,0,0,0,0,0,0,0,0,0,0,0,0,0,0,0,0,0,0,0,0,0,0,0,0,0,0,0,0,0,0,0,0,0,0,0,0,0,0,0,0,0,0,0,0,0,0,0,0,0,0,0,0,0,0,0,0,0,0,0,0,0,0,0,0,0,0,0,0,0,0,0,0,0,0,0,0,0,0],"id":23,"left_children":[1,3,5,7,9,11,13,15,17,-1,19,21,23,25,27,29,31,33,35,37,39,41,43,45,47,49,51,53,55,57,59,-1,61,-1,-1,63,-1,-1,-1,65,-1,67,69,71,73,75,77,79,-1,-1,-1,81,-1,-1,-1,83,85,-1,-1,-1,-1,-1,-1,-1,-1,-1,-1,-1,-1,-1,-1,-1,-1,-1,-1,-1,-1,-1,-1,-1,-1,-1,-1,-1,-1,-1,-1],"loss_changes":[3.091814E0,4.8744316E0,3.9275296E0,4.376721E0,4.210031E0,4.1695466E0,4.6276207E0,4.546699E0,4.3208E0,0E0,3.7011108E0,4.977678E0,3.839149E0,2.9935007E0,3.419846E0,5.1131587E0,2.7383633E0,6.0455203E-1,2.865343E0,1.302415E0,2.3054743E0,4.8111343E0,5.296134E0,3.8469617E0,2.8529043E0,2.7703967E0,1.4776497E0,2.21946E0,3.4239335E0,8.4303E-1,2.5861123E0,0E0,1.1842394E-1,0E0,0E0,1.3090973E0,0E0,0E0,0E0,9.8286057E-1,0E0,6.1744003E0,3.9633327E0,5.350777E0,4.958897E0,8.4702134E-1,1.9312856E0,2.2228088E0,0E0,0E0,0E0,8.178711E-3,0E0,0E0,0E0,1.6168396E0,1.4567571E0,0E0,0E0,0E0,0E0,0E0,0E0,0E0,0E0,0E0,0E0,0E0,0E0,0E0,0E0,0E0,0E0,0E0,0E0,0E0,0E0,0E0,0E0,0E0,0E0,0E0,0E0,0E0,0E0,0E0,0E0],