{"learner":{"attributes":{},"feature_names":[],"feature_types":[],"gradient_booster":{"model":{"cats":{"enc":[],"feature_segments":[],"sorted_idx":[]},"gbtree_model_param":{"num_parallel_tree":"1","num_trees":"100"},"iteration_indptr":[0,1,2,3,4,5,6,7,8,9,10,11,12,13,14,15,16,17,18,19,20,21,22,23,24,25,26,27,28,29,30,31,32,33,34,35,36,37,38,39,40,41,42,43,44,45,46,47,48,49,50,51,52,53,54,55,56,57,58,59,60,61,62,63,64,65,66,67,68,69,70,71,72,73,74,75,76,77,78,79,80,81,82,83,84,85,86,87,88,89,90,91,92,93,94,95,96,97,98,99,100],"tree_info":[0,0,0,0,0,0,0,0,0,0,0,0,0,0,0,0,0,0,0,0,0,0,0,0,0,0,0,0,0,0,0,0,0,0,0,0,0,0,0,0,0,0,0,0,0,0,0,0,0,0,0,0,0,0,0,0,0,0,0,0,0,0,0,0,0,0,0,0,0,0,0,0,0,0,0,0,0,0,0,0,0,0,0,0,0,0,0,0,0,0,0,0,0,0,0,0,0,0,0,0],"trees":[{"base_weights":[2.7616206E-8,1.00655094E-1,-5.714456E-1,4.7328028E-1,-6.446919E-2,5.5674314E-1,-7.2768646E-1,8.992785E-1,-4.0285666E-2,-1.6382617E-1,6.030992E-1,-8.704411E-2,1.8176417E0,-8.641771E-1,9.216141E-1,1.0993277E0,-9.618487E-2,-6.701509E-1,4.9389958E-1,-2.2632544E-1,1.1500739E0,-1.7566647E-1,1.4763288E0,-1.71784E-2,2.8617924E-1,7.8251235E-2,-9.4019604E-1,-2.4610616E-2,1.7368086E-1,4.7594592E-1,1.7321627E0,-9.51029E-1,1.1916669E-1,1.2667754E0,-4.6224263E-1,-2.6536894E-1,1.9712701E-1,1.9628148E0,-5.027153E-2,9.760218E-1,-8.533236E-1,-5.027153E-2,2.018378E0,-1.0202234E0,6.418648E-2,1.3854806E-1,-3.373785E-2,-6.173772E-3,2.1636057E-1,-1.139995E-1,2.5586474E-3,1.840993E-1,-5.717653E-2,1.1916669E-1,-9.5125906E-2,-3.33662E-2,8.612143E-2,-2.4610616E-2,2.8223568E-1,-5.027153E-2,2.1331732E-1,-1.0702222E-1,3.0536413E-2,2.5586474E-3,2.7927956E-1,-1.1038827E-1,2.3225142E-2],"categories":[],"categories_nodes":[],"categories_segments":[],"categories_sizes":[],"default_left":[0,0,0,0,0,0,0,0,0,0,0,0,0,0,0,0,0,0,0,0,0,0,0,0,0,0,0,0,0,0,0,0,0,0,0,0,0,0,0,0,0,0,0,0,0,0,0,0,0,0,0,0,0,0,0,0,0,0,0,0,0,0,0,0,0,0,0],"id":0,"left_children":[1,3,5,7,9,11,13,15,17,19,21,-1,23,25,27,29,-1,31,33,35,37,39,41,-1,-1,-1,43,-1,-1,45,47,49,-1,51,53,55,-1,57,-1,59,61,-1,63,65,-1,-1,-1,-1,-1,-1,-1,-1,-1,-1,-1,-1,-1,-1,-1,-1,-1,-1,-1,-1,-1,-1,-1],"loss_changes":[1.619627E1,1.4761376E1,7.8384438E0,1.614594E1,1.1160694E1,1.1832699E1,9.232363E0,1.6058681E1,1.1886253E1,1.22459345E1,1.5097786E1,0E0,7.4465055E0,5.1327553E0,3.6145706E0,1.3711971E1,0E0,9.5968685E0,1.4743457E1,1.2549503E1,1.0110368E1,1.0531881E1,1.21630535E1,0E0,0E0,0E0,4.963335E0,0E0,0E0,1.521904E1,1.3992508E1,2.7270699E0,0E0,1.2519943E1,8.652618E0,1.0950879E1,0E0,9.726484E0,0E0,9.747873E0,2.4271727E0,0E0,1.2826141E1,3.6908722E0,0E0,0E0,0E0,0E0,0E0,0E0,0E0,0E0,0E0,0E0,0E0,0E0,0E0,0E0,0E0,0E0,0E0,0E0,0E0,0E0,0E0,0E0,0E0],"parents":[2147483647,0,0,1,1,2,2,3,3,4,4,5,5,6,6,7,7,8,8,9,9,10,10,12,12,13,13,14,14,15,15,17,17,18,18,19,19,20,20,21,21,22,22,26,26,29,29,30,30,31,31,33,33,34,34,35,35,37,37,39,39,40,40,42,42,43,43],"right_children":[2,4,6,8,10,12,14,16,18,20,22,-1,24,26,28,30,-1,32,34,36,38,40,42,-1,-1,-1,44,-1,-1,46,48,50,-1,52,54,56,-1,58,-1,60,62,-1,64,66,-1,-1,-1,-1,-1,-1,-1,-1,-1,-1,-1,-1,-1,-1,-1,-1,-1,-1,-1,-1,-1,-1,-1],"split_conditions":[2E-1,4E-2,1.6666667E-1,8E-2,2.2E-1,3.3333334E-1,2.4E-1,2.4E-1,7.8125E-1,6E-1,8.125E-1,-8.704411E-2,4E-2,1.6666667E-1,6E-2,8E-2,-9.618487E-2,2.2E-1,6E-2,6.8E0,2.6666668E-1,8E-2,2E-2,-1.71784E-2,2.8617924E-1,7.8251235E-2,2.8E-1,-2.4610616E-2,1.7368086E-1,6E-2,2E-2,2.6666668E-1,1.1916669E-1,4E-1,1.3333334E-1,6E-1,1.9712701E-1,1.6666667E-1,-5.027153E-2,8E-2,6.15E-1,-5.027153E-2,5E-1,6E-1,6.418648E-2,1.3854806E-1,-3.373785E-2,-6.173772E-3,2.1636057E-1,-1.139995E-1,2.5586474E-3,1.840993E-1,-5.717653E-2,1.1916669E-1,-9.5125906E-2,-3.33662E-2,8.612143E-2,-2.4610616E-2,2.8223568E-1,-5.027153E-2,2.1331732E-1,-1.0702222E-1,3.0536413E-2,2.5586474E-3,2.7927956E-1,-1.1038827E-1,2.3225142E-2],"split_indices":[129,1562,1355,1446,2,1174,1207,370,1416,1050,1535,0,5,1176,9,1549,0,618,719,1061,302,970,1311,0,0,0,13,0,0,1095,1569,1482,0,1386,1465,1261,0,1122,0,1076,456,0,816,1276,0,0,0,0,0,0,0,0,0,0,0,0,0,0,0,0,0,0,0,0,0,0,0],"split_type":[0,0,0,0,0,0,0,0,0,0,0,0,0,0,0,0,0,0,0,0,0,0,0,0,0,0,0,0,0,0,0,0,0,0,0,0,0,0,0,0,0,0,0,0,0,0,0,0,0,0,0,0,0,0,0,0,0,0,0,0,0,0,0,0,0,0,0],"sum_hessian":[2.7958176E2,2.3841154E2,4.1170216E1,7.26349E1,1.6577664E2,4.6962223E0,3.647399E1,3.9291725E1,3.3343178E1,1.4495673E2,2.0819918E1,2.3481112E0,2.3481112E0,3.412588E1,2.3481112E0,3.5847828E1,3.4438963E0,1.5184451E1,1.8158726E1,1.3916472E2,5.7920074E0,1.1427474E1,9.392445E0,1.0957851E0,1.2523259E0,1.0957851E0,3.3030094E1,1.2523259E0,1.0957851E0,1.894143E1,1.6906399E1,1.3619044E1,1.5654074E0,9.862066E0,8.296659E0,1.375993E2,1.5654074E0,3.7569776E0,2.0350296E0,4.0700593E0,7.3574147E0,2.0350296E0,7.3574147E0,3.177777E1,1.2523259E0,8.60974E0,1.0331689E1,3.4438963E0,1.3462503E1,1.1270933E1,2.3481112E0,7.513955E0,2.3481112E0,1.5654074E0,6.7312517E0,1.3039844E2,7.200874E0,1.2523259E0,2.5046518E0,2.0350296E0,2.0350296E0,6.2616296E0,1.0957851E0,2.3481112E0,5.0093036E0,2.989928E1,1.8784888E0],"tree_param":{"num_deleted":"0","num_feature":"1785","num_nodes":"67","size_leaf_vector":"1"}},{"base_weights":[2.311667E-3,9.204469E-2,-5.3027964E-1,4.146198E-1,-5.5640303E-2,-6.446754E-1,9.525615E-1,5.368749E-1,-9.0982497E-1,1.5009993E-1,-3.6376056E-1,-7.825071E-1,4.6875095E-1,-6.551867E-2,2.1397476E-1,8.2255787E-1,-9.49537E-2,-1.0206484E-1,-1.3623485E-2,1.720316E-2,1.0057741E0,-3.8003396E-2,-7.062542E-1,-8.8432807E-1,1.0124493E-1,1.9167395E-1,-8.437631E-2,5.008335E-1,1.8766305E0,-5.7399696E-1,7.6988745E-1,-1.486797E-1,7.6976687E-1,1.5805998E0,-9.179509E-2,-2.3241241E-1,1.4834454E0,3.8143176E-1,-9.0394557E-1,-9.637223E-1,6.0197245E-2,-3.5752814E-2,8.8465504E-2,2.4579501E-1,-2.5178289E-2,-9.69611E-2,5.6351136E-2,-1.7310455E-2,2.0354186E-1,-2.3917725E-2,1.3187946E-1,1.781153E-1,9.605643E-3,2.313427E-1,-3.7845388E-2,-5.190335E-2,7.58529E-2,2.321521E-1,-2.4648787E-2,-8.376583E-2,1.3471894E-1,3.2591478E-3,-1.0956216E-1,-1.0452314E-1,1.8831216E-2],"categories":[],"categories_nodes":[],"categories_segments":[],"categories_sizes":[],"default_left":[0,0,0,0,0,0,0,0,0,0,0,0,0,0,0,0,0,0,0,0,0,0,0,0,0,0,0,0,0,0,0,0,0,0,0,0,0,0,0,0,0,0,0,0,0,0,0,0,0,0,0,0,0,0,0,0,0,0,0,0,0,0,0,0,0],"id":1,"left_children":[1,3,5,7,9,11,13,15,17,19,21,23,25,-1,-1,27,29,-1,-1,31,33,35,37,39,-1,-1,-1,41,43,45,47,49,51,53,-1,55,57,59,61,63,-1,-1,-1,-1,-1,-1,-1,-1,-1,-1,-1,-1,-1,-1,-1,-1,-1,-1,-1,-1,-1,-1,-1,-1,-1],"loss_changes":[1.3415618E1,1.146684E1,7.4802113E0,1.2722834E1,1.055611E1,6.2252283E0,7.705619E0,1.2677523E1,4.40176E-1,1.135882E1,7.4057674E0,7.1721535E0,1.0797554E1,0E0,0E0,1.5396019E1,9.817649E0,0E0,0E0,1.1051237E1,1.6303246E1,1.0756449E1,7.3155403E0,4.478262E0,0E0,0E0,0E0,1.2924862E1,1.4106094E1,7.358021E0,1.0488987E1,9.959993E0,1.07208E1,1.624928E1,0E0,9.504265E0,6.550825E0,7.826604E0,5.013382E0,3.1775703E0,0E0,0E0,0E0,0E0,0E0,0E0,0E0,0E0,0E0,0E0,0E0,0E0,0E0,0E0,0E0,0E0,0E0,0E0,0E0,0E0,0E0,0E0,0E0,0E0,0E0],"parents":[2147483647,0,0,1,1,2,2,3,3,4,4,5,5,6,6,7,7,8,8,9,9,10,10,11,11,12,12,15,15,16,16,19,19,20,20,21,21,22,22,23,23,27,27,28,28,29,29,30,30,31,31,32,32,33,33,35,35,36,36,37,37,38,38,39,39],"right_children":[2,4,6,8,10,12,14,16,18,20,22,24,26,-1,-1,28,30,-1,-1,32,34,36,38,40,-1,-1,-1,42,44,46,48,50,52,54,-1,56,58,60,62,64,-1,-1,-1,-1,-1,-1,-1,-1,-1,-1,-1,-1,-1,-1,-1,-1,-1,-1,-1,-1,-1,-1,-1,-1,-1],"split_conditions":[2E-1,4E-2,6E-1,2.2E-1,1E-1,2.4E-1,6E-2,5E-1,3E-1,2.6666668E-1,2E-1,2.2E-1,6.875E-1,-6.551867E-2,2.1397476E-1,4E-1,1.2E-1,-1.0206484E-1,-1.3623485E-2,4E-1,2E-1,2.3333333E-1,2E-2,2.8E-1,1.0124493E-1,1.9167395E-1,-8.437631E-2,4E-2,1.8E-1,8.75E-1,1.2E-1,5.58E0,4E-2,4E-1,-9.179509E-2,1.8E-1,9.0625E-1,6E-2,1E-1,6E-1,6.0197245E-2,-3.5752814E-2,8.8465504E-2,2.4579501E-1,-2.5178289E-2,-9.69611E-2,5.6351136E-2,-1.7310455E-2,2.0354186E-1,-2.3917725E-2,1.3187946E-1,1.781153E-1,9.605643E-3,2.313427E-1,-3.7845388E-2,-5.190335E-2,7.58529E-2,2.321521E-1,-2.4648787E-2,-8.376583E-2,1.3471894E-1,3.2591478E-3,-1.0956216E-1,-1.0452314E-1,1.8831216E-2],"split_indices":[129,1562,189,849,1460,258,18,1293,998,989,1229,1080,1416,0,0,1512,958,0,0,921,1099,396,743,1207,0,0,0,368,1310,1773,861,943,502,1269,0,2,702,1442,537,1276,0,0,0,0,0,0,0,0,0,0,0,0,0,0,0,0,0,0,0,0,0,0,0,0,0],"split_type":[0,0,0,0,0,0,0,0,0,0,0,0,0,0,0,0,0,0,0,0,0,0,0,0,0,0,0,0,0,0,0,0,0,0,0,0,0,0,0,0,0,0,0,0,0,0,0,0,0,0,0,0,0,0,0,0,0,0,0,0,0,0,0,0,0],"sum_hessian":[2.7869287E2,2.39216E2,3.9476856E1,7.455806E1,1.6465794E2,3.717424E1,2.302613E0,6.880183E1,5.7562275E0,9.903947E1,6.5618484E1,3.33438E1,3.830442E0,1.1684101E0,1.1342028E0,4.717132E1,2.1630507E1,4.7555842E0,1.0006434E0,8.660824E1,1.2431225E1,3.420035E1,3.1418133E1,3.2033962E1,1.309837E0,1.6023471E0,2.2280948E0,3.727069E1,9.900631E0,1.4136481E1,7.4940257E0,7.162322E1,1.4985019E1,9.708582E0,2.722643E0,3.1076653E1,3.123697E0,4.6891704E0,2.6728964E1,3.0743332E1,1.2906307E0,1.1537418E1,2.5733274E1,7.6550345E0,2.2455962E0,1.059815E1,3.5383308E0,4.7888784E0,2.705147E0,6.825126E1,3.3719656E0,5.3338914E0,9.651128E0,6.93391E0,2.7746723E0,2.447399E1,6.602664E0,1.873903E0,1.2497941E0,2.1313624E0,2.5578082E0,4.682082E0,2.204688E1,2.8798481E1,1.944851E0],"tree_param":{"num_deleted":"0","num_feature":"1785","num_nodes":"65","size_leaf_vector":"1"}},{"base_weights":[3.607434E-3,8.36086E-2,-4.92119E-1,-3.1802307E-3,5.871165E-1,-6.520715E-1,5.513111E-1,2.4232408E-1,-2.4341826E-1,2.027429E-1,1.5284135E0,5.203461E-1,-8.3396703E-1,-3.964281E-1,1.6770814E-1,-1.565368E-1,5.3660685E-1,-4.175114E-1,1.9016312E-1,1.2045857E0,-2.104633E-1,2.3832865E0,6.675684E-2,-7.960411E-2,1.5590978E0,-1.6408405E-1,-1.1016405E0,3.85894E-2,-8.013802E-2,-4.574323E-1,8.4428465E-1,1.2399099E0,2.2280319E-1,-6.286072E-2,-8.131857E-1,-1.7958036E-1,1.2687806E0,2.379798E0,-2.679267E-1,-5.288336E-1,1.4263481E0,2.9509456E0,-1.761154E-2,1.2999825E-1,-8.639366E-2,2.0975354E-1,2.7766073E-2,1.3683136E-1,-5.8354795E-1,-1.14538215E-1,-1.127602E-2,-7.265123E-2,5.52772E-2,2.3965907E-1,-1.3785732E-2,1.5291926E-1,-8.138332E-2,1.488261E-1,-1.3214323E-3,6.867382E-2,-3.9992683E-2,-9.3297474E-2,6.025466E-2,-5.6516476E-2,9.150283E-2,2.040497E-1,-8.107414E-2,2.9942498E-1,2.8458336E-2,8.22068E-2,-8.64869E-2,1.080847E-1,-8.807724E-2,-1.7664617E-2,2.2548512E-1,3.4878382E-1,3.489459E-2,8.3348885E-2,-9.01787E-2],"categories":[],"categories_nodes":[],"categories_segments":[],"categories_sizes":[],"default_left":[0,0,0,0,0,0,0,0,0,0,0,0,0,0,0,0,0,0,0,0,0,0,0,0,0,0,0,0,0,0,0,0,0,0,0,0,0,0,0,0,0,0,0,0,0,0,0,0,0,0,0,0,0,0,0,0,0,0,0,0,0,0,0,0,0,0,0,0,0,0,0,0,0,0,0,0,0,0,0],"id":2,"left_children":[1,3,5,7,9,11,13,15,17,19,21,23,25,27,-1,29,31,33,35,37,39,41,43,-1,45,47,49,-1,-1,51,53,55,57,59,61,63,65,67,69,71,73,75,-1,-1,-1,-1,-1,-1,77,-1,-1,-1,-1,-1,-1,-1,-1,-1,-1,-1,-1,-1,-1,-1,-1,-1,-1,-1,-1,-1,-1,-1,-1,-1,-1,-1,-1,-1,-1],"loss_changes":[1.1094526E1,1.0526235E1,6.8475666E0,1.2233743E1,1.2503564E1,7.719941E0,6.755969E0,1.212626E1,7.9923115E0,1.114061E1,1.2480497E1,8.35768E0,5.191494E0,1.5474381E0,0E0,1.3736369E1,1.2802866E1,1.0488763E1,1.2479267E1,1.418472E1,1.090088E1,9.750835E0,6.5884247E0,0E0,1.6579385E0,7.0520334E0,7.892418E-1,0E0,0E0,9.842893E0,1.648916E1,1.1977076E1,1.2622764E1,1.05560665E1,6.5686455E0,1.0542655E1,1.4438586E1,4.8831367E0,3.5566525E0,1.0599616E1,4.9682813E0,6.126438E0,0E0,0E0,0E0,0E0,0E0,0E0,4.5121994E0,0E0,0E0,0E0,0E0,0E0,0E0,0E0,0E0,0E0,0E0,0E0,0E0,0E0,0E0,0E0,0E0,0E0,0E0,0E0,0E0,0E0,0E0,0E0,0E0,0E0,0E0,0E0,0E0,0E0,0E0],"parents":[2147483647,0,0,1,1,2,2,3,3,4,4,5,5,6,6,7,7,8,8,9,9,10,10,11,11,12,12,13,13,15,15,16,16,17,17,18,18,19,19,20,20,21,21,22,22,24,24,25,25,26,26,29,29,30,30,31,31,32,32,33,33,34,34,35,35,36,36,37,37,38,38,39,39,40,40,41,41,48,48],"right_children":[2,4,6,8,10,12,14,16,18,20,22,24,26,28,-1,30,32,34,36,38,40,42,44,-1,46,48,50,-1,-1,52,54,56,58,60,62,64,66,68,70,72,74,76,-1,-1,-1,-1,-1,-1,78,-1,-1,-1,-1,-1,-1,-1,-1,-1,-1,-1,-1,-1,-1,-1,-1,-1,-1,-1,-1,-1,-1,-1,-1,-1,-1,-1,-1,-1,-1],"split_conditions":[2E-1,9.375E-1,4E-1,6E-2,1.6E-1,1.6666667E-1,5.4E-1,6E-2,1.2E-1,4E-2,8E-2,3.3333334E-1,4E-2,4E-2,1.6770814E-1,2.6666668E-1,4E-2,8E-2,4E-1,6E-2,2.6666668E-1,1.6E-1,6E-2,-7.960411E-2,6E-2,2E-2,5.86E0,3.85894E-2,-8.013802E-2,5.9E-1,6E-2,2.6666668E-1,1.3333334E-1,4E-2,1E0,4E-1,4E-1,1E-1,4E-2,1.3333334E-1,6E-2,1.2E-1,-1.761154E-2,1.2999825E-1,-8.639366E-2,2.0975354E-1,2.7766073E-2,1.3683136E-1,2E-2,-1.14538215E-1,-1.127602E-2,-7.265123E-2,5.52772E-2,2.3965907E-1,-1.3785732E-2,1.5291926E-1,-8.138332E-2,1.488261E-1,-1.3214323E-3,6.867382E-2,-3.9992683E-2,-9.3297474E-2,6.025466E-2,-5.6516476E-2,9.150283E-2,2.040497E-1,-8.107414E-2,2.9942498E-1,2.8458336E-2,8.22068E-2,-8.64869E-2,1.080847E-1,-8.807724E-2,-1.7664617E-2,2.2548512E-1,3.4878382E-1,3.489459E-2,8.3348885E-2,-9.01787E-2],"split_indices":[129,1416,685,18,1222,1474,1170,1194,11,964,358,1174,627,1087,0,510,240,622,1144,366,1702,1430,138,0,1207,1098,112,0,0,694,149,182,1586,1578,1647,1165,1284,243,371,56,139,11,0,0,0,0,0,0,1091,0,0,0,0,0,0,0,0,0,0,0,0,0,0,0,0,0,0,0,0,0,0,0,0,0,0,0,0,0,0],"split_type":[0,0,0,0,0,0,0,0,0,0,0,0,0,0,0,0,0,0,0,0,0,0,0,0,0,0,0,0,0,0,0,0,0,0,0,0,0,0,0,0,0,0,0,0,0,0,0,0,0,0,0,0,0,0,0,0,0,0,0,0,0,0,0,0,0,0,0,0,0,0,0,0,0,0,0,0,0,0,0],"sum_hessian":[2.7771268E2,2.3983847E2,3.7874195E1,2.0542363E2,3.441485E1,3.3165207E1,4.708986E0,1.0159395E2,1.0382968E2,2.5299374E1,9.115477E0,4.2044587E0,2.8960749E1,2.9083922E0,1.8005936E0,4.33317E1,5.8262245E1,7.410988E1,2.9719799E1,6.8283706E0,1.8471003E1,5.353727E0,3.76175E0,1.9574639E0,2.2469952E0,8.72884E0,2.0231909E1,1.0080382E0,1.900354E0,3.37329E1,9.5988035E0,1.7064875E1,4.1197372E1,3.9692013E1,3.4417866E1,2.2753536E1,6.9662642E0,3.4548812E0,3.3734896E0,1.602998E1,2.441022E0,4.256647E0,1.0970796E0,1.447257E0,2.3144932E0,1.1337509E0,1.1132443E0,1.3897419E0,7.3390985E0,1.922333E1,1.008579E0,2.6859402E1,6.8734965E0,3.161611E0,6.437192E0,1.518183E1,1.8830447E0,5.641823E0,3.555555E1,1.1990044E1,2.7701971E1,3.2047256E1,2.370611E0,1.7184015E1,5.5695195E0,5.0944614E0,1.8718027E0,2.3396544E0,1.1152267E0,1.0602962E0,2.3131933E0,2.5043912E0,1.3525589E1,1.099837E0,1.3411851E0,3.2463546E0,1.0102926E0,1.0490195E0,6.290079E0],"tree_param":{"num_deleted":"0","num_feature":"1785","num_nodes":"79","size_leaf_vector":"1"}},{"base_weights":[6.8191118E-3,2.783011E-1,-1.21356E-1,5.9666276E-2,9.04156E-1,-1.5211163E-1,1.3941177E0,2.2987829E-1,-8.5038584E-1,-8.821275E-2,1.1520313E0,-6.636248E-1,-5.1969238E-2,2.1547352E-1,-1.9412464E-2,5.80009E-1,-2.8055915E-1,-1.1028435E-1,3.078625E-2,1.5422528E0,3.6528215E-2,-8.447034E-1,5.613914E-1,-1.18928984E-1,9.071073E-1,-2.311768E-1,9.628261E-1,-4.9021712E-1,1.1033945E0,-7.5049154E-2,1.8654134E0,-9.208162E-2,1.0968854E0,-9.7399956E-1,7.774357E-2,-7.9827495E-2,1.8562737E-1,4.0157652E-1,-2.4607192E-1,-6.703386E-1,1.627415E0,-5.8193635E-2,1.6488783E-1,1.3359661E-1,-1.8162083E-2,-9.12152E-2,1.4429829E-2,1.9044743E-1,-2.2321193E-2,2.2011653E-1,-4.0115338E-2,2.1468432E-1,-2.9759267E-2,-1.0830223E-1,3.7978075E-2,9.282719E-2,-6.358572E-2,-4.3798465E-2,2.1308783E-2,-8.113065E-2,-1.2903287E-2,-6.816184E-2,2.2229543E-1],"categories":[],"categories_nodes":[],"categories_segments":[],"categories_sizes":[],"default_left":[0,0,0,0,0,0,0,0,0,0,0,0,0,0,0,0,0,0,0,0,0,0,0,0,0,0,0,0,0,0,0,0,0,0,0,0,0,0,0,0,0,0,0,0,0,0,0,0,0,0,0,0,0,0,0,0,0,0,0,0,0,0,0],"id":3,"left_children":[1,3,5,7,9,11,13,15,17,-1,19,21,23,-1,-1,25,27,-1,-1,29,31,33,35,37,39,41,43,45,47,-1,49,-1,51,53,-1,-1,-1,55,57,59,61,-1,-1,-1,-1,-1,-1,-1,-1,-1,-1,-1,-1,-1,-1,-1,-1,-1,-1,-1,-1,-1,-1],"loss_changes":[9.676497E0,1.21484585E1,9.018193E0,1.0598699E1,1.1207548E1,9.497224E0,5.077025E0,1.0415018E1,3.4960423E0,0E0,8.930634E0,7.2133245E0,1.0170952E1,0E0,0E0,1.0889982E1,7.5086074E0,0E0,0E0,1.271463E1,7.4812527E0,6.392267E0,9.427746E0,9.85062E0,1.284211E1,8.754259E0,1.029151E1,5.900193E0,4.109411E0,0E0,1.1286953E1,0E0,5.7356153E0,4.149502E0,0E0,0E0,0E0,1.660452E1,1.0583654E1,1.9675279E-1,1.1679781E1,0E0,0E0,0E0,0E0,0E0,0E0,0E0,0E0,0E0,0E0,0E0,0E0,0E0,0E0,0E0,0E0,0E0,0E0,0E0,0E0,0E0,0E0],"parents":[2147483647,0,0,1,1,2,2,3,3,4,4,5,5,6,6,7,7,8,8,10,10,11,11,12,12,15,15,16,16,19,19,20,20,21,21,22,22,23,23,24,24,25,25,26,26,27,27,28,28,30,30,32,32,33,33,37,37,38,38,39,39,40,40],"right_children":[2,4,6,8,10,12,14,16,18,-1,20,22,24,-1,-1,26,28,-1,-1,30,32,34,36,38,40,42,44,46,48,-1,50,-1,52,54,-1,-1,-1,56,58,60,62,-1,-1,-1,-1,-1,-1,-1,-1,-1,-1,-1,-1,-1,-1,-1,-1,-1,-1,-1,-1,-1,-1],"split_conditions":[4E-2,1.4E-1,4E-1,6.15E-1,2E-2,2E-2,4.94E0,8E-2,1.4E-1,-8.821275E-2,3E-1,2.6E-1,2.4E-1,2.1547352E-1,-1.9412464E-2,1.6666667E-1,6.4E-1,-1.1028435E-1,3.078625E-2,2E-2,8E-2,6E-1,2E-1,2E-2,4E-2,2.8E-1,1E-1,1E-1,5E-1,-7.5049154E-2,4E-1,-9.208162E-2,3.3333334E-1,9.6875E-1,7.774357E-2,-7.9827495E-2,1.8562737E-1,2E-1,8.75E-1,4.08E0,2E-2,-5.8193635E-2,1.6488783E-1,1.3359661E-1,-1.8162083E-2,-9.12152E-2,1.4429829E-2,1.9044743E-1,-2.2321193E-2,2.2011653E-1,-4.0115338E-2,2.1468432E-1,-2.9759267E-2,-1.0830223E-1,3.7978075E-2,9.282719E-2,-6.358572E-2,-4.3798465E-2,2.1308783E-2,-8.113065E-2,-1.2903287E-2,-6.816184E-2,2.2229543E-1],"split_indices":[1562,1202,1017,813,862,1689,1659,1446,1078,0,1678,615,1330,0,0,533,1051,0,0,1192,1686,1050,1230,977,13,21,1433,624,580,0,1390,0,1652,940,0,0,0,541,1416,1185,619,0,0,0,0,0,0,0,0,0,0,0,0,0,0,0,0,0,0,0,0,0,0],"split_type":[0,0,0,0,0,0,0,0,0,0,0,0,0,0,0,0,0,0,0,0,0,0,0,0,0,0,0,0,0,0,0,0,0,0,0,0,0,0,0,0,0,0,0,0,0,0,0,0,0,0,0,0,0,0,0,0,0,0,0,0,0,0,0],"sum_hessian":[2.761118E2,8.8176926E1,1.8793486E2,6.616005E1,2.2016874E1,1.8507845E2,2.8564286E0,5.6365166E1,9.794884E0,2.3710968E0,1.9645779E1,2.9380447E1,1.5569798E2,1.6902703E0,1.1661583E0,3.3351593E1,2.301357E1,8.081282E0,1.7136023E0,1.42709875E1,5.3747907E0,2.5867273E1,3.513174E0,1.4635587E2,9.342117E0,1.0820074E1,2.2531519E1,2.0546696E1,2.466876E0,1.5996342E0,1.2671353E1,2.8937576E0,2.481033E0,2.4327736E1,1.5395373E0,1.9007956E0,1.6123786E0,2.8308077E1,1.180478E2,2.950346E0,6.3917713E0,9.700696E0,1.1193783E0,1.6865334E1,5.666187E0,1.20777645E1,8.46893E0,1.266496E0,1.2003801E0,1.1061625E1,1.609729E0,1.107569E0,1.3734641E0,2.2699686E1,1.6280509E0,1.8845577E1,9.462501E0,8.328408E1,3.4763718E1,1.9450235E0,1.0053225E0,1.2809018E0,5.1108694E0],"tree_param":{"num_deleted":"0","num_feature":"1785","num_nodes":"63","size_leaf_vector":"1"}},{"base_weights":[6.3566817E-3,7.7681206E-2,-4.551299E-1,1.9004011E-1,-2.58829E-1,-5.698892E-1,8.4928167E-1,2.7005363E-1,-6.182053E-1,-4.3790105E-1,6.2702596E-1,-6.616393E-1,9.5323615E-2,-6.4660065E-2,1.9479045E-1,3.727436E-1,-3.9427674E-1,3.7956083E-1,-9.0801805E-1,-6.9797766E-1,6.055658E-2,-7.4939936E-1,1.4202235E0,-7.5799924E-1,8.668964E-2,6.8744135E-1,1.3006747E-1,-8.490517E-1,2.6643062E-1,-7.7326365E-2,1.416334E-1,2.442709E-2,-1.11855686E-1,-1.0320665E0,-1.3224725E-1,-5.074774E-1,1.1594764E0,-1.3675975E-2,-8.925003E-2,-7.103097E-2,2.0546486E0,-9.103584E-1,4.6282116E-1,7.408583E-3,1.0465354E-1,-5.2211326E-2,3.9016478E-2,-1.0439032E-1,4.56729E-2,-6.4087704E-2,1.0851189E-1,-1.1658223E-1,3.3011023E-2,9.689074E-2,-6.904461E-2,-9.1162175E-2,9.000246E-2,-4.3843035E-2,1.8555011E-1,4.1869674E-2,2.5492227E-1,-1.0024283E-1,7.754765E-2,1.4849661E-1,-7.354573E-2],"categories":[],"categories_nodes":[],"categories_segments":[],"categories_sizes":[],"default_left":[0,0,0,0,0,0,0,0,0,0,0,0,0,0,0,0,0,0,0,0,0,0,0,0,0,0,0,0,0,0,0,0,0,0,0,0,0,0,0,0,0,0,0,0,0,0,0,0,0,0,0,0,0,0,0,0,0,0,0,0,0,0,0,0,0],"id":4,"left_children":[1,3,5,7,9,11,13,15,17,19,21,23,-1,-1,-1,25,27,29,31,33,35,37,39,41,-1,43,45,47,49,-1,-1,-1,-1,51,53,55,57,-1,-1,-1,59,61,63,-1,-1,-1,-1,-1,-1,-1,-1,-1,-1,-1,-1,-1,-1,-1,-1,-1,-1,-1,-1,-1,-1],"loss_changes":[9.123175E0,9.123251E0,6.0384283E0,1.1839637E1,9.871327E0,5.480384E0,6.8504677E0,1.1398625E1,5.134038E0,6.64248E0,1.261972E1,5.5650864E0,0E0,0E0,0E0,1.0859278E1,7.0070853E0,6.393872E0,3.4584866E0,6.202036E0,1.2059495E1,2.7456045E-1,1.1002177E1,6.3510036E0,0E0,1.36191635E1,1.4143618E1,3.9385014E0,8.094998E0,0E0,0E0,0E0,0E0,4.199711E0,9.027487E0,8.1073E0,8.116613E0,0E0,0E0,0E0,3.542059E0,5.2288055E0,6.236459E0,0E0,0E0,0E0,0E0,0E0,0E0,0E0,0E0,0E0,0E0,0E0,0E0,0E0,0E0,0E0,0E0,0E0,0E0,0E0,0E0,0E0,0E0],"parents":[2147483647,0,0,1,1,2,2,3,3,4,4,5,5,6,6,7,7,8,8,9,9,10,10,11,11,15,15,16,16,17,17,18,18,19,19,20,20,21,21,22,22,23,23,25,25,26,26,27,27,28,28,33,33,34,34,35,35,36,36,40,40,41,41,42,42],"right_children":[2,4,6,8,10,12,14,16,18,20,22,24,-1,-1,-1,26,28,30,32,34,36,38,40,42,-1,44,46,48,50,-1,-1,-1,-1,52,54,56,58,-1,-1,-1,60,62,64,-1,-1,-1,-1,-1,-1,-1,-1,-1,-1,-1,-1,-1,-1,-1,-1,-1,-1,-1,-1,-1,-1],"split_conditions":[2E-1,4E-1,6E-1,2.6E-1,3E-1,3E-1,1.3333334E-1,2E-1,2E-2,1.2E-1,4E-2,3.3333334E-1,9.5323615E-2,-6.4660065E-2,1.9479045E-1,6E-2,8E-2,6E-2,2E-2,1E-1,2.3333333E-1,1.6666667E-1,2E-2,2E-1,8.668964E-2,3.3333334E-1,4.45E-1,2.2E-1,8E-2,-7.7326365E-2,1.416334E-1,2.442709E-2,-1.11855686E-1,6E-1,4.4E-1,2.3333333E-1,8E-2,-1.3675975E-2,-8.925003E-2,-7.103097E-2,2E-2,3.3333334E-1,6.5625E-1,7.408583E-3,1.0465354E-1,-5.2211326E-2,3.9016478E-2,-1.0439032E-1,4.56729E-2,-6.4087704E-2,1.0851189E-1,-1.1658223E-1,3.3011023E-2,9.689074E-2,-6.904461E-2,-9.1162175E-2,9.000246E-2,-4.3843035E-2,1.8555011E-1,4.1869674E-2,2.5492227E-1,-1.0024283E-1,7.754765E-2,1.4849661E-1,-7.354573E-2],"split_indices":[129,325,189,1562,1129,1731,757,1446,149,1341,960,656,0,0,0,1193,952,375,256,1102,509,1602,1574,1309,0,820,1408,372,1558,0,0,0,0,1265,575,419,624,0,0,0,381,1009,1416,0,0,0,0,0,0,0,0,0,0,0,0,0,0,0,0,0,0,0,0,0,0],"split_type":[0,0,0,0,0,0,0,0,0,0,0,0,0,0,0,0,0,0,0,0,0,0,0,0,0,0,0,0,0,0,0,0,0,0,0,0,0,0,0,0,0,0,0,0,0,0,0,0,0,0,0,0,0,0,0,0,0,0,0,0,0,0,0,0,0],"sum_hessian":[2.7509702E2,2.3899162E2,3.61054E1,1.7949461E2,5.9497005E1,3.3703358E1,2.4020424E0,1.6393181E2,1.556281E1,4.991297E1,9.584034E0,3.2321953E1,1.3814065E0,1.1913488E0,1.2106935E0,1.4236449E2,2.1567308E1,3.4332285E0,1.2129581E1,3.253641E1,1.737656E1,3.5240366E0,6.0599976E0,3.0879395E1,1.4425572E0,6.1186398E1,8.117809E1,1.260561E1,8.961699E0,1.7459778E0,1.6872506E0,1.8491079E0,1.0280474E1,1.9937893E1,1.2598516E1,1.1810099E1,5.5664616E0,1.0375962E0,2.4864404E0,1.3630333E0,4.6969643E0,2.7679304E1,3.20009E0,2.30396E1,3.8146797E1,2.2857273E1,5.8320824E1,1.114333E1,1.4622804E0,4.3538046E0,4.607894E0,1.8286446E1,1.6514473E0,3.9905717E0,8.6079445E0,9.449205E0,2.3608935E0,1.8012697E0,3.765192E0,1.5189995E0,3.177965E0,2.6630304E1,1.0490003E0,1.5978537E0,1.6022364E0],"tree_param":{"num_deleted":"0","num_feature":"1785","num_nodes":"65","size_leaf_vector":"1"}},{"base_weights":[5.8119684E-3,7.147525E-1,-3.392328E-2,-1.0257131E-1,1.6857187E0,-2.60405E-1,9.8117605E-2,8.557729E-1,-8.335883E-1,-3.205965E-2,2.267579E0,-3.8762853E-2,-7.199268E-1,-2.4803923E-2,5.3527933E-1,-6.702279E-2,1.6840702E-1,-1.2331261E-2,-9.6297E-2,1.8657206E-2,2.8561556E-1,-5.0397235E-1,2.1302399E-1,-8.547187E-1,1.1013081E-1,-3.833435E-1,1.8128303E-1,8.6651707E-1,-4.261137E-1,-8.155596E-1,9.447644E-1,4.6743608E-1,-5.2481097E-1,4.6981665E-1,-9.701413E-1,-4.9663964E-1,1.6767137E-1,8.8568115E-1,1.7649388E-2,-7.021979E-1,1.093583E0,9.039008E-2,-8.284091E-1,1.4776944E-2,-1.12967335E-1,-7.115727E-2,1.8855065E-1,7.5640135E-2,-5.6822937E-2,1.3046731E-1,-8.2439534E-2,1.3502792E-1,-6.147626E-2,2.570099E-2,-1.0662802E-1,-6.105271E-2,1.02026895E-1,-5.200671E-2,1.3337158E-1,7.591351E-2,-1.9880742E-2,-1.4173545E-2,-8.44196E-2,1.5725173E-1,1.5251274E-2,-1.0462282E-1,3.386204E-2],"categories":[],"categories_nodes":[],"categories_segments":[],"categories_sizes":[],"default_left":[0,0,0,0,0,0,0,0,0,0,0,0,0,0,0,0,0,0,0,0,0,0,0,0,0,0,0,0,0,0,0,0,0,0,0,0,0,0,0,0,0,0,0,0,0,0,0,0,0,0,0,0,0,0,0,0,0,0,0,0,0,0,0,0,0,0,0],"id":5,"left_children":[1,3,5,7,9,11,13,15,17,-1,19,21,23,25,27,-1,-1,-1,-1,-1,-1,29,31,33,-1,35,37,39,41,43,45,47,49,51,53,55,-1,57,59,61,63,-1,65,-1,-1,-1,-1,-1,-1,-1,-1,-1,-1,-1,-1,-1,-1,-1,-1,-1,-1,-1,-1,-1,-1,-1,-1],"loss_changes":[7.7678614E0,1.1786997E1,7.8383303E0,6.9404993E0,8.602314E0,9.799702E0,8.920817E0,6.6140723E0,3.9118695E-1,0E0,6.0240517E0,7.855905E0,8.634951E0,9.700265E0,1.1968545E1,0E0,0E0,0E0,0E0,0E0,0E0,1.13909645E1,8.434145E0,5.003025E0,0E0,1.201109E1,9.602441E0,1.0535034E1,6.1015863E0,6.1884556E0,8.552621E0,1.0296092E1,7.4641876E0,3.7501686E0,3.5403175E0,8.5989275E0,0E0,1.0588076E1,1.1182792E1,2.0474195E-1,1.0732325E1,0E0,2.4393969E0,0E0,0E0,0E0,0E0,0E0,0E0,0E0,0E0,0E0,0E0,0E0,0E0,0E0,0E0,0E0,0E0,0E0,0E0,0E0,0E0,0E0,0E0,0E0,0E0],"parents":[2147483647,0,0,1,1,2,2,3,3,4,4,5,5,6,6,7,7,8,8,10,10,11,11,12,12,13,13,14,14,21,21,22,22,23,23,25,25,26,26,27,27,28,28,29,29,30,30,31,31,32,32,33,33,34,34,35,35,37,37,38,38,39,39,40,40,42,42],"right_children":[2,4,6,8,10,12,14,16,18,-1,20,22,24,26,28,-1,-1,-1,-1,-1,-1,30,32,34,-1,36,38,40,42,44,46,48,50,52,54,56,-1,58,60,62,64,-1,66,-1,-1,-1,-1,-1,-1,-1,-1,-1,-1,-1,-1,-1,-1,-1,-1,-1,-1,-1,-1,-1,-1,-1,-1],"split_conditions":[3.25E-1,2.3333333E-1,4E-2,6E-2,1.6666667E-1,6.666667E-1,4E-1,1.6666667E-1,3.3333334E-1,-3.205965E-2,2E-1,4E-2,2.8E-1,2E-1,1.6E-1,-6.702279E-2,1.6840702E-1,-1.2331261E-2,-9.6297E-2,1.8657206E-2,2.8561556E-1,4.78E0,1.2E-1,1E-1,1.1013081E-1,7E-1,2E-2,7.4E-1,2E-2,1.6666667E-1,4E-1,4.9E0,5.3125E-1,4E-2,1.6666667E-1,2.4E-1,1.6767137E-1,1.6666667E-1,2E-2,6E-2,1E-1,9.039008E-2,2.4E-1,1.4776944E-2,-1.12967335E-1,-7.115727E-2,1.8855065E-1,7.5640135E-2,-5.6822937E-2,1.3046731E-1,-8.2439534E-2,1.3502792E-1,-6.147626E-2,2.570099E-2,-1.0662802E-1,-6.105271E-2,1.02026895E-1,-5.200671E-2,1.3337158E-1,7.591351E-2,-1.9880742E-2,-1.4173545E-2,-8.44196E-2,1.5725173E-1,1.5251274E-2,-1.0462282E-1,3.386204E-2],"split_indices":[1289,157,727,862,1708,578,1259,162,1650,0,1716,1554,1450,314,508,0,0,0,0,0,0,467,1316,405,0,1646,506,1180,1681,1705,1400,1775,1059,595,460,1197,0,42,489,1460,1317,0,1451,0,0,0,0,0,0,0,0,0,0,0,0,0,0,0,0,0,0,0,0,0,0,0,0],"split_type":[0,0,0,0,0,0,0,0,0,0,0,0,0,0,0,0,0,0,0,0,0,0,0,0,0,0,0,0,0,0,0,0,0,0,0,0,0,0,0,0,0,0,0,0,0,0,0,0,0,0,0,0,0,0,0,0,0,0,0,0,0,0,0,0,0,0,0],"sum_hessian":[2.7388943E2,1.3634803E1,2.602546E2,7.8887243E0,5.746078E0,9.549157E1,1.6476305E2,3.339745E0,4.5489793E0,1.392749E0,4.353329E0,6.515134E1,3.034023E1,1.2933873E2,3.542432E1,1.2421415E0,2.0976036E0,1.0018959E0,3.5470834E0,1.2501638E0,3.1031654E0,2.2527401E1,4.2623936E1,2.8743576E1,1.5966556E0,4.6894306E1,8.244443E1,2.6420206E1,9.004113E0,1.8899618E1,3.6277833E0,3.1967672E1,1.0656263E1,2.0578823E0,2.6685694E1,4.516908E1,1.7252268E0,1.4709869E1,6.773456E1,3.0760975E0,2.3344109E1,1.801472E0,7.202641E0,4.777493E0,1.4122125E1,1.4023361E0,2.2254472E0,2.5204819E1,6.7628536E0,1.0273795E0,9.628883E0,1.0006081E0,1.0572743E0,1.8171843E0,2.486851E1,4.2570465E1,2.5986154E0,3.5163233E0,1.1193546E1,1.4738804E1,5.299575E1,1.0257279E0,2.0503695E0,1.5026008E1,8.318101E0,6.1569877E0,1.0456532E0],"tree_param":{"num_deleted":"0","num_feature":"1785","num_nodes":"67","size_leaf_vector":"1"}},{"base_weights":[6.261293E-3,1.00716546E-1,-2.6504555E-1,1.6692856E-1,-5.961998E-1,4.1127947E-1,-4.1216815E-1,1.0506041E0,1.0738138E-1,2.770566E-1,-8.970605E-1,1.1836067E0,-3.0000338E-1,-9.575935E-1,-1.18830085E-1,1.6100199E0,-4.2114082E-1,-4.365282E-1,2.1610567E-1,-6.0807896E-1,1.3397717E-1,-1.0983676E-1,1.560345E-1,-6.370886E-2,1.6986761E0,1.0338265E-1,-8.3514535E-1,-1.0815192E0,3.850223E-2,-7.531876E-1,1.9908528E-1,-1.0929039E-2,2.0757725E0,3.7859008E-2,-8.133532E-2,1.2126235E-1,-5.922364E-1,-1.579611E-1,3.7879866E-1,-1.3792792E-2,-7.3598586E-2,3.814208E-2,-1.41634215E-2,2.2985606E-1,2.9800221E-2,-9.6372776E-2,-1.0007359E-2,-1.5124949E-2,-1.1293168E-1,8.1234045E-2,-6.815747E-2,-1.0126041E0,6.3265525E-2,-6.1291677E-1,7.5414854E-1,1.0555091E-2,2.5540975E-1,-7.598483E-2,7.673942E-2,3.6375012E-2,-6.727788E-2,5.1527556E-2,-5.5344194E-2,-1.0881118E-1,-1.1221363E-2,-8.902485E-2,5.6867402E-2,-3.447477E-2,1.2310946E-1],"categories":[],"categories_nodes":[],"categories_segments":[],"categories_sizes":[],"default_left":[0,0,0,0,0,0,0,0,0,0,0,0,0,0,0,0,0,0,0,0,0,0,0,0,0,0,0,0,0,0,0,0,0,0,0,0,0,0,0,0,0,0,0,0,0,0,0,0,0,0,0,0,0,0,0,0,0,0,0,0,0,0,0,0,0,0,0,0,0],"id":6,"left_children":[1,3,5,7,9,11,13,15,17,19,21,23,25,27,29,31,33,35,37,39,-1,-1,41,-1,43,-1,45,47,49,51,53,-1,55,-1,-1,-1,57,59,61,-1,-1,-1,-1,-1,-1,-1,-1,-1,-1,-1,-1,63,-1,65,67,-1,-1,-1,-1,-1,-1,-1,-1,-1,-1,-1,-1,-1,-1],"loss_changes":[7.0340505E0,9.492333E0,7.223263E0,9.710015E0,4.9460764E0,7.587856E0,9.281665E0,1.0287107E1,1.0502441E1,5.8430386E0,3.0405712E0,7.1913576E0,6.3251348E0,2.559311E0,8.081339E0,7.1648083E0,1.5648091E0,8.332363E0,9.027294E0,1.1523402E-1,0E0,0E0,2.5848603E-1,0E0,3.8108902E0,0E0,4.71982E-1,6.3726044E-1,2.3492181E0,5.436046E0,1.2626707E1,0E0,6.2022057E0,0E0,0E0,0E0,6.9106236E0,1.2429924E1,1.3387565E1,0E0,0E0,0E0,0E0,0E0,0E0,0E0,0E0,0E0,0E0,0E0,0E0,6.679058E-1,0E0,4.2780194E0,9.061495E0,0E0,0E0,0E0,0E0,0E0,0E0,0E0,0E0,0E0,0E0,0E0,0E0,0E0,0E0],"parents":[2147483647,0,0,1,1,2,2,3,3,4,4,5,5,6,6,7,7,8,8,9,9,10,10,11,11,12,12,13,13,14,14,15,15,16,16,17,17,18,18,19,19,22,22,24,24,26,26,27,27,28,28,29,29,30,30,32,32,36,36,37,37,38,38,51,51,53,53,54,54],"right_children":[2,4,6,8,10,12,14,16,18,20,22,24,26,28,30,32,34,36,38,40,-1,-1,42,-1,44,-1,46,48,50,52,54,-1,56,-1,-1,-1,58,60,62,-1,-1,-1,-1,-1,-1,-1,-1,-1,-1,-1,-1,64,-1,66,68,-1,-1,-1,-1,-1,-1,-1,-1,-1,-1,-1,-1,-1,-1],"split_conditions":[4E-1,2.6E-1,2E-2,1.6666667E-1,2E-2,4E-2,4E-2,5E-1,2E-2,2.3333333E-1,3E-1,2E-2,6.25E-1,2.6E-1,4.65E-1,4E-2,1.3333334E-1,1.6666667E-1,4E-2,1.6666667E-1,1.3397717E-1,-1.0983676E-1,4E-1,-6.370886E-2,8E-2,1.0338265E-1,1.6E-1,4.6875E-1,2E-2,6.05E-1,2E-1,-1.0929039E-2,4E-2,3.7859008E-2,-8.133532E-2,1.2126235E-1,6E-1,6E-2,2.4E-1,-1.3792792E-2,-7.3598586E-2,3.814208E-2,-1.41634215E-2,2.2985606E-1,2.9800221E-2,-9.6372776E-2,-1.0007359E-2,-1.5124949E-2,-1.1293168E-1,8.1234045E-2,-6.815747E-2,6.666667E-1,6.3265525E-2,2E-1,4E-2,1.0555091E-2,2.5540975E-1,-7.598483E-2,7.673942E-2,3.6375012E-2,-6.727788E-2,5.1527556E-2,-5.5344194E-2,-1.0881118E-1,-1.1221363E-2,-8.902485E-2,5.6867402E-2,-3.447477E-2,1.2310946E-1],"split_indices":[325,1562,478,1055,370,965,960,1412,615,290,764,833,1535,1339,218,1550,779,819,1329,272,0,0,1406,0,719,0,615,940,124,694,177,0,146,0,0,0,1036,1080,853,0,0,0,0,0,0,0,0,0,0,0,0,1532,0,862,840,0,0,0,0,0,0,0,0,0,0,0,0,0,0],"split_type":[0,0,0,0,0,0,0,0,0,0,0,0,0,0,0,0,0,0,0,0,0,0,0,0,0,0,0,0,0,0,0,0,0,0,0,0,0,0,0,0,0,0,0,0,0,0,0,0,0,0,0,0,0,0,0,0,0,0,0,0,0,0,0,0,0,0,0,0,0],"sum_hessian":[2.724433E2,2.025533E2,6.988999E1,1.8567348E2,1.6879824E1,1.2166216E1,5.772378E1,1.0671152E1,1.7500232E2,4.3456306E0,1.2534193E1,5.514452E0,6.651764E0,1.9395607E1,3.832817E1,7.664061E0,3.0070913E0,2.8651896E1,1.4635043E2,2.6043084E0,1.7413223E0,1.04866085E1,2.0475845E0,1.1637757E0,4.350676E0,1.637774E0,5.01399E0,1.7173294E1,2.2223134E0,1.2338736E1,2.5989437E1,1.796753E0,5.8673077E0,1.0009208E0,2.0061705E0,1.8862511E0,2.6765644E1,4.4367935E1,1.0198249E2,1.0014815E0,1.6028268E0,1.0051519E0,1.0424327E0,2.5972707E0,1.7534056E0,4.0027437E0,1.0112464E0,1.0427597E0,1.6130535E1,1.0094101E0,1.2129033E0,1.062008E1,1.7186551E0,1.0510053E1,1.5479384E1,1.3846401E0,4.4826674E0,2.4220888E1,2.5447557E0,2.2182175E1,2.2185759E1,8.934933E1,1.2633166E1,9.606021E0,1.0140593E0,8.711857E0,1.7981956E0,4.7688966E0,1.0710488E1],"tree_param":{"num_deleted":"0","num_feature":"1785","num_nodes":"69","size_leaf_vector":"1"}},{"base_weights":[4.9828053E-3,2.4331456E-1,-1.01285025E-1,-5.3022206E-1,4.5008385E-1,-2.259983E-1,2.3486693E-1,-8.306964E-1,7.597753E-1,6.1680543E-1,-3.3287624E-1,-2.8736737E-1,6.798286E-1,1.7244952E0,1.0727024E-1,4.3097664E-2,-9.9154043E-1,1.495582E-1,-6.2347014E-2,3.1746534E-1,1.1590642E0,-7.727541E-1,8.2072365E-1,-3.452734E-1,7.109173E-1,2.0798217E-1,-7.975533E-2,2.3448323E-1,1.8165348E-2,3.7984514E-1,-5.867979E-1,-1.11964814E-1,2.9967962E-2,9.054256E-1,-7.1713924E-2,1.4438962E0,-5.787873E-1,-1.0486615E-1,3.6856454E-2,-3.784931E-2,1.8071198E-1,-4.1577628E-1,4.7140408E-1,1.3450466E0,-5.52544E-1,-6.475077E-1,1.2542468E-1,1.0079416E0,-1.699358E-2,4.7010484E-1,-8.66358E-1,1.318355E-1,-6.492133E-2,-8.4745884E-2,3.387548E-2,1.915402E-1,3.3075694E-2,-7.243534E-2,-1.1208484E-2,-5.104026E-2,1.6331911E-2,-2.4762668E-2,1.613022E-1,1.9043623E-1,-2.5381086E-2,-1.3993193E-2,-6.762169E-2,-9.3559764E-2,3.1259038E-2,1.4017962E-1,-3.8799282E-2,8.365219E-2,-4.217648E-2,1.4551221E-1,-6.8319246E-2,-1.08172916E-1,1.0503286E-2],"categories":[],"categories_nodes":[],"categories_segments":[],"categories_sizes":[],"default_left":[0,0,0,0,0,0,0,0,0,0,0,0,0,0,0,0,0,0,0,0,0,0,0,0,0,0,0,0,0,0,0,0,0,0,0,0,0,0,0,0,0,0,0,0,0,0,0,0,0,0,0,0,0,0,0,0,0,0,0,0,0,0,0,0,0,0,0,0,0,0,0,0,0,0,0,0,0],"id":7,"left_children":[1,3,5,7,9,11,13,15,17,19,21,23,25,27,29,-1,31,-1,-1,33,35,37,39,41,43,-1,45,-1,-1,47,49,-1,-1,51,53,55,57,-1,-1,-1,-1,59,61,63,65,67,-1,69,71,73,75,-1,-1,-1,-1,-1,-1,-1,-1,-1,-1,-1,-1,-1,-1,-1,-1,-1,-1,-1,-1,-1,-1,-1,-1,-1,-1],"loss_changes":[6.920035E0,1.3714206E1,7.976561E0,7.6972218E0,8.954141E0,7.8871403E0,9.629507E0,3.5247955E0,4.969357E0,8.658083E0,6.9344106E0,7.777108E0,9.818003E0,3.40971E0,9.4226265E0,0E0,2.6249895E0,0E0,0E0,8.578394E0,1.0439089E1,3.379078E0,5.311797E0,7.3253307E0,6.728236E0,0E0,5.9980474E0,0E0,0E0,8.871334E0,4.574898E0,0E0,0E0,1.0415775E1,7.710644E0,8.265358E0,1.5290976E-1,0E0,0E0,0E0,0E0,6.3583317E0,8.861206E0,5.1916237E0,6.893116E-2,1.8033597E0,0E0,8.114843E0,8.213296E0,5.082373E0,2.5208664E0,0E0,0E0,0E0,0E0,0E0,0E0,0E0,0E0,0E0,0E0,0E0,0E0,0E0,0E0,0E0,0E0,0E0,0E0,0E0,0E0,0E0,0E0,0E0,0E0,0E0,0E0],"parents":[2147483647,0,0,1,1,2,2,3,3,4,4,5,5,6,6,7,7,8,8,9,9,10,10,11,11,12,12,13,13,14,14,16,16,19,19,20,20,21,21,22,22,23,23,24,24,26,26,29,29,30,30,33,33,34,34,35,35,36,36,41,41,42,42,43,43,44,44,45,45,47,47,48,48,49,49,50,50],"right_children":[2,4,6,8,10,12,14,16,18,20,22,24,26,28,30,-1,32,-1,-1,34,36,38,40,42,44,-1,46,-1,-1,48,50,-1,-1,52,54,56,58,-1,-1,-1,-1,60,62,64,66,68,-1,70,72,74,76,-1,-1,-1,-1,-1,-1,-1,-1,-1,-1,-1,-1,-1,-1,-1,-1,-1,-1,-1,-1,-1,-1,-1,-1,-1,-1],"split_conditions":[4E-2,1.3333334E-1,2.3333333E-1,5E-1,4E-1,6E-1,2E-1,2E-2,8E-2,6.666667E-1,1.8E-1,3.8E-1,2E-2,6E-2,5E-1,4.3097664E-2,3.6E-1,1.495582E-1,-6.2347014E-2,4E-2,2.6666668E-1,5.65E-1,1E-1,6.666667E-1,6E-2,2.0798217E-1,2.6666668E-1,2.3448323E-1,1.8165348E-2,4E-2,2E-2,-1.11964814E-1,2.9967962E-2,4E-1,1.6666667E-1,1E-1,4E-1,-1.0486615E-1,3.6856454E-2,-3.784931E-2,1.8071198E-1,3E-1,2E-1,2.3333333E-1,1E-1,2.6666668E-1,1.2542468E-1,5E-1,1.7E0,6.666667E-1,1.8E-1,1.318355E-1,-6.492133E-2,-8.4745884E-2,3.387548E-2,1.915402E-1,3.3075694E-2,-7.243534E-2,-1.1208484E-2,-5.104026E-2,1.6331911E-2,-2.4762668E-2,1.613022E-1,1.9043623E-1,-2.5381086E-2,-1.3993193E-2,-6.762169E-2,-9.3559764E-2,3.1259038E-2,1.4017962E-1,-3.8799282E-2,8.365219E-2,-4.217648E-2,1.4551221E-1,-6.8319246E-2,-1.08172916E-1,1.0503286E-2],"split_indices":[1460,1252,639,346,1397,780,282,743,480,934,1689,27,718,835,1770,0,716,0,0,599,651,456,249,103,1078,0,1725,0,0,1573,260,0,0,917,777,1073,75,0,0,0,0,1123,1374,1487,477,512,0,1531,350,1649,1549,0,0,0,0,0,0,0,0,0,0,0,0,0,0,0,0,0,0,0,0,0,0,0,0,0,0],"split_type":[0,0,0,0,0,0,0,0,0,0,0,0,0,0,0,0,0,0,0,0,0,0,0,0,0,0,0,0,0,0,0,0,0,0,0,0,0,0,0,0,0,0,0,0,0,0,0,0,0,0,0,0,0,0,0,0,0,0,0,0,0,0,0,0,0,0,0,0,0,0,0,0,0,0,0,0,0],"sum_hessian":[2.7125452E2,8.325194E1,1.880026E2,1.7229818E1,6.6022125E1,1.3736682E2,5.0635765E1,1.4263517E1,2.966301E0,5.4606552E1,1.1415569E1,1.2929027E2,8.076561E0,3.007657E0,4.762811E1,1.4228789E0,1.2840639E1,1.8832881E0,1.0830129E0,3.6205616E1,1.8400936E1,8.503317E0,2.912253E0,1.2282015E2,6.470113E0,2.2294128E0,5.8471484E0,1.7744017E0,1.2332554E0,3.4522957E1,1.3105152E1,1.1802533E1,1.038106E0,1.3891802E1,2.2313814E1,1.5955067E1,2.4458692E0,6.913259E0,1.5900576E0,1.592477E0,1.3197759E0,1.135117E2,9.308452E0,4.2649617E0,2.2051508E0,4.462512E0,1.3846362E0,1.2770507E1,2.1752449E1,2.5987504E0,1.0506402E1,1.1096448E1,2.795354E0,7.352919E0,1.4960896E1,1.0701418E1,5.2536488E0,1.4435534E0,1.0023158E0,9.767059E1,1.5841108E1,6.1917577E0,3.116694E0,3.0180902E0,1.2468716E0,1.0000694E0,1.2050815E0,3.4521642E0,1.010348E0,9.957001E0,2.8135066E0,6.654298E0,1.509815E1,1.260482E0,1.3382684E0,8.506747E0,1.9996544E0],"tree_param":{"num_deleted":"0","num_feature":"1785","num_nodes":"77","size_leaf_vector":"1"}},{"base_weights":[6.611161E-3,6.541874E-2,-4.119185E-1,1.844826E-1,-2.288091E-1,-7.6163906E-1,2.664473E-1,7.3519856E-1,8.372181E-2,4.9046907E-1,-3.8224518E-1,-8.68762E-1,6.703735E-2,1.3105143E0,-3.161273E-1,1.042532E0,-6.426717E-1,-8.8273756E-2,4.2159805E-1,1.1888552E0,-3.9301226E-1,-5.6439716E-1,6.0117555E-1,2.282415E-1,-1.0302452E0,-2.3452962E-2,1.872484E-1,-7.700496E-1,9.500092E-2,1.4433678E0,9.7111456E-2,-9.494128E-2,3.3527274E-2,7.2180146E-1,-2.1903373E-1,1.2829314E0,1.5267034E-1,-4.2602636E-2,1.8154882E0,-9.4349824E-2,7.5174086E-2,1.0189507E-1,-6.43016E-1,-4.2735893E-1,1.5010117E0,-7.077391E-2,1.2173622E-1,-1.1268544E-1,8.382297E-3,-1.005364E-1,2.466405E-2,-4.0605012E-2,1.6972204E-1,1.6793407E-1,-8.0948435E-2,1.4385277E-1,-1.3796578E-2,1.2585558E-2,-5.590371E-2,1.7574076E-1,1.0325955E-3,-6.649707E-2,4.6012226E-2,2.5701424E-1,2.09124E-2,-7.097294E-2,1.0939733E-1,6.794437E-2,-8.976353E-2,-2.157065E-2,2.052866E-1],"categories":[],"categories_nodes":[],"categories_segments":[],"categories_sizes":[],"default_left":[0,0,0,0,0,0,0,0,0,0,0,0,0,0,0,0,0,0,0,0,0,0,0,0,0,0,0,0,0,0,0,0,0,0,0,0,0,0,0,0,0,0,0,0,0,0,0,0,0,0,0,0,0,0,0,0,0,0,0,0,0,0,0,0,0,0,0,0,0,0,0],"id":8,"left_children":[1,3,5,7,9,11,13,15,17,19,21,23,-1,25,27,29,31,33,35,37,39,41,43,45,47,-1,-1,49,-1,51,53,-1,-1,55,57,59,61,-1,63,-1,-1,-1,65,67,69,-1,-1,-1,-1,-1,-1,-1,-1,-1,-1,-1,-1,-1,-1,-1,-1,-1,-1,-1,-1,-1,-1,-1,-1,-1,-1],"loss_changes":[6.6751976E0,8.369277E0,8.130245E0,9.3593645E0,7.7942047E0,4.0043917E0,7.7786255E0,1.173507E1,8.443018E0,8.214386E0,1.061584E1,3.9889803E0,0E0,4.3729115E0,5.6609306E0,8.100592E0,1.933373E0,1.0398842E1,1.114655E1,8.121131E0,4.6761456E0,6.7446737E0,9.387186E0,4.136766E0,2.1020355E0,0E0,0E0,1.890543E0,0E0,7.8248005E0,1.2184787E1,0E0,0E0,8.621862E0,9.921585E0,6.9352856E0,9.97192E0,0E0,6.0343685E0,0E0,0E0,0E0,6.248064E0,3.3101842E0,5.4276743E0,0E0,0E0,0E0,0E0,0E0,0E0,0E0,0E0,0E0,0E0,0E0,0E0,0E0,0E0,0E0,0E0,0E0,0E0,0E0,0E0,0E0,0E0,0E0,0E0,0E0,0E0],"parents":[2147483647,0,0,1,1,2,2,3,3,4,4,5,5,6,6,7,7,8,8,9,9,10,10,11,11,13,13,14,14,15,15,16,16,17,17,18,18,19,19,20,20,21,21,22,22,23,23,24,24,27,27,29,29,30,30,33,33,34,34,35,35,36,36,38,38,42,42,43,43,44,44],"right_children":[2,4,6,8,10,12,14,16,18,20,22,24,-1,26,28,30,32,34,36,38,40,42,44,46,48,-1,-1,50,-1,52,54,-1,-1,56,58,60,62,-1,64,-1,-1,-1,66,68,70,-1,-1,-1,-1,-1,-1,-1,-1,-1,-1,-1,-1,-1,-1,-1,-1,-1,-1,-1,-1,-1,-1,-1,-1,-1,-1],"split_conditions":[2.2E-1,1.4E-1,5.65E-1,1.3333334E-1,2E-2,3.3333334E-1,1.3333334E-1,1.4E-1,6.666667E-1,6E-2,5.58E0,1.3333334E-1,6.703735E-2,2E-2,1E-1,6.666667E-1,2.3333333E-1,3.3333334E-1,2E-2,4E-2,4E-1,4.375E-1,8E-1,6.666667E-1,2.6E-1,-2.3452962E-2,1.872484E-1,5.95E-1,9.500092E-2,2E-2,2E-2,-9.494128E-2,3.3527274E-2,6E-2,2E-1,1E-1,4E-2,-4.2602636E-2,8E-1,-9.4349824E-2,7.5174086E-2,1.0189507E-1,2.8E-1,6E-2,4.84E0,-7.077391E-2,1.2173622E-1,-1.1268544E-1,8.382297E-3,-1.005364E-1,2.466405E-2,-4.0605012E-2,1.6972204E-1,1.6793407E-1,-8.0948435E-2,1.4385277E-1,-1.3796578E-2,1.2585558E-2,-5.590371E-2,1.7574076E-1,1.0325955E-3,-6.649707E-2,4.6012226E-2,2.5701424E-1,2.09124E-2,-7.097294E-2,1.0939733E-1,6.794437E-2,-8.976353E-2,-2.157065E-2,2.052866E-1],"split_indices":[729,955,1527,1357,1093,1129,1493,1453,1292,602,1301,409,0,1681,1577,1292,1701,1292,372,15,806,821,576,578,505,0,0,1646,0,379,489,0,0,147,1007,375,622,0,576,0,0,0,957,129,236,0,0,0,0,0,0,0,0,0,0,0,0,0,0,0,0,0,0,0,0,0,0,0,0,0,0],"split_type":[0,0,0,0,0,0,0,0,0,0,0,0,0,0,0,0,0,0,0,0,0,0,0,0,0,0,0,0,0,0,0,0,0,0,0,0,0,0,0,0,0,0,0,0,0,0,0,0,0,0,0,0,0,0,0,0,0,0,0,0,0,0,0,0,0,0,0,0,0,0,0],"sum_hessian":[2.6911444E2,2.3669951E2,3.241494E1,1.6877505E2,6.792445E1,2.1307465E1,1.1107476E1,2.5129784E1,1.4364526E2,1.1555935E1,5.6368515E1,2.019043E1,1.1170347E0,3.5305834E0,7.576893E0,2.0745813E1,4.383971E0,9.567881E1,4.796646E1,6.2610044E0,5.2949305E0,4.7918926E1,8.449591E0,2.5376961E0,1.7652733E1,1.0970601E0,2.4335234E0,5.865769E0,1.7111236E0,1.4199057E1,6.5467563E0,3.359431E0,1.0245404E0,1.2669507E1,8.30093E1,1.0515718E1,3.745074E1,1.8398092E0,4.4211955E0,3.6942537E0,1.6006768E0,1.7009945E0,4.621793E1,4.1878486E0,4.2617416E0,1.4500376E0,1.0876585E0,1.6233526E1,1.4192078E0,4.772343E0,1.093426E0,1.6413813E0,1.2557675E1,2.0742786E0,4.4724774E0,6.5424094E0,6.1270976E0,4.1521236E1,4.1488068E1,7.3823442E0,3.1333742E0,9.916322E0,2.753442E1,2.5998404E0,1.821355E0,4.5078E1,1.1399319E0,1.1161641E0,3.0716846E0,1.1848896E0,3.0768523E0],"tree_param":{"num_deleted":"0","num_feature":"1785","num_nodes":"71","size_leaf_vector":"1"}},{"base_weights":[8.183978E-3,6.54291E-2,-3.9206752E-1,4.1797352E-1,-1.839139E-2,-5.9757674E-1,3.310564E-1,-1.7337477E-1,9.009265E-1,-8.0659163E-1,2.5282398E-2,-7.099966E-1,7.37351E-2,1.0924075E0,-6.4678335E-1,9.8218393E-1,-5.6157273E-1,1.2613076E0,-3.8383716E-1,-1.0613147E-1,4.9305674E-2,5.7482E-1,-5.0049305E-2,2.415517E-1,-8.8662785E-1,-2.2852374E-2,1.5472087E0,-7.9434074E-2,-9.21166E-3,-2.3508096E-1,1.8102258E-1,-7.961036E-1,7.9203226E-2,1.6631399E0,2.1450429E-1,-9.612667E-2,1.2667929E-1,-1.4489803E-1,1.1444843E0,-2.4946044E-1,2.2465976E-1,8.879873E-1,-7.015688E-2,-1.0068245E0,5.4956038E-2,1.8666838E-1,3.292299E-2,-6.45855E-2,3.309988E-2,-1.0285141E-1,3.0800406E-2,2.0342946E-1,3.5239924E-2,-7.20389E-2,1.419496E-1,6.9135986E-2,-1.003596E-1,1.6575526E-1,-1.31971985E-2,-1.1584751E-2,-8.964215E-2,-2.526704E-2,5.524661E-2,1.4494865E-1,-1.2833476E-2,-1.08799815E-1,1.8038454E-2],"categories":[],"categories_nodes":[],"categories_segments":[],"categories_sizes":[],"default_left":[0,0,0,0,0,0,0,0,0,0,0,0,0,0,0,0,0,0,0,0,0,0,0,0,0,0,0,0,0,0,0,0,0,0,0,0,0,0,0,0,0,0,0,0,0,0,0,0,0,0,0,0,0,0,0,0,0,0,0,0,0,0,0,0,0,0,0],"id":9,"left_children":[1,3,5,7,9,11,13,15,17,19,21,23,-1,25,27,29,31,33,35,-1,-1,37,39,41,43,-1,45,-1,-1,47,-1,49,-1,51,53,-1,-1,55,57,59,61,63,-1,65,-1,-1,-1,-1,-1,-1,-1,-1,-1,-1,-1,-1,-1,-1,-1,-1,-1,-1,-1,-1,-1,-1,-1],"loss_changes":[6.160738E0,6.9554367E0,5.198105E0,1.3066422E1,6.5922184E0,4.5090666E0,6.729194E0,1.0043869E1,1.2079803E1,3.8514223E0,7.5572004E0,4.4166965E0,0E0,3.3094678E0,2.680806E-1,6.155583E0,5.8609366E0,7.968357E0,7.1774526E0,0E0,0E0,9.187423E0,8.867562E0,3.4887967E0,4.230837E0,0E0,8.596935E-1,0E0,0E0,9.547548E-1,0E0,4.048177E0,0E0,6.168644E0,8.500536E0,0E0,0E0,8.312273E0,8.336187E0,7.993485E0,1.0807764E1,2.0294633E0,0E0,2.1247578E0,0E0,0E0,0E0,0E0,0E0,0E0,0E0,0E0,0E0,0E0,0E0,0E0,0E0,0E0,0E0,0E0,0E0,0E0,0E0,0E0,0E0,0E0,0E0],"parents":[2147483647,0,0,1,1,2,2,3,3,4,4,5,5,6,6,7,7,8,8,9,9,10,10,11,11,13,13,14,14,15,15,16,16,17,17,18,18,21,21,22,22,23,23,24,24,26,26,29,29,31,31,33,33,34,34,37,37,38,38,39,39,40,40,41,41,43,43],"right_children":[2,4,6,8,10,12,14,16,18,20,22,24,-1,26,28,30,32,34,36,-1,-1,38,40,42,44,-1,46,-1,-1,48,-1,50,-1,52,54,-1,-1,56,58,60,62,64,-1,66,-1,-1,-1,-1,-1,-1,-1,-1,-1,-1,-1,-1,-1,-1,-1,-1,-1,-1,-1,-1,-1,-1,-1],"split_conditions":[2E-1,2E-2,2.3333333E-1,7.8125E-1,3E-1,3E-1,6E-2,2E-2,1E-1,4E-1,1.3333334E-1,1.3333334E-1,7.37351E-2,2E-2,4.32E0,1E-1,8.333333E-1,4E-1,3E-1,-1.0613147E-1,4.9305674E-2,5.2E-1,8E-2,5E-1,2.8E-1,-2.2852374E-2,6.666667E-1,-7.9434074E-2,-9.21166E-3,2E-1,1.8102258E-1,1.8E-1,7.9203226E-2,4E-1,5.8E-1,-9.612667E-2,1.2667929E-1,6E-2,1.2E-1,1.6E-1,1.6666667E-1,8E-1,-7.015688E-2,6E-1,5.4956038E-2,1.8666838E-1,3.292299E-2,-6.45855E-2,3.309988E-2,-1.0285141E-1,3.0800406E-2,2.0342946E-1,3.5239924E-2,-7.20389E-2,1.419496E-1,6.9135986E-2,-1.003596E-1,1.6575526E-1,-1.31971985E-2,-1.1584751E-2,-8.964215E-2,-2.526704E-2,5.524661E-2,1.4494865E-1,-1.2833476E-2,-1.08799815E-1,1.8038454E-2],"split_indices":[129,1578,1719,464,1780,1731,1433,254,738,922,636,647,0,1086,347,507,101,781,1223,0,0,99,1674,581,13,0,578,0,0,881,0,1569,0,192,1289,0,0,1090,1551,1548,1251,1290,0,1525,0,0,0,0,0,0,0,0,0,0,0,0,0,0,0,0,0,0,0,0,0,0,0],"split_type":[0,0,0,0,0,0,0,0,0,0,0,0,0,0,0,0,0,0,0,0,0,0,0,0,0,0,0,0,0,0,0,0,0,0,0,0,0,0,0,0,0,0,0,0,0,0,0,0,0,0,0,0,0,0,0,0,0,0,0,0,0,0,0,0,0,0,0],"sum_hessian":[2.6676212E2,2.3411487E2,3.2647255E1,4.4204906E1,1.8990996E2,2.5557516E1,7.089738E0,2.0160517E1,2.404439E1,9.053256E0,1.808567E2,2.4004164E1,1.5533525E0,3.920248E0,3.1694899E0,4.6848607E0,1.5475656E1,1.8791546E1,5.2528443E0,7.722983E0,1.3302736E0,2.1004E1,1.598527E2,3.7006214E0,2.0303543E1,1.1314831E0,2.7887652E0,2.1621823E0,1.0073073E0,2.1865776E0,2.4982831E0,1.3541302E1,1.9343545E0,1.315356E1,5.637986E0,4.2009044E0,1.0519397E0,9.609248E0,1.1394752E1,9.2673195E1,6.7179504E1,2.230349E0,1.4702723E0,1.901141E1,1.2921321E0,1.7873392E0,1.0014259E0,1.1854404E0,1.0011371E0,1.124313E1,2.2981715E0,9.820678E0,3.3328815E0,3.4012713E0,2.236715E0,4.9669614E0,4.6422873E0,7.9148426E0,3.479909E0,7.7787315E1,1.4885878E1,2.744504E1,3.9734467E1,1.1621019E0,1.0682472E0,1.7872942E1,1.1384684E0],"tree_param":{"num_deleted":"0","num_feature":"1785","num_nodes":"67","size_leaf_vector":"1"}},{"base_weights":[8.35827E-3,3.7317302E-2,-7.1079874E-1,3.645406E-4,9.7466886E-1,4.5267034E-2,-9.442702E-1,3.8770176E-2,-7.320425E-1,1.7290909E0,-1.7795675E-1,-1.0346728E-1,-1.1564486E-2,-2.7639363E-2,4.1908643E-1,-1.0063617E0,6.338643E-2,2.3735443E-2,2.0130937E-1,-8.572653E-2,8.7052844E-2,-1.1114661E-1,3.5245934E-1,5.888137E-1,-8.921774E-2,-1.0792295E-1,-1.5635645E-2,2.616824E-2,-2.0925479E-2,7.361952E-2,-3.654083E-2,1.335376E-1,1.8263703E-2],"categories":[],"categories_nodes":[],"categories_segments":[],"categories_sizes":[],"default_left":[0,0,0,0,0,0,0,0,0,0,0,0,0,0,0,0,0,0,0,0,0,0,0,0,0,0,0,0,0,0,0,0,0],"id":10,"left_children":[1,3,5,7,9,-1,11,13,15,17,19,-1,-1,21,23,25,-1,-1,-1,-1,-1,27,29,31,-1,-1,-1,-1,-1,-1,-1,-1,-1],"loss_changes":[5.561305E0,8.881606E0,3.235443E0,6.995807E0,8.764341E0,0E0,5.4956675E-1,5.9799137E0,5.2810698E0,2.0519295E0,4.132224E0,0E0,0E0,6.4545546E0,8.357331E0,4.9435234E-1,0E0,0E0,0E0,0E0,0E0,6.1438427E0,1.0363963E1,9.387004E0,0E0,0E0,0E0,0E0,0E0,0E0,0E0,0E0,0E0],"parents":[2147483647,0,0,1,1,2,2,3,3,4,4,6,6,7,7,8,8,9,9,10,10,13,13,14,14,15,15,21,21,22,22,23,23],"right_children":[2,4,6,8,10,-1,12,14,16,18,20,-1,-1,22,24,26,-1,-1,-1,-1,-1,28,30,32,-1,-1,-1,-1,-1,-1,-1,-1,-1],"split_conditions":[5.46E0,5.46E0,3.95E-1,6E-1,6E0,4.5267034E-2,1.8E-1,9.375E-1,2.6E-1,1.6666667E-1,8E-2,-1.0346728E-1,-1.1564486E-2,4E-1,1.8E-1,6E-1,6.338643E-2,2.3735443E-2,2.0130937E-1,-8.572653E-2,8.7052844E-2,2E-2,1E-1,3.3333334E-1,-8.921774E-2,-1.0792295E-1,-1.5635645E-2,2.616824E-2,-2.0925479E-2,7.361952E-2,-3.654083E-2,1.335376E-1,1.8263703E-2],"split_indices":[832,1784,1408,449,704,0,1453,1416,484,778,1088,0,0,1764,129,1639,0,0,0,0,0,613,1103,103,0,0,0,0,0,0,0,0,0],"split_type":[0,0,0,0,0,0,0,0,0,0,0,0,0,0,0,0,0,0,0,0,0,0,0,0,0,0,0,0,0,0,0,0,0],"sum_hessian":[2.647618E2,2.5542448E2,9.33733E0,2.4669937E2,8.725122E0,1.40364E0,7.9336905E0,2.3530748E2,1.1391885E1,4.9712095E0,3.7539124E0,6.9290714E0,1.0046191E0,2.0111652E2,3.419096E1,9.705855E0,1.6860286E0,1.0886703E0,3.8825393E0,2.3886771E0,1.3652353E0,1.6547044E2,3.564608E1,3.076036E1,3.4306014E0,8.691125E0,1.0147313E0,3.412436E1,1.3134608E2,2.3212381E1,1.2433699E1,1.0032577E1,2.0727783E1],"tree_param":{"num_deleted":"0","num_feature":"1785","num_nodes":"33","size_leaf_vector":"1"}},{"base_weights":[7.564141E-3,1.5240443E-1,-1.2870382E-1,-2.2854403E-1,3.6566728E-1,-3.889484E-1,1.1187808E-1,-3.9209986E-1,4.202789E-1,4.3897098E-1,-9.330455E-2,2.4777951E-3,-6.160435E-1,-6.8177325E-1,2.8536502E-1,3.9390287E-1,-6.2656325E-1,1.1138902E0,-5.715221E-1,-9.1144554E-2,5.1112604E-1,5.3314316E-1,-6.32902E-1,1.2086079E-1,-6.9189394E-1,-1.0712995E-1,3.2467425E-1,4.966385E-1,-2.7154326E-1,8.2640475E-1,-8.007615E-2,-1.6609294E-2,-9.398739E-1,-6.4224534E-2,1.6325041E0,-8.8646695E-2,3.02791E-2,6.5844625E-1,-1.9112708E-1,1.1812754E0,-4.531923E-1,-9.6121633E-1,2.8909272E-1,-9.2234707E-1,-1.8167907E-1,-7.2570555E-2,1.1447107E-1,-2.8611576E-2,9.193588E-1,-6.639725E-1,6.5416485E-1,-3.1924173E-2,1.4333633E-1,6.463788E-2,-6.951391E-2,-1.0659297E-1,2.135942E-2,2.1464935E-1,1.1921905E-2,8.490992E-2,-1.702751E-2,1.1659932E-1,-7.373996E-2,1.5169707E-1,-3.2552775E-2,-9.56247E-2,8.377287E-2,-1.0482412E-1,-1.3739817E-2,-7.159445E-2,1.2587498E-1,-1.1627479E-2,-1.0383808E-1,5.2339017E-2,-7.970717E-2,-8.2071975E-2,4.4087805E-2,1.1665541E-1,-4.9002826E-2,-8.42629E-2,6.634459E-2,1.2201233E-1,-6.5555625E-2],"categories":[],"categories_nodes":[],"categories_segments":[],"categories_sizes":[],"default_left":[0,0,0,0,0,0,0,0,0,0,0,0,0,0,0,0,0,0,0,0,0,0,0,0,0,0,0,0,0,0,0,0,0,0,0,0,0,0,0,0,0,0,0,0,0,0,0,0,0,0,0,0,0,0,0,0,0,0,0,0,0,0,0,0,0,0,0,0,0,0,0,0,0,0,0,0,0,0,0,0,0,0,0],"id":11,"left_children":[1,3,5,7,9,11,13,15,17,19,-1,21,23,25,27,29,31,33,35,-1,37,39,41,-1,43,-1,45,47,49,51,-1,53,55,-1,57,-1,-1,59,61,63,65,67,69,71,73,-1,-1,75,77,79,81,-1,-1,-1,-1,-1,-1,-1,-1,-1,-1,-1,-1,-1,-1,-1,-1,-1,-1,-1,-1,-1,-1,-1,-1,-1,-1,-1,-1,-1,-1,-1,-1],"loss_changes":[5.2460175E0,1.0549255E1,8.619864E0,5.1363792E0,8.308513E0,5.870512E0,1.0101995E1,7.237708E0,7.457245E0,8.184876E0,0E0,8.846836E0,6.619585E0,5.523737E0,7.165404E0,5.4824433E0,5.64198E0,6.671097E0,1.5739577E0,0E0,7.972086E0,9.673595E0,3.8929968E0,0E0,4.6244583E0,0E0,4.664946E0,9.723108E0,6.639242E0,5.562991E0,0E0,5.4266953E0,3.0688553E0,0E0,3.6708202E0,0E0,0E0,1.00850315E1,1.1184156E1,4.997466E0,4.951513E0,5.039282E-1,4.70657E0,2.4821835E0,6.4595857E0,0E0,0E0,7.9648285E0,9.012623E0,3.521449E0,4.942561E0,0E0,0E0,0E0,0E0,0E0,0E0,0E0,0E0,0E0,0E0,0E0,0E0,0E0,0E0,0E0,0E0,0E0,0E0,0E0,0E0,0E0,0E0,0E0,0E0,0E0,0E0,0E0,0E0,0E0,0E0,0E0,0E0],"parents":[2147483647,0,0,1,1,2,2,3,3,4,4,5,5,6,6,7,7,8,8,9,9,11,11,12,12,13,13,14,14,15,15,16,16,17,17,18,18,20,20,21,21,22,22,24,24,26,26,27,27,28,28,29,29,31,31,32,32,34,34,37,37,38,38,39,39,40,40,41,41,42,42,43,43,44,44,47,47,48,48,49,49,50,50],"right_children":[2,4,6,8,10,12,14,16,18,20,-1,22,24,26,28,30,32,34,36,-1,38,40,42,-1,44,-1,46,48,50,52,-1,54,56,-1,58,-1,-1,60,62,64,66,68,70,72,74,-1,-1,76,78,80,82,-1,-1,-1,-1,-1,-1,-1,-1,-1,-1,-1,-1,-1,-1,-1,-1,-1,-1,-1,-1,-1,-1,-1,-1,-1,-1,-1,-1,-1,-1,-1,-1],"split_conditions":[6E-2,4E-2,6E-2,4E-1,2.6E-1,4E-2,2E-2,2E-2,2E-1,3E-1,-9.330455E-2,2E-1,4E-1,2.3333333E-1,4E-1,1.6E-1,4E-2,2E-2,2.3333333E-1,-9.1144554E-2,1.6E-1,1E-1,9.0625E-1,1.2086079E-1,1.2E-1,-1.0712995E-1,1E-1,1.6666667E-1,1.4E-1,4E-2,-8.007615E-2,6E-2,3E-1,-6.4224534E-2,6E-2,-8.8646695E-2,3.02791E-2,1.6E-1,1.88E0,5.7E0,3.92E0,9E-1,8E-2,2E-2,4E-2,-7.2570555E-2,1.1447107E-1,4.65E-1,4.42E0,2.4E-1,8E-2,-3.1924173E-2,1.4333633E-1,6.463788E-2,-6.951391E-2,-1.0659297E-1,2.135942E-2,2.1464935E-1,1.1921905E-2,8.490992E-2,-1.702751E-2,1.1659932E-1,-7.373996E-2,1.5169707E-1,-3.2552775E-2,-9.56247E-2,8.377287E-2,-1.0482412E-1,-1.3739817E-2,-7.159445E-2,1.2587498E-1,-1.1627479E-2,-1.0383808E-1,5.2339017E-2,-7.970717E-2,-8.2071975E-2,4.4087805E-2,1.1665541E-1,-4.9002826E-2,-8.42629E-2,6.634459E-2,1.2201233E-1,-6.5555625E-2],"split_indices":[18,1687,1674,1022,1201,1459,1318,28,1132,1776,0,54,814,1727,325,955,10,1666,282,0,16,1685,107,0,11,0,974,881,1205,1440,0,150,507,0,1195,0,0,505,1066,1537,229,100,954,840,1322,0,0,1170,1066,1313,1434,0,0,0,0,0,0,0,0,0,0,0,0,0,0,0,0,0,0,0,0,0,0,0,0,0,0,0,0,0,0,0,0],"split_type":[0,0,0,0,0,0,0,0,0,0,0,0,0,0,0,0,0,0,0,0,0,0,0,0,0,0,0,0,0,0,0,0,0,0,0,0,0,0,0,0,0,0,0,0,0,0,0,0,0,0,0,0,0,0,0,0,0,0,0,0,0,0,0,0,0,0,0,0,0,0,0,0,0,0,0,0,0,0,0,0,0,0,0],"sum_hessian":[2.6380106E2,1.27820854E2,1.359802E2,4.5849277E1,8.197157E1,6.502453E1,7.0955666E1,3.693448E1,8.914799E0,7.821864E1,3.7529275E0,2.4237436E1,4.0787094E1,1.2202593E1,5.8753075E1,8.329865E0,2.8604614E1,5.1735816E0,3.7412176E0,3.3773906E0,7.4841255E1,1.3294694E1,1.0942741E1,1.0318115E0,3.9755283E1,8.75118E0,3.451413E0,4.2672638E1,1.6080437E1,6.342101E0,1.9877642E0,1.006434E1,1.8540274E1,1.1251613E0,4.0484204E0,2.7402313E0,1.0009862E0,6.1914974E1,1.2926282E1,7.903545E0,5.3911495E0,8.037955E0,2.9047856E0,2.6829302E1,1.2925983E1,1.5636172E0,1.8877957E0,1.9444384E1,2.3228256E1,1.1491614E1,4.5888224E0,2.3605485E0,3.9815526E0,5.1144347E0,4.9499054E0,1.6782145E1,1.7581303E0,2.709651E0,1.3387694E0,5.0315067E1,1.1599908E1,3.384247E0,9.542034E0,6.4580345E0,1.4455107E0,4.0659537E0,1.3251957E0,7.023593E0,1.0143628E0,1.5548525E0,1.349933E0,3.6280127E0,2.3201288E1,6.0937443E0,6.8322387E0,6.9576106E0,1.2486773E1,1.990872E1,3.3195355E0,1.0450323E1,1.0412908E0,3.2519815E0,1.3368407E0],"tree_param":{"num_deleted":"0","num_feature":"1785","num_nodes":"83","size_leaf_vector":"1"}},{"base_weights":[4.565429E-3,3.0836508E-1,-5.9098925E-2,5.366056E-1,-5.5422723E-1,-2.3650116E-1,1.1461689E-1,2.7186954E-1,1.3978643E0,5.0753105E-1,-9.2580235E-1,-5.8718616E-1,-1.26810195E-2,6.371395E-1,-2.2016946E-2,-6.4700574E-1,5.56679E-1,1.8260832E0,-1.1294549E-2,-2.729989E-2,1.0868251E-1,-1.0177419E-1,-1.5631232E-2,1.2528016E-1,-7.762633E-1,-1.7457366E-1,5.591244E-1,1.1989127E0,6.333915E-2,3.7422514E-1,-2.4489456E-1,7.679003E-2,-9.9504046E-2,-7.354199E-1,8.326238E-1,2.1692631E0,1.8368516E-2,8.066592E-1,-7.654546E-1,-9.958303E-1,-9.996718E-2,6.2700427E-1,-3.4263417E-1,-4.2801258E-1,9.627655E-1,-6.7150176E-2,1.5076412E0,-6.7228174E-1,9.542426E-1,9.33855E-1,-1.00861706E-1,-4.4058028E-1,3.9667547E-1,-8.7229006E-2,-1.3457079E-2,-1.6624821E-2,1.2503786E-1,2.3955873E-1,6.807535E-2,-4.7498997E-2,1.458664E-1,-8.944097E-2,-1.4580724E-2,-1.0985811E-1,3.4404643E-2,1.0432988E-1,-6.2223878E-2,-6.460633E-2,1.2568484E-1,-6.5589756E-2,5.891355E-3,-8.9246914E-2,7.1723364E-2,-1.8361773E-2,1.3693558E-1,1.843536E-1,-3.486689E-2,-1.01403706E-1,7.3718E-2,-6.722953E-2,1.515928E-1,-4.2305112E-2,1.2640391E-1,6.0414087E-2,-6.1829966E-2,-5.5198487E-2,6.9529966E-2,-6.942805E-2,7.932014E-2],"categories":[],"categories_nodes":[],"categories_segments":[],"categories_sizes":[],"default_left":[0,0,0,0,0,0,0,0,0,0,0,0,0,0,0,0,0,0,0,0,0,0,0,0,0,0,0,0,0,0,0,0,0,0,0,0,0,0,0,0,0,0,0,0,0,0,0,0,0,0,0,0,0,0,0,0,0,0,0,0,0,0,0,0,0,0,0,0,0,0,0,0,0,0,0,0,0,0,0,0,0,0,0,0,0,0,0,0,0],"id":12,"left_children":[1,3,5,7,9,11,13,15,17,19,21,23,25,27,29,31,33,35,-1,-1,-1,-1,-1,37,39,41,43,45,47,49,51,-1,-1,53,55,57,-1,59,61,63,65,67,69,71,73,-1,75,77,79,81,83,85,87,-1,-1,-1,-1,-1,-1,-1,-1,-1,-1,-1,-1,-1,-1,-1,-1,-1,-1,-1,-1,-1,-1,-1,-1,-1,-1,-1,-1,-1,-1,-1,-1,-1,-1,-1,-1],"loss_changes":[5.0929384E0,9.27875E0,6.73793E0,7.9608364E0,4.4296856E0,8.474465E0,7.917124E0,8.007798E0,5.6144257E0,1.7652497E0,3.9196634E-1,5.765623E0,6.298495E0,7.331316E0,7.926578E0,4.3967566E0,8.757827E0,3.3055115E0,0E0,0E0,0E0,0E0,0E0,6.496097E0,4.858917E0,7.35017E0,6.3961434E0,7.6851234E0,8.783607E0,8.690653E0,7.37914E0,0E0,0E0,2.5690985E-1,8.258988E0,1.6925621E-1,0E0,5.6856093E0,2.4603868E-1,3.8330746E0,6.1995707E0,8.456453E0,5.627878E0,3.326818E0,5.3634377E0,0E0,7.0192986E0,4.307977E0,6.5301275E0,7.2296753E0,7.082094E0,6.0080976E0,6.5802765E0,0E0,0E0,0E0,0E0,0E0,0E0,0E0,0E0,0E0,0E0,0E0,0E0,0E0,0E0,0E0,0E0,0E0,0E0,0E0,0E0,0E0,0E0,0E0,0E0,0E0,0E0,0E0,0E0,0E0,0E0,0E0,0E0,0E0,0E0,0E0,0E0],"parents":[2147483647,0,0,1,1,2,2,3,3,4,4,5,5,6,6,7,7,8,8,9,9,10,10,11,11,12,12,13,13,14,14,15,15,16,16,17,17,23,23,24,24,25,25,26,26,27,27,28,28,29,29,30,30,33,33,34,34,35,35,37,37,38,38,39,39,40,40,41,41,42,42,43,43,44,44,46,46,47,47,48,48,49,49,50,50,51,51,52,52],"right_children":[2,4,6,8,10,12,14,16,18,20,22,24,26,28,30,32,34,36,-1,-1,-1,-1,-1,38,40,42,44,46,48,50,52,-1,-1,54,56,58,-1,60,62,64,66,68,70,72,74,-1,76,78,80,82,84,86,88,-1,-1,-1,-1,-1,-1,-1,-1,-1,-1,-1,-1,-1,-1,-1,-1,-1,-1,-1,-1,-1,-1,-1,-1,-1,-1,-1,-1,-1,-1,-1,-1,-1,-1,-1,-1],"split_conditions":[2E-2,1.6E-1,2E-1,6.05E-1,4E-1,7.5E-1,4.15E-1,1.72E0,8.75E-1,2.2E-1,1.4E-1,2E-2,2.6666668E-1,2E-1,4E-2,4.3E-1,1.3333334E-1,5E-1,-1.1294549E-2,-2.729989E-2,1.0868251E-1,-1.0177419E-1,-1.5631232E-2,5.25E-1,4.1E0,1.02E0,1.6666667E-1,1.3333334E-1,8E-2,6E-2,1.4E-1,7.679003E-2,-9.9504046E-2,4E-1,4E-2,8E-2,1.8368516E-2,8E-2,1.2E-1,2.6E-1,3.98E0,5.4E-1,6E-2,2E-1,6E-2,-6.7150176E-2,5.2E0,3E-1,4E-2,2E-2,6E-2,1E0,4E-2,-8.7229006E-2,-1.3457079E-2,-1.6624821E-2,1.2503786E-1,2.3955873E-1,6.807535E-2,-4.7498997E-2,1.458664E-1,-8.944097E-2,-1.4580724E-2,-1.0985811E-1,3.4404643E-2,1.0432988E-1,-6.2223878E-2,-6.460633E-2,1.2568484E-1,-6.5589756E-2,5.891355E-3,-8.9246914E-2,7.1723364E-2,-1.8361773E-2,1.3693558E-1,1.843536E-1,-3.486689E-2,-1.01403706E-1,7.3718E-2,-6.722953E-2,1.515928E-1,-4.2305112E-2,1.2640391E-1,6.0414087E-2,-6.1829966E-2,-5.5198487E-2,6.9529966E-2,-6.942805E-2,7.932014E-2],"split_indices":[1073,971,396,1051,694,1416,813,469,1535,2,13,739,747,888,10,1408,397,343,0,0,0,0,0,99,1426,1546,1721,754,855,625,852,0,0,563,1331,1686,0,726,1547,850,111,472,1547,184,244,0,1664,512,385,248,962,1647,1436,0,0,0,0,0,0,0,0,0,0,0,0,0,0,0,0,0,0,0,0,0,0,0,0,0,0,0,0,0,0,0,0,0,0,0,0],"split_type":[0,0,0,0,0,0,0,0,0,0,0,0,0,0,0,0,0,0,0,0,0,0,0,0,0,0,0,0,0,0,0,0,0,0,0,0,0,0,0,0,0,0,0,0,0,0,0,0,0,0,0,0,0,0,0,0,0,0,0,0,0,0,0,0,0,0,0,0,0,0,0,0,0,0,0,0,0,0,0,0,0,0,0,0,0,0,0,0,0],"sum_hessian":[2.6137836E2,4.4618744E1,2.167596E2,3.558178E1,9.036963E0,1.070631E2,1.096965E2,2.8222374E1,7.3594046E0,2.2478755E0,6.7890882E0,4.107798E1,6.598512E1,2.1979227E1,8.771728E1,6.3769217E0,2.1845453E1,5.571546E0,1.7878587E0,1.1828561E0,1.0650194E0,5.776309E0,1.0127794E0,8.685885E0,3.2392094E1,5.196672E1,1.4018401E1,1.0555526E1,1.1423701E1,3.1332989E1,5.638429E1,1.0207512E0,5.35617E0,3.5513444E0,1.829411E1,4.343235E0,1.2283111E0,4.9747643E0,3.711121E0,2.4096441E1,8.295652E0,8.533707E0,4.3433014E1,4.0509925E0,9.967409E0,1.328971E0,9.226555E0,6.3915653E0,5.032136E0,1.3943065E1,1.7389925E1,4.3446056E1,1.2938232E1,2.5245123E0,1.0268323E0,5.572363E0,1.27217455E1,3.2410536E0,1.1021811E0,1.7689744E0,3.2057898E0,2.7048056E0,1.0063156E0,2.254744E1,1.549001E0,2.288484E0,6.0071683E0,2.816045E0,5.7176614E0,2.4042826E1,1.9390188E1,3.0391705E0,1.011822E0,2.7531848E0,7.214224E0,7.818667E0,1.4078876E0,5.3700323E0,1.021533E0,1.2411292E0,3.7910068E0,2.6737814E0,1.1269283E1,7.2899284E0,1.0099996E1,4.0033688E1,3.4123685E0,3.2488396E0,9.689393E0],"tree_param":{"num_deleted":"0","num_feature":"1785","num_nodes":"89","size_leaf_vector":"1"}},{"base_weights":[4.329391E-3,-1.3877116E-2,1.0241802E0,1.3779671E-2,-7.613955E-1,-2.9102555E-2,1.5418442E-1,-3.1935787E-1,7.724147E-2,3.1723257E-2,-1.0252795E-1,-4.7859356E-1,4.8408705E-1,-1.4778887E-1,1.9984561E-1,5.867526E-2,-8.244491E-1,1.3380344E-1,-1.9221532E-1,-3.72638E-1,2.1765232E-1,2.8716493E-1,-3.532962E-1,5.5805445E-2,-8.181735E-2,-9.743373E-2,2.9241074E-2,8.249817E-2,-8.211059E-2,4.6326753E-2,-5.2832372E-2,1.2140267E-1,-4.871731E-3,3.8522207E-3,5.0604768E-2,-6.911782E-2,8.6726256E-2],"categories":[],"categories_nodes":[],"categories_segments":[],"categories_sizes":[],"default_left":[0,0,0,0,0,0,0,0,0,0,0,0,0,0,0,0,0,0,0,0,0,0,0,0,0,0,0,0,0,0,0,0,0,0,0,0,0],"id":13,"left_children":[1,3,5,7,9,-1,-1,11,13,-1,-1,15,17,19,21,23,25,-1,27,29,31,33,35,-1,-1,-1,-1,-1,-1,-1,-1,-1,-1,-1,-1,-1,-1],"loss_changes":[4.831096E0,5.300053E0,3.5555925E0,5.2616315E0,2.9285722E0,0E0,0E0,5.3276777E0,5.792406E0,0E0,0E0,6.319031E0,4.3493776E0,6.1815233E0,6.652657E0,6.652389E0,3.732895E0,0E0,3.7662356E0,6.274221E0,7.732257E0,6.385893E0,8.410671E0,0E0,0E0,0E0,0E0,0E0,0E0,0E0,0E0,0E0,0E0,0E0,0E0,0E0,0E0],"parents":[2147483647,0,0,1,1,2,2,3,3,4,4,7,7,8,8,11,11,12,12,13,13,14,14,15,15,16,16,18,18,19,19,20,20,21,21,22,22],"right_children":[2,4,6,8,10,-1,-1,12,14,-1,-1,16,18,20,22,24,26,-1,28,30,32,34,36,-1,-1,-1,-1,-1,-1,-1,-1,-1,-1,-1,-1,-1,-1],"split_conditions":[4E-1,6E-1,2E-2,2E-2,2E-2,-2.9102555E-2,1.5418442E-1,2.6666668E-1,4E-2,3.1723257E-2,-1.0252795E-1,4E-2,6E-2,6.666667E-1,2.6666668E-1,8E-2,2.4E-1,1.3380344E-1,1.3333334E-1,3.85E-1,2E-2,8E-1,2.6666668E-1,5.5805445E-2,-8.181735E-2,-9.743373E-2,2.9241074E-2,8.249817E-2,-8.211059E-2,4.6326753E-2,-5.2832372E-2,1.2140267E-1,-4.871731E-3,3.8522207E-3,5.0604768E-2,-6.911782E-2,8.6726256E-2],"split_indices":[1017,916,746,1689,849,0,0,992,5,0,0,18,1686,934,1587,973,252,0,1469,1289,24,100,645,0,0,0,0,0,0,0,0,0,0,0,0,0,0],"split_type":[0,0,0,0,0,0,0,0,0,0,0,0,0,0,0,0,0,0,0,0,0,0,0,0,0,0,0,0,0,0,0,0,0,0,0,0,0],"sum_hessian":[2.5841962E2,2.548563E2,3.5633342E0,2.4671004E2,8.146246E0,1.1300576E0,2.4332767E0,3.8832054E1,2.0787799E2,1.5614871E0,6.5847588E0,3.274634E1,6.0857115E0,7.324221E1,1.3463577E2,1.3149546E1,1.9596796E1,2.2571802E0,3.8285315E0,4.5331127E1,2.7911087E1,1.1669507E2,1.7940706E1,8.609735E0,4.5398116E0,1.7390512E1,2.2062833E0,1.3435713E0,2.48496E0,6.807066E0,3.852406E1,5.1372323E0,2.2773855E1,5.5184036E1,6.1511032E1,1.4390709E1,3.5499978E0],"tree_param":{"num_deleted":"0","num_feature":"1785","num_nodes":"37","size_leaf_vector":"1"}},{"base_weights":[4.0740143E-3,5.377244E-2,-3.6889115E-1,-7.3099583E-1,8.457604E-2,2.627862E-1,-7.033882E-1,-1.0083165E-1,6.1086316E-2,8.25347E-1,4.9709555E-2,7.686713E-1,-7.0753527E-1,-9.606932E-1,-9.2227146E-2,-2.0049158E-1,1.2577046E0,3.844005E-1,-3.0985873E-2,1.2072784E0,-6.952038E-2,-8.3134726E-2,-1.4944988E-2,-1.0715659E-1,2.6014156E-3,7.189307E-1,-7.471643E-1,6.907293E-2,-7.757025E-2,1.7102432E-1,-1.0856416E-2,-1.2738414E-1,6.859618E-1,-3.303471E-1,1.11900784E-1,-1.9115102E-2,1.5559503E0,1.1819358E-1,-2.1463765E-2,-8.465164E-2,-2.0434013E-2,-7.610692E-2,6.479394E-2,-2.6354438E-2,9.9006884E-2,-4.2821545E-2,7.639489E-2,-1.46802785E-2,3.7329737E-2,1.8573798E-1,2.1348746E-2],"categories":[],"categories_nodes":[],"categories_segments":[],"categories_sizes":[],"default_left":[0,0,0,0,0,0,0,0,0,0,0,0,0,0,0,0,0,0,0,0,0,0,0,0,0,0,0,0,0,0,0,0,0,0,0,0,0,0,0,0,0,0,0,0,0,0,0,0,0,0,0],"id":14,"left_children":[1,3,5,7,9,11,13,-1,-1,15,17,19,21,23,25,27,29,31,33,35,-1,-1,-1,-1,-1,37,39,-1,-1,-1,-1,41,43,45,47,-1,49,-1,-1,-1,-1,-1,-1,-1,-1,-1,-1,-1,-1,-1,-1],"loss_changes":[4.804448E0,5.5891256E0,6.6248703E0,3.8681827E0,5.664649E0,6.080922E0,3.0877714E0,0E0,0E0,4.6281314E0,5.7387896E0,5.9076214E0,1.7883873E-1,1.5713043E0,4.304108E0,2.4776137E0,4.5621624E0,6.456368E0,7.3846426E0,3.437189E0,0E0,0E0,0E0,0E0,0E0,1.8431334E0,6.5043926E-2,0E0,0E0,0E0,0E0,8.424831E0,7.804122E0,6.298054E0,7.968436E0,0E0,1.7334385E0,0E0,0E0,0E0,0E0,0E0,0E0,0E0,0E0,0E0,0E0,0E0,0E0,0E0,0E0],"parents":[2147483647,0,0,1,1,2,2,3,3,4,4,5,5,6,6,9,9,10,10,11,11,12,12,13,13,14,14,15,15,16,16,17,17,18,18,19,19,25,25,26,26,31,31,32,32,33,33,34,34,36,36],"right_children":[2,4,6,8,10,12,14,-1,-1,16,18,20,22,24,26,28,30,32,34,36,-1,-1,-1,-1,-1,38,40,-1,-1,-1,-1,42,44,46,48,-1,50,-1,-1,-1,-1,-1,-1,-1,-1,-1,-1,-1,-1,-1,-1],"split_conditions":[2.2E-1,3.8E-1,4.55E-1,2E-1,3.1E-1,1E-1,5.7E-1,-1.0083165E-1,6.1086316E-2,6E-2,2E-2,4E-1,1E-1,3.4E-1,6E-2,1.6666667E-1,1E-1,6E-2,4E-2,6E-2,-6.952038E-2,-8.3134726E-2,-1.4944988E-2,-1.0715659E-1,2.6014156E-3,7.8125E-1,1.2E-1,6.907293E-2,-7.757025E-2,1.7102432E-1,-1.0856416E-2,2.3333333E-1,7E-1,6E-1,2E-1,-1.9115102E-2,1.2E-1,1.1819358E-1,-2.1463765E-2,-8.465164E-2,-2.0434013E-2,-7.610692E-2,6.479394E-2,-2.6354438E-2,9.9006884E-2,-4.2821545E-2,7.639489E-2,-1.46802785E-2,3.7329737E-2,1.8573798E-1,2.1348746E-2],"split_indices":[729,1777,218,261,1289,623,1527,0,0,1,17,328,737,984,1201,1110,1559,133,1554,970,0,0,0,0,0,1654,724,0,0,0,0,157,933,929,396,0,22,0,0,0,0,0,0,0,0,0,0,0,0,0,0],"split_type":[0,0,0,0,0,0,0,0,0,0,0,0,0,0,0,0,0,0,0,0,0,0,0,0,0,0,0,0,0,0,0,0,0,0,0,0,0,0,0,0,0,0,0,0,0,0,0,0,0,0,0],"sum_hessian":[2.5712845E2,2.2764946E2,2.9478966E1,7.7396374E0,2.1990984E2,1.0280068E1,1.9198898E1,6.6200466E0,1.1195908E0,8.866257E0,2.1104358E2,6.893765E0,3.386303E0,1.310827E1,6.0906286E0,2.7878687E0,6.078388E0,4.0267445E1,1.7077612E2,5.439319E0,1.454446E0,2.3707151E0,1.0155878E0,1.1706817E1,1.4014533E0,2.67717E0,3.4134588E0,1.0147723E0,1.7730966E0,4.3769E0,1.7014883E0,1.5143964E1,2.5123482E1,5.4752483E1,1.1602364E2,1.1756951E0,4.2636237E0,1.611769E0,1.0654011E0,2.4124465E0,1.0010123E0,8.343261E0,6.8007026E0,6.1269217E0,1.899656E1,5.0816402E1,3.9360797E0,5.853253E1,5.7491116E1,3.1686013E0,1.0950226E0],"tree_param":{"num_deleted":"0","num_feature":"1785","num_nodes":"51","size_leaf_vector":"1"}},{"base_weights":[3.3433617E-3,-3.6912173E-1,4.8394967E-2,2.4968773E-1,-6.564583E-1,3.6888605E-1,-2.2061046E-2,8.4014404E-1,-7.037821E-1,-8.274742E-1,1.0178312E-1,7.5162894E-1,-5.6440514E-2,-4.578596E-1,5.4496225E-2,-6.251465E-2,1.2435926E0,-8.2983054E-2,-1.5311422E-2,-9.1641223E-1,2.8272063E-2,9.9555945E-1,-8.121283E-2,6.678309E-1,-5.9207726E-1,-7.9914594E-1,2.2350828E-1,1.1235175E-1,-5.870157E-1,1.6650195E0,-1.8165488E-2,-1.0930588E-1,-7.4828014E-2,-5.6419652E-2,1.3458153E0,1.138558E0,-5.603104E-1,8.1014164E-2,-8.369863E-1,6.5364584E-2,-9.619751E-1,-5.185633E-1,9.703237E-1,1.7404197E-1,-5.901436E-1,-8.194498E-1,9.6861154E-2,5.5053037E-2,1.9059832E-1,-7.402061E-2,7.107025E-2,-6.876E-2,9.344722E-2,6.039382E-3,1.6171083E-1,1.6118424E-1,-1.29408855E-2,-6.62864E-2,-1.664081E-2,-1.049118E-1,6.827995E-3,-1.0567399E-1,2.4485767E-2,5.7846893E-2,-9.324261E-2,-2.9868776E-2,1.4866917E-1,4.825212E-2,2.0510228E-3,3.2889258E-2,-8.7983996E-2,4.7191445E-2,-1.0056651E-1],"categories":[],"categories_nodes":[],"categories_segments":[],"categories_sizes":[],"default_left":[0,0,0,0,0,0,0,0,0,0,0,0,0,0,0,0,0,0,0,0,0,0,0,0,0,0,0,0,0,0,0,0,0,0,0,0,0,0,0,0,0,0,0,0,0,0,0,0,0,0,0,0,0,0,0,0,0,0,0,0,0,0,0,0,0,0,0,0,0,0,0,0,0],"id":15,"left_children":[1,3,5,7,9,11,13,15,17,19,-1,21,23,25,27,-1,29,-1,-1,31,-1,33,-1,35,37,39,41,43,45,47,-1,-1,49,51,53,55,57,-1,59,-1,61,63,65,67,69,71,-1,-1,-1,-1,-1,-1,-1,-1,-1,-1,-1,-1,-1,-1,-1,-1,-1,-1,-1,-1,-1,-1,-1,-1,-1,-1,-1],"loss_changes":[4.3195176E0,5.1029196E0,5.19209E0,5.9579644E0,6.3526E0,6.7869043E0,6.33553E0,4.5271025E0,1.6375804E-1,2.037654E0,0E0,9.153346E0,8.369141E0,6.7755723E0,6.0703053E0,0E0,3.4906225E0,0E0,0E0,2.4324942E0,0E0,7.2144737E0,0E0,5.9613433E0,4.917745E0,5.1517677E0,6.183014E0,6.5700436E0,5.6908803E0,7.7275276E-2,0E0,0E0,2.6207168E0,4.269455E0,4.9849606E0,4.401263E0,1.9834042E-2,0E0,2.1843667E0,0E0,2.271305E0,3.1692886E0,4.019515E0,6.5239983E0,3.5574484E0,3.4383698E0,0E0,0E0,0E0,0E0,0E0,0E0,0E0,0E0,0E0,0E0,0E0,0E0,0E0,0E0,0E0,0E0,0E0,0E0,0E0,0E0,0E0,0E0,0E0,0E0,0E0,0E0,0E0],"parents":[2147483647,0,0,1,1,2,2,3,3,4,4,5,5,6,6,7,7,8,8,9,9,11,11,12,12,13,13,14,14,16,16,19,19,21,21,23,23,24,24,25,25,26,26,27,27,28,28,29,29,32,32,33,33,34,34,35,35,36,36,38,38,40,40,41,41,42,42,43,43,44,44,45,45],"right_children":[2,4,6,8,10,12,14,16,18,20,-1,22,24,26,28,-1,30,-1,-1,32,-1,34,-1,36,38,40,42,44,46,48,-1,-1,50,52,54,56,58,-1,60,-1,62,64,66,68,70,72,-1,-1,-1,-1,-1,-1,-1,-1,-1,-1,-1,-1,-1,-1,-1,-1,-1,-1,-1,-1,-1,-1,-1,-1,-1,-1,-1],"split_conditions":[1E-1,4E-2,2E-2,2E-1,4.2E-1,2E-1,2E-2,2E-2,8E-2,3E-1,1.0178312E-1,1.8E-1,4E-2,1E-1,9.6875E-1,-6.251465E-2,9E-1,-8.2983054E-2,-1.5311422E-2,5E-1,2.8272063E-2,1.6666667E-1,-8.121283E-2,8E-2,6E-1,1E-1,1E-1,6.04E0,8.333333E-1,1.3333334E-1,-1.8165488E-2,-1.0930588E-1,2.6666668E-1,2.6666668E-1,2E-2,4E-1,1.4E-1,8.1014164E-2,2.4E-1,6.5364584E-2,6E-1,4.35E-1,4E-2,4E-2,5.58E0,1.6666667E-1,9.6861154E-2,5.5053037E-2,1.9059832E-1,-7.402061E-2,7.107025E-2,-6.876E-2,9.344722E-2,6.039382E-3,1.6171083E-1,1.6118424E-1,-1.29408855E-2,-6.62864E-2,-1.664081E-2,-1.049118E-1,6.827995E-3,-1.0567399E-1,2.4485767E-2,5.7846893E-2,-9.324261E-2,-2.9868776E-2,1.4866917E-1,4.825212E-2,2.0510228E-3,3.2889258E-2,-8.7983996E-2,4.7191445E-2,-1.0056651E-1],"split_indices":[776,980,1073,281,624,39,615,1330,1198,1343,0,10,1312,855,821,0,814,0,0,346,0,416,0,855,1290,773,1442,1068,1291,1730,0,0,38,653,1568,1621,597,0,134,0,1749,813,385,1672,704,1176,0,0,0,0,0,0,0,0,0,0,0,0,0,0,0,0,0,0,0,0,0,0,0,0,0,0,0],"split_type":[0,0,0,0,0,0,0,0,0,0,0,0,0,0,0,0,0,0,0,0,0,0,0,0,0,0,0,0,0,0,0,0,0,0,0,0,0,0,0,0,0,0,0,0,0,0,0,0,0,0,0,0,0,0,0,0,0,0,0,0,0,0,0,0,0,0,0,0,0,0,0,0,0],"sum_hessian":[2.5535371E2,2.677743E1,2.2857628E2,8.532602E0,1.8244827E1,4.043039E1,1.8814589E2,5.34281E0,3.189792E0,1.7012869E1,1.231958E0,2.0876692E1,1.9553698E1,2.7368937E1,1.6077695E2,1.0348428E0,4.307967E0,2.1831205E0,1.0066715E0,1.5912649E1,1.100219E0,1.83739E1,2.5027912E0,8.208126E0,1.13455715E1,1.812004E1,9.248896E0,1.4823323E2,1.2543729E1,3.1950126E0,1.1129549E0,1.2905089E1,3.0075603E0,4.799055E0,1.3574845E1,5.986527E0,2.221599E0,1.3437936E0,1.0001779E1,1.5224205E0,1.659762E1,4.792486E0,4.45641E0,1.3695836E2,1.1274861E1,1.132486E1,1.218869E0,1.151922E0,2.0430903E0,1.6595496E0,1.3480107E0,3.1186259E0,1.6804292E0,2.5787935E0,1.0996052E1,4.1618595E0,1.8246678E0,1.2209169E0,1.0006822E0,7.974259E0,2.0275192E0,1.5504519E1,1.0931003E0,1.2038069E0,3.588679E0,1.4108081E0,3.0456018E0,4.480081E1,9.2157555E1,2.6698127E0,8.605049E0,1.233885E0,1.0090975E1],"tree_param":{"num_deleted":"0","num_feature":"1785","num_nodes":"73","size_leaf_vector":"1"}},{"base_weights":[3.063279E-3,7.767483E-2,-2.2366486E-1,1.26451E-1,-5.0648737E-1,-3.2646462E-1,5.663226E-1,7.7273846E-1,7.7239454E-2,2.3724528E-1,-8.008702E-1,2.1012157E-1,-4.6851522E-1,-4.3776283E-1,1.2291193E0,1.2576665E0,-3.6394173E-1,-6.7665404E-1,1.300608E-1,-6.848079E-2,8.1968546E-1,2.3212736E-2,-1.0269678E-1,7.563457E-1,-6.392053E-1,-6.7777747E-1,-4.9237262E-2,2.1680342E-2,-7.521111E-2,-2.8614268E-2,1.8284631E-1,1.5746326E0,-8.7553E-3,-8.623253E-2,6.871396E-2,-9.5774347E-1,3.5750887E-1,6.959992E-2,8.9028287E-1,1.3281594E-1,-1.7842837E-2,1.2475337E0,-7.122137E-2,-9.112514E-2,2.692003E-2,-7.7424514E-1,6.628785E-2,-6.235158E-1,4.9092385E-1,1.8419206E-1,1.1969234E-2,-1.8416405E-2,-1.0342498E-1,7.598711E-2,-2.0248892E-2,-5.034861E-3,4.0222503E-2,1.1808609E-1,-6.9352746E-2,-1.9998976E-3,1.614878E-1,-8.784736E-2,6.684632E-2,4.8638325E-2,-8.8252746E-2,9.839088E-2,-5.7210635E-2],"categories":[],"categories_nodes":[],"categories_segments":[],"categories_sizes":[],"default_left":[0,0,0,0,0,0,0,0,0,0,0,0,0,0,0,0,0,0,0,0,0,0,0,0,0,0,0,0,0,0,0,0,0,0,0,0,0,0,0,0,0,0,0,0,0,0,0,0,0,0,0,0,0,0,0,0,0,0,0,0,0,0,0,0,0,0,0],"id":16,"left_children":[1,3,5,7,9,11,13,15,17,19,21,23,25,27,29,31,33,35,37,-1,39,-1,-1,41,43,45,47,-1,-1,-1,-1,49,-1,-1,-1,51,53,55,57,-1,-1,59,-1,-1,-1,61,-1,63,65,-1,-1,-1,-1,-1,-1,-1,-1,-1,-1,-1,-1,-1,-1,-1,-1,-1,-1],"loss_changes":[4.3150673E0,5.531655E0,5.314232E0,5.5985217E0,3.4714081E0,4.406746E0,5.6214113E0,7.3351064E0,6.7154174E0,3.2581038E0,2.7995882E0,6.292509E0,3.9149904E0,9.397251E-1,4.940284E0,3.9626837E0,2.9533293E0,3.5569916E0,7.125327E0,0E0,2.029886E0,0E0,0E0,6.715931E0,1.5904198E0,4.3854265E0,5.28819E0,0E0,0E0,0E0,0E0,2.6232262E0,0E0,0E0,0E0,3.4022236E-1,8.5045505E-1,5.8426995E0,6.0816307E0,0E0,0E0,3.0202923E0,0E0,0E0,0E0,4.856558E0,0E0,2.7937562E0,5.193321E0,0E0,0E0,0E0,0E0,0E0,0E0,0E0,0E0,0E0,0E0,0E0,0E0,0E0,0E0,0E0,0E0,0E0,0E0],"parents":[2147483647,0,0,1,1,2,2,3,3,4,4,5,5,6,6,7,7,8,8,9,9,10,10,11,11,12,12,13,13,14,14,15,15,16,16,17,17,18,18,20,20,23,23,24,24,25,25,26,26,31,31,35,35,36,36,37,37,38,38,41,41,45,45,47,47,48,48],"right_children":[2,4,6,8,10,12,14,16,18,20,22,24,26,28,30,32,34,36,38,-1,40,-1,-1,42,44,46,48,-1,-1,-1,-1,50,-1,-1,-1,52,54,56,58,-1,-1,60,-1,-1,-1,62,-1,64,66,-1,-1,-1,-1,-1,-1,-1,-1,-1,-1,-1,-1,-1,-1,-1,-1,-1,-1],"split_conditions":[4E-1,2.6E-1,5E-1,1.6666667E-1,2E-2,2E-2,5E-1,1E-1,1E-1,4.5E-1,2E-2,5.3E-1,1.2E-1,2E-1,4E-2,1.6E-1,1E-1,1.8E-1,2.6666668E-1,-6.848079E-2,4E-2,2.3212736E-2,-1.0269678E-1,1.2E-1,1.6E-1,3E-1,1E-1,2.1680342E-2,-7.521111E-2,-2.8614268E-2,1.8284631E-1,2.3333333E-1,-8.7553E-3,-8.623253E-2,6.871396E-2,6.666667E-2,2E-2,2.3333333E-1,1.4E-1,1.3281594E-1,-1.7842837E-2,8E-2,-7.122137E-2,-9.112514E-2,2.692003E-2,3.4E-1,6.628785E-2,1.3333334E-1,1.2E-1,1.8419206E-1,1.1969234E-2,-1.8416405E-2,-1.0342498E-1,7.598711E-2,-2.0248892E-2,-5.034861E-3,4.0222503E-2,1.1808609E-1,-6.9352746E-2,-1.9998976E-3,1.614878E-1,-8.784736E-2,6.684632E-2,4.8638325E-2,-8.8252746E-2,9.839088E-2,-5.7210635E-2],"split_indices":[325,1562,1536,1293,370,1221,105,130,519,456,4,99,1457,771,1676,129,8,1095,1728,0,736,0,0,18,1074,1674,1689,0,0,0,0,1014,0,0,0,286,241,1584,1446,0,0,31,0,0,0,265,0,1225,1077,0,0,0,0,0,0,0,0,0,0,0,0,0,0,0,0,0,0],"split_type":[0,0,0,0,0,0,0,0,0,0,0,0,0,0,0,0,0,0,0,0,0,0,0,0,0,0,0,0,0,0,0,0,0,0,0,0,0,0,0,0,0,0,0,0,0,0,0,0,0,0,0,0,0,0,0,0,0,0,0,0,0,0,0,0,0,0,0],"sum_hessian":[2.5305283E2,1.9089172E2,6.2161114E1,1.7690417E2,1.398755E1,5.5522774E1,6.6383395E0,1.1476941E1,1.6542723E2,4.0215487E0,9.9660015E0,1.1521585E1,4.4001186E1,2.774583E0,3.8637567E0,7.9702516E0,3.5066893E0,1.0058396E1,1.5536884E2,1.4888359E0,2.5327127E0,1.7848209E0,8.18118E0,7.078619E0,4.442967E0,2.8940437E1,1.5060749E1,1.0008419E0,1.7737411E0,1.2432197E0,2.6205368E0,6.312366E0,1.6578856E0,2.500587E0,1.0061022E0,7.966866E0,2.0915298E0,1.4493373E2,1.0435109E1,1.4588528E0,1.0738599E0,5.4172277E0,1.6613911E0,3.4166331E0,1.0263337E0,2.7391924E1,1.5485144E0,7.2250447E0,7.835705E0,5.1079965E0,1.2043697E0,1.0236444E0,6.9432216E0,1.0093715E0,1.0821583E0,1.07144714E2,3.7789013E1,9.032377E0,1.4027315E0,1.4296694E0,3.9875584E0,2.5911072E1,1.480851E0,1.2009543E0,6.024091E0,5.404004E0,2.4317005E0],"tree_param":{"num_deleted":"0","num_feature":"1785","num_nodes":"67","size_leaf_vector":"1"}},{"base_weights":[3.0782216E-3,-1.7171584E-1,9.96764E-2,5.917891E-1,-2.5025213E-1,2.543575E-1,-1.0645213E-1,-4.319415E-1,1.2433062E0,-2.4912069E-2,-5.500257E-1,4.367613E-1,-1.427887E-1,2.787808E-1,-3.98007E-1,-7.845988E-2,3.3333603E-2,-1.7424015E-2,1.608466E0,6.063047E-1,-2.1635504E-1,-7.830365E-1,-5.4614693E-3,-2.6438064E-3,6.7049056E-1,2.3661667E-1,-5.764819E-1,-1.9087475E-2,1.105381E0,-4.933296E-1,8.771958E-1,5.2251335E-2,1.8152355E-1,-4.5143488E-1,1.0469086E0,8.381538E-1,-3.2960072E-1,-2.6218439E-2,-1.0182791E0,-5.3820837E-1,1.18191E0,-3.629145E-1,8.5303974E-1,4.6275264E-1,1.3638031E0,-8.930493E-2,5.296243E-1,-9.068281E-1,3.0602694E-1,5.601486E-1,-5.0159293E-1,1.4420933E0,-3.3433247E-2,-6.2508285E-1,5.837667E-1,1.424451E-1,-1.544696E-2,-7.957987E-2,2.9985575E-2,-3.5185035E-2,1.4061414E-1,-3.0960744E-2,1.4187376E-1,-4.742321E-2,6.0712524E-2,-5.9060752E-2,9.887032E-2,-1.10502504E-1,-5.447734E-3,-9.885614E-2,4.950704E-2,1.4674613E-2,1.6138576E-1,8.102951E-2,-6.7074046E-2,-6.28997E-2,1.2290787E-1,-8.148395E-2,5.801901E-2,-8.198294E-3,1.6455954E-1,-3.90678E-2,9.0313576E-2,-1.0481115E-1,1.5043979E-2,-7.2840676E-2,1.1138665E-1,-2.9795965E-2,1.1621352E-1,-8.64807E-2,2.8742254E-2,1.7364588E-1,-1.3057783E-2,-1.6469194E-3,-8.584783E-2,-6.428545E-2,1.1949213E-1],"categories":[],"categories_nodes":[],"categories_segments":[],"categories_sizes":[],"default_left":[0,0,0,0,0,0,0,0,0,0,0,0,0,0,0,0,0,0,0,0,0,0,0,0,0,0,0,0,0,0,0,0,0,0,0,0,0,0,0,0,0,0,0,0,0,0,0,0,0,0,0,0,0,0,0,0,0,0,0,0,0,0,0,0,0,0,0,0,0,0,0,0,0,0,0,0,0,0,0,0,0,0,0,0,0,0,0,0,0,0,0,0,0,0,0,0,0],"id":17,"left_children":[1,3,5,7,9,11,13,15,17,19,21,23,25,27,29,-1,-1,-1,31,33,35,37,39,41,43,45,47,49,51,53,55,-1,-1,57,59,61,63,65,67,69,71,73,75,77,79,-1,81,83,85,87,89,91,-1,93,95,-1,-1,-1,-1,-1,-1,-1,-1,-1,-1,-1,-1,-1,-1,-1,-1,-1,-1,-1,-1,-1,-1,-1,-1,-1,-1,-1,-1,-1,-1,-1,-1,-1,-1,-1,-1,-1,-1,-1,-1,-1,-1],"loss_changes":[4.2669377E0,5.5420322E0,5.215932E0,6.3311863E0,5.543546E0,6.818782E0,8.026219E0,1.3736249E0,3.1616526E0,5.933016E0,4.4692945E0,6.591096E0,5.090567E0,7.64086E0,5.3588624E0,0E0,0E0,0E0,6.734848E-2,5.802256E0,4.76351E0,4.3679056E0,7.956109E0,7.484423E0,5.4015923E0,6.023261E0,4.4580956E0,6.913812E0,4.4644203E0,5.80676E0,2.0146148E0,0E0,0E0,1.289422E0,4.702697E0,3.0555978E0,4.9822435E0,4.5246353E0,1.5119476E0,4.526228E0,1.5056057E0,6.711749E0,4.782449E0,5.5353975E0,3.8599663E0,0E0,5.145446E0,1.7539682E0,4.7000494E0,6.161582E0,4.1102114E0,3.395997E0,0E0,4.907879E0,4.2889547E0,0E0,0E0,0E0,0E0,0E0,0E0,0E0,0E0,0E0,0E0,0E0,0E0,0E0,0E0,0E0,0E0,0E0,0E0,0E0,0E0,0E0,0E0,0E0,0E0,0E0,0E0,0E0,0E0,0E0,0E0,0E0,0E0,0E0,0E0,0E0,0E0,0E0,0E0,0E0,0E0,0E0,0E0],"parents":[2147483647,0,0,1,1,2,2,3,3,4,4,5,5,6,6,7,7,8,8,9,9,10,10,11,11,12,12,13,13,14,14,18,18,19,19,20,20,21,21,22,22,23,23,24,24,25,25,26,26,27,27,28,28,29,29,30,30,33,33,34,34,35,35,36,36,37,37,38,38,39,39,40,40,41,41,42,42,43,43,44,44,46,46,47,47,48,48,49,49,50,50,51,51,53,53,54,54],"right_children":[2,4,6,8,10,12,14,16,18,20,22,24,26,28,30,-1,-1,-1,32,34,36,38,40,42,44,46,48,50,52,54,56,-1,-1,58,60,62,64,66,68,70,72,74,76,78,80,-1,82,84,86,88,90,92,-1,94,96,-1,-1,-1,-1,-1,-1,-1,-1,-1,-1,-1,-1,-1,-1,-1,-1,-1,-1,-1,-1,-1,-1,-1,-1,-1,-1,-1,-1,-1,-1,-1,-1,-1,-1,-1,-1,-1,-1,-1,-1,-1,-1],"split_conditions":[4E-2,1.6666667E-1,8E-2,2E-1,8E-2,1E-1,6E-2,3E-1,1.6666667E-1,1.3333334E-1,1.4E-1,4E-2,7.8125E-1,4E-1,3.3333334E-1,-7.845988E-2,3.3333603E-2,-1.7424015E-2,2E-2,4E-2,3.65E-1,3.3333334E-1,1.4E-1,2.6666668E-1,1.8E-1,1.12E0,4E-1,2E-1,4E-1,6.666667E-1,4E-2,5.2251335E-2,1.8152355E-1,1.4E-1,2E-2,4E-2,2.2E-1,1.4E-1,2.8E-1,1.4E-1,2E-1,2E-2,4E-2,1.3333334E-1,1.3333334E-1,-8.930493E-2,4E-2,3.3333334E-1,1.6666667E-1,5.15E-1,4E-1,1.6E-1,-3.3433247E-2,3.3333334E-1,2E-1,1.424451E-1,-1.544696E-2,-7.957987E-2,2.9985575E-2,-3.5185035E-2,1.4061414E-1,-3.0960744E-2,1.4187376E-1,-4.742321E-2,6.0712524E-2,-5.9060752E-2,9.887032E-2,-1.10502504E-1,-5.447734E-3,-9.885614E-2,4.950704E-2,1.4674613E-2,1.6138576E-1,8.102951E-2,-6.7074046E-2,-6.28997E-2,1.2290787E-1,-8.148395E-2,5.801901E-2,-8.198294E-3,1.6455954E-1,-3.90678E-2,9.0313576E-2,-1.0481115E-1,1.5043979E-2,-7.2840676E-2,1.1138665E-1,-2.9795965E-2,1.1621352E-1,-8.64807E-2,2.8742254E-2,1.7364588E-1,-1.3057783E-2,-1.6469194E-3,-8.584783E-2,-6.428545E-2,1.1949213E-1],"split_indices":[727,699,1562,287,602,857,384,1244,1713,177,853,971,1654,1288,653,0,0,0,1085,984,1289,819,1431,1248,1321,1181,96,1585,216,582,1200,0,0,842,1674,723,147,142,840,859,283,1083,366,1358,1468,0,1311,522,1714,1051,1635,844,0,462,636,0,0,0,0,0,0,0,0,0,0,0,0,0,0,0,0,0,0,0,0,0,0,0,0,0,0,0,0,0,0,0,0,0,0,0,0,0,0,0,0,0,0],"split_type":[0,0,0,0,0,0,0,0,0,0,0,0,0,0,0,0,0,0,0,0,0,0,0,0,0,0,0,0,0,0,0,0,0,0,0,0,0,0,0,0,0,0,0,0,0,0,0,0,0,0,0,0,0,0,0,0,0,0,0,0,0,0,0,0,0,0,0,0,0,0,0,0,0,0,0,0,0,0,0,0,0,0,0,0,0,0,0,0,0,0,0,0,0,0,0,0,0],"sum_hessian":[2.5069534E2,8.895463E1,1.617407E2,7.6871705E0,8.1267456E1,9.22679E1,6.947282E1,3.1206717E0,4.5664988E0,4.7011772E1,3.4255688E1,6.3159744E1,2.9108154E1,2.9947218E1,3.9525597E1,2.1189594E0,1.0017122E0,1.0424725E0,3.5240264E0,1.0435921E1,3.657585E1,2.3683825E1,1.0571861E1,2.2273956E1,4.0885788E1,1.5768181E1,1.3339973E1,2.273242E1,7.2147985E0,3.7347008E1,2.1785877E0,1.1278088E0,2.3962173E0,3.0615654E0,7.374355E0,2.9262562E0,3.3649593E1,5.8795853E0,1.780424E1,7.674989E0,2.8968723E0,1.607974E1,6.194217E0,3.2742554E1,8.143231E0,2.8257751E0,1.2942406E1,9.686503E0,3.6534696E0,1.0257556E1,1.2474864E1,5.845931E0,1.3688672E0,3.365046E1,3.696552E0,1.1747189E0,1.0038688E0,2.0586941E0,1.0028713E0,1.5110947E0,5.8632603E0,1.1397688E0,1.7864875E0,2.9576664E1,4.0729303E0,4.0471025E0,1.8324827E0,1.6199677E1,1.6045638E0,5.3754044E0,2.2995846E0,1.2473428E0,1.6495296E0,3.0028257E0,1.3076914E1,1.1174511E0,5.076766E0,2.256439E0,3.0486116E1,1.4439342E0,6.6992974E0,3.7230787E0,9.219327E0,8.552313E0,1.1341907E0,1.6451685E0,2.008301E0,4.4373407E0,5.8202157E0,8.47667E0,3.9981935E0,4.836509E0,1.0094221E0,9.624277E0,2.402618E1,1.2120439E0,2.484508E0],"tree_param":{"num_deleted":"0","num_feature":"1785","num_nodes":"97","size_leaf_vector":"1"}},{"base_weights":[4.2240405E-3,3.0986667E-2,-5.8613634E-1,-1.58256E-1,1.263982E-1,4.3472454E-1,-9.143211E-1,-2.4473717E-2,-6.873658E-1,8.678997E-1,6.17232E-2,-5.9848484E-2,1.21141605E-1,-1.0000204E-1,-1.3702989E-2,3.9367983E-1,-2.0826553E-1,5.641603E-2,-8.670446E-1,-1.8202102E-1,1.2890922E0,5.390735E-1,-4.79823E-2,8.367015E-1,-3.4037063E-1,-6.3296974E-1,9.813132E-2,-1.0216426E0,2.1952031E-2,-7.997982E-2,7.363879E-2,7.41425E-4,1.6355683E0,7.441857E-1,-5.675258E-1,-9.8849416E-2,8.98145E-1,-6.537925E-2,1.0642769E-1,-8.637573E-2,7.7974215E-2,-7.743754E-2,6.7773096E-2,-5.0704595E-2,5.2933056E-2,-1.0771903E-1,-1.8784996E-2,1.853803E-1,1.9254936E-2,1.0510548E-1,-8.029607E-3,-8.621426E-2,2.7966604E-2,9.9049015E-3,-3.9268915E-2,-3.8338955E-2,1.3581185E-1],"categories":[],"categories_nodes":[],"categories_segments":[],"categories_sizes":[],"default_left":[0,0,0,0,0,0,0,0,0,0,0,0,0,0,0,0,0,0,0,0,0,0,0,0,0,0,0,0,0,0,0,0,0,0,0,0,0,0,0,0,0,0,0,0,0,0,0,0,0,0,0,0,0,0,0,0,0],"id":18,"left_children":[1,3,5,7,9,11,13,15,17,19,21,-1,-1,-1,-1,23,25,-1,27,29,31,33,35,37,39,41,43,45,-1,-1,-1,-1,47,49,51,53,55,-1,-1,-1,-1,-1,-1,-1,-1,-1,-1,-1,-1,-1,-1,-1,-1,-1,-1,-1,-1],"loss_changes":[3.934136E0,4.3182907E0,4.0154047E0,5.6627197E0,7.562806E0,3.3770604E0,4.2878056E-1,5.0835924E0,4.1221933E0,5.835129E0,7.731997E0,0E0,0E0,0E0,0E0,6.8593082E0,6.0301933E0,0E0,2.6636667E0,3.1434019E0,4.0565767E0,6.682576E0,5.891553E0,5.0704317E0,5.551103E0,4.112078E0,7.4466987E0,3.946514E-1,0E0,0E0,0E0,0E0,1.912962E0,6.0808744E0,1.4591854E0,6.744908E0,4.2053714E0,0E0,0E0,0E0,0E0,0E0,0E0,0E0,0E0,0E0,0E0,0E0,0E0,0E0,0E0,0E0,0E0,0E0,0E0,0E0,0E0],"parents":[2147483647,0,0,1,1,2,2,3,3,4,4,5,5,6,6,7,7,8,8,9,9,10,10,15,15,16,16,18,18,19,19,20,20,21,21,22,22,23,23,24,24,25,25,26,26,27,27,32,32,33,33,34,34,35,35,36,36],"right_children":[2,4,6,8,10,12,14,16,18,20,22,-1,-1,-1,-1,24,26,-1,28,30,32,34,36,38,40,42,44,46,-1,-1,-1,-1,48,50,52,54,56,-1,-1,-1,-1,-1,-1,-1,-1,-1,-1,-1,-1,-1,-1,-1,-1,-1,-1,-1,-1],"split_conditions":[3.4E-1,3.3333334E-1,4E-2,4E-1,3.3333334E-1,1.4E-1,6E-1,7E-1,3.55E-1,4E-2,2E-2,-5.9848484E-2,1.21141605E-1,-1.0000204E-1,-1.3702989E-2,1E-1,5E-1,5.641603E-2,1E0,2.3333333E-1,5E-1,1.8E-1,3.4E-1,1E-1,1.2E-1,6.666667E-1,6E-2,3E-1,2.1952031E-2,-7.997982E-2,7.363879E-2,7.41425E-4,2E-1,1E-1,5.85E-1,8E-2,3.3333334E-1,-6.537925E-2,1.0642769E-1,-8.637573E-2,7.7974215E-2,-7.743754E-2,6.7773096E-2,-5.0704595E-2,5.2933056E-2,-1.0771903E-1,-1.8784996E-2,1.853803E-1,1.9254936E-2,1.0510548E-1,-8.029607E-3,-8.621426E-2,2.7966604E-2,9.9049015E-3,-3.9268915E-2,-3.8338955E-2,1.3581185E-1],"split_indices":[1448,1060,729,1504,220,1337,671,814,813,1311,1578,0,0,0,0,11,1289,0,1409,1729,1768,1430,1668,281,256,342,857,490,0,0,0,0,377,18,99,264,580,0,0,0,0,0,0,0,0,0,0,0,0,0,0,0,0,0,0,0,0],"split_type":[0,0,0,0,0,0,0,0,0,0,0,0,0,0,0,0,0,0,0,0,0,0,0,0,0,0,0,0,0,0,0,0,0,0,0,0,0,0,0,0,0,0,0,0,0,0,0,0,0,0,0,0,0,0,0,0,0],"sum_hessian":[2.468528E2,2.3705402E2,9.798784E0,7.923594E1,1.5781807E2,2.3047934E0,7.4939904E0,6.4079956E1,1.5155983E1,1.1664517E1,1.4615355E2,1.0875292E0,1.2172643E0,6.4917097E0,1.0022806E0,1.9216833E1,4.4863125E1,1.6340975E0,1.3521886E1,3.5022311E0,8.162287E0,2.6580914E1,1.1957264E2,1.189687E1,7.319963E0,1.8354982E1,2.6508142E1,1.1889922E1,1.6319638E0,2.1710203E0,1.3312109E0,1.9543158E0,6.2079706E0,2.270075E1,3.8801632E0,1.14321815E2,5.2508187E0,1.32778E0,1.056909E1,5.144839E0,2.1751242E0,1.6936924E1,1.4180591E0,1.0955907E1,1.5552237E1,1.08736E1,1.0163221E0,5.1451716E0,1.0627991E0,1.6343102E1,6.3576493E0,2.8658848E0,1.0142784E0,6.8709496E1,4.561232E1,1.4308412E0,3.8199778E0],"tree_param":{"num_deleted":"0","num_feature":"1785","num_nodes":"57","size_leaf_vector":"1"}},{"base_weights":[3.7791089E-3,-3.7265383E-2,3.7791407E-1,3.3215087E-2,-3.1520543E-1,1.1361712E0,-6.5703187E-3,-1.2911877E-1,1.7602056E-1,-4.6146497E-1,4.8148286E-1,-3.3097424E-2,1.4345717E0,7.398731E-1,-7.497499E-1,-3.1037766E-1,5.0885737E-1,3.9254597E-1,-1.9187745E-1,4.8776284E-1,-5.916291E-1,-7.494029E-2,1.0082755E0,1.696872E-1,4.9966616E-3,-4.6944283E-2,1.4914885E0,-1.02783166E-1,6.799337E-2,-4.017029E-1,6.1458915E-1,8.7688047E-1,-4.1146097E-1,-6.4165395E-1,4.7887504E-1,-5.124739E-1,2.5479844E-1,-4.6862658E-2,1.0785255E0,7.593653E-2,-7.5866735E-1,1.6060677E-1,-1.732236E-2,-8.0976956E-2,7.523393E-1,4.0016536E-2,1.8093286E-1,-3.1270527E-3,-6.0865313E-2,1.1042755E-1,-6.661757E-2,-4.986882E-2,1.1438546E-1,4.817147E-2,-8.9710504E-2,-9.0567484E-2,2.0846006E-2,5.8443617E-2,-5.4321565E-2,-7.5492024E-2,3.7141405E-2,9.796644E-2,-3.197373E-2,1.4164127E-1,1.583726E-2,8.760064E-2,-5.642232E-2,-8.818517E-2,3.4578387E-2,1.0121711E-1,1.3495298E-2],"categories":[],"categories_nodes":[],"categories_segments":[],"categories_sizes":[],"default_left":[0,0,0,0,0,0,0,0,0,0,0,0,0,0,0,0,0,0,0,0,0,0,0,0,0,0,0,0,0,0,0,0,0,0,0,0,0,0,0,0,0,0,0,0,0,0,0,0,0,0,0,0,0,0,0,0,0,0,0,0,0,0,0,0,0,0,0,0,0,0,0],"id":19,"left_children":[1,3,5,7,9,11,13,15,17,19,21,-1,23,25,27,29,31,33,35,37,39,-1,41,-1,-1,43,45,-1,-1,47,49,51,53,55,57,59,61,-1,63,65,67,-1,-1,-1,69,-1,-1,-1,-1,-1,-1,-1,-1,-1,-1,-1,-1,-1,-1,-1,-1,-1,-1,-1,-1,-1,-1,-1,-1,-1,-1],"loss_changes":[3.784656E0,4.362776E0,7.110457E0,4.152366E0,5.4702315E0,4.066125E0,1.0074471E1,9.865341E0,7.658304E0,5.053281E0,5.6027308E0,0E0,2.4590073E0,5.430832E0,4.3150783E0,5.8215537E0,6.7798843E0,5.6867256E0,5.2772856E0,3.4425592E0,3.8896008E0,0E0,4.2766767E0,0E0,0E0,3.9005823E0,8.946743E-1,0E0,0E0,4.6318502E0,4.7028456E0,5.659568E0,3.0757105E0,1.326618E0,6.379262E0,4.835227E0,6.84546E0,0E0,8.689523E-1,4.482458E0,4.0569496E0,0E0,0E0,0E0,3.6943722E-1,0E0,0E0,0E0,0E0,0E0,0E0,0E0,0E0,0E0,0E0,0E0,0E0,0E0,0E0,0E0,0E0,0E0,0E0,0E0,0E0,0E0,0E0,0E0,0E0,0E0,0E0],"parents":[2147483647,0,0,1,1,2,2,3,3,4,4,5,5,6,6,7,7,8,8,9,9,10,10,12,12,13,13,14,14,15,15,16,16,17,17,18,18,19,19,20,20,22,22,25,25,26,26,29,29,30,30,31,31,32,32,33,33,34,34,35,35,36,36,38,38,39,39,40,40,44,44],"right_children":[2,4,6,8,10,12,14,16,18,20,22,-1,24,26,28,30,32,34,36,38,40,-1,42,-1,-1,44,46,-1,-1,48,50,52,54,56,58,60,62,-1,64,66,68,-1,-1,-1,70,-1,-1,-1,-1,-1,-1,-1,-1,-1,-1,-1,-1,-1,-1,-1,-1,-1,-1,-1,-1,-1,-1,-1,-1,-1,-1],"split_conditions":[8.333333E-1,4E-1,2E-2,8E-1,6.3E-1,2E-2,6E-2,1.8E-1,1E-1,6E-1,4E-2,-3.3097424E-2,4E-1,1.2E-1,6.2E-1,9.6875E-1,1.2E-1,1.6666667E-1,1.2E-1,6E-2,1.3333334E-1,-7.494029E-2,1E-1,1.696872E-1,4.9966616E-3,1E-1,3.3333334E-1,-1.02783166E-1,6.799337E-2,1.6666667E-1,1E-1,2E-2,2E-1,4.02E0,2E-1,1.8E-1,4E-2,-4.6862658E-2,8E-2,6E-2,6.666667E-1,1.6060677E-1,-1.732236E-2,-8.0976956E-2,8E-1,4.0016536E-2,1.8093286E-1,-3.1270527E-3,-6.0865313E-2,1.1042755E-1,-6.661757E-2,-4.986882E-2,1.1438546E-1,4.817147E-2,-8.9710504E-2,-9.0567484E-2,2.0846006E-2,5.8443617E-2,-5.4321565E-2,-7.5492024E-2,3.7141405E-2,9.796644E-2,-3.197373E-2,1.4164127E-1,1.583726E-2,8.760064E-2,-5.642232E-2,-8.818517E-2,3.4578387E-2,1.0121711E-1,1.3495298E-2],"split_indices":[101,1266,24,100,337,858,967,2,623,1647,1687,0,783,1329,456,1059,607,936,1313,1565,535,0,129,0,0,861,1060,0,0,398,718,1202,1707,1304,135,855,1674,0,258,1328,1534,0,0,0,814,0,0,0,0,0,0,0,0,0,0,0,0,0,0,0,0,0,0,0,0,0,0,0,0,0,0],"split_type":[0,0,0,0,0,0,0,0,0,0,0,0,0,0,0,0,0,0,0,0,0,0,0,0,0,0,0,0,0,0,0,0,0,0,0,0,0,0,0,0,0,0,0,0,0,0,0,0,0,0,0,0,0,0,0,0,0,0,0,0,0,0,0,0,0,0,0,0,0,0,0],"sum_hessian":[2.4454106E2,2.211772E2,2.3363857E1,1.7713861E2,4.403859E1,7.2031617E0,1.6160696E1,8.294588E1,9.419273E1,3.756332E1,6.47527E0,1.1989794E0,6.0041823E0,8.064863E0,8.095833E0,6.499367E1,1.7952208E1,5.9252712E1,3.494002E1,4.1984735E0,3.336485E1,1.8140488E0,4.661221E0,4.858297E0,1.1458852E0,4.398207E0,3.666656E0,7.0128675E0,1.0829657E0,5.9668133E1,5.3255353E0,1.2857759E1,5.094449E0,4.069423E0,5.518329E1,2.0254957E1,1.4685065E1,1.6820828E0,2.5163906E0,6.78682E0,2.6578028E1,2.8565643E0,1.8046566E0,2.2437162E0,2.1544912E0,1.3365488E0,2.3301072E0,2.1799332E1,3.78688E1,3.95224E0,1.3732952E0,1.948793E0,1.0908966E1,1.7972028E0,3.2972465E0,3.0552073E0,1.0142161E0,5.040561E1,4.7776785E0,1.6009527E1,4.2454295E0,6.18128E0,8.503785E0,1.4460624E0,1.0703281E0,2.8528798E0,3.9339402E0,2.409244E1,2.485589E0,1.0662894E0,1.0882018E0],"tree_param":{"num_deleted":"0","num_feature":"1785","num_nodes":"71","size_leaf_vector":"1"}},{"base_weights":[4.202224E-3,2.7450323E-2,-6.290022E-1,-3.453502E-1,7.072466E-2,2.210606E-1,-9.719642E-2,2.6243144E-1,-6.493599E-1,-4.25999E-1,1.066733E-1,8.3876826E-2,-5.809007E-2,-5.152381E-1,8.0433714E-1,-8.318289E-1,8.472178E-2,6.4840496E-1,-6.86414E-1,8.043897E-2,9.748623E-1,2.0972382E-2,-8.0371164E-2,1.2165561E0,-3.360116E-2,-9.63757E-1,1.0192982E-2,1.1543941E-1,-1.9753775E-2,-9.022896E-1,4.757781E-2,-3.1026868E-2,2.5724256E-1,6.733065E-3,1.369411E-1,1.5444262E-1,1.7230382E-2,-1.0487218E-1,-1.4390396E-2,-1.0426451E-1,2.1184556E-2,2.0325916E-2,-2.6160529E-2,-3.4425694E-2,3.8079597E-2],"categories":[],"categories_nodes":[],"categories_segments":[],"categories_sizes":[],"default_left":[0,0,0,0,0,0,0,0,0,0,0,0,0,0,0,0,0,0,0,0,0,0,0,0,0,0,0,0,0,0,0,0,0,0,0,0,0,0,0,0,0,0,0,0,0],"id":20,"left_children":[1,3,5,7,9,11,-1,13,15,17,19,-1,-1,21,23,25,-1,27,29,31,33,-1,-1,35,-1,37,-1,-1,-1,39,-1,41,43,-1,-1,-1,-1,-1,-1,-1,-1,-1,-1,-1,-1],"loss_changes":[3.5853202E0,3.8116727E0,2.7295938E0,4.713215E0,3.8162088E0,2.1191933E0,0E0,4.169169E0,5.2587113E0,4.4884915E0,4.424889E0,0E0,0E0,1.0612276E0,3.060565E0,1.9914865E0,0E0,1.654964E0,3.469541E0,3.8117206E0,1.952116E0,0E0,0E0,1.226613E0,0E0,7.937784E-1,0E0,0E0,0E0,1.872963E0,0E0,6.496304E0,5.6854873E0,0E0,0E0,0E0,0E0,0E0,0E0,0E0,0E0,0E0,0E0,0E0,0E0],"parents":[2147483647,0,0,1,1,2,2,3,3,4,4,5,5,7,7,8,8,9,9,10,10,13,13,14,14,15,15,17,17,18,18,19,19,20,20,23,23,25,25,29,29,31,31,32,32],"right_children":[2,4,6,8,10,12,-1,14,16,18,20,-1,-1,22,24,26,-1,28,30,32,34,-1,-1,36,-1,38,-1,-1,-1,40,-1,42,44,-1,-1,-1,-1,-1,-1,-1,-1,-1,-1,-1,-1],"split_conditions":[6E-1,1E-1,2E-2,4E-2,3.3333334E-1,3.3333334E-1,-9.719642E-2,4E-2,4.2E-1,2E-2,3.3333334E-1,8.3876826E-2,-5.809007E-2,1.6666667E-1,6.666667E-1,1.8E-1,8.472178E-2,6E-2,3E-1,1E-1,7.1875E-1,2.0972382E-2,-8.0371164E-2,4E-2,-3.360116E-2,1.8E-1,1.0192982E-2,1.1543941E-1,-1.9753775E-2,3E-1,4.757781E-2,6E-2,2E-2,6.733065E-3,1.369411E-1,1.5444262E-1,1.7230382E-2,-1.0487218E-1,-1.4390396E-2,-1.0426451E-1,2.1184556E-2,2.0325916E-2,-2.6160529E-2,-3.4425694E-2,3.8079597E-2],"split_indices":[916,776,745,980,815,818,0,6,624,1579,1583,0,0,174,696,739,0,137,653,624,1059,0,0,1190,0,127,0,0,0,1226,0,602,614,0,0,0,0,0,0,0,0,0,0,0,0],"split_type":[0,0,0,0,0,0,0,0,0,0,0,0,0,0,0,0,0,0,0,0,0,0,0,0,0,0,0,0,0,0,0,0,0,0,0,0,0,0,0,0,0,0,0,0,0],"sum_hessian":[2.4138179E2,2.3375607E2,7.6257052E0,2.3586052E1,2.1017003E2,2.2943597E0,5.3313456E0,7.909668E0,1.5676384E1,1.3451566E1,1.9671846E2,1.2701417E0,1.024218E0,3.268447E0,4.641221E0,1.4368674E1,1.3077095E0,2.3336494E0,1.1117916E1,1.9200911E2,4.7093463E0,1.0080662E0,2.2603807E0,3.3598554E0,1.2813655E0,1.2561737E1,1.8069378E0,1.2320759E0,1.1015736E0,9.564883E0,1.5530331E0,1.1827018E2,7.373893E1,1.7817225E0,2.9276237E0,2.192489E0,1.1673666E0,1.1129211E1,1.4325248E0,8.551728E0,1.0131552E0,5.872222E1,5.9547962E1,1.2261162E1,6.1477768E1],"tree_param":{"num_deleted":"0","num_feature":"1785","num_nodes":"45","size_leaf_vector":"1"}},{"base_weights":[3.94789E-3,-3.5126287E-2,3.6348283E-1,2.3237315E-1,-1.0668703E-1,1.0371956E0,7.354969E-3,3.5925445E-1,-7.793232E-1,-4.5078242E-1,3.1112246E-3,-3.0222801E-2,1.2973382E0,6.93318E-1,-7.148614E-1,-3.9686152E-1,5.351824E-1,-8.916252E-2,-1.4160469E-2,3.312893E-2,-6.705253E-1,1.6744044E-1,-3.433616E-1,1.5277842E-1,4.7985273E-3,-3.7200525E-1,1.1577972E0,-1.00218706E-1,7.125754E-2,-7.5793797E-1,6.333665E-2,-2.1389018E-1,7.3000956E-1,-6.9654E-1,5.845507E-1,-8.010705E-1,4.0464324E-1,4.665975E-1,-7.8324735E-2,-5.556706E-1,2.184684E-1,-7.038329E-2,2.22361E-2,1.5420172E0,-8.768712E-3,-9.6395046E-2,2.0365918E-2,-7.859957E-2,5.8685727E-2,8.6569384E-2,-4.373923E-2,-9.40436E-2,2.9995834E-2,1.1304834E-1,-4.4626072E-2,2.24857E-2,-8.774018E-2,-6.1044015E-2,1.0939789E-1,-8.263363E-2,5.715979E-2,-1.3976137E-2,1.2665386E-1,-7.798372E-2,9.472987E-3,-5.0983604E-2,8.474259E-2,4.865281E-2,1.7198725E-1],"categories":[],"categories_nodes":[],"categories_segments":[],"categories_sizes":[],"default_left":[0,0,0,0,0,0,0,0,0,0,0,0,0,0,0,0,0,0,0,0,0,0,0,0,0,0,0,0,0,0,0,0,0,0,0,0,0,0,0,0,0,0,0,0,0,0,0,0,0,0,0,0,0,0,0,0,0,0,0,0,0,0,0,0,0,0,0,0,0],"id":21,"left_children":[1,3,5,7,9,11,13,15,17,19,21,-1,23,25,27,29,31,-1,-1,33,35,37,39,-1,-1,41,43,-1,-1,45,-1,47,49,51,53,55,57,59,61,63,65,-1,-1,67,-1,-1,-1,-1,-1,-1,-1,-1,-1,-1,-1,-1,-1,-1,-1,-1,-1,-1,-1,-1,-1,-1,-1,-1,-1],"loss_changes":[3.3966594E0,4.2011333E0,5.678631E0,6.2311373E0,6.5303707E0,3.2452946E0,8.675593E0,5.783245E0,2.6634216E-1,4.468151E0,7.5730085E0,0E0,1.955205E0,4.8721585E0,4.214878E0,3.6342058E0,5.1764784E0,0E0,0E0,6.0440655E0,4.3665295E0,6.6687727E0,5.2258577E0,0E0,0E0,8.4326756E-1,3.242756E0,0E0,0E0,1.5302925E0,0E0,4.0683503E0,4.738758E0,1.8585908E0,5.300968E0,2.2347546E0,3.3146796E0,6.015071E0,4.3395205E0,4.6431007E0,6.136862E0,0E0,0E0,1.0497475E-1,0E0,0E0,0E0,0E0,0E0,0E0,0E0,0E0,0E0,0E0,0E0,0E0,0E0,0E0,0E0,0E0,0E0,0E0,0E0,0E0,0E0,0E0,0E0,0E0,0E0],"parents":[2147483647,0,0,1,1,2,2,3,3,4,4,5,5,6,6,7,7,8,8,9,9,10,10,12,12,13,13,14,14,15,15,16,16,19,19,20,20,21,21,22,22,25,25,26,26,29,29,31,31,32,32,33,33,34,34,35,35,36,36,37,37,38,38,39,39,40,40,43,43],"right_children":[2,4,6,8,10,12,14,16,18,20,22,-1,24,26,28,30,32,-1,-1,34,36,38,40,-1,-1,42,44,-1,-1,46,-1,48,50,52,54,56,58,60,62,64,66,-1,-1,68,-1,-1,-1,-1,-1,-1,-1,-1,-1,-1,-1,-1,-1,-1,-1,-1,-1,-1,-1,-1,-1,-1,-1,-1,-1],"split_conditions":[8.333333E-1,2E-2,2E-2,4E-1,7E-1,2E-2,6E-2,2E-2,1.8E-1,4E-2,1E-1,-3.0222801E-2,4E-1,6E-2,6.25E-1,2E-1,4.3E-1,-8.916252E-2,-1.4160469E-2,2E-1,8.333333E-1,2E-1,1.6E-1,1.5277842E-1,4.7985273E-3,4E-2,1E-1,-1.00218706E-1,7.125754E-2,6E-1,6.333665E-2,8E-2,8.333333E-1,1.4E-1,3.56E0,1.6666667E-1,2E-1,3.65E-1,3.3333334E-1,4E-1,2E-1,-7.038329E-2,2.22361E-2,1.3333334E-1,-8.768712E-3,-9.6395046E-2,2.0365918E-2,-7.859957E-2,5.8685727E-2,8.6569384E-2,-4.373923E-2,-9.40436E-2,2.9995834E-2,1.1304834E-1,-4.4626072E-2,2.24857E-2,-8.774018E-2,-6.1044015E-2,1.0939789E-1,-8.263363E-2,5.715979E-2,-1.3976137E-2,1.2665386E-1,-7.798372E-2,9.472987E-3,-5.0983604E-2,8.474259E-2,4.865281E-2,1.7198725E-1],"split_indices":[101,17,24,452,100,858,967,381,1698,1193,477,0,783,954,456,2,1765,0,0,163,459,990,3,0,0,6,22,0,0,321,0,959,1172,1196,1783,1057,1105,337,1132,72,34,0,0,1582,0,0,0,0,0,0,0,0,0,0,0,0,0,0,0,0,0,0,0,0,0,0,0,0,0],"split_type":[0,0,0,0,0,0,0,0,0,0,0,0,0,0,0,0,0,0,0,0,0,0,0,0,0,0,0,0,0,0,0,0,0,0,0,0,0,0,0,0,0,0,0,0,0,0,0,0,0,0,0,0,0,0,0,0,0,0,0,0,0,0,0,0,0,0,0,0,0],"sum_hessian":[2.3987152E2,2.1717166E2,2.2699865E1,4.536113E1,1.7181053E2,7.1884785E0,1.5511387E1,4.087919E1,4.4819403E0,4.0810246E1,1.3100029E2,1.142775E0,6.0457034E0,7.9758844E0,7.535503E0,7.4791102E0,3.3400078E1,3.4723182E0,1.009622E0,1.3009763E1,2.7800484E1,8.920691E1,4.1793377E1,4.9160643E0,1.129639E0,2.4820893E0,5.493795E0,6.5208473E0,1.0146556E0,5.7338123E0,1.7452979E0,6.8738003E0,2.6526278E1,5.486534E0,7.5232286E0,2.5017797E1,2.7826862E0,3.982792E1,4.9378986E1,3.0339424E1,1.1453952E1,1.4746411E0,1.0074482E0,4.0166197E0,1.477175E0,4.7201257E0,1.0136865E0,4.0200443E0,2.853756E0,2.3995754E1,2.5305235E0,4.4529266E0,1.0336074E0,4.855168E0,2.6680605E0,1.5977334E0,2.3420065E1,1.1717192E0,1.610967E0,2.475518E0,3.73524E1,4.8078712E1,1.3002751E0,2.2414907E1,7.9245176E0,5.395547E0,6.058405E0,1.1179037E0,2.8987162E0],"tree_param":{"num_deleted":"0","num_feature":"1785","num_nodes":"69","size_leaf_vector":"1"}},{"base_weights":[3.3379397E-3,-1.5555154E-1,8.997418E-2,2.4640595E-3,-5.091563E-1,-6.747506E-3,3.869392E-1,-2.2981887E-1,2.9885486E-1,-6.3680124E-1,8.670642E-2,-1.7885901E-1,2.1555908E-1,5.902757E-1,-3.9582628E-1,1.8244272E-1,-5.1073784E-1,-4.092634E-2,9.300842E-1,-7.480089E-1,7.626989E-2,7.094327E-1,-2.582804E-1,-1.702739E-1,4.8187283E-1,7.9574585E-1,-1.570407E-1,5.7852466E-2,-7.493992E-1,8.389196E-1,-3.0989444E-1,-8.556924E-1,4.4870056E-2,6.496337E-1,-4.7907242E-1,-2.1272917E-1,1.4483137E0,3.3948797E-1,-8.681028E-1,-5.8579426E-2,1.1115967E0,-4.7016668E-1,1.1940686E-1,-6.462641E-1,3.516941E-1,6.86008E-1,-2.5933474E-1,9.458964E-1,-5.4002423E-2,6.104784E-1,-7.486696E-1,-9.481975E-2,1.8146357E-2,1.2324392E-1,-3.135401E-2,5.119115E-2,-9.4303705E-2,-9.749549E-2,2.4481414E-2,5.470841E-2,-6.8321206E-2,-5.4850787E-2,1.262269E-1,4.6392806E-2,-8.485993E-2,-7.296428E-2,6.052797E-2,1.8115398E-1,1.3258148E-3,6.916961E-2,-1.7821066E-2,-9.861997E-2,6.248821E-2,1.8995227E-3,1.4202599E-1,-6.266164E-2,3.9433286E-2,5.0430406E-2,-5.7453312E-2,-8.914577E-2,5.1676787E-2,8.8729315E-2,-5.589638E-2,-5.973154E-2,8.410228E-2,-7.8568146E-2,8.920025E-2,-4.8962932E-2,1.0993655E-1,-2.5271824E-2,1.0846539E-1,-8.6948834E-2,-1.6172422E-2],"categories":[],"categories_nodes":[],"categories_segments":[],"categories_sizes":[],"default_left":[0,0,0,0,0,0,0,0,0,0,0,0,0,0,0,0,0,0,0,0,0,0,0,0,0,0,0,0,0,0,0,0,0,0,0,0,0,0,0,0,0,0,0,0,0,0,0,0,0,0,0,0,0,0,0,0,0,0,0,0,0,0,0,0,0,0,0,0,0,0,0,0,0,0,0,0,0,0,0,0,0,0,0,0,0,0,0,0,0,0,0,0,0],"id":22,"left_children":[1,3,5,7,9,11,13,15,17,19,-1,21,23,25,27,29,31,33,35,37,-1,39,41,43,45,47,49,-1,51,53,55,57,59,61,63,65,67,69,71,-1,73,75,77,79,81,83,85,87,-1,89,91,-1,-1,-1,-1,-1,-1,-1,-1,-1,-1,-1,-1,-1,-1,-1,-1,-1,-1,-1,-1,-1,-1,-1,-1,-1,-1,-1,-1,-1,-1,-1,-1,-1,-1,-1,-1,-1,-1,-1,-1,-1,-1],"loss_changes":[3.288122E0,4.711174E0,4.441884E0,4.1481524E0,5.126397E0,4.5368247E0,6.280075E0,4.0059175E0,5.7152023E0,4.3688765E0,0E0,4.896684E0,5.4000864E0,4.8169613E0,3.3383718E0,4.9234257E0,3.939928E0,5.807303E0,5.818555E0,3.313426E0,0E0,3.6463735E0,5.022646E0,5.661947E0,4.850494E0,5.3508415E0,3.8285277E0,0E0,1.3975806E0,3.3130922E0,5.1527967E0,1.8935966E0,3.5723732E0,6.179759E0,4.4669275E0,2.0377848E0,3.3795395E0,6.7347705E-1,4.335907E0,0E0,1.5691609E0,5.6516037E0,6.4600096E0,3.8237648E0,5.900573E0,5.373741E0,5.181719E0,5.3975773E0,0E0,1.8224324E0,1.8856311E-1,0E0,0E0,0E0,0E0,0E0,0E0,0E0,0E0,0E0,0E0,0E0,0E0,0E0,0E0,0E0,0E0,0E0,0E0,0E0,0E0,0E0,0E0,0E0,0E0,0E0,0E0,0E0,0E0,0E0,0E0,0E0,0E0,0E0,0E0,0E0,0E0,0E0,0E0,0E0,0E0,0E0,0E0],"parents":[2147483647,0,0,1,1,2,2,3,3,4,4,5,5,6,6,7,7,8,8,9,9,11,11,12,12,13,13,14,14,15,15,16,16,17,17,18,18,19,19,21,21,22,22,23,23,24,24,25,25,26,26,28,28,29,29,30,30,31,31,32,32,33,33,34,34,35,35,36,36,37,37,38,38,40,40,41,41,42,42,43,43,44,44,45,45,46,46,47,47,49,49,50,50],"right_children":[2,4,6,8,10,12,14,16,18,20,-1,22,24,26,28,30,32,34,36,38,-1,40,42,44,46,48,50,-1,52,54,56,58,60,62,64,66,68,70,72,-1,74,76,78,80,82,84,86,88,-1,90,92,-1,-1,-1,-1,-1,-1,-1,-1,-1,-1,-1,-1,-1,-1,-1,-1,-1,-1,-1,-1,-1,-1,-1,-1,-1,-1,-1,-1,-1,-1,-1,-1,-1,-1,-1,-1,-1,-1,-1,-1,-1,-1],"split_conditions":[4E-2,6.666667E-1,4E-1,5.3E-1,2.8E-1,5.3E-1,1.6E-1,7.5E-1,1.4E-1,3.4E-1,8.670642E-2,1E-1,6E-2,4E-1,2E-2,2E-1,5.55E-1,1.6666667E-1,1.6666667E-1,1.6666667E-1,7.626989E-2,2E-1,5.6E-1,1E-1,4E-1,1.6E-1,4E-2,5.7852466E-2,1.6E-1,2.3333333E-1,5E-1,6E-1,5.3E-1,4E-2,1.3333334E-1,1E-1,1E-1,1.6666667E-1,6E-1,-5.8579426E-2,7E-1,2.2E-1,1E-1,2.6666668E-1,8E-2,1.3333334E-1,2.6666668E-1,7.4E-1,-5.4002423E-2,6E-2,1.6E-1,-9.481975E-2,1.8146357E-2,1.2324392E-1,-3.135401E-2,5.119115E-2,-9.4303705E-2,-9.749549E-2,2.4481414E-2,5.470841E-2,-6.8321206E-2,-5.4850787E-2,1.262269E-1,4.6392806E-2,-8.485993E-2,-7.296428E-2,6.052797E-2,1.8115398E-1,1.3258148E-3,6.916961E-2,-1.7821066E-2,-9.861997E-2,6.248821E-2,1.8995227E-3,1.4202599E-1,-6.266164E-2,3.9433286E-2,5.0430406E-2,-5.7453312E-2,-8.914577E-2,5.1676787E-2,8.8729315E-2,-5.589638E-2,-5.973154E-2,8.410228E-2,-7.8568146E-2,8.920025E-2,-4.8962932E-2,1.0993655E-1,-2.5271824E-2,1.0846539E-1,-8.6948834E-2,-1.6172422E-2],"split_indices":[727,578,1259,1527,1450,1289,508,583,1220,1561,0,753,1575,1266,1681,871,1051,1015,1368,699,0,82,1646,627,311,1446,263,0,745,1368,816,195,932,1690,299,361,1679,1349,1048,0,933,954,622,404,1201,390,759,1180,0,1315,377,0,0,0,0,0,0,0,0,0,0,0,0,0,0,0,0,0,0,0,0,0,0,0,0,0,0,0,0,0,0,0,0,0,0,0,0,0,0,0,0,0,0],"split_type":[0,0,0,0,0,0,0,0,0,0,0,0,0,0,0,0,0,0,0,0,0,0,0,0,0,0,0,0,0,0,0,0,0,0,0,0,0,0,0,0,0,0,0,0,0,0,0,0,0,0,0,0,0,0,0,0,0,0,0,0,0,0,0,0,0,0,0,0,0,0,0,0,0,0,0,0,0,0,0,0,0,0,0,0,0,0,0,0,0,0,0,0,0],"sum_hessian":[2.3684865E2,8.329377E1,1.5355489E2,5.8254547E1,2.5039219E1,1.16566414E2,3.6988472E1,3.278522E1,2.5469328E1,2.340562E1,1.633598E0,6.581069E1,5.0755714E1,2.9556566E1,7.4319057E0,1.3428631E1,1.9356588E1,1.716489E1,8.304438E0,2.2113913E1,1.2917081E0,4.7501316E0,6.1060562E1,2.0874113E1,2.9881603E1,2.3131811E1,6.4247556E0,1.8094175E0,5.622488E0,5.453304E0,7.9753275E0,1.1608954E1,7.747633E0,6.475771E0,1.068912E1,2.7748256E0,5.5296116E0,2.0175302E0,2.0096382E1,1.017268E0,3.7328637E0,3.8959206E1,2.2101358E1,1.0793361E1,1.0080751E1,2.3487429E1,6.3941746E0,2.1056747E1,2.075064E0,2.7827888E0,3.6419668E0,4.6176944E0,1.0047934E0,4.013465E0,1.439839E0,3.553906E0,4.4214215E0,1.0576824E1,1.0321306E0,4.7321215E0,3.0155115E0,2.2263446E0,4.2494264E0,2.937475E0,7.751645E0,1.766543E0,1.0082825E0,4.203355E0,1.326257E0,1.0006534E0,1.0168768E0,1.8937822E1,1.1585605E0,1.0560858E0,2.6767778E0,3.3222122E1,5.7370844E0,1.4392025E1,7.7093334E0,9.10692E0,1.6864408E0,6.3636556E0,3.7170959E0,2.223816E0,2.1263613E1,4.6060567E0,1.7881181E0,1.8221586E0,1.9234589E1,1.1522503E0,1.6305383E0,2.6210604E0,1.0209066E0],"tree_param":{"num_deleted":"0","num_feature":"1785","num_nodes":"93","size_leaf_vector":"1"}},{"base_weights":[3.261124E-3,2.7361192E-2,-5.5052686E-1,9.646424E-2,-1.9260125E-1,4.0064895E-1,-8.7633866E-1,-3.0556935E-1,1.7372848E-1,-6.1635524E-1,3.6347327E-3,-2.8511925E-2,9.083597E-2,